{"num_of_examples": 1440, "train_loss": 0.19871073663234712, "_timestamp": 1716348596.879068, "_runtime": 456.0513689517975, "_step": 818, "num_of_test_examples": 0, "test_loss": 0.004164886772632599, "epoch": 38, "val-auc": 0.9124185136897001, "gradients/output.bias": {"_type": "histogram", "values": [1.0, 0.0, 0.0, 0.0, 0.0, 0.0, 0.0, 0.0, 0.0, 0.0, 0.0, 0.0, 0.0, 0.0, 0.0, 0.0, 0.0, 0.0, 0.0, 0.0, 0.0, 0.0, 0.0, 0.0, 0.0, 0.0, 0.0, 0.0, 0.0, 0.0, 0.0, 0.0, 0.0, 0.0, 0.0, 0.0, 0.0, 0.0, 0.0, 0.0, 0.0, 0.0, 0.0, 0.0, 0.0, 0.0, 0.0, 0.0, 0.0, 0.0, 0.0, 0.0, 0.0, 0.0, 0.0, 0.0, 0.0, 0.0, 0.0, 0.0, 0.0, 0.0, 0.0, 1.0], "bins": [-0.0007178193773142993, -0.00069538748357445, -0.0006729556480422616, -0.0006505237543024123, -0.0006280918605625629, -0.0006056600250303745, -0.0005832281312905252, -0.0005607962375506759, -0.0005383644020184875, -0.0005159325082786381, -0.0004935006145387888, -0.0004710687790066004, -0.00044863688526675105, -0.0004262050206307322, -0.0004037731559947133, -0.000381341262254864, -0.0003589093976188451, -0.00033647753298282623, -0.0003140456392429769, -0.00029161377460695803, -0.00026918190997093916, -0.00024675001623108983, -0.00022431815159507096, -0.00020188628695905209, -0.00017945440777111799, -0.00015702252858318388, -0.000134590663947165, -0.00011215878475923091, -8.972691284725443e-05, -6.729504093527794e-05, -4.4863165385322645e-05, -2.2431291654356755e-05, 5.820766091346741e-10, 2.2432455807575025e-05, 4.4864329538540915e-05, 6.729620508849621e-05, 8.97280770004727e-05, 0.00011215994891244918, 0.00013459182810038328, 0.00015702369273640215, 0.00017945557192433625, 0.00020188745111227036, 0.00022431931574828923, 0.0002467511803843081, 0.00026918307412415743, 0.0002916149387601763, 0.0003140468033961952, 0.0003364786971360445, 0.0003589105617720634, 0.00038134242640808225, 0.0004037743201479316, 0.00042620618478395045, 0.0004486380494199693, 0.00047106994315981865, 0.0004935017786920071, 0.0005159336724318564, 0.0005383655661717057, 0.0005607974017038941, 0.0005832292954437435, 0.0006056611891835928, 0.0006280930247157812, 0.0006505249184556305, 0.0006729568121954799, 0.0006953886477276683, 0.0007178205414675176]}, "gradients/output.weight": {"_type": "histogram", "values": [1.0, 0.0, 0.0, 1.0, 0.0, 1.0, 1.0, 0.0, 1.0, 2.0, 0.0, 3.0, 3.0, 9.0, 7.0, 7.0, 8.0, 7.0, 8.0, 11.0, 6.0, 10.0, 3.0, 8.0, 2.0, 2.0, 2.0, 1.0, 3.0, 9.0, 22.0, 195.0, 41.0, 22.0, 9.0, 3.0, 1.0, 2.0, 2.0, 2.0, 8.0, 3.0, 10.0, 6.0, 11.0, 8.0, 7.0, 8.0, 7.0, 7.0, 9.0, 3.0, 3.0, 0.0, 2.0, 1.0, 0.0, 1.0, 1.0, 0.0, 1.0, 0.0, 0.0, 1.0], "bins": [-0.0017677819123491645, -0.0017125385347753763, -0.00165729527361691, -0.0016020518960431218, -0.0015468085184693336, -0.0014915651408955455, -0.0014363217633217573, -0.001381078502163291, -0.0013258351245895028, -0.0012705917470157146, -0.0012153484858572483, -0.0011601051082834601, -0.001104861730709672, -0.0010496183531358838, -0.0009943749755620956, -0.0009391317144036293, -0.0008838883368298411, -0.000828644959256053, -0.0007734016398899257, -0.0007181583205237985, -0.0006629149429500103, -0.0006076715653762221, -0.0005524282460100949, -0.0004971849266439676, -0.00044194154907017946, -0.00038669820060022175, -0.00033145485213026404, -0.00027621150366030633, -0.00022096815519034863, -0.00016572480672039092, -0.0001104814582504332, -5.52381097804755e-05, 5.238689482212067e-09, 5.524858715943992e-05, 0.00011049193562939763, 0.00016573528409935534, 0.00022097863256931305, 0.00027622198103927076, 0.00033146532950922847, 0.0003867086779791862, 0.0004419520264491439, 0.000497195404022932, 0.0005524387233890593, 0.0006076820427551866, 0.0006629254203289747, 0.0007181687979027629, 0.0007734121172688901, 0.0008286554366350174, 0.0008838988142088056, 0.0009391421917825937, 0.00099438545294106, 0.0010496288305148482, 0.0011048722080886364, 0.0011601155856624246, 0.0012153589632362127, 0.001270602224394679, 0.0013258456019684672, 0.0013810889795422554, 0.0014363322407007217, 0.00149157561827451, 0.001546818995848298, 0.0016020623734220862, 0.0016573057509958744, 0.0017125490121543407, 0.001767792389728129]}, "gradients/linearlayers.4.0.bias": {"_type": "histogram", "values": [2.0, 0.0, 0.0, 0.0, 2.0, 1.0, 3.0, 0.0, 1.0, 2.0, 2.0, 2.0, 1.0, 2.0, 4.0, 3.0, 8.0, 3.0, 4.0, 2.0, 6.0, 4.0, 2.0, 8.0, 2.0, 7.0, 4.0, 5.0, 3.0, 7.0, 2.0, 3.0, 1.0, 0.0, 1.0, 81.0, 0.0, 3.0, 2.0, 5.0, 6.0, 5.0, 7.0, 7.0, 5.0, 1.0, 3.0, 4.0, 5.0, 3.0, 2.0, 4.0, 0.0, 2.0, 1.0, 1.0, 2.0, 2.0, 1.0, 2.0, 1.0, 2.0, 1.0, 1.0], "bins": [-0.00011744589573936537, -0.00011409727449063212, -0.00011074866051785648, -0.00010740004654508084, -0.00010405142529634759, -0.00010070280404761434, -9.73541900748387e-05, -9.400557610206306e-05, -9.065695485332981e-05, -8.730833360459656e-05, -8.395971963182092e-05, -8.061110565904528e-05, -7.726248441031203e-05, -7.391386316157877e-05, -7.056524918880314e-05, -6.72166352160275e-05, -6.386801396729425e-05, -6.05193963565398e-05, -5.7170778745785356e-05, -5.382216113503091e-05, -5.0473543524276465e-05, -4.712492591352202e-05, -4.3776308302767575e-05, -4.042769069201313e-05, -3.7079073081258684e-05, -3.373045547050424e-05, -3.0381837859749794e-05, -2.703322024899535e-05, -2.3684602638240904e-05, -2.033598502748646e-05, -1.6987367416732013e-05, -1.3638749805977568e-05, -1.0290124919265509e-05, -6.9415073085110635e-06, -3.5928896977566183e-06, -2.4427208700217307e-07, 3.104345523752272e-06, 6.452963134506717e-06, 9.801580745261163e-06, 1.3150198356015608e-05, 1.6498815966770053e-05, 1.9847433577524498e-05, 2.3196051188278943e-05, 2.654466879903339e-05, 2.9893286409787834e-05, 3.324190402054228e-05, 3.6590521631296724e-05, 3.993913924205117e-05, 4.3287756852805614e-05, 4.663637446356006e-05, 4.9984992074314505e-05, 5.333360968506895e-05, 5.6682227295823395e-05, 6.003084490657784e-05, 6.337946251733229e-05, 6.672808376606554e-05, 7.007669773884118e-05, 7.342531171161681e-05, 7.677393296035007e-05, 8.012255420908332e-05, 8.347116818185896e-05, 8.68197821546346e-05, 9.016840340336785e-05, 9.35170246521011e-05, 9.686563862487674e-05]}, "gradients/linearlayers.4.0.weight": {"_type": "histogram", "values": [3.0, 1.0, 0.0, 0.0, 4.0, 5.0, 6.0, 6.0, 5.0, 12.0, 24.0, 23.0, 31.0, 36.0, 56.0, 61.0, 85.0, 92.0, 120.0, 160.0, 195.0, 239.0, 302.0, 371.0, 475.0, 548.0, 665.0, 870.0, 989.0, 1324.0, 1474.0, 1819.0, 2051.0, 2261.0, 38904.0, 2423.0, 2025.0, 1660.0, 1345.0, 1014.0, 837.0, 602.0, 480.0, 381.0, 318.0, 254.0, 214.0, 156.0, 125.0, 103.0, 92.0, 67.0, 63.0, 45.0, 32.0, 26.0, 18.0, 18.0, 6.0, 8.0, 2.0, 3.0, 1.0, 1.0], "bins": [-0.0002138415875378996, -0.00020770718401763588, -0.00020157278049737215, -0.00019543837697710842, -0.0001893039734568447, -0.00018316955538466573, -0.000177035151864402, -0.00017090074834413826, -0.00016476634482387453, -0.0001586319413036108, -0.00015249753778334707, -0.00014636313426308334, -0.00014022871619090438, -0.00013409431267064065, -0.00012795990915037692, -0.00012182550563011318, -0.00011569110210984945, -0.00010955669858958572, -0.00010342229506932199, -9.728788427310064e-05, -9.115348075283691e-05, -8.501907723257318e-05, -7.888466643635184e-05, -7.27502629160881e-05, -6.661585939582437e-05, -6.048145587556064e-05, -5.43470487173181e-05, -4.8212641559075564e-05, -4.207823803881183e-05, -3.59438345185481e-05, -2.9809427360305563e-05, -2.3675022021052428e-05, -1.7540616681799293e-05, -1.1406211342546158e-05, -5.2718060032930225e-06, 8.625993359601125e-07, 6.9970046752132475e-06, 1.3131410014466383e-05, 1.9265815353719518e-05, 2.5400220692972653e-05, 3.153462603222579e-05, 3.766902955248952e-05, 4.380343671073206e-05, 4.9937843868974596e-05, 5.607224738923833e-05, 6.220665090950206e-05, 6.83410617057234e-05, 7.447546522598714e-05, 8.060986874625087e-05, 8.67442722665146e-05, 9.287867578677833e-05, 9.901308658299968e-05, 0.00010514749010326341, 0.00011128189362352714, 0.00011741630441974849, 0.00012355070794001222, 0.00012968511146027595, 0.00013581951498053968, 0.0001419539185008034, 0.00014808832202106714, 0.0001542227400932461, 0.00016035714361350983, 0.00016649154713377357, 0.0001726259506540373, 0.00017876035417430103]}, "gradients/linearlayers.3.0.bias": {"_type": "histogram", "values": [2.0, 0.0, 1.0, 2.0, 1.0, 1.0, 2.0, 3.0, 2.0, 3.0, 4.0, 7.0, 4.0, 4.0, 3.0, 2.0, 6.0, 3.0, 4.0, 5.0, 6.0, 3.0, 6.0, 5.0, 1.0, 2.0, 1.0, 2.0, 2.0, 1.0, 4.0, 1.0, 2.0, 86.0, 4.0, 1.0, 2.0, 1.0, 2.0, 3.0, 1.0, 4.0, 3.0, 2.0, 2.0, 5.0, 2.0, 5.0, 4.0, 2.0, 9.0, 3.0, 2.0, 2.0, 1.0, 0.0, 2.0, 6.0, 1.0, 1.0, 3.0, 0.0, 1.0, 1.0], "bins": [-0.0001872531429398805, -0.000181595329195261, -0.0001759375154506415, -0.0001702796871541068, -0.0001646218734094873, -0.00015896405966486782, -0.0001533062313683331, -0.0001476484176237136, -0.00014199060387909412, -0.00013633279013447464, -0.00013067497638985515, -0.00012501714809332043, -0.00011935933434870094, -0.00011370152060408145, -0.00010804369958350435, -0.00010238587856292725, -9.672806481830776e-05, -9.107025107368827e-05, -8.541243005311117e-05, -7.975460903253406e-05, -7.409679528791457e-05, -6.843898154329509e-05, -6.278116052271798e-05, -5.712334314011969e-05, -5.146552575752139e-05, -4.5807708374923095e-05, -4.01498909923248e-05, -3.4492073609726503e-05, -2.8834256227128208e-05, -2.3176438844529912e-05, -1.7518621461931616e-05, -1.186080407933332e-05, -6.202972144819796e-06, -5.451547622215003e-07, 5.1126626203767955e-06, 1.0770480002975091e-05, 1.6428297385573387e-05, 2.2086114768171683e-05, 2.774393215076998e-05, 3.3401749533368275e-05, 3.905956691596657e-05, 4.4717384298564866e-05, 5.037520168116316e-05, 5.603301906376146e-05, 6.169083644635975e-05, 6.734865019097924e-05, 7.300647121155635e-05, 7.866429223213345e-05, 8.432210597675294e-05, 8.997991972137243e-05, 9.563774074194953e-05, 0.00010129556176252663, 0.00010695337550714612, 0.00011261118925176561, 0.00011826901027234271, 0.00012392683129291981, 0.0001295846450375393, 0.0001352424587821588, 0.0001409002870786935, 0.000146558100823313, 0.0001522159145679325, 0.00015787372831255198, 0.00016353154205717146, 0.00016918937035370618, 0.00017484718409832567]}, "gradients/linearlayers.3.0.weight": {"_type": "histogram", "values": [2.0, 0.0, 1.0, 2.0, 2.0, 5.0, 7.0, 8.0, 14.0, 18.0, 25.0, 29.0, 38.0, 54.0, 76.0, 80.0, 128.0, 129.0, 164.0, 204.0, 277.0, 327.0, 423.0, 521.0, 659.0, 863.0, 962.0, 1207.0, 1471.0, 1713.0, 1801.0, 1997.0, 3055.0, 39083.0, 1625.0, 1469.0, 1313.0, 1134.0, 944.0, 787.0, 621.0, 475.0, 402.0, 331.0, 233.0, 190.0, 148.0, 130.0, 91.0, 56.0, 54.0, 51.0, 40.0, 26.0, 27.0, 12.0, 12.0, 8.0, 4.0, 3.0, 2.0, 1.0, 1.0, 1.0], "bins": [-0.00036982473102398217, -0.00035862604272551835, -0.0003474273544270545, -0.00033622869523242116, -0.00032503000693395734, -0.0003138313186354935, -0.0003026326303370297, -0.0002914339420385659, -0.00028023525374010205, -0.0002690365945454687, -0.00025783790624700487, -0.00024663921794854105, -0.00023544052965007722, -0.00022424185590352863, -0.0002130431676050648, -0.00020184449385851622, -0.0001906458055600524, -0.00017944711726158857, -0.00016824844351503998, -0.00015704975521657616, -0.00014585108147002757, -0.00013465239317156374, -0.00012345370487309992, -0.00011225502385059372, -0.00010105634282808751, -8.98576618055813e-05, -7.86589807830751e-05, -6.746029248461127e-05, -5.6261611462105066e-05, -4.506293043959886e-05, -3.3864245779113844e-05, -2.2665562937618233e-05, -1.1466850992292166e-05, -2.68168150796555e-07, 1.0930514690699056e-05, 2.2129197532194667e-05, 3.332788037369028e-05, 4.4526561396196485e-05, 5.57252460566815e-05, 6.692393071716651e-05, 7.812261173967272e-05, 8.932129276217893e-05, 0.00010051997378468513, 0.00011171866208314896, 0.00012291735038161278, 0.00013411602412816137, 0.0001453147124266252, 0.00015651338617317379, 0.0001677120744716376, 0.00017891076277010143, 0.00019010943651665002, 0.00020130812481511384, 0.00021250679856166244, 0.00022370548686012626, 0.00023490417515859008, 0.0002461028634570539, 0.0002573015517555177, 0.0002685002109501511, 0.0002796988992486149, 0.00029089758754707873, 0.00030209627584554255, 0.00031329496414400637, 0.00032449362333863974, 0.00033569231163710356, 0.0003468909999355674]}, "gradients/linearlayers.2.0.bias": {"_type": "histogram", "values": [2.0, 0.0, 0.0, 0.0, 2.0, 1.0, 1.0, 0.0, 0.0, 3.0, 1.0, 4.0, 3.0, 4.0, 4.0, 3.0, 6.0, 5.0, 4.0, 7.0, 2.0, 4.0, 3.0, 7.0, 3.0, 2.0, 3.0, 2.0, 1.0, 3.0, 4.0, 3.0, 5.0, 89.0, 1.0, 3.0, 6.0, 5.0, 3.0, 2.0, 2.0, 4.0, 4.0, 3.0, 3.0, 2.0, 6.0, 4.0, 2.0, 2.0, 4.0, 2.0, 2.0, 3.0, 0.0, 3.0, 4.0, 1.0, 0.0, 0.0, 2.0, 1.0, 0.0, 1.0], "bins": [-0.00036307109985500574, -0.00035226112231612206, -0.00034145114477723837, -0.0003306411672383547, -0.000319831189699471, -0.0003090212121605873, -0.0002982112346217036, -0.00028740125708281994, -0.00027659127954393625, -0.000265781331108883, -0.00025497135356999934, -0.00024416137603111565, -0.00023335139849223197, -0.00022254142095334828, -0.0002117314434144646, -0.0002009214658755809, -0.00019011148833669722, -0.00017930151079781353, -0.00016849153325892985, -0.00015768155572004616, -0.00014687157818116248, -0.00013606161519419402, -0.00012525163765531033, -0.00011444166011642665, -0.00010363168257754296, -9.282170503865927e-05, -8.201172749977559e-05, -7.120175723684952e-05, -6.039177969796583e-05, -4.9581802159082144e-05, -3.8771828258177266e-05, -2.7961852538282983e-05, -1.71518768183887e-05, -6.341901098494418e-06, 4.4680746213998646e-06, 1.5278050341294147e-05, 2.608802606118843e-05, 3.6898003600072116e-05, 4.7707977500976995e-05, 5.8517951401881874e-05, 6.932792894076556e-05, 8.013790647964925e-05, 9.094788401853293e-05, 0.000101757854281459, 0.00011256783182034269, 0.00012337780208326876, 0.00013418777962215245, 0.00014499775716103613, 0.00015580773469991982, 0.0001666177122388035, 0.0001774276897776872, 0.00018823766731657088, 0.00019904764485545456, 0.00020985760784242302, 0.0002206675853813067, 0.0002314775629201904, 0.00024228754045907408, 0.00025309750344604254, 0.0002639074809849262, 0.0002747174585238099, 0.0002855274360626936, 0.0002963374136015773, 0.00030714739114046097, 0.00031795736867934465, 0.00032876734621822834]}, "gradients/linearlayers.2.0.weight": {"_type": "histogram", "values": [2.0, 0.0, 0.0, 0.0, 3.0, 2.0, 2.0, 1.0, 2.0, 7.0, 9.0, 7.0, 16.0, 18.0, 28.0, 35.0, 44.0, 59.0, 86.0, 104.0, 136.0, 212.0, 231.0, 336.0, 414.0, 506.0, 674.0, 840.0, 1129.0, 1408.0, 1707.0, 2028.0, 2818.0, 41947.0, 2861.0, 1908.0, 1386.0, 1098.0, 837.0, 617.0, 496.0, 351.0, 267.0, 223.0, 163.0, 137.0, 104.0, 74.0, 59.0, 37.0, 33.0, 17.0, 17.0, 16.0, 2.0, 6.0, 6.0, 3.0, 2.0, 1.0, 1.0, 1.0, 1.0, 1.0], "bins": [-0.0007873831782490015, -0.0007639133254997432, -0.0007404435309581459, -0.0007169736782088876, -0.0006935038254596293, -0.0006700340309180319, -0.0006465641781687737, -0.0006230943254195154, -0.0005996244726702571, -0.0005761546781286597, -0.0005526848253794014, -0.0005292149726301432, -0.0005057451780885458, -0.0004822753253392875, -0.0004588055016938597, -0.0004353356489446014, -0.0004118658252991736, -0.00038839600165374577, -0.0003649261489044875, -0.00034145632525905967, -0.0003179864725098014, -0.00029451664886437356, -0.00027104682521894574, -0.00024757697246968746, -0.00022410714882425964, -0.0002006373106269166, -0.00017716747242957354, -0.0001536976487841457, -0.00013022781058680266, -0.00010675797238945961, -8.328814146807417e-05, -5.981830690870993e-05, -3.6348472349345684e-05, -1.287863778998144e-05, 1.0591196769382805e-05, 3.406103132874705e-05, 5.753086588811129e-05, 8.100070408545434e-05, 0.00010447053500683978, 0.00012794036592822522, 0.00015141020412556827, 0.00017488004232291132, 0.00019834988052025437, 0.0002218197041656822, 0.00024528952781111, 0.0002687593805603683, 0.0002922292042057961, 0.0003156990569550544, 0.0003391688806004822, 0.00036263870424591005, 0.00038610855699516833, 0.00040957838064059615, 0.00043304823338985443, 0.00045651805703528225, 0.0004799878806807101, 0.0005034577334299684, 0.0005269275279715657, 0.000550397380720824, 0.0005738672334700823, 0.0005973370862193406, 0.0006208068807609379, 0.0006442767335101962, 0.0006677465862594545, 0.0006912163808010519, 0.0007146862335503101]}, "gradients/linearlayers.1.0.bias": {"_type": "histogram", "values": [1.0, 0.0, 0.0, 0.0, 0.0, 0.0, 0.0, 0.0, 0.0, 1.0, 0.0, 1.0, 3.0, 1.0, 1.0, 3.0, 6.0, 5.0, 5.0, 4.0, 3.0, 3.0, 4.0, 4.0, 7.0, 3.0, 6.0, 3.0, 5.0, 2.0, 7.0, 1.0, 4.0, 2.0, 87.0, 3.0, 4.0, 3.0, 1.0, 5.0, 5.0, 6.0, 3.0, 6.0, 5.0, 3.0, 8.0, 2.0, 6.0, 7.0, 2.0, 3.0, 3.0, 4.0, 0.0, 2.0, 1.0, 0.0, 1.0, 0.0, 0.0, 0.0, 0.0, 1.0], "bins": [-0.0006505450000986457, -0.0006315471837297082, -0.0006125493091531098, -0.0005935514345765114, -0.0005745536182075739, -0.0005555558018386364, -0.000536557927262038, -0.0005175600526854396, -0.0004985622363165021, -0.00047956439084373415, -0.0004605665453709662, -0.00044156869989819825, -0.0004225708544254303, -0.00040357300895266235, -0.0003845751634798944, -0.00036557731800712645, -0.0003465794725343585, -0.00032758162706159055, -0.0003085837815888226, -0.00028958593611605465, -0.0002705880906432867, -0.00025159024517051876, -0.0002325923996977508, -0.00021359455422498286, -0.0001945967087522149, -0.00017559886327944696, -0.000156601017806679, -0.00013760317233391106, -0.00011860532686114311, -9.960748138837516e-05, -8.060963591560721e-05, -6.161179044283926e-05, -4.2613944970071316e-05, -2.3616099497303367e-05, -4.6182540245354176e-06, 1.4379591448232532e-05, 3.337743692100048e-05, 5.237528239376843e-05, 7.137312786653638e-05, 9.037097333930433e-05, 0.00010936881881207228, 0.00012836666428484023, 0.00014736450975760818, 0.00016636235523037612, 0.00018536020070314407, 0.00020435804617591202, 0.00022335589164867997, 0.00024235373712144792, 0.00026135158259421587, 0.0002803494280669838, 0.00029934727353975177, 0.0003183451190125197, 0.00033734296448528767, 0.0003563408099580556, 0.00037533865543082356, 0.0003943365009035915, 0.00041333434637635946, 0.0004323321918491274, 0.00045133003732189536, 0.0004703278827946633, 0.0004893257282674313, 0.0005083235446363688, 0.0005273214192129672, 0.0005463192937895656, 0.0005653171101585031]}, "gradients/linearlayers.1.0.weight": {"_type": "histogram", "values": [2.0, 1.0, 0.0, 0.0, 2.0, 2.0, 0.0, 2.0, 4.0, 3.0, 1.0, 3.0, 9.0, 15.0, 11.0, 28.0, 33.0, 46.0, 61.0, 86.0, 102.0, 159.0, 177.0, 267.0, 387.0, 469.0, 605.0, 696.0, 892.0, 1076.0, 1405.0, 1801.0, 2302.0, 3411.0, 39297.0, 2745.0, 1985.0, 1698.0, 1274.0, 1048.0, 821.0, 667.0, 509.0, 392.0, 286.0, 212.0, 144.0, 117.0, 85.0, 52.0, 46.0, 29.0, 27.0, 13.0, 5.0, 9.0, 5.0, 4.0, 1.0, 3.0, 1.0, 0.0, 1.0, 2.0], "bins": [-0.0011467100121080875, -0.001113251899369061, -0.0010797936702147126, -0.001046335557475686, -0.0010128774447366595, -0.000979419331997633, -0.0009459611610509455, -0.0009125029901042581, -0.0008790448773652315, -0.000845586706418544, -0.0008121285354718566, -0.00077867042273283, -0.0007452122517861426, -0.000711754139047116, -0.0006782959681004286, -0.000644837855361402, -0.0006113796844147146, -0.0005779215134680271, -0.0005444634007290006, -0.0005110052297823131, -0.00047754711704328656, -0.0004440889460965991, -0.0004106308042537421, -0.0003771726624108851, -0.0003437145205680281, -0.0003102563787251711, -0.0002767982368823141, -0.00024334008048754185, -0.00020988193864468485, -0.00017642379680182785, -0.00014296564040705562, -0.00010950749856419861, -7.604935672134161e-05, -4.25912112405058e-05, -9.13306575966999e-06, 2.432507972116582e-05, 5.778322520200163e-05, 9.124136704485863e-05, 0.00012469952343963087, 0.00015815766528248787, 0.00019161580712534487, 0.00022507394896820188, 0.0002585320908110589, 0.0002919902326539159, 0.00032544840360060334, 0.00035890654544346035, 0.00039236468728631735, 0.00042582282912917435, 0.00045928097097203135, 0.0004927391419187188, 0.0005261972546577454, 0.0005596554256044328, 0.0005931135383434594, 0.0006265717092901468, 0.0006600298220291734, 0.0006934879929758608, 0.0007269461639225483, 0.0007604042766615748, 0.0007938624476082623, 0.0008273205603472888, 0.0008607787312939763, 0.0008942368440330029, 0.0009276950149796903, 0.0009611531277187169, 0.0009946112986654043]}, "gradients/linearlayers.0.0.bias": {"_type": "histogram", "values": [1.0, 0.0, 0.0, 1.0, 0.0, 1.0, 1.0, 0.0, 4.0, 3.0, 1.0, 2.0, 2.0, 1.0, 3.0, 7.0, 7.0, 4.0, 1.0, 7.0, 3.0, 9.0, 1.0, 5.0, 3.0, 2.0, 5.0, 3.0, 4.0, 2.0, 6.0, 78.0, 2.0, 6.0, 7.0, 8.0, 3.0, 3.0, 3.0, 9.0, 6.0, 2.0, 1.0, 2.0, 4.0, 6.0, 4.0, 3.0, 3.0, 3.0, 3.0, 2.0, 0.0, 3.0, 2.0, 0.0, 2.0, 0.0, 0.0, 0.0, 0.0, 0.0, 1.0, 1.0], "bins": [-0.0007863842183724046, -0.0007611659239046276, -0.0007359476876445115, -0.0007107293931767344, -0.0006855111569166183, -0.0006602928624488413, -0.0006350745679810643, -0.0006098563317209482, -0.0005846380372531712, -0.0005594198009930551, -0.0005342015065252781, -0.0005089832120575011, -0.000483764975797385, -0.0004585467104334384, -0.0004333284159656614, -0.00040811015060171485, -0.0003828918852377683, -0.00035767361987382174, -0.0003324553545098752, -0.00030723706004209816, -0.0002820187946781516, -0.00025680052931420505, -0.0002315822639502585, -0.0002063639840343967, -0.00018114571867045015, -0.0001559274533065036, -0.0001307091733906418, -0.00010549090802669525, -8.027263538679108e-05, -5.505436274688691e-05, -2.9836093744961545e-05, -4.617822924046777e-06, 2.060044789686799e-05, 4.581872053677216e-05, 7.103699317667633e-05, 9.625525854062289e-05, 0.00012147353118052706, 0.00014669180382043123, 0.0001719100691843778, 0.00019712834910023957, 0.00022234661446418613, 0.0002475648943800479, 0.0002727831597439945, 0.00029800142510794103, 0.0003232196904718876, 0.00034843795583583415, 0.00037365625030361116, 0.0003988745156675577, 0.0004240927810315043, 0.00044931104639545083, 0.0004745293117593974, 0.0004997475771233439, 0.000524965871591121, 0.0005501841078512371, 0.0005754024023190141, 0.0006006206967867911, 0.0006258389330469072, 0.0006510572275146842, 0.0006762754637748003, 0.0007014937582425773, 0.0007267120527103543, 0.0007519302889704704, 0.0007771485834382474, 0.0008023668196983635, 0.0008275851141661406]}, "gradients/linearlayers.0.0.weight": {"_type": "histogram", "values": [2.0, 1.0, 1.0, 1.0, 3.0, 3.0, 3.0, 6.0, 9.0, 18.0, 16.0, 15.0, 26.0, 23.0, 42.0, 65.0, 79.0, 86.0, 97.0, 166.0, 215.0, 251.0, 297.0, 448.0, 540.0, 691.0, 934.0, 1222.0, 1765.0, 2411.0, 5250.0, 40599.0, 2995.0, 1926.0, 1343.0, 953.0, 669.0, 519.0, 406.0, 312.0, 249.0, 193.0, 140.0, 116.0, 96.0, 72.0, 59.0, 51.0, 40.0, 24.0, 18.0, 10.0, 17.0, 13.0, 8.0, 6.0, 4.0, 1.0, 2.0, 1.0, 1.0, 3.0, 2.0, 2.0], "bins": [-0.0015897416742518544, -0.0015386876184493303, -0.0014876334462314844, -0.0014365793904289603, -0.0013855252182111144, -0.0013344711624085903, -0.0012834169901907444, -0.0012323629343882203, -0.0011813088785856962, -0.0011302547063678503, -0.0010792006505653262, -0.0010281464783474803, -0.0009770924225449562, -0.0009260383085347712, -0.0008749841945245862, -0.0008239300805144012, -0.0007728759665042162, -0.0007218218524940312, -0.0006707677384838462, -0.0006197136244736612, -0.0005686595104634762, -0.0005176054546609521, -0.0004665513406507671, -0.0004154972266405821, -0.0003644431126303971, -0.0003133889986202121, -0.0002623348846100271, -0.00021128079970367253, -0.00016022668569348752, -0.00010917257895926014, -5.811847222503275e-05, -7.064365490805358e-06, 4.398985765874386e-05, 9.504396439297125e-05, 0.00014609807112719864, 0.0001971521705854684, 0.0002482062845956534, 0.0002992603986058384, 0.00035031448351219296, 0.00040136859752237797, 0.00045242271153256297, 0.000503476825542748, 0.000554530939552933, 0.000605585053563118, 0.0006566391093656421, 0.0007076932233758271, 0.0007587473373860121, 0.0008098014513961971, 0.0008608555654063821, 0.0009119096794165671, 0.0009629637934267521, 0.0010140178492292762, 0.001065072021447122, 0.0011161260772496462, 0.001167180249467492, 0.0012182343052700162, 0.0012692883610725403, 0.0013203425332903862, 0.0013713965890929103, 0.0014224507613107562, 0.0014735048171132803, 0.0015245589893311262, 0.0015756130451336503, 0.0016266672173514962, 0.0016777212731540203]}, "gradients/embeds.2.bias": {"_type": "histogram", "values": [1.0, 1.0, 0.0, 0.0, 2.0, 1.0, 1.0, 1.0, 2.0, 2.0, 4.0, 3.0, 3.0, 1.0, 3.0, 0.0, 5.0, 1.0, 3.0, 5.0, 4.0, 4.0, 5.0, 3.0, 3.0, 2.0, 6.0, 4.0, 4.0, 5.0, 7.0, 68.0, 5.0, 5.0, 4.0, 7.0, 4.0, 3.0, 3.0, 4.0, 3.0, 3.0, 2.0, 6.0, 6.0, 4.0, 6.0, 7.0, 7.0, 4.0, 3.0, 1.0, 3.0, 2.0, 1.0, 1.0, 2.0, 3.0, 0.0, 2.0, 0.0, 0.0, 0.0, 1.0], "bins": [-0.0009516968275420368, -0.0009213818120770156, -0.0008910667384043336, -0.0008607517229393125, -0.0008304367074742913, -0.0008001216338016093, -0.0007698066183365881, -0.000739491602871567, -0.000709176529198885, -0.0006788615137338638, -0.0006485464982688427, -0.0006182314828038216, -0.0005879164091311395, -0.0005576013936661184, -0.0005272863782010972, -0.0004969713045284152, -0.00046665628906339407, -0.0004363412444945425, -0.00040602622902952135, -0.00037571118446066976, -0.0003453961689956486, -0.00031508112442679703, -0.00028476607985794544, -0.0002544510643929243, -0.00022413601982407272, -0.00019382098980713636, -0.0001635059597902, -0.0001331909152213484, -0.00010287588520441204, -7.256085518747568e-05, -4.2245817894581705e-05, -1.1930784239666536e-05, 1.838419120758772e-05, 4.869922486250289e-05, 7.901425851741806e-05, 0.00010932929581031203, 0.0001396443258272484, 0.00016995935584418476, 0.00020027440041303635, 0.0002305894304299727, 0.00026090446044690907, 0.00029121950501576066, 0.0003215345204807818, 0.0003518495650496334, 0.000382164609618485, 0.0004124796250835061, 0.0004427946696523577, 0.00047310968511737883, 0.0005034247296862304, 0.0005337397451512516, 0.0005640548188239336, 0.0005943698342889547, 0.0006246848497539759, 0.0006549999234266579, 0.000685314938891679, 0.0007156299543567002, 0.0007459450280293822, 0.0007762600434944034, 0.0008065750589594245, 0.0008368900744244456, 0.0008672051480971277, 0.0008975201635621488, 0.0009278351790271699, 0.000958150252699852, 0.0009884652681648731]}, "gradients/embeds.2.weight": {"_type": "histogram", "values": [1.0, 1.0, 0.0, 0.0, 1.0, 3.0, 3.0, 3.0, 2.0, 5.0, 10.0, 19.0, 12.0, 22.0, 45.0, 46.0, 80.0, 102.0, 140.0, 212.0, 272.0, 343.0, 458.0, 573.0, 803.0, 969.0, 1407.0, 1933.0, 2511.0, 3892.0, 6938.0, 79124.0, 10661.0, 5658.0, 3687.0, 2765.0, 2017.0, 1586.0, 1248.0, 932.0, 729.0, 541.0, 354.0, 297.0, 190.0, 152.0, 97.0, 66.0, 56.0, 33.0, 20.0, 14.0, 10.0, 12.0, 3.0, 3.0, 3.0, 4.0, 1.0, 2.0, 0.0, 0.0, 0.0, 1.0], "bins": [-0.0019132811576128006, -0.001852898276410997, -0.0017925153952091932, -0.0017321326304227114, -0.0016717497492209077, -0.001611366868019104, -0.0015509839868173003, -0.0014906011056154966, -0.0014302183408290148, -0.001369835459627211, -0.0013094525784254074, -0.0012490696972236037, -0.0011886868160218, -0.0011283039348199964, -0.0010679211700335145, -0.0010075382888317108, -0.0009471554076299071, -0.0008867725264281034, -0.0008263897034339607, -0.000766006822232157, -0.0007056239992380142, -0.0006452411180362105, -0.0005848582368344069, -0.0005244754138402641, -0.0004640925326384604, -0.00040370968054048717, -0.00034332682844251394, -0.00028294394724071026, -0.00022256109514273703, -0.0001621782430447638, -0.00010179537639487535, -4.1412517020944506e-05, 1.897022593766451e-05, 7.935308531159535e-05, 0.0001397359446855262, 0.00020011881133541465, 0.0002605016634333879, 0.0003208845155313611, 0.0003812673967331648, 0.000441650248831138, 0.0005020331009291112, 0.0005624159821309149, 0.0006227988051250577, 0.0006831816863268614, 0.0007435645675286651, 0.0008039473905228078, 0.0008643302717246115, 0.0009247130947187543, 0.000985095975920558, 0.0010454788571223617, 0.0011058617383241653, 0.0011662445031106472, 0.0012266273843124509, 0.0012870102655142546, 0.0013473931467160583, 0.001407776027917862, 0.0014681587927043438, 0.0015285416739061475, 0.0015889245551079512, 0.0016493074363097548, 0.0017096903175115585, 0.0017700731987133622, 0.001830455963499844, 0.0018908388447016478, 0.0019512217259034514]}, "gradients/embeds.0.bias": {"_type": "histogram", "values": [1.0, 0.0, 0.0, 0.0, 1.0, 1.0, 1.0, 1.0, 2.0, 3.0, 4.0, 2.0, 4.0, 3.0, 9.0, 1.0, 7.0, 10.0, 10.0, 3.0, 10.0, 8.0, 10.0, 5.0, 9.0, 8.0, 16.0, 15.0, 12.0, 13.0, 22.0, 124.0, 17.0, 12.0, 7.0, 17.0, 9.0, 14.0, 7.0, 11.0, 8.0, 6.0, 11.0, 10.0, 9.0, 3.0, 8.0, 11.0, 7.0, 6.0, 3.0, 6.0, 2.0, 1.0, 3.0, 0.0, 2.0, 1.0, 1.0, 2.0, 0.0, 2.0, 0.0, 1.0], "bins": [-0.0009072646498680115, -0.000878457969520241, -0.0008496512309648097, -0.0008208445506170392, -0.0007920378120616078, -0.0007632311317138374, -0.000734424393158406, -0.0007056177128106356, -0.0006768109742552042, -0.0006480042939074337, -0.0006191976135596633, -0.0005903908750042319, -0.0005615841946564615, -0.0005327774561010301, -0.0005039707757532597, -0.00047516406630165875, -0.00044635735685005784, -0.00041755064739845693, -0.000388743937946856, -0.0003599372284952551, -0.0003311305190436542, -0.00030232383869588375, -0.00027351712924428284, -0.00024471041979268193, -0.00021590371034108102, -0.00018709700088948011, -0.0001582902914378792, -0.00012948359653819352, -0.00010067688708659261, -7.18701776349917e-05, -4.306347545934841e-05, -1.4256769645726308e-05, 1.454987796023488e-05, 4.335658377385698e-05, 7.216328958747908e-05, 0.00010096999176312238, 0.0001297767012147233, 0.0001585834106663242, 0.00018739010556600988, 0.0002161968150176108, 0.0002450035244692117, 0.0002738102339208126, 0.0003026169433724135, 0.0003314236528240144, 0.0003602303331717849, 0.0003890370426233858, 0.0004178437520749867, 0.0004466504615265876, 0.0004754571709781885, 0.000504263851325959, 0.0005330705898813903, 0.0005618772702291608, 0.0005906840087845922, 0.0006194906891323626, 0.000648297427687794, 0.0006771041080355644, 0.0007059108465909958, 0.0007347175269387662, 0.0007635242072865367, 0.0007923309458419681, 0.0008211376261897385, 0.0008499443647451699, 0.0008787510450929403, 0.0009075577836483717, 0.0009363644639961421]}, "gradients/embeds.0.weight": {"_type": "histogram", "values": [1.0, 0.0, 0.0, 0.0, 1.0, 1.0, 2.0, 1.0, 2.0, 2.0, 4.0, 5.0, 4.0, 6.0, 10.0, 10.0, 8.0, 15.0, 19.0, 14.0, 24.0, 26.0, 28.0, 39.0, 57.0, 85.0, 142.0, 209.0, 389.0, 1830.0, 18243.0, 316883.0, 49596.0, 4060.0, 629.0, 259.0, 157.0, 114.0, 73.0, 44.0, 40.0, 22.0, 23.0, 22.0, 23.0, 13.0, 12.0, 16.0, 9.0, 9.0, 5.0, 8.0, 3.0, 3.0, 4.0, 2.0, 2.0, 2.0, 1.0, 2.0, 0.0, 2.0, 0.0, 1.0], "bins": [-0.010795339941978455, -0.010454743169248104, -0.010114145465195179, -0.009773548692464828, -0.009432951919734478, -0.009092354215681553, -0.008751757442951202, -0.008411160670220852, -0.008070562966167927, -0.007729966193437576, -0.0073893689550459385, -0.007048771716654301, -0.00670817494392395, -0.006367577705532312, -0.006026980467140675, -0.005686383694410324, -0.005345786456018686, -0.0050051892176270485, -0.004664592444896698, -0.00432399520650506, -0.003983397968113422, -0.0036428009625524282, -0.003302203956991434, -0.0029616067185997963, -0.002621009713038802, -0.002280412707477808, -0.0019398154690861702, -0.001599218463525176, -0.00125862134154886, -0.0009180242195725441, -0.000577427155803889, -0.00023683006293140352, 0.000103767029941082, 0.0004443641228135675, 0.000784961215686053, 0.001125558279454708, 0.001466155401431024, 0.00180675252340734, 0.002147349528968334, 0.002487946767359972, 0.002828543772920966, 0.0031691407784819603, 0.003509738016873598, 0.0038503350224345922, 0.004190932027995586, 0.004531529266387224, 0.004872126504778862, 0.0052127232775092125, 0.00555332051590085, 0.005893917754292488, 0.006234514527022839, 0.006575111765414476, 0.006915709003806114, 0.007256305776536465, 0.0075969030149281025, 0.00793750025331974, 0.00827809702605009, 0.008618694730103016, 0.008959291502833366, 0.009299888275563717, 0.009640485979616642, 0.009981082752346992, 0.010321679525077343, 0.010662277229130268, 0.011002874001860619]}, "_wandb": {"runtime": 455}}