{"num_of_examples": 400, "train_loss": 0.21732698678970336, "_timestamp": 1716350004.5206037, "_runtime": 173.54006266593933, "_step": 391, "num_of_test_examples": 0, "test_loss": 0.00419550746679306, "epoch": 48, "val-auc": 0.8229166666666667, "gradients/output.bias": {"_type": "histogram", "values": [1.0, 0.0, 0.0, 0.0, 0.0, 0.0, 0.0, 0.0, 0.0, 0.0, 0.0, 0.0, 0.0, 0.0, 0.0, 0.0, 0.0, 0.0, 0.0, 0.0, 0.0, 0.0, 0.0, 0.0, 0.0, 0.0, 0.0, 0.0, 0.0, 0.0, 0.0, 0.0, 0.0, 0.0, 0.0, 0.0, 0.0, 0.0, 0.0, 0.0, 0.0, 0.0, 0.0, 0.0, 0.0, 0.0, 0.0, 0.0, 0.0, 0.0, 0.0, 0.0, 0.0, 0.0, 0.0, 0.0, 0.0, 0.0, 0.0, 0.0, 0.0, 0.0, 0.0, 1.0], "bins": [-0.004035176243633032, -0.003909077029675245, -0.0037829778157174587, -0.003656878601759672, -0.0035307793878018856, -0.003404680173844099, -0.0032785809598863125, -0.003152481745928526, -0.0030263825319707394, -0.002900283318012953, -0.0027741841040551662, -0.0026480848900973797, -0.002521985676139593, -0.0023958864621818066, -0.00226978724822402, -0.0021436880342662334, -0.002017588820308447, -0.0018914896063506603, -0.0017653903923928738, -0.0016392911784350872, -0.0015131919644773006, -0.001387092750519514, -0.0012609935365617275, -0.001134894322603941, -0.0010087951086461544, -0.0008826958946883678, -0.0007565966807305813, -0.0006304974667727947, -0.0005043982528150082, -0.0003782990388572216, -0.00025219982489943504, -0.00012610061094164848, -9.313225746154785e-10, 0.00012609828263521194, 0.0002521974965929985, 0.00037829671055078506, 0.0005043959245085716, 0.0006304951384663582, 0.0007565943524241447, 0.0008826935663819313, 0.0010087927803397179, 0.0011348919942975044, 0.001260991208255291, 0.0013870904222130775, 0.001513189636170864, 0.0016392888501286507, 0.0017653880640864372, 0.0018914872780442238, 0.0020175864920020103, 0.002143685705959797, 0.0022697849199175835, 0.00239588413387537, 0.0025219833478331566, 0.002648082561790943, 0.0027741817757487297, 0.0029002809897065163, 0.003026380203664303, 0.0031524794176220894, 0.003278578631579876, 0.0034046778455376625, 0.003530777059495449, 0.0036568762734532356, 0.003782975487411022, 0.003909074701368809, 0.004035173915326595]}, "gradients/output.weight": {"_type": "histogram", "values": [2.0, 0.0, 0.0, 0.0, 1.0, 2.0, 6.0, 2.0, 1.0, 3.0, 6.0, 3.0, 3.0, 5.0, 4.0, 5.0, 4.0, 5.0, 5.0, 5.0, 7.0, 15.0, 5.0, 13.0, 13.0, 7.0, 13.0, 13.0, 8.0, 13.0, 7.0, 148.0, 12.0, 7.0, 13.0, 8.0, 13.0, 13.0, 7.0, 13.0, 13.0, 5.0, 15.0, 7.0, 5.0, 5.0, 5.0, 4.0, 5.0, 4.0, 5.0, 3.0, 3.0, 6.0, 3.0, 1.0, 2.0, 6.0, 2.0, 1.0, 0.0, 0.0, 0.0, 2.0], "bins": [-0.012353658676147461, -0.011967606842517853, -0.011581555008888245, -0.011195503175258636, -0.010809451341629028, -0.010423398576676846, -0.010037346743047237, -0.00965129490941763, -0.009265243075788021, -0.008879191242158413, -0.008493139408528805, -0.008107087574899197, -0.007721035275608301, -0.007334983441978693, -0.0069489311426877975, -0.006562879309058189, -0.006176827475428581, -0.005790775641798973, -0.005404723808169365, -0.0050186715088784695, -0.004632619675248861, -0.004246567841619253, -0.0038605157751590014, -0.0034744637086987495, -0.0030884118750691414, -0.0027023600414395332, -0.0023163079749792814, -0.0019302560249343514, -0.0015442040748894215, -0.0011581521248444915, -0.0007721001747995615, -0.0003860482247546315, 3.725290298461914e-09, 0.00038605567533522844, 0.0007721076253801584, 0.0011581595754250884, 0.0015442115254700184, 0.0019302634755149484, 0.0023163154255598783, 0.00270236749202013, 0.0030884193256497383, 0.0034744711592793465, 0.0038605232257395983, 0.00424657529219985, 0.004632627125829458, 0.005018678959459066, 0.005404731258749962, 0.00579078309237957, 0.006176834926009178, 0.006562886759638786, 0.0069489385932683945, 0.00733499089255929, 0.007721042726188898, 0.008107095025479794, 0.008493146859109402, 0.00887919869273901, 0.009265250526368618, 0.009651302359998226, 0.010037354193627834, 0.010423406027257442, 0.010809458792209625, 0.011195510625839233, 0.011581562459468842, 0.01196761429309845, 0.012353666126728058]}, "gradients/linearlayers.4.0.bias": {"_type": "histogram", "values": [1.0, 0.0, 0.0, 0.0, 0.0, 0.0, 0.0, 0.0, 0.0, 1.0, 2.0, 1.0, 0.0, 1.0, 0.0, 1.0, 1.0, 2.0, 2.0, 1.0, 2.0, 4.0, 1.0, 3.0, 2.0, 5.0, 3.0, 7.0, 3.0, 5.0, 7.0, 3.0, 6.0, 8.0, 7.0, 2.0, 3.0, 9.0, 4.0, 1.0, 4.0, 1.0, 75.0, 1.0, 0.0, 2.0, 5.0, 5.0, 5.0, 8.0, 7.0, 4.0, 3.0, 3.0, 3.0, 5.0, 2.0, 9.0, 4.0, 0.0, 3.0, 4.0, 2.0, 3.0], "bins": [-0.0009393124491907656, -0.0009174293372780085, -0.0008955462835729122, -0.000873663229867816, -0.0008517801179550588, -0.0008298970060423017, -0.0008080139523372054, -0.0007861308986321092, -0.000764247786719352, -0.0007423646748065948, -0.0007204816211014986, -0.0006985985673964024, -0.0006767154554836452, -0.000654832343570888, -0.0006329492898657918, -0.0006110662361606956, -0.0005891831242479384, -0.0005673000123351812, -0.000545416958630085, -0.0005235339049249887, -0.0005016507930122316, -0.0004797677102033049, -0.0004578846273943782, -0.0004360015445854515, -0.0004141184617765248, -0.0003922353789675981, -0.0003703522961586714, -0.0003484692133497447, -0.000326586130540818, -0.0003047030477318913, -0.0002828199649229646, -0.00026093688211403787, -0.00023905379930511117, -0.00021717071649618447, -0.00019528763368725777, -0.00017340455087833107, -0.00015152146806940436, -0.00012963838526047766, -0.00010775530245155096, -8.587221964262426e-05, -6.398913683369756e-05, -4.2106054024770856e-05, -2.0222971215844154e-05, 1.6601115930825472e-06, 2.354319440200925e-05, 4.542627721093595e-05, 6.730936001986265e-05, 8.919244282878935e-05, 0.00011107552563771605, 0.00013295860844664276, 0.00015484169125556946, 0.00017672477406449616, 0.00019860785687342286, 0.00022049093968234956, 0.00024237402249127626, 0.00026425710530020297, 0.00028614018810912967, 0.00030802327091805637, 0.00032990635372698307, 0.00035178943653590977, 0.0003736725193448365, 0.0003955556021537632, 0.0004174386849626899, 0.0004393217677716166, 0.0004612048505805433]}, "gradients/linearlayers.4.0.weight": {"_type": "histogram", "values": [2.0, 1.0, 5.0, 1.0, 4.0, 5.0, 5.0, 8.0, 15.0, 18.0, 24.0, 38.0, 45.0, 50.0, 73.0, 70.0, 102.0, 123.0, 139.0, 183.0, 213.0, 269.0, 343.0, 423.0, 518.0, 659.0, 794.0, 951.0, 1160.0, 1461.0, 1803.0, 2608.0, 3734.0, 39295.0, 2355.0, 1652.0, 1257.0, 1005.0, 818.0, 663.0, 564.0, 470.0, 335.0, 263.0, 240.0, 186.0, 124.0, 123.0, 97.0, 60.0, 52.0, 37.0, 26.0, 27.0, 14.0, 10.0, 4.0, 0.0, 2.0, 1.0, 4.0, 1.0, 1.0, 3.0], "bins": [-0.0016847123624756932, -0.001634325017221272, -0.001583937555551529, -0.0015335502102971077, -0.0014831627486273646, -0.0014327754033729434, -0.0013823879417032003, -0.001332000596448779, -0.0012816132511943579, -0.0012312257895246148, -0.0011808384442701936, -0.0011304509826004505, -0.0010800636373460293, -0.0010296761756762862, -0.000979288830421865, -0.0009289014269597828, -0.0008785140234977007, -0.0008281266200356185, -0.0007777392165735364, -0.0007273518131114542, -0.0006769644096493721, -0.0006265770643949509, -0.0005761896609328687, -0.0005258022574707866, -0.0004754148540087044, -0.0004250274505466223, -0.00037464004708454013, -0.00032425267272628844, -0.0002738652692642063, -0.00022347786580212414, -0.00017309047689195722, -0.0001227030879817903, -7.231568451970816e-05, -2.1928288333583623e-05, 2.845910785254091e-05, 7.884650403866544e-05, 0.00012923390022478998, 0.00017962130368687212, 0.00023000869259703904, 0.00028039608150720596, 0.0003307834849692881, 0.00038117088843137026, 0.0004315582918934524, 0.0004819456662517041, 0.0005323330406099558, 0.0005827204440720379, 0.0006331078475341201, 0.0006834952509962022, 0.0007338826544582844, 0.0007842700579203665, 0.0008346574613824487, 0.0008850448648445308, 0.000935432268306613, 0.0009858196135610342, 0.0010362070752307773, 0.0010865944204851985, 0.0011369818821549416, 0.0011873692274093628, 0.001237756572663784, 0.001288144034333527, 0.0013385313795879483, 0.0013889188412576914, 0.0014393061865121126, 0.0014896936481818557, 0.001540080993436277]}, "gradients/linearlayers.3.0.bias": {"_type": "histogram", "values": [1.0, 0.0, 0.0, 0.0, 0.0, 0.0, 0.0, 1.0, 1.0, 0.0, 0.0, 0.0, 1.0, 0.0, 0.0, 2.0, 1.0, 2.0, 2.0, 4.0, 4.0, 3.0, 1.0, 1.0, 4.0, 2.0, 2.0, 6.0, 6.0, 2.0, 5.0, 3.0, 4.0, 5.0, 5.0, 6.0, 1.0, 2.0, 4.0, 4.0, 89.0, 3.0, 3.0, 2.0, 5.0, 7.0, 7.0, 4.0, 6.0, 4.0, 3.0, 4.0, 3.0, 4.0, 5.0, 4.0, 3.0, 3.0, 3.0, 3.0, 3.0, 0.0, 1.0, 2.0], "bins": [-0.0016072539146989584, -0.001567835221067071, -0.0015284164110198617, -0.0014889977173879743, -0.0014495790237560868, -0.0014101603301241994, -0.0013707415200769901, -0.0013313228264451027, -0.0012919041328132153, -0.001252485322766006, -0.0012130666291341186, -0.0011736479355022311, -0.0011342292418703437, -0.0010948104318231344, -0.001055391738191247, -0.0010159730445593596, -0.0009765542927198112, -0.0009371355408802629, -0.0008977168472483754, -0.0008582980954088271, -0.0008188794017769396, -0.0007794606499373913, -0.0007400419563055038, -0.0007006232044659555, -0.0006612044526264071, -0.0006217857589945197, -0.0005823670071549714, -0.0005429483135230839, -0.0005035295616835356, -0.0004641108389478177, -0.0004246921162120998, -0.0003852733934763819, -0.0003458547289483249, -0.000306436006212607, -0.00026701728347688913, -0.000227598546189256, -0.00018817982345353812, -0.00014876110071782023, -0.00010934237070614472, -6.992364069446921e-05, -3.050491795875132e-05, 8.913808414945379e-06, 4.833253478864208e-05, 8.775126480031759e-05, 0.00012716998753603548, 0.00016658871027175337, 0.0002060074475593865, 0.0002454261702951044, 0.0002848448930308223, 0.00032426361576654017, 0.00036368233850225806, 0.00040310106123797596, 0.00044251978397369385, 0.0004819385358132422, 0.0005213572294451296, 0.000560775981284678, 0.0006001946749165654, 0.0006396134267561138, 0.0006790321785956621, 0.0007184508722275496, 0.0007578696240670979, 0.0007972883176989853, 0.0008367070695385337, 0.0008761257631704211, 0.0009155445150099695]}, "gradients/linearlayers.3.0.weight": {"_type": "histogram", "values": [1.0, 1.0, 1.0, 0.0, 0.0, 0.0, 1.0, 1.0, 1.0, 3.0, 6.0, 4.0, 3.0, 5.0, 13.0, 10.0, 18.0, 18.0, 23.0, 39.0, 50.0, 54.0, 77.0, 92.0, 151.0, 174.0, 231.0, 308.0, 404.0, 522.0, 632.0, 869.0, 1039.0, 1378.0, 1780.0, 2487.0, 5670.0, 39588.0, 2676.0, 1816.0, 1350.0, 1084.0, 813.0, 629.0, 441.0, 313.0, 232.0, 170.0, 110.0, 84.0, 42.0, 36.0, 36.0, 17.0, 7.0, 9.0, 3.0, 8.0, 2.0, 1.0, 0.0, 1.0, 1.0, 1.0], "bins": [-0.00391812901943922, -0.003812374547123909, -0.0037066200748085976, -0.003600865602493286, -0.0034951113630086184, -0.003389356890693307, -0.0032836024183779955, -0.003177847946062684, -0.0030720934737473726, -0.002966339001432061, -0.0028605847619473934, -0.002754830289632082, -0.0026490758173167706, -0.002543321345001459, -0.0024375668726861477, -0.0023318124003708363, -0.002226057928055525, -0.002120303688570857, -0.0020145492162555456, -0.0019087947439402342, -0.0018030402716249228, -0.0016972859157249331, -0.0015915314434096217, -0.0014857769710943103, -0.0013800226151943207, -0.0012742681428790092, -0.0011685136705636978, -0.0010627591982483864, -0.0009570048423483968, -0.0008512503700330853, -0.0007454959559254348, -0.0006397414836101234, -0.0005339870695024729, -0.0004282326262909919, -0.00032247818307951093, -0.0002167237689718604, -0.00011096932576037943, -5.214889824856073e-06, 0.00010053954611066729, 0.00020629397477023304, 0.000312048417981714, 0.000417802861193195, 0.000523557304404676, 0.0006293117185123265, 0.000735066132619977, 0.0008408206049352884, 0.000946575019042939, 0.0010523294331505895, 0.001158083905465901, 0.0012638383777812123, 0.001369592733681202, 0.0014753472059965134, 0.0015811016783118248, 0.0016868560342118144, 0.0017926105065271258, 0.0018983649788424373, 0.002004119334742427, 0.0021098738070577383, 0.0022156282793730497, 0.002321382751688361, 0.0024271372240036726, 0.0025328914634883404, 0.002638645935803652, 0.0027444004081189632, 0.0028501548804342747]}, "gradients/linearlayers.2.0.bias": {"_type": "histogram", "values": [1.0, 0.0, 0.0, 0.0, 0.0, 1.0, 0.0, 0.0, 0.0, 0.0, 0.0, 1.0, 1.0, 1.0, 1.0, 0.0, 4.0, 3.0, 2.0, 1.0, 5.0, 1.0, 3.0, 1.0, 6.0, 4.0, 7.0, 8.0, 8.0, 4.0, 4.0, 0.0, 2.0, 4.0, 5.0, 8.0, 3.0, 78.0, 6.0, 6.0, 7.0, 5.0, 4.0, 7.0, 3.0, 6.0, 2.0, 4.0, 4.0, 7.0, 5.0, 2.0, 6.0, 3.0, 3.0, 2.0, 0.0, 1.0, 3.0, 1.0, 0.0, 0.0, 0.0, 2.0], "bins": [-0.002481271978467703, -0.002415720373392105, -0.0023501687683165073, -0.002284616930410266, -0.002219065325334668, -0.0021535137202590704, -0.0020879621151834726, -0.002022410277277231, -0.0019568586722016335, -0.0018913070671260357, -0.001825755462050438, -0.0017602037405595183, -0.0016946521354839206, -0.001629100413993001, -0.0015635488089174032, -0.0014979970874264836, -0.0014324454823508859, -0.001366893877275288, -0.0013013421557843685, -0.0012357905507087708, -0.0011702388292178512, -0.0011046872241422534, -0.0010391355026513338, -0.000973583897575736, -0.0009080322342924774, -0.0008424805710092187, -0.00077692890772596, -0.0007113772444427013, -0.0006458256393671036, -0.0005802739760838449, -0.0005147223128005862, -0.00044917064951732755, -0.00038361886981874704, -0.00031806720653548837, -0.0002525155432522297, -0.00018696390907280147, -0.0001214122457895428, -5.586058978224173e-05, 9.69106622505933e-06, 7.524272223236039e-05, 0.00014079437823966146, 0.00020634604152292013, 0.0002718977048061788, 0.00033744933898560703, 0.0004030010022688657, 0.0004685526655521244, 0.0005341042997315526, 0.0005996559630148113, 0.00066520762629807, 0.0007307592895813286, 0.0007963109528645873, 0.000861862616147846, 0.0009274142794311047, 0.0009929658845067024, 0.001058517605997622, 0.0011240692110732198, 0.0011896209325641394, 0.0012551725376397371, 0.001320724142715335, 0.0013862758642062545, 0.0014518274692818522, 0.0015173791907727718, 0.0015829307958483696, 0.0016484825173392892, 0.001714034122414887]}, "gradients/linearlayers.2.0.weight": {"_type": "histogram", "values": [1.0, 0.0, 0.0, 0.0, 1.0, 2.0, 0.0, 2.0, 4.0, 4.0, 5.0, 11.0, 11.0, 15.0, 23.0, 23.0, 31.0, 46.0, 44.0, 54.0, 86.0, 106.0, 145.0, 197.0, 232.0, 313.0, 376.0, 548.0, 693.0, 814.0, 1111.0, 1457.0, 2118.0, 4029.0, 40976.0, 4335.0, 2191.0, 1346.0, 995.0, 754.0, 586.0, 441.0, 335.0, 265.0, 192.0, 153.0, 112.0, 92.0, 71.0, 56.0, 24.0, 31.0, 27.0, 13.0, 9.0, 5.0, 8.0, 6.0, 3.0, 2.0, 0.0, 4.0, 0.0, 2.0], "bins": [-0.005399330053478479, -0.00524317380040884, -0.005087017081677914, -0.0049308608286082745, -0.004774704575538635, -0.004618547856807709, -0.0044623916037380695, -0.004306234885007143, -0.004150078631937504, -0.003993922378867865, -0.003837765660136938, -0.003681609407067299, -0.003525452921167016, -0.003369296435266733, -0.003213140182197094, -0.003056983696296811, -0.0029008272103965282, -0.0027446707244962454, -0.0025885142385959625, -0.0024323579855263233, -0.0022762014996260405, -0.0021200450137257576, -0.0019638887606561184, -0.0018077322747558355, -0.0016515757888555527, -0.0014954193029552698, -0.0013392629334703088, -0.0011831065639853477, -0.0010269500780850649, -0.0008707936503924429, -0.000714637222699821, -0.000558480795007199, -0.0004023248329758644, -0.00024616840528324246, -9.001197759062052e-05, 6.614445010200143e-05, 0.00022230087779462337, 0.0003784573054872453, 0.0005346137331798673, 0.0006907701608724892, 0.0008469265885651112, 0.001003083074465394, 0.001159239443950355, 0.001315395813435316, 0.001471552299335599, 0.0016277087852358818, 0.0017838651547208428, 0.0019400215242058039, 0.0020961780101060867, 0.0022523344960063696, 0.0024084909819066525, 0.0025646472349762917, 0.0027208037208765745, 0.0028769602067768574, 0.0030331164598464966, 0.0031892729457467794, 0.0033454294316470623, 0.003501585917547345, 0.003657742403447628, 0.0038138986565172672, 0.003970054909586906, 0.004126211628317833, 0.004282367881387472, 0.004438524600118399, 0.004594680853188038]}, "gradients/linearlayers.1.0.bias": {"_type": "histogram", "values": [1.0, 0.0, 0.0, 0.0, 0.0, 0.0, 0.0, 0.0, 0.0, 0.0, 1.0, 0.0, 0.0, 2.0, 1.0, 2.0, 4.0, 2.0, 3.0, 1.0, 6.0, 4.0, 6.0, 8.0, 4.0, 4.0, 2.0, 8.0, 5.0, 3.0, 4.0, 3.0, 4.0, 6.0, 3.0, 6.0, 79.0, 7.0, 7.0, 4.0, 7.0, 8.0, 3.0, 2.0, 3.0, 5.0, 2.0, 4.0, 2.0, 5.0, 1.0, 3.0, 2.0, 4.0, 5.0, 1.0, 2.0, 2.0, 0.0, 1.0, 1.0, 1.0, 0.0, 2.0], "bins": [-0.00330490549094975, -0.003213905030861497, -0.0031229043379426003, -0.0030319038778543472, -0.002940903417766094, -0.0028499027248471975, -0.0027589022647589445, -0.002667901571840048, -0.002576901111751795, -0.002485900651663542, -0.002394899958744645, -0.002303899498656392, -0.0022128988057374954, -0.0021218983456492424, -0.0020308978855609894, -0.0019398973090574145, -0.0018488967325538397, -0.0017578961560502648, -0.00166689557954669, -0.001575895119458437, -0.0014848945429548621, -0.0013938939664512873, -0.0013028935063630342, -0.0012118929298594594, -0.0011208923533558846, -0.0010298917768523097, -0.0009388912585563958, -0.0008478907402604818, -0.000756890163756907, -0.0006658895872533321, -0.0005748890689574182, -0.0004838885215576738, -0.0003928882069885731, -0.0003018876595888287, -0.0002108871121890843, -0.0001198865647893399, -2.888601738959551e-05, 6.211453001014888e-05, 0.00015311507740989327, 0.00024411562480963767, 0.00033511617220938206, 0.00042611671960912645, 0.0005171172670088708, 0.0006081177853047848, 0.0006991183618083596, 0.0007901189383119345, 0.0008811194566078484, 0.0009721199749037623, 0.0010631205514073372, 0.001154121127910912, 0.0012451217044144869, 0.00133612216450274, 0.0014271227410063148, 0.0015181233175098896, 0.0016091237775981426, 0.0017001243541017175, 0.0017911249306052923, 0.0018821255071088672, 0.001973126083612442, 0.002064126543700695, 0.002155127003788948, 0.0022461276967078447, 0.0023371281567960978, 0.0024281288497149944, 0.0025191293098032475]}, "gradients/linearlayers.1.0.weight": {"_type": "histogram", "values": [1.0, 0.0, 0.0, 1.0, 0.0, 2.0, 1.0, 1.0, 3.0, 3.0, 4.0, 7.0, 12.0, 7.0, 15.0, 13.0, 32.0, 31.0, 46.0, 58.0, 71.0, 95.0, 121.0, 190.0, 254.0, 340.0, 471.0, 651.0, 875.0, 1326.0, 1856.0, 3018.0, 6409.0, 40059.0, 3382.0, 1888.0, 1167.0, 822.0, 577.0, 442.0, 288.0, 259.0, 164.0, 131.0, 113.0, 79.0, 50.0, 45.0, 36.0, 21.0, 17.0, 22.0, 15.0, 16.0, 4.0, 5.0, 7.0, 5.0, 1.0, 3.0, 2.0, 0.0, 0.0, 2.0], "bins": [-0.0081384452059865, -0.00789300724864006, -0.007647570222616196, -0.007402132265269756, -0.007156694773584604, -0.006911257281899452, -0.006665819324553013, -0.006420381832867861, -0.006174944341182709, -0.005929506849497557, -0.005684069357812405, -0.005438631400465965, -0.005193193908780813, -0.004947756417095661, -0.004702318459749222, -0.00445688096806407, -0.004211443476378918, -0.003966005984693766, -0.00372056826017797, -0.0034751305356621742, -0.003229693043977022, -0.00298425555229187, -0.0027388178277760744, -0.0024933801032602787, -0.0022479426115751266, -0.0020025051198899746, -0.0017570673953741789, -0.001511629787273705, -0.0012661921791732311, -0.0010207545710727572, -0.0007753169629722834, -0.0005298793548718095, -0.000284440815448761, -3.9003207348287106e-05, 0.00020643440075218678, 0.00045187200885266066, 0.0006973096169531345, 0.0009427472250536084, 0.0011881848331540823, 0.0014336224412545562, 0.00167906004935503, 0.001924497657455504, 0.002169935265555978, 0.0024153729900717735, 0.0026608104817569256, 0.0029062479734420776, 0.0031516856979578733, 0.003397123422473669, 0.003642560914158821, 0.003887998405843973, 0.004133435897529125, 0.004378873854875565, 0.004624311346560717, 0.004869748838245869, 0.005115186795592308, 0.00536062428727746, 0.005606061778962612, 0.005851499270647764, 0.006096936762332916, 0.006342374719679356, 0.006587812211364508, 0.00683324970304966, 0.007078687660396099, 0.007324125152081251, 0.007569562643766403]}, "gradients/linearlayers.0.0.bias": {"_type": "histogram", "values": [1.0, 1.0, 1.0, 0.0, 3.0, 1.0, 2.0, 4.0, 4.0, 3.0, 5.0, 0.0, 5.0, 3.0, 3.0, 7.0, 8.0, 7.0, 11.0, 4.0, 8.0, 8.0, 10.0, 57.0, 17.0, 15.0, 10.0, 7.0, 10.0, 4.0, 4.0, 3.0, 6.0, 2.0, 2.0, 2.0, 3.0, 6.0, 3.0, 1.0, 3.0, 0.0, 0.0, 0.0, 1.0, 0.0, 0.0, 0.0, 0.0, 0.0, 0.0, 0.0, 0.0, 0.0, 0.0, 0.0, 0.0, 0.0, 0.0, 0.0, 0.0, 0.0, 0.0, 1.0], "bins": [-0.0039631337858736515, -0.003794270334765315, -0.0036254068836569786, -0.0034565431997179985, -0.003287679748609662, -0.0031188162975013256, -0.0029499526135623455, -0.002781089162454009, -0.0026122257113456726, -0.002443362260237336, -0.0022744988091289997, -0.0021056351251900196, -0.0019367716740816832, -0.0017679082229733467, -0.0015990446554496884, -0.0014301810879260302, -0.0012613176368176937, -0.0010924541857093573, -0.000923590618185699, -0.0007547271088697016, -0.0005858635995537043, -0.0004170000902377069, -0.00024813658092170954, -7.927307160571218e-05, 8.959043771028519e-05, 0.00025845394702628255, 0.0004273174563422799, 0.0005961809656582773, 0.0007650444749742746, 0.000933907984290272, 0.0011027714936062694, 0.0012716350611299276, 0.0014404989778995514, 0.0016093624290078878, 0.0017782259965315461, 0.0019470895640552044, 0.002115953015163541, 0.0022848164662718773, 0.0024536801502108574, 0.002622543601319194, 0.0027914070524275303, 0.0029602705035358667, 0.003129133954644203, 0.0032979976385831833, 0.0034668610896915197, 0.003635724540799856, 0.0038045882247388363, 0.003973451443016529, 0.004142315126955509, 0.004311178810894489, 0.004480042029172182, 0.004648905713111162, 0.004817768931388855, 0.004986632615327835, 0.005155496299266815, 0.005324359517544508, 0.005493223201483488, 0.005662086885422468, 0.005830950103700161, 0.005999813787639141, 0.006168677471578121, 0.006337540689855814, 0.006506404373794794, 0.006675267592072487, 0.006844131276011467]}, "gradients/linearlayers.0.0.weight": {"_type": "histogram", "values": [3.0, 0.0, 0.0, 0.0, 0.0, 7.0, 7.0, 3.0, 7.0, 13.0, 18.0, 18.0, 47.0, 47.0, 68.0, 98.0, 112.0, 187.0, 227.0, 337.0, 485.0, 622.0, 991.0, 1525.0, 2282.0, 3788.0, 38218.0, 8318.0, 3053.0, 1632.0, 976.0, 654.0, 490.0, 368.0, 252.0, 192.0, 146.0, 102.0, 78.0, 39.0, 24.0, 23.0, 29.0, 6.0, 13.0, 3.0, 8.0, 2.0, 2.0, 2.0, 0.0, 3.0, 2.0, 2.0, 2.0, 1.0, 0.0, 1.0, 0.0, 1.0, 1.0, 0.0, 0.0, 1.0], "bins": [-0.010102975182235241, -0.009726868011057377, -0.009350759908556938, -0.008974652737379074, -0.00859854556620121, -0.008222438395023346, -0.007846331223845482, -0.007470223121345043, -0.007094115950167179, -0.006718008778989315, -0.006341901142150164, -0.005965793505311012, -0.005589686334133148, -0.005213579162955284, -0.004837471526116133, -0.004461363889276981, -0.004085256718099117, -0.0037091493140906096, -0.003333041910082102, -0.002956934506073594, -0.0025808271020650864, -0.0022047196980565786, -0.001828612294048071, -0.0014525048900395632, -0.0010763974860310555, -0.0007002900820225477, -0.00032418267801404, 5.1924725994467735e-05, 0.00042803213000297546, 0.0008041395340114832, 0.001180246938019991, 0.0015563543420284986, 0.0019324608147144318, 0.0023085682187229395, 0.0026846756227314472, 0.003060783026739955, 0.0034368904307484627, 0.0038129978347569704, 0.004189105238765478, 0.0045652128756046295, 0.004941320046782494, 0.005317427217960358, 0.005693534854799509, 0.00606964249163866, 0.0064457496628165245, 0.006821856833994389, 0.00719796447083354, 0.007574072107672691, 0.007950179278850555, 0.00832628645002842, 0.008702393621206284, 0.009078501723706722, 0.009454608894884586, 0.00983071606606245, 0.010206824168562889, 0.010582931339740753, 0.010959038510918617, 0.011335145682096481, 0.011711252853274345, 0.012087360955774784, 0.012463468126952648, 0.012839575298130512, 0.013215683400630951, 0.013591790571808815, 0.013967897742986679]}, "gradients/embeds.2.bias": {"_type": "histogram", "values": [1.0, 0.0, 0.0, 1.0, 0.0, 0.0, 1.0, 1.0, 1.0, 0.0, 1.0, 0.0, 2.0, 1.0, 0.0, 2.0, 3.0, 4.0, 2.0, 4.0, 8.0, 10.0, 5.0, 10.0, 4.0, 10.0, 12.0, 14.0, 67.0, 18.0, 11.0, 10.0, 6.0, 10.0, 6.0, 3.0, 4.0, 6.0, 2.0, 2.0, 3.0, 3.0, 2.0, 0.0, 2.0, 1.0, 0.0, 1.0, 0.0, 1.0, 0.0, 0.0, 0.0, 0.0, 0.0, 0.0, 0.0, 0.0, 0.0, 0.0, 0.0, 0.0, 0.0, 1.0], "bins": [-0.007754932623356581, -0.007483107969164848, -0.007211282849311829, -0.006939458195120096, -0.006667633540928364, -0.006395808421075344, -0.006123983766883612, -0.005852159112691879, -0.0055803339928388596, -0.005308509338647127, -0.005036684684455395, -0.004764860030263662, -0.004493034910410643, -0.00422121025621891, -0.003949385602027178, -0.0036775607150048018, -0.0034057358279824257, -0.0031339109409600496, -0.0028620862867683172, -0.002590261399745941, -0.0023184367455542088, -0.0020466118585318327, -0.0017747869715094566, -0.0015029622009024024, -0.0012311374302953482, -0.0009593126596882939, -0.0006874878308735788, -0.0004156630311626941, -0.0001438382314518094, 0.00012798656825907528, 0.00039981136796996, 0.0006716361967846751, 0.000943460501730442, 0.0012152852723374963, 0.0014871100429445505, 0.0017589349299669266, 0.002030759584158659, 0.002302584471181035, 0.002574409358203411, 0.0028462340123951435, 0.0031180588994175196, 0.0033898837864398956, 0.003661708440631628, 0.0039335330948233604, 0.00420535821467638, 0.0044771828688681126, 0.004749007523059845, 0.005020832642912865, 0.005292657297104597, 0.0055644819512963295, 0.005836307071149349, 0.006108131725341082, 0.006379956379532814, 0.006651781499385834, 0.006923606153577566, 0.0071954308077692986, 0.007467255927622318, 0.007739080581814051, 0.008010905236005783, 0.008282730355858803, 0.008554554544389248, 0.008826379664242268, 0.009098204784095287, 0.009370028972625732, 0.009641854092478752]}, "gradients/embeds.2.weight": {"_type": "histogram", "values": [1.0, 1.0, 1.0, 1.0, 1.0, 3.0, 2.0, 8.0, 10.0, 8.0, 12.0, 19.0, 28.0, 31.0, 67.0, 70.0, 75.0, 125.0, 154.0, 216.0, 273.0, 453.0, 636.0, 932.0, 1441.0, 2305.0, 4341.0, 8547.0, 79367.0, 16933.0, 6015.0, 3184.0, 1893.0, 1213.0, 811.0, 545.0, 381.0, 227.0, 209.0, 133.0, 118.0, 71.0, 52.0, 41.0, 26.0, 12.0, 17.0, 12.0, 13.0, 8.0, 6.0, 6.0, 3.0, 3.0, 3.0, 2.0, 2.0, 1.0, 0.0, 1.0, 0.0, 1.0, 1.0, 1.0], "bins": [-0.014256689697504044, -0.01376308873295784, -0.013269487768411636, -0.012775886803865433, -0.012282285839319229, -0.011788684874773026, -0.011295083910226822, -0.010801482945680618, -0.010307881981134415, -0.009814280085265636, -0.009320679120719433, -0.00882707815617323, -0.008333477191627026, -0.007839876227080822, -0.007346275262534618, -0.006852674297988415, -0.006359073333442211, -0.0058654723688960075, -0.005371871404349804, -0.0048782704398036, -0.004384669475257397, -0.0038910682778805494, -0.003397467080503702, -0.0029038661159574986, -0.002410265151411295, -0.0019166641868650913, -0.0014230631059035659, -0.0009294620831497014, -0.00043586106039583683, 5.7739962358027697e-05, 0.0005513409851118922, 0.0010449420660734177, 0.0015385430306196213, 0.002032143995165825, 0.0025257449597120285, 0.0030193461570888758, 0.0035129471216350794, 0.004006548319011927, 0.00450014928355813, 0.004993750248104334, 0.0054873512126505375, 0.005980952177196741, 0.006474553141742945, 0.006968154106289148, 0.007461755536496639, 0.007955356501042843, 0.008448957465589046, 0.00894255843013525, 0.009436159394681454, 0.009929760359227657, 0.010423361323773861, 0.010916962288320065, 0.011410563252866268, 0.011904164217412472, 0.012397765181958675, 0.012891366146504879, 0.013384968042373657, 0.01387856900691986, 0.014372169971466064, 0.014865770936012268, 0.015359371900558472, 0.015852972865104675, 0.01634657382965088, 0.016840174794197083, 0.017333775758743286]}, "gradients/embeds.0.bias": {"_type": "histogram", "values": [1.0, 0.0, 0.0, 1.0, 2.0, 0.0, 2.0, 3.0, 4.0, 1.0, 0.0, 4.0, 3.0, 8.0, 3.0, 6.0, 4.0, 4.0, 8.0, 12.0, 7.0, 13.0, 11.0, 17.0, 12.0, 16.0, 12.0, 22.0, 19.0, 12.0, 24.0, 87.0, 18.0, 22.0, 18.0, 15.0, 13.0, 9.0, 13.0, 10.0, 11.0, 7.0, 6.0, 4.0, 1.0, 3.0, 7.0, 6.0, 5.0, 5.0, 4.0, 2.0, 1.0, 1.0, 0.0, 2.0, 2.0, 0.0, 3.0, 1.0, 1.0, 1.0, 1.0, 2.0], "bins": [-0.004773917142301798, -0.004620171617716551, -0.004466426093131304, -0.004312680568546057, -0.004158934578299522, -0.004005189053714275, -0.0038514435291290283, -0.0036976980045437813, -0.0035439524799585342, -0.003390206955373287, -0.00323646143078804, -0.0030827156733721495, -0.0029289701487869024, -0.0027752246242016554, -0.0026214788667857647, -0.0024677333422005177, -0.0023139878176152706, -0.0021602422930300236, -0.0020064967684447765, -0.0018527510110288858, -0.0016990054864436388, -0.0015452599618583918, -0.001391514320857823, -0.001237768679857254, -0.001084023155272007, -0.000930277572479099, -0.0007765319896861911, -0.0006227864068932831, -0.0004690408241003752, -0.0003152952413074672, -0.00016154965851455927, -7.804075721651316e-06, 0.00014594197273254395, 0.0002996875555254519, 0.00045343313831835985, 0.0006071787211112678, 0.0007609243039041758, 0.0009146698866970837, 0.0010684154694899917, 0.0012221611104905605, 0.0013759066350758076, 0.0015296521596610546, 0.0016833978006616235, 0.0018371434416621923, 0.0019908889662474394, 0.0021446344908326864, 0.002298380248248577, 0.002452125772833824, 0.002605871297419071, 0.0027596168220043182, 0.0029133623465895653, 0.003067108104005456, 0.003220853628590703, 0.00337459915317595, 0.0035283449105918407, 0.003682090435177088, 0.003835835959762335, 0.003989581484347582, 0.004143327008932829, 0.004297072533518076, 0.00445081852376461, 0.004604564048349857, 0.004758309572935104, 0.004912055097520351, 0.0050658006221055984]}, "gradients/embeds.0.weight": {"_type": "histogram", "values": [1.0, 0.0, 0.0, 0.0, 1.0, 1.0, 1.0, 3.0, 3.0, 2.0, 3.0, 2.0, 2.0, 7.0, 4.0, 8.0, 8.0, 5.0, 11.0, 7.0, 15.0, 28.0, 16.0, 29.0, 46.0, 59.0, 84.0, 161.0, 391.0, 2429.0, 26246.0, 317736.0, 41378.0, 3544.0, 493.0, 149.0, 94.0, 65.0, 35.0, 21.0, 22.0, 14.0, 16.0, 10.0, 5.0, 4.0, 8.0, 11.0, 0.0, 7.0, 2.0, 8.0, 4.0, 4.0, 2.0, 2.0, 0.0, 1.0, 1.0, 1.0, 2.0, 1.0, 2.0, 1.0], "bins": [-0.07443858683109283, -0.07208173722028732, -0.06972488760948181, -0.0673680305480957, -0.06501118093729019, -0.06265433132648468, -0.06029747799038887, -0.05794062465429306, -0.05558377504348755, -0.05322692543268204, -0.05087007209658623, -0.04851321876049042, -0.046156369149684906, -0.043799519538879395, -0.041442666202783585, -0.039085812866687775, -0.03672896325588226, -0.03437211364507675, -0.03201526030898094, -0.02965840883553028, -0.02730155736207962, -0.02494470588862896, -0.0225878544151783, -0.020231002941727638, -0.017874151468276978, -0.015517299994826317, -0.013160448521375656, -0.010803597047924995, -0.008446745574474335, -0.006089894101023674, -0.0037330426275730133, -0.0013761911541223526, 0.000980660319328308, 0.003337511792778969, 0.0056943632662296295, 0.00805121473968029, 0.010408066213130951, 0.012764917686581612, 0.015121769160032272, 0.017478620633482933, 0.019835472106933594, 0.022192323580384254, 0.024549175053834915, 0.026906026527285576, 0.029262878000736237, 0.03161972761154175, 0.03397658094763756, 0.03633343428373337, 0.03869028389453888, 0.04104713350534439, 0.0434039868414402, 0.04576084017753601, 0.04811768978834152, 0.050474539399147034, 0.052831392735242844, 0.055188246071338654, 0.057545095682144165, 0.059901945292949677, 0.062258798629045486, 0.0646156519651413, 0.06697250157594681, 0.06932935118675232, 0.07168620824813843, 0.07404305785894394, 0.07639990746974945]}, "_wandb": {"runtime": 173}}