{"epoch": 19, "_timestamp": 1722986834.5451255, "_runtime": 184.96128058433533, "_step": 144, "train loss": 0.34323570132255554, "val loss": 0.7163063883781433, "val auc": 0.8135087719298245, "val precision": 0.7160493827160493, "val recall": 0.9157894736842105, "val f1": 0.8036951501154734, "CARDIO Confusion Matrix": {"_type": "image-file", "sha256": "1a8058dd10a79a8c936000f331ace54b43664e4f8179bd597f4d6f5146b5f297", "size": 14982, "path": "media/images/CARDIO Confusion Matrix_52_1a8058dd10a79a8c9360.png", "format": "png", "width": 1000, "height": 700}, "gradients/output.bias": {"_type": "histogram", "values": [0.0, 0.0, 0.0, 0.0, 0.0, 0.0, 0.0, 0.0, 0.0, 0.0, 0.0, 0.0, 0.0, 0.0, 0.0, 0.0, 0.0, 0.0, 0.0, 0.0, 0.0, 0.0, 0.0, 0.0, 0.0, 0.0, 0.0, 0.0, 0.0, 0.0, 0.0, 0.0, 1.0, 0.0, 0.0, 0.0, 0.0, 0.0, 0.0, 0.0, 0.0, 0.0, 0.0, 0.0, 0.0, 0.0, 0.0, 0.0, 0.0, 0.0, 0.0, 0.0, 0.0, 0.0, 0.0, 0.0, 0.0, 0.0, 0.0, 0.0, 0.0, 0.0, 0.0, 0.0], "bins": [0.11464390158653259, 0.11464390158653259, 0.11464390158653259, 0.11464390158653259, 0.11464390158653259, 0.11464390158653259, 0.11464390158653259, 0.11464390158653259, 0.11464390158653259, 0.11464390158653259, 0.11464390158653259, 0.11464390158653259, 0.11464390158653259, 0.11464390158653259, 0.11464390158653259, 0.11464390158653259, 0.11464390158653259, 0.11464390158653259, 0.11464390158653259, 0.11464390158653259, 0.11464390158653259, 0.11464390158653259, 0.11464390158653259, 0.11464390158653259, 0.11464390158653259, 0.11464390158653259, 0.11464390158653259, 0.11464390158653259, 0.11464390158653259, 0.11464390158653259, 0.11464390158653259, 0.11464390158653259, 0.11464390158653259, 0.11464390158653259, 0.11464390158653259, 0.11464390158653259, 0.11464390158653259, 0.11464390158653259, 0.11464390158653259, 0.11464390158653259, 0.11464390158653259, 0.11464390158653259, 0.11464390158653259, 0.11464390158653259, 0.11464390158653259, 0.11464390158653259, 0.11464390158653259, 0.11464390158653259, 0.11464390158653259, 0.11464390158653259, 0.11464390158653259, 0.11464390158653259, 0.11464390158653259, 0.11464390158653259, 0.11464390158653259, 0.11464390158653259, 0.11464390158653259, 0.11464390158653259, 0.11464390158653259, 0.11464390158653259, 0.11464390158653259, 0.11464390158653259, 0.11464390158653259, 0.11464390158653259, 0.11464390158653259]}, "gradients/output.weight": {"_type": "histogram", "values": [1.0, 0.0, 0.0, 0.0, 0.0, 0.0, 0.0, 0.0, 0.0, 0.0, 1.0, 0.0, 1.0, 1.0, 0.0, 1.0, 0.0, 0.0, 0.0, 0.0, 0.0, 0.0, 0.0, 0.0, 0.0, 0.0, 1.0, 1.0, 0.0, 0.0, 0.0, 1.0, 0.0, 0.0, 0.0, 0.0, 0.0, 2.0, 0.0, 0.0, 2.0, 0.0, 0.0, 0.0, 1.0, 0.0, 1.0, 0.0, 0.0, 0.0, 0.0, 0.0, 0.0, 0.0, 0.0, 0.0, 0.0, 0.0, 0.0, 1.0, 0.0, 0.0, 0.0, 1.0], "bins": [-0.14028535783290863, -0.13598889112472534, -0.13169240951538086, -0.12739594280719757, -0.12309947609901428, -0.118803009390831, -0.11450653523206711, -0.11021006107330322, -0.10591359436511993, -0.10161712765693665, -0.09732065349817276, -0.09302417933940887, -0.08872771263122559, -0.0844312459230423, -0.08013477176427841, -0.07583829760551453, -0.07154183089733124, -0.06724536418914795, -0.06294889003038406, -0.05865241959691048, -0.05435594916343689, -0.0500594787299633, -0.045763008296489716, -0.04146653786301613, -0.03717006742954254, -0.032873596996068954, -0.028577126562595367, -0.02428065612912178, -0.019984185695648193, -0.015687715262174606, -0.01139124482870102, -0.007094774395227432, -0.0027982890605926514, 0.0014981813728809357, 0.005794651806354523, 0.01009112223982811, 0.014387592673301697, 0.018684063106775284, 0.02298053354024887, 0.027277003973722458, 0.031573474407196045, 0.03586994484066963, 0.04016641527414322, 0.044462885707616806, 0.04875935614109039, 0.05305582657456398, 0.05735229700803757, 0.061648767441511154, 0.06594523787498474, 0.07024170458316803, 0.07453817874193192, 0.0788346529006958, 0.08313111960887909, 0.08742758631706238, 0.09172406047582626, 0.09602053463459015, 0.10031700134277344, 0.10461346805095673, 0.10890994220972061, 0.1132064163684845, 0.11750288307666779, 0.12179934978485107, 0.12609583139419556, 0.13039229810237885, 0.13468876481056213]}, "gradients/linearlayers.4.0.bias": {"_type": "histogram", "values": [1.0, 0.0, 1.0, 0.0, 0.0, 0.0, 0.0, 0.0, 0.0, 1.0, 1.0, 0.0, 1.0, 0.0, 0.0, 0.0, 0.0, 0.0, 0.0, 1.0, 0.0, 0.0, 0.0, 0.0, 0.0, 0.0, 0.0, 0.0, 0.0, 0.0, 0.0, 0.0, 0.0, 1.0, 0.0, 0.0, 1.0, 0.0, 1.0, 0.0, 1.0, 0.0, 0.0, 0.0, 0.0, 1.0, 0.0, 0.0, 0.0, 1.0, 0.0, 0.0, 0.0, 1.0, 0.0, 0.0, 0.0, 1.0, 1.0, 0.0, 0.0, 0.0, 0.0, 1.0], "bins": [-0.02612302079796791, -0.025222262367606163, -0.024321503937244415, -0.02342074364423752, -0.02251998521387577, -0.021619226783514023, -0.020718468353152275, -0.019817708060145378, -0.01891694962978363, -0.018016191199421883, -0.017115432769060135, -0.016214674338698387, -0.015313914977014065, -0.014413155615329742, -0.013512397184967995, -0.012611637823283672, -0.011710879392921925, -0.010810120962560177, -0.009909361600875854, -0.009008603170514107, -0.008107843808829784, -0.007207085378468037, -0.006306326482445002, -0.0054055675864219666, -0.0045048086903989315, -0.0036040497943758965, -0.0027032908983528614, -0.00180253223516047, -0.000901773339137435, -1.0145013220608234e-06, 0.0008997443364933133, 0.0018005031161010265, 0.0027012620121240616, 0.0036020209081470966, 0.004502779804170132, 0.005403538700193167, 0.006304297596216202, 0.0072050560265779495, 0.008105815388262272, 0.00900657381862402, 0.009907333180308342, 0.01080809161067009, 0.011708850041031837, 0.01260960940271616, 0.013510367833077908, 0.01441112719476223, 0.015311885625123978, 0.016212644055485725, 0.017113402485847473, 0.01801416277885437, 0.018914921209216118, 0.019815679639577866, 0.020716438069939613, 0.02161719836294651, 0.022517956793308258, 0.023418715223670006, 0.024319473654031754, 0.0252202320843935, 0.026120992377400398, 0.027021750807762146, 0.027922509238123894, 0.02882326766848564, 0.02972402796149254, 0.030624786391854286, 0.031525544822216034]}, "gradients/linearlayers.4.0.weight": {"_type": "histogram", "values": [1.0, 0.0, 0.0, 0.0, 0.0, 1.0, 1.0, 0.0, 0.0, 2.0, 3.0, 0.0, 3.0, 4.0, 4.0, 1.0, 3.0, 7.0, 2.0, 5.0, 8.0, 7.0, 8.0, 5.0, 5.0, 3.0, 13.0, 12.0, 15.0, 14.0, 10.0, 27.0, 52.0, 66.0, 48.0, 26.0, 24.0, 17.0, 11.0, 14.0, 8.0, 6.0, 4.0, 9.0, 2.0, 12.0, 3.0, 8.0, 3.0, 7.0, 2.0, 9.0, 3.0, 3.0, 2.0, 1.0, 0.0, 2.0, 3.0, 1.0, 1.0, 0.0, 0.0, 1.0], "bins": [-0.03907301649451256, -0.03789905086159706, -0.036725085228681564, -0.03555111959576607, -0.03437715396285057, -0.033203188329935074, -0.03202922269701958, -0.03085525892674923, -0.029681293293833733, -0.028507327660918236, -0.02733336202800274, -0.026159396395087242, -0.024985432624816895, -0.023811466991901398, -0.0226375013589859, -0.021463535726070404, -0.020289570093154907, -0.01911560446023941, -0.017941638827323914, -0.016767673194408417, -0.015593708492815495, -0.014419742859899998, -0.013245778158307076, -0.012071812525391579, -0.010897846892476082, -0.009723881259560585, -0.008549915626645088, -0.007375950925052166, -0.006201985292136669, -0.005028019659221172, -0.003854054491966963, -0.0026800890918821096, -0.001506119966506958, -0.00033215456642210484, 0.0008418108336627483, 0.0020157762337476015, 0.0031897416338324547, 0.0043637072667479515, 0.005537672434002161, 0.0067116376012563705, 0.007885603234171867, 0.009059568867087364, 0.010233534500002861, 0.011407499201595783, 0.01258146483451128, 0.013755430467426777, 0.014929395169019699, 0.016103360801935196, 0.017277326434850693, 0.01845129206776619, 0.019625257700681686, 0.020799223333597183, 0.02197318896651268, 0.023147152736783028, 0.024321118369698524, 0.02549508400261402, 0.026669049635529518, 0.027843015268445015, 0.029016980901360512, 0.03019094653427601, 0.031364910304546356, 0.03253887593746185, 0.03371284157037735, 0.03488680720329285, 0.036060772836208344]}, "gradients/linearlayers.3.0.bias": {"_type": "histogram", "values": [1.0, 0.0, 0.0, 0.0, 0.0, 0.0, 0.0, 0.0, 0.0, 0.0, 1.0, 0.0, 1.0, 1.0, 1.0, 1.0, 0.0, 1.0, 0.0, 0.0, 2.0, 2.0, 0.0, 1.0, 1.0, 1.0, 2.0, 0.0, 0.0, 0.0, 0.0, 0.0, 1.0, 1.0, 1.0, 2.0, 0.0, 1.0, 0.0, 0.0, 0.0, 0.0, 1.0, 2.0, 1.0, 0.0, 0.0, 0.0, 1.0, 0.0, 0.0, 0.0, 0.0, 1.0, 0.0, 0.0, 0.0, 1.0, 0.0, 0.0, 1.0, 0.0, 1.0, 1.0], "bins": [-0.03561055660247803, -0.03457430750131607, -0.033538058400154114, -0.03250180557370186, -0.0314655564725399, -0.030429307371377945, -0.029393058270215988, -0.028356807306408882, -0.027320558205246925, -0.02628430910408497, -0.025248058140277863, -0.024211809039115906, -0.02317555993795395, -0.022139308974146843, -0.021103059872984886, -0.02006680890917778, -0.019030559808015823, -0.017994310706853867, -0.01695805974304676, -0.015921810641884804, -0.014885560609400272, -0.013849310576915741, -0.012813061475753784, -0.011776811443269253, -0.010740561410784721, -0.00970431137830019, -0.008668061345815659, -0.007631812244653702, -0.00659556221216917, -0.005559312179684639, -0.004523062612861395, -0.003486812813207507, -0.002450566738843918, -0.00141431693919003, -0.00037806713953614235, 0.0006581826601177454, 0.0016944324597716331, 0.002730682259425521, 0.0037669320590794086, 0.004803181625902653, 0.005839431658387184, 0.0068756816908717155, 0.007911931723356247, 0.008948180824518204, 0.009984430857002735, 0.011020680889487267, 0.012056929990649223, 0.013093180023133755, 0.014129430055618286, 0.015165680088102818, 0.01620193012058735, 0.017238179221749306, 0.018274430185556412, 0.01931067928671837, 0.020346928387880325, 0.02138317935168743, 0.022419428452849388, 0.023455677554011345, 0.02449192851781845, 0.025528177618980408, 0.026564426720142365, 0.02760067768394947, 0.028636926785111427, 0.029673177748918533, 0.03070942685008049]}, "gradients/linearlayers.3.0.weight": {"_type": "histogram", "values": [1.0, 0.0, 0.0, 0.0, 0.0, 0.0, 0.0, 0.0, 0.0, 0.0, 0.0, 1.0, 0.0, 0.0, 1.0, 1.0, 1.0, 2.0, 3.0, 1.0, 4.0, 6.0, 7.0, 9.0, 9.0, 17.0, 26.0, 35.0, 49.0, 68.0, 86.0, 106.0, 115.0, 132.0, 385.0, 298.0, 118.0, 141.0, 122.0, 80.0, 58.0, 48.0, 27.0, 30.0, 23.0, 13.0, 10.0, 2.0, 2.0, 1.0, 2.0, 1.0, 2.0, 0.0, 0.0, 2.0, 0.0, 0.0, 0.0, 1.0, 1.0, 0.0, 0.0, 1.0], "bins": [-0.07081612944602966, -0.06878718733787537, -0.06675823777914047, -0.06472928822040558, -0.06270034611225128, -0.060671400278806686, -0.05864245444536209, -0.056613508611917496, -0.0545845627784729, -0.052555616945028305, -0.05052667111158371, -0.048497725278139114, -0.04646877944469452, -0.044439833611249924, -0.04241088777780533, -0.04038194194436073, -0.03835299611091614, -0.03632405027747154, -0.03429510444402695, -0.03226615861058235, -0.030237212777137756, -0.02820826694369316, -0.026179321110248566, -0.02415037527680397, -0.022121429443359375, -0.02009248360991478, -0.018063537776470184, -0.01603459194302559, -0.014005646109580994, -0.011976700276136398, -0.009947754442691803, -0.007918808609247208, -0.005889859050512314, -0.0038609132170677185, -0.0018319673836231232, 0.00019697844982147217, 0.0022259242832660675, 0.004254870116710663, 0.006283815950155258, 0.008312761783599854, 0.010341707617044449, 0.012370653450489044, 0.01439959928393364, 0.016428545117378235, 0.01845749095082283, 0.020486436784267426, 0.02251538261771202, 0.024544328451156616, 0.02657327428460121, 0.028602220118045807, 0.030631165951490402, 0.032660111784935, 0.03468905761837959, 0.03671800345182419, 0.038746949285268784, 0.04077589511871338, 0.042804840952157974, 0.04483378678560257, 0.046862732619047165, 0.04889167845249176, 0.050920624285936356, 0.05294957011938095, 0.054978515952825546, 0.05700746178627014, 0.05903640761971474]}, "gradients/linearlayers.2.0.bias": {"_type": "histogram", "values": [1.0, 0.0, 0.0, 0.0, 0.0, 0.0, 1.0, 1.0, 1.0, 1.0, 1.0, 0.0, 0.0, 1.0, 1.0, 0.0, 1.0, 1.0, 0.0, 1.0, 3.0, 2.0, 2.0, 1.0, 2.0, 0.0, 1.0, 0.0, 1.0, 3.0, 1.0, 3.0, 3.0, 0.0, 2.0, 0.0, 2.0, 0.0, 3.0, 4.0, 2.0, 1.0, 1.0, 1.0, 1.0, 1.0, 1.0, 0.0, 2.0, 0.0, 2.0, 1.0, 1.0, 2.0, 1.0, 1.0, 0.0, 0.0, 0.0, 0.0, 0.0, 1.0, 0.0, 1.0], "bins": [-0.029637105762958527, -0.02861883118748665, -0.02760055661201477, -0.02658228389918804, -0.025564009323716164, -0.024545734748244286, -0.023527462035417557, -0.02250918745994568, -0.0214909128844738, -0.020472638309001923, -0.019454363733530045, -0.018436091020703316, -0.017417816445231438, -0.01639954186975956, -0.015381268225610256, -0.014362994581460953, -0.013344720005989075, -0.012326445430517197, -0.011308171786367893, -0.01028989814221859, -0.009271623566746712, -0.008253348991274834, -0.00723507534712553, -0.0062168012373149395, -0.005198527127504349, -0.004180253017693758, -0.0031619789078831673, -0.0021437047980725765, -0.0011254306882619858, -0.00010715657845139503, 0.0009111175313591957, 0.0019293916411697865, 0.0029476620256900787, 0.0039659361355006695, 0.00498421024531126, 0.006002484355121851, 0.007020758464932442, 0.00803903304040432, 0.009057306684553623, 0.010075580328702927, 0.011093854904174805, 0.012112129479646683, 0.013130403123795986, 0.01414867676794529, 0.015166951343417168, 0.016185225918889046, 0.017203498631715775, 0.018221773207187653, 0.01924004778265953, 0.02025832235813141, 0.021276596933603287, 0.022294869646430016, 0.023313144221901894, 0.02433141879737377, 0.0253496915102005, 0.02636796608567238, 0.027386240661144257, 0.028404515236616135, 0.029422789812088013, 0.03044106252491474, 0.03145933896303177, 0.03247760981321335, 0.033495884388685226, 0.034514158964157104, 0.03553243353962898]}, "gradients/linearlayers.2.0.weight": {"_type": "histogram", "values": [1.0, 1.0, 1.0, 3.0, 3.0, 3.0, 3.0, 7.0, 5.0, 12.0, 14.0, 18.0, 27.0, 30.0, 35.0, 33.0, 42.0, 63.0, 61.0, 79.0, 98.0, 130.0, 157.0, 237.0, 280.0, 317.0, 472.0, 637.0, 1004.0, 1334.0, 679.0, 474.0, 416.0, 290.0, 256.0, 205.0, 154.0, 108.0, 95.0, 71.0, 62.0, 41.0, 42.0, 38.0, 29.0, 29.0, 18.0, 14.0, 12.0, 11.0, 8.0, 9.0, 5.0, 5.0, 5.0, 1.0, 3.0, 0.0, 0.0, 1.0, 1.0, 2.0, 0.0, 1.0], "bins": [-0.04061578959226608, -0.03922493755817413, -0.037834085524082184, -0.036443233489990234, -0.035052381455898285, -0.033661533147096634, -0.032270681113004684, -0.030879829078912735, -0.029488977044820786, -0.028098125010728836, -0.026707272976636887, -0.025316422805190086, -0.023925570771098137, -0.022534718737006187, -0.021143868565559387, -0.019753016531467438, -0.01836216449737549, -0.01697131246328354, -0.015580461360514164, -0.014189610257744789, -0.01279875822365284, -0.01140790618956089, -0.010017055086791515, -0.00862620398402214, -0.007235351949930191, -0.005844500381499529, -0.004453648813068867, -0.0030627972446382046, -0.0016719456762075424, -0.00028109410777688026, 0.0011097574606537819, 0.002500609029084444, 0.0038914568722248077, 0.00528230844065547, 0.006673160009086132, 0.008064011111855507, 0.009454863145947456, 0.010845715180039406, 0.01223656628280878, 0.013627417385578156, 0.015018269419670105, 0.016409121453762054, 0.017799973487854004, 0.019190823659300804, 0.020581675693392754, 0.021972527727484703, 0.023363377898931503, 0.024754229933023453, 0.026145081967115402, 0.02753593400120735, 0.0289267860352993, 0.0303176362067461, 0.0317084863781929, 0.03309933841228485, 0.0344901904463768, 0.03588104248046875, 0.0372718945145607, 0.03866274654865265, 0.0400535985827446, 0.04144445061683655, 0.0428353026509285, 0.04422615095973015, 0.0456170029938221, 0.04700785502791405, 0.048398707062006]}, "gradients/linearlayers.1.0.bias": {"_type": "histogram", "values": [1.0, 0.0, 0.0, 0.0, 0.0, 1.0, 0.0, 1.0, 0.0, 2.0, 0.0, 1.0, 0.0, 5.0, 3.0, 1.0, 2.0, 1.0, 4.0, 1.0, 3.0, 0.0, 2.0, 4.0, 3.0, 5.0, 3.0, 8.0, 6.0, 7.0, 2.0, 4.0, 3.0, 3.0, 6.0, 6.0, 3.0, 2.0, 5.0, 2.0, 5.0, 0.0, 2.0, 1.0, 1.0, 2.0, 3.0, 4.0, 0.0, 1.0, 1.0, 2.0, 0.0, 0.0, 2.0, 0.0, 1.0, 0.0, 1.0, 0.0, 1.0, 0.0, 0.0, 1.0], "bins": [-0.03761961683630943, -0.03640522062778473, -0.035190828144550323, -0.03397643566131592, -0.032762039452791214, -0.03154764324426651, -0.030333250761032104, -0.02911885641515255, -0.027904462069272995, -0.02669006772339344, -0.025475673377513885, -0.02426127903163433, -0.023046884685754776, -0.02183249033987522, -0.020618095993995667, -0.019403701648116112, -0.018189307302236557, -0.016974912956357002, -0.015760518610477448, -0.014546124264597893, -0.013331729918718338, -0.012117335572838783, -0.010902941226959229, -0.009688546881079674, -0.008474152535200119, -0.007259758189320564, -0.0060453638434410095, -0.004830969497561455, -0.0036165751516819, -0.0024021808058023453, -0.0011877864599227905, 2.660788595676422e-05, 0.001241002231836319, 0.0024553965777158737, 0.0036697909235954285, 0.004884185269474983, 0.006098579615354538, 0.007312973961234093, 0.008527368307113647, 0.009741762652993202, 0.010956156998872757, 0.012170551344752312, 0.013384945690631866, 0.014599340036511421, 0.015813734382390976, 0.01702812872827053, 0.018242523074150085, 0.01945691742002964, 0.020671311765909195, 0.02188570611178875, 0.023100100457668304, 0.02431449480354786, 0.025528889149427414, 0.02674328349530697, 0.027957677841186523, 0.029172072187066078, 0.030386466532945633, 0.03160086274147034, 0.03281525522470474, 0.03402964770793915, 0.03524404391646385, 0.036458440124988556, 0.03767283260822296, 0.03888722509145737, 0.04010162129998207]}, "gradients/linearlayers.1.0.weight": {"_type": "histogram", "values": [4.0, 2.0, 2.0, 0.0, 7.0, 8.0, 8.0, 5.0, 20.0, 17.0, 22.0, 23.0, 39.0, 54.0, 48.0, 81.0, 86.0, 110.0, 138.0, 193.0, 231.0, 274.0, 368.0, 450.0, 639.0, 808.0, 1069.0, 1617.0, 2353.0, 3873.0, 5916.0, 4669.0, 2754.0, 1712.0, 1218.0, 878.0, 661.0, 541.0, 402.0, 312.0, 249.0, 204.0, 161.0, 122.0, 83.0, 73.0, 65.0, 45.0, 29.0, 21.0, 26.0, 14.0, 15.0, 12.0, 9.0, 9.0, 4.0, 3.0, 4.0, 2.0, 3.0, 0.0, 0.0, 3.0], "bins": [-0.04534139484167099, -0.043862368911504745, -0.0423833467066288, -0.040904320776462555, -0.03942529484629631, -0.037946268916130066, -0.03646724671125412, -0.034988220781087875, -0.03350919485092163, -0.032030172646045685, -0.03055114671587944, -0.029072120785713196, -0.0275930967181921, -0.026114070788025856, -0.02463504672050476, -0.023156020790338516, -0.02167699672281742, -0.020197972655296326, -0.01871894672513008, -0.017239922657608986, -0.01576089672744274, -0.014281872659921646, -0.012802847661077976, -0.011323822662234306, -0.009844797663390636, -0.008365772664546967, -0.006886747665703297, -0.005407723132520914, -0.003928698133677244, -0.0024496731348335743, -0.0009706483688205481, 0.0005083765136078, 0.001987401396036148, 0.003466426394879818, 0.004945451393723488, 0.0064244759269058704, 0.007903501391410828, 0.009382525458931923, 0.010861550457775593, 0.012340575456619263, 0.013819600455462933, 0.015298625454306602, 0.016777649521827698, 0.018256675451993942, 0.019735699519515038, 0.021214725449681282, 0.022693749517202377, 0.024172775447368622, 0.025651799514889717, 0.027130823582410812, 0.028609849512577057, 0.030088873580098152, 0.03156789764761925, 0.03304692357778549, 0.034525949507951736, 0.03600497543811798, 0.03748399764299393, 0.03896302357316017, 0.040442049503326416, 0.04192107170820236, 0.04340009763836861, 0.04487912356853485, 0.046358149498701096, 0.04783717170357704, 0.049316197633743286]}, "gradients/linearlayers.0.0.bias": {"_type": "histogram", "values": [1.0, 0.0, 0.0, 0.0, 0.0, 0.0, 0.0, 1.0, 1.0, 0.0, 0.0, 0.0, 0.0, 1.0, 4.0, 4.0, 2.0, 5.0, 1.0, 3.0, 5.0, 1.0, 4.0, 2.0, 1.0, 8.0, 5.0, 10.0, 9.0, 11.0, 11.0, 10.0, 8.0, 12.0, 14.0, 15.0, 10.0, 7.0, 4.0, 12.0, 3.0, 6.0, 6.0, 1.0, 8.0, 4.0, 7.0, 5.0, 1.0, 5.0, 4.0, 6.0, 4.0, 1.0, 3.0, 2.0, 1.0, 1.0, 1.0, 0.0, 1.0, 3.0, 0.0, 1.0], "bins": [-0.04579445719718933, -0.044476814568042755, -0.04315917193889618, -0.0418415293097496, -0.04052388668060303, -0.03920624405145645, -0.037888601422309875, -0.0365709587931633, -0.035253316164016724, -0.03393567353487015, -0.03261803090572357, -0.031300388276576996, -0.02998274564743042, -0.028665103018283844, -0.027347460389137268, -0.026029817759990692, -0.024712175130844116, -0.02339453250169754, -0.022076889872550964, -0.02075924724340439, -0.019441604614257812, -0.018123961985111237, -0.01680631935596466, -0.015488676726818085, -0.014171034097671509, -0.012853391468524933, -0.011535748839378357, -0.010218106210231781, -0.008900463581085205, -0.007582820951938629, -0.006265178322792053, -0.004947535693645477, -0.0036298930644989014, -0.0023122504353523254, -0.0009946078062057495, 0.0003230348229408264, 0.0016406774520874023, 0.0029583200812339783, 0.004275962710380554, 0.00559360533952713, 0.006911247968673706, 0.008228890597820282, 0.009546533226966858, 0.010864175856113434, 0.01218181848526001, 0.013499461114406586, 0.014817103743553162, 0.016134746372699738, 0.017452389001846313, 0.01877003163099289, 0.020087674260139465, 0.02140531688928604, 0.022722959518432617, 0.024040602147579193, 0.02535824477672577, 0.026675887405872345, 0.02799353003501892, 0.029311172664165497, 0.030628815293312073, 0.03194645792245865, 0.033264100551605225, 0.0345817431807518, 0.035899385809898376, 0.03721702843904495, 0.03853467106819153]}, "gradients/linearlayers.0.0.weight": {"_type": "histogram", "values": [1.0, 0.0, 0.0, 0.0, 0.0, 0.0, 0.0, 2.0, 1.0, 0.0, 0.0, 1.0, 1.0, 4.0, 9.0, 9.0, 23.0, 18.0, 30.0, 43.0, 53.0, 99.0, 131.0, 205.0, 298.0, 401.0, 572.0, 904.0, 1275.0, 1830.0, 2857.0, 4061.0, 6515.0, 11100.0, 26380.0, 37540.0, 14189.0, 8103.0, 4889.0, 3152.0, 2035.0, 1349.0, 925.0, 670.0, 461.0, 263.0, 195.0, 157.0, 100.0, 69.0, 38.0, 41.0, 19.0, 12.0, 11.0, 8.0, 5.0, 5.0, 4.0, 2.0, 2.0, 0.0, 4.0, 1.0], "bins": [-0.0747404396533966, -0.07261534035205841, -0.07049024850130081, -0.06836514919996262, -0.06624004989862442, -0.06411495804786682, -0.061989858746528625, -0.05986475944519043, -0.05773966386914253, -0.055614568293094635, -0.05348946899175644, -0.05136437341570854, -0.049239277839660645, -0.04711417853832245, -0.04498908296227455, -0.042863983660936356, -0.04073888808488846, -0.03861379250884056, -0.036488693207502365, -0.03436359763145447, -0.03223849833011627, -0.030113402754068375, -0.027988307178020477, -0.02586320973932743, -0.023738112300634384, -0.021613014861941338, -0.01948791742324829, -0.017362821847200394, -0.015237724408507347, -0.0131126269698143, -0.010987530462443829, -0.008862433955073357, -0.00673733651638031, -0.004612239543348551, -0.0024871425703167915, -0.00036204559728503227, 0.001763051375746727, 0.0038881483487784863, 0.0060132453218102455, 0.008138341829180717, 0.010263439267873764, 0.01238853670656681, 0.014513633213937283, 0.016638729721307755, 0.0187638271600008, 0.020888924598693848, 0.023014020174741745, 0.02513911761343479, 0.027264215052127838, 0.029389312490820885, 0.03151440992951393, 0.03363950550556183, 0.035764604806900024, 0.03788970038294792, 0.04001479595899582, 0.042139895260334015, 0.04426499083638191, 0.04639008641242981, 0.048515185713768005, 0.0506402812898159, 0.0527653768658638, 0.054890476167201996, 0.05701557174324989, 0.05914067104458809, 0.061265766620635986]}, "gradients/embeds.2.bias": {"_type": "histogram", "values": [1.0, 0.0, 0.0, 0.0, 0.0, 2.0, 0.0, 2.0, 0.0, 1.0, 2.0, 4.0, 3.0, 2.0, 5.0, 4.0, 5.0, 5.0, 16.0, 8.0, 10.0, 4.0, 15.0, 20.0, 18.0, 21.0, 13.0, 28.0, 24.0, 29.0, 17.0, 21.0, 20.0, 25.0, 24.0, 25.0, 19.0, 14.0, 16.0, 11.0, 14.0, 4.0, 14.0, 7.0, 11.0, 5.0, 4.0, 4.0, 5.0, 1.0, 2.0, 1.0, 1.0, 0.0, 0.0, 2.0, 2.0, 0.0, 0.0, 0.0, 0.0, 0.0, 0.0, 1.0], "bins": [-0.05430743470788002, -0.05255364999175072, -0.050799865275621414, -0.04904608428478241, -0.04729229956865311, -0.045538514852523804, -0.0437847301363945, -0.0420309454202652, -0.040277160704135895, -0.03852337971329689, -0.03676959499716759, -0.035015810281038284, -0.03326202556490898, -0.03150824084877968, -0.029754457995295525, -0.02800067514181137, -0.026246890425682068, -0.024493105709552765, -0.02273932285606861, -0.020985538139939308, -0.019231755286455154, -0.01747797057032585, -0.01572418585419655, -0.01397040206938982, -0.012216618284583092, -0.010462834499776363, -0.008709050714969635, -0.006955265998840332, -0.005201482214033604, -0.0034476981963962317, -0.0016939141787588596, 5.986983887851238e-05, 0.0018136575818061829, 0.003567441599443555, 0.005321225617080927, 0.0070750098675489426, 0.008828793652355671, 0.0105825774371624, 0.012336362153291702, 0.01409014593809843, 0.01584392972290516, 0.017597714439034462, 0.019351497292518616, 0.02110528200864792, 0.02285906672477722, 0.024612849578261375, 0.02636663429439068, 0.028120417147874832, 0.029874201864004135, 0.03162798658013344, 0.03338177129626274, 0.035135552287101746, 0.03688933700323105, 0.03864312171936035, 0.040396906435489655, 0.04215069115161896, 0.04390447586774826, 0.045658256858587265, 0.04741204157471657, 0.04916582629084587, 0.050919611006975174, 0.05267339572310448, 0.05442717671394348, 0.056180961430072784, 0.05793474614620209]}, "gradients/embeds.2.weight": {"_type": "histogram", "values": [1.0, 0.0, 0.0, 0.0, 1.0, 3.0, 5.0, 9.0, 4.0, 10.0, 20.0, 27.0, 40.0, 54.0, 78.0, 120.0, 160.0, 265.0, 345.0, 549.0, 804.0, 1300.0, 1879.0, 2862.0, 4293.0, 6496.0, 10043.0, 16425.0, 28037.0, 52112.0, 124416.0, 139800.0, 56092.0, 29627.0, 17441.0, 10740.0, 6771.0, 4545.0, 2979.0, 1954.0, 1331.0, 873.0, 583.0, 380.0, 269.0, 177.0, 117.0, 80.0, 55.0, 39.0, 31.0, 15.0, 10.0, 3.0, 4.0, 6.0, 4.0, 1.0, 2.0, 0.0, 0.0, 0.0, 0.0, 1.0], "bins": [-0.07747116684913635, -0.07497651129961014, -0.07248185575008392, -0.06998720020055771, -0.0674925446510315, -0.06499789655208588, -0.06250324100255966, -0.06000858545303345, -0.05751392990350723, -0.05501927435398102, -0.0525246188044548, -0.05002996698021889, -0.04753531143069267, -0.04504065588116646, -0.04254600405693054, -0.04005134850740433, -0.03755669295787811, -0.0350620374083519, -0.032567381858825684, -0.030072730034589767, -0.027578074485063553, -0.025083418935537338, -0.022588765248656273, -0.020094111561775208, -0.017599456012248993, -0.015104801394045353, -0.012610146775841713, -0.010115492157638073, -0.007620837539434433, -0.005126182921230793, -0.002631528303027153, -0.00013687368482351303, 0.002357788383960724, 0.004852443002164364, 0.007347097620368004, 0.009841752238571644, 0.012336406856775284, 0.014831061474978924, 0.017325716093182564, 0.01982036978006363, 0.022315025329589844, 0.02480968087911606, 0.027304334565997124, 0.02979898825287819, 0.032293643802404404, 0.03478829935193062, 0.037282951176166534, 0.03977760672569275, 0.042272262275218964, 0.04476691782474518, 0.04726157337427139, 0.04975622519850731, 0.052250880748033524, 0.05474553629755974, 0.057240188121795654, 0.05973484367132187, 0.062229499220848083, 0.0647241547703743, 0.06721881031990051, 0.06971346586942673, 0.07220812141895294, 0.07470276951789856, 0.07719742506742477, 0.07969208061695099, 0.0821867361664772]}, "gradients/embeds.0.bias": {"_type": "histogram", "values": [1.0, 1.0, 2.0, 2.0, 0.0, 0.0, 0.0, 1.0, 0.0, 2.0, 2.0, 3.0, 1.0, 9.0, 9.0, 4.0, 10.0, 17.0, 14.0, 20.0, 23.0, 19.0, 34.0, 24.0, 34.0, 45.0, 35.0, 45.0, 47.0, 51.0, 50.0, 65.0, 56.0, 51.0, 38.0, 28.0, 35.0, 29.0, 27.0, 28.0, 23.0, 15.0, 20.0, 23.0, 18.0, 11.0, 13.0, 6.0, 10.0, 5.0, 3.0, 5.0, 1.0, 2.0, 0.0, 2.0, 2.0, 1.0, 1.0, 0.0, 0.0, 0.0, 0.0, 1.0], "bins": [-0.06824678927659988, -0.0660317987203598, -0.06381680071353912, -0.06160180643200874, -0.05938681215047836, -0.05717181786894798, -0.0549568235874176, -0.05274182930588722, -0.05052683502435684, -0.04831184074282646, -0.04609684646129608, -0.0438818521797657, -0.04166685789823532, -0.03945186361670494, -0.03723686933517456, -0.03502187505364418, -0.0328068807721138, -0.03059188649058342, -0.02837689220905304, -0.02616189792752266, -0.02394690364599228, -0.0217319093644619, -0.01951691508293152, -0.01730192080140114, -0.015086926519870758, -0.012871932238340378, -0.010656937956809998, -0.008441943675279617, -0.006226949393749237, -0.004011955112218857, -0.0017969608306884766, 0.0004180334508419037, 0.002633035182952881, 0.004848029464483261, 0.007063023746013641, 0.009278018027544022, 0.011493012309074402, 0.013708006590604782, 0.015923000872135162, 0.018137995153665543, 0.020352989435195923, 0.022567983716726303, 0.024782977998256683, 0.026997972279787064, 0.029212966561317444, 0.031427960842847824, 0.033642955124378204, 0.035857949405908585, 0.038072943687438965, 0.040287937968969345, 0.042502932250499725, 0.044717926532030106, 0.046932920813560486, 0.049147915095090866, 0.051362909376621246, 0.05357790365815163, 0.05579289793968201, 0.05800789222121239, 0.06022288650274277, 0.06243788078427315, 0.06465287506580353, 0.0668678730726242, 0.06908286362886429, 0.07129785418510437, 0.07351285219192505]}, "gradients/embeds.0.weight": {"_type": "histogram", "values": [2.0, 0.0, 2.0, 2.0, 0.0, 0.0, 0.0, 1.0, 2.0, 3.0, 4.0, 4.0, 2.0, 9.0, 10.0, 6.0, 15.0, 18.0, 27.0, 26.0, 42.0, 51.0, 67.0, 71.0, 125.0, 182.0, 267.0, 436.0, 1008.0, 7592.0, 643504.0, 128070.0, 2915.0, 754.0, 391.0, 198.0, 145.0, 86.0, 63.0, 62.0, 56.0, 36.0, 39.0, 31.0, 27.0, 18.0, 13.0, 10.0, 8.0, 11.0, 5.0, 4.0, 2.0, 1.0, 1.0, 2.0, 3.0, 1.0, 1.0, 0.0, 0.0, 0.0, 0.0, 1.0], "bins": [-0.8261740803718567, -0.7993800044059753, -0.772585928440094, -0.7457918524742126, -0.7189977765083313, -0.69220370054245, -0.6654096841812134, -0.638615608215332, -0.6118215322494507, -0.5850274562835693, -0.558233380317688, -0.5314393043518066, -0.5046452283859253, -0.47785115242004395, -0.451057106256485, -0.42426303029060364, -0.3974689543247223, -0.37067487835884094, -0.3438808023929596, -0.31708675622940063, -0.2902926802635193, -0.26349860429763794, -0.2367045283317566, -0.20991046726703644, -0.1831163913011551, -0.15632231533527374, -0.1295282542705536, -0.10273417830467224, -0.07594010978937149, -0.04914604127407074, -0.02235196903347969, 0.004442101344466209, 0.03123617172241211, 0.05803024023771286, 0.08482430875301361, 0.11161838471889496, 0.1384124457836151, 0.16520652174949646, 0.1920005977153778, 0.21879465878009796, 0.2455887347459793, 0.27238279581069946, 0.2991768717765808, 0.32597094774246216, 0.3527650237083435, 0.37955909967422485, 0.4063531458377838, 0.43314722180366516, 0.4599412977695465, 0.48673537373542786, 0.5135294198989868, 0.5403234958648682, 0.5671175718307495, 0.5939116477966309, 0.6207057237625122, 0.6474997997283936, 0.6742938756942749, 0.7010879516601562, 0.7278820276260376, 0.7546760439872742, 0.7814701199531555, 0.8082641959190369, 0.8350582718849182, 0.8618523478507996, 0.8886464238166809]}, "total_best_ep": 6, "total_best_ep_tloss": 0.4244100749492645, "total_best_ep_vloss": 0.5265791416168213, "total_best_ep_AUC": 0.8210964912280702, "total_best_ep_precision": 0.8333333333333334, "total_best_ep_recall": 0.7894736842105263, "total_best_ep_f1": 0.8108108108108109, "_wandb": {"runtime": 184}}