{"epoch": 19, "_timestamp": 1722986938.3048823, "_runtime": 288.72104120254517, "_step": 143, "train loss": 0.18408866226673126, "val loss": 1.0160373449325562, "val auc": 0.7551763367463026, "val precision": 0.7425742574257426, "val recall": 0.5119453924914675, "val f1": 0.6060606060606061, "HEPA Confusion Matrix": {"_type": "image-file", "sha256": "323a12ecf0249589d84d05fd81fea6c9eb43719dc15a5955785305aed4b99672", "size": 17545, "path": "media/images/HEPA Confusion Matrix_114_323a12ecf0249589d84d.png", "format": "png", "width": 1000, "height": 700}, "gradients/output.bias": {"_type": "histogram", "values": [0.0, 0.0, 0.0, 0.0, 0.0, 0.0, 0.0, 0.0, 0.0, 0.0, 0.0, 0.0, 0.0, 0.0, 0.0, 0.0, 0.0, 0.0, 0.0, 0.0, 0.0, 0.0, 0.0, 0.0, 0.0, 0.0, 0.0, 0.0, 0.0, 0.0, 0.0, 0.0, 1.0, 0.0, 0.0, 0.0, 0.0, 0.0, 0.0, 0.0, 0.0, 0.0, 0.0, 0.0, 0.0, 0.0, 0.0, 0.0, 0.0, 0.0, 0.0, 0.0, 0.0, 0.0, 0.0, 0.0, 0.0, 0.0, 0.0, 0.0, 0.0, 0.0, 0.0, 0.0], "bins": [-0.06890533864498138, -0.06890533864498138, -0.06890533864498138, -0.06890533864498138, -0.06890533864498138, -0.06890533864498138, -0.06890533864498138, -0.06890533864498138, -0.06890533864498138, -0.06890533864498138, -0.06890533864498138, -0.06890533864498138, -0.06890533864498138, -0.06890533864498138, -0.06890533864498138, -0.06890533864498138, -0.06890533864498138, -0.06890533864498138, -0.06890533864498138, -0.06890533864498138, -0.06890533864498138, -0.06890533864498138, -0.06890533864498138, -0.06890533864498138, -0.06890533864498138, -0.06890533864498138, -0.06890533864498138, -0.06890533864498138, -0.06890533864498138, -0.06890533864498138, -0.06890533864498138, -0.06890533864498138, -0.06890533864498138, -0.06890533864498138, -0.06890533864498138, -0.06890533864498138, -0.06890533864498138, -0.06890533864498138, -0.06890533864498138, -0.06890533864498138, -0.06890533864498138, -0.06890533864498138, -0.06890533864498138, -0.06890533864498138, -0.06890533864498138, -0.06890533864498138, -0.06890533864498138, -0.06890533864498138, -0.06890533864498138, -0.06890533864498138, -0.06890533864498138, -0.06890533864498138, -0.06890533864498138, -0.06890533864498138, -0.06890533864498138, -0.06890533864498138, -0.06890533864498138, -0.06890533864498138, -0.06890533864498138, -0.06890533864498138, -0.06890533864498138, -0.06890533864498138, -0.06890533864498138, -0.06890533864498138, -0.06890533864498138]}, "gradients/output.weight": {"_type": "histogram", "values": [1.0, 0.0, 0.0, 0.0, 0.0, 0.0, 0.0, 0.0, 0.0, 0.0, 0.0, 0.0, 0.0, 0.0, 0.0, 0.0, 0.0, 0.0, 0.0, 0.0, 0.0, 0.0, 1.0, 0.0, 0.0, 0.0, 0.0, 0.0, 0.0, 0.0, 1.0, 0.0, 1.0, 0.0, 0.0, 0.0, 1.0, 1.0, 0.0, 0.0, 1.0, 0.0, 0.0, 1.0, 1.0, 0.0, 0.0, 0.0, 0.0, 0.0, 2.0, 1.0, 0.0, 0.0, 0.0, 0.0, 0.0, 0.0, 0.0, 0.0, 0.0, 0.0, 0.0, 4.0], "bins": [-0.4637765884399414, -0.4565300941467285, -0.44928357005119324, -0.44203704595565796, -0.43479055166244507, -0.4275440573692322, -0.4202975332736969, -0.4130510091781616, -0.40580451488494873, -0.39855802059173584, -0.39131149649620056, -0.3840649724006653, -0.3768184781074524, -0.3695719838142395, -0.3623254597187042, -0.35507893562316895, -0.34783244132995605, -0.34058594703674316, -0.3333394229412079, -0.3260928988456726, -0.3188464045524597, -0.3115999102592468, -0.30435338616371155, -0.29710686206817627, -0.2898603677749634, -0.2826138734817505, -0.2753673493862152, -0.26812082529067993, -0.26087433099746704, -0.25362783670425415, -0.24638131260871887, -0.2391348034143448, -0.2318882942199707, -0.22464178502559662, -0.21739527583122253, -0.21014876663684845, -0.20290225744247437, -0.19565574824810028, -0.1884092390537262, -0.1811627298593521, -0.17391622066497803, -0.16666971147060394, -0.15942320227622986, -0.15217669308185577, -0.1449301838874817, -0.1376836746931076, -0.13043716549873352, -0.12319065630435944, -0.11594414710998535, -0.10869763791561127, -0.10145112872123718, -0.0942046195268631, -0.08695811033248901, -0.07971160113811493, -0.07246509194374084, -0.06521858274936676, -0.057972073554992676, -0.05072556436061859, -0.04347905516624451, -0.03623254597187042, -0.028986036777496338, -0.021739527583122253, -0.014493018388748169, -0.0072465091943740845, 0.0]}, "gradients/linearlayers.4.0.bias": {"_type": "histogram", "values": [1.0, 0.0, 0.0, 0.0, 0.0, 0.0, 1.0, 1.0, 0.0, 0.0, 0.0, 0.0, 1.0, 1.0, 0.0, 0.0, 0.0, 0.0, 0.0, 0.0, 0.0, 0.0, 1.0, 0.0, 1.0, 0.0, 0.0, 0.0, 0.0, 0.0, 0.0, 0.0, 0.0, 0.0, 0.0, 1.0, 0.0, 4.0, 0.0, 0.0, 0.0, 0.0, 0.0, 0.0, 0.0, 0.0, 0.0, 0.0, 0.0, 0.0, 0.0, 0.0, 0.0, 0.0, 0.0, 0.0, 0.0, 1.0, 0.0, 1.0, 0.0, 0.0, 0.0, 2.0], "bins": [-0.01800036057829857, -0.017526524141430855, -0.01705268956720829, -0.016578853130340576, -0.01610501855611801, -0.015631182119250298, -0.015157346613705158, -0.014683511108160019, -0.01420967560261488, -0.01373584009706974, -0.013262004591524601, -0.012788169085979462, -0.012314333580434322, -0.011840498074889183, -0.011366662569344044, -0.010892827063798904, -0.01041899062693119, -0.009945155121386051, -0.009471319615840912, -0.008997484110295773, -0.008523648604750633, -0.008049813099205494, -0.007575977593660355, -0.007102142088115215, -0.006628306582570076, -0.006154470611363649, -0.00568063510581851, -0.005206799600273371, -0.004732964094728231, -0.004259128589183092, -0.003785292850807309, -0.003311457112431526, -0.002837621606886387, -0.0023637861013412476, -0.0018899503629654646, -0.0014161148574203253, -0.0009422792354598641, -0.00046844364260323346, 5.391950253397226e-06, 0.0004792275431100279, 0.0009530631359666586, 0.0014268987579271197, 0.0019007343798875809, 0.00237456988543272, 0.0028484053909778595, 0.0033222411293536425, 0.0037960766348987818, 0.004269912373274565, 0.004743747878819704, 0.005217583384364843, 0.005691418889909983, 0.006165254861116409, 0.006639090366661549, 0.007112925872206688, 0.007586761377751827, 0.008060596883296967, 0.008534432388842106, 0.009008267894387245, 0.009482103399932384, 0.009955939836800098, 0.010429775342345238, 0.010903610847890377, 0.011377446353435516, 0.011851281858980656, 0.012325117364525795]}, "gradients/linearlayers.4.0.weight": {"_type": "histogram", "values": [1.0, 1.0, 0.0, 0.0, 1.0, 2.0, 2.0, 0.0, 1.0, 1.0, 2.0, 2.0, 2.0, 0.0, 2.0, 3.0, 1.0, 1.0, 1.0, 2.0, 0.0, 4.0, 4.0, 4.0, 6.0, 6.0, 7.0, 6.0, 11.0, 8.0, 5.0, 8.0, 8.0, 10.0, 8.0, 6.0, 10.0, 308.0, 0.0, 3.0, 5.0, 1.0, 4.0, 8.0, 7.0, 8.0, 5.0, 2.0, 1.0, 2.0, 4.0, 0.0, 2.0, 0.0, 2.0, 2.0, 1.0, 1.0, 1.0, 3.0, 2.0, 0.0, 2.0, 2.0], "bins": [-0.1355735808610916, -0.13192225992679596, -0.1282709240913391, -0.12461960315704346, -0.1209682747721672, -0.11731694638729095, -0.1136656254529953, -0.11001429706811905, -0.1063629686832428, -0.10271164029836655, -0.0990603119134903, -0.09540899097919464, -0.09175766259431839, -0.08810633420944214, -0.08445501327514648, -0.08080368489027023, -0.07715235650539398, -0.07350102812051773, -0.06984969973564148, -0.06619837880134583, -0.06254705041646957, -0.05889572203159332, -0.05524439737200737, -0.05159307271242142, -0.047941744327545166, -0.044290415942668915, -0.04063909128308296, -0.03698776662349701, -0.03333643823862076, -0.029685111716389656, -0.026033785194158554, -0.022382458671927452, -0.018731124699115753, -0.015079798176884651, -0.01142847165465355, -0.007777145132422447, -0.004125818610191345, -0.0004744920879602432, 0.0031768344342708588, 0.006828160956501961, 0.010479487478733063, 0.014130814000964165, 0.017782140523195267, 0.02143346704542637, 0.02508479356765747, 0.028736120089888573, 0.032387446612119675, 0.03603877127170563, 0.03969009965658188, 0.04334142804145813, 0.04699275270104408, 0.050644077360630035, 0.05429540574550629, 0.05794673413038254, 0.06159805878996849, 0.06524938344955444, 0.0689007118344307, 0.07255204021930695, 0.0762033611536026, 0.07985468953847885, 0.0835060179233551, 0.08715734630823135, 0.0908086746931076, 0.09445999562740326, 0.09811132401227951]}, "gradients/linearlayers.3.0.bias": {"_type": "histogram", "values": [1.0, 0.0, 0.0, 0.0, 0.0, 0.0, 0.0, 0.0, 0.0, 0.0, 0.0, 1.0, 1.0, 0.0, 0.0, 0.0, 0.0, 0.0, 0.0, 0.0, 1.0, 0.0, 0.0, 1.0, 0.0, 0.0, 1.0, 1.0, 0.0, 0.0, 0.0, 1.0, 0.0, 0.0, 0.0, 0.0, 0.0, 0.0, 0.0, 16.0, 1.0, 0.0, 0.0, 1.0, 0.0, 0.0, 0.0, 1.0, 0.0, 0.0, 0.0, 0.0, 0.0, 0.0, 2.0, 0.0, 1.0, 0.0, 0.0, 0.0, 0.0, 1.0, 0.0, 1.0], "bins": [-0.018952852115035057, -0.01847522333264351, -0.01799759641289711, -0.017519967630505562, -0.017042338848114014, -0.016564711928367615, -0.016087083145976067, -0.015609455294907093, -0.01513182744383812, -0.014654198661446571, -0.014176570810377598, -0.013698942959308624, -0.013221314176917076, -0.012743686325848103, -0.012266058474779129, -0.011788429692387581, -0.011310801841318607, -0.010833173990249634, -0.010355545207858086, -0.009877917356789112, -0.009400289505720139, -0.00892266072332859, -0.008445032872259617, -0.007967405021190643, -0.0074897767044603825, -0.007012148387730122, -0.006534520536661148, -0.006056892219930887, -0.005579263903200626, -0.005101636052131653, -0.004624007735401392, -0.0041463798843324184, -0.003668752498924732, -0.003191124415025115, -0.002713496331125498, -0.002235868014395237, -0.0017582399304956198, -0.0012806118465960026, -0.0008029836462810636, -0.00032535550417378545, 0.00015227263793349266, 0.0006299007800407708, 0.0011075289221480489, 0.001585157122462988, 0.002062785206362605, 0.0025404132902622223, 0.003018041606992483, 0.0034956696908921003, 0.0039732977747917175, 0.004450926091521978, 0.004928553942590952, 0.005406182259321213, 0.005883810110390186, 0.006361438427120447, 0.006839066743850708, 0.0073166945949196815, 0.007794322911649942, 0.008271951228380203, 0.008749579079449177, 0.00922720693051815, 0.009704835712909698, 0.010182463563978672, 0.010660091415047646, 0.011137720197439194, 0.011615348048508167]}, "gradients/linearlayers.3.0.weight": {"_type": "histogram", "values": [1.0, 0.0, 0.0, 0.0, 0.0, 0.0, 2.0, 0.0, 1.0, 0.0, 0.0, 1.0, 1.0, 0.0, 1.0, 2.0, 1.0, 4.0, 1.0, 1.0, 1.0, 3.0, 2.0, 5.0, 6.0, 2.0, 9.0, 5.0, 6.0, 15.0, 10.0, 13.0, 19.0, 22.0, 30.0, 31.0, 38.0, 55.0, 39.0, 1423.0, 70.0, 45.0, 44.0, 29.0, 21.0, 17.0, 12.0, 14.0, 6.0, 9.0, 3.0, 7.0, 4.0, 3.0, 4.0, 1.0, 1.0, 3.0, 1.0, 1.0, 1.0, 1.0, 0.0, 1.0], "bins": [-0.20708221197128296, -0.2018495351076126, -0.19661684334278107, -0.19138416647911072, -0.18615147471427917, -0.18091879785060883, -0.17568612098693848, -0.17045342922210693, -0.16522075235843658, -0.15998806059360504, -0.1547553837299347, -0.14952270686626434, -0.1442900151014328, -0.13905733823776245, -0.1338246464729309, -0.12859196960926056, -0.12335928529500961, -0.11812660098075867, -0.11289391666650772, -0.10766123980283737, -0.10242855548858643, -0.09719587117433548, -0.09196318686008453, -0.08673050254583359, -0.08149781823158264, -0.07626514136791229, -0.07103245705366135, -0.0657997727394104, -0.060567088425159454, -0.05533440783619881, -0.05010172352194786, -0.04486904293298721, -0.03963635861873627, -0.03440367430448532, -0.029170993715524673, -0.023938309401273727, -0.01870562694966793, -0.013472944498062134, -0.008240261115133762, -0.0030075781978666782, 0.002225104719400406, 0.00745778763666749, 0.012690470553934574, 0.017923153936862946, 0.023155836388468742, 0.02838851884007454, 0.033621203154325485, 0.03885388374328613, 0.04408656805753708, 0.049319252371788025, 0.05455193296074867, 0.05978461727499962, 0.06501729786396027, 0.07024998217821121, 0.07548266649246216, 0.0807153508067131, 0.08594803512096405, 0.0911807119846344, 0.09641339629888535, 0.10164608061313629, 0.10687876492738724, 0.11211144924163818, 0.11734412610530853, 0.12257681041955948, 0.12780949473381042]}, "gradients/linearlayers.2.0.bias": {"_type": "histogram", "values": [1.0, 0.0, 0.0, 0.0, 0.0, 0.0, 0.0, 1.0, 1.0, 1.0, 1.0, 1.0, 0.0, 2.0, 2.0, 2.0, 2.0, 2.0, 1.0, 0.0, 1.0, 1.0, 0.0, 0.0, 1.0, 1.0, 1.0, 1.0, 0.0, 26.0, 0.0, 0.0, 1.0, 0.0, 0.0, 1.0, 2.0, 0.0, 2.0, 0.0, 0.0, 0.0, 0.0, 1.0, 1.0, 1.0, 0.0, 1.0, 0.0, 0.0, 0.0, 1.0, 1.0, 0.0, 1.0, 0.0, 0.0, 1.0, 0.0, 0.0, 0.0, 0.0, 0.0, 1.0], "bins": [-0.01148214377462864, -0.011088410392403603, -0.010694677010178566, -0.01030094362795353, -0.009907210245728493, -0.00951347779482603, -0.009119744412600994, -0.008726011030375957, -0.008332277648150921, -0.007938544265925884, -0.007544810883700848, -0.007151077967137098, -0.006757344584912062, -0.006363611202687025, -0.005969878286123276, -0.005576144903898239, -0.0051824115216732025, -0.004788678139448166, -0.004394944757223129, -0.00400121184065938, -0.0036074784584343433, -0.0032137450762093067, -0.0028200119268149137, -0.0024262787774205208, -0.002032545395195484, -0.0016388121293857694, -0.0012450788635760546, -0.0008513455977663398, -0.000457612331956625, -6.387906614691019e-05, 0.0003298541996628046, 0.0007235874654725194, 0.0011173197999596596, 0.0015110530657693744, 0.0019047863315790892, 0.002298519480973482, 0.0026922528631985188, 0.0030859862454235554, 0.0034797193948179483, 0.0038734525442123413, 0.004267185926437378, 0.0046609193086624146, 0.005054652690887451, 0.0054483856074512005, 0.005842118989676237, 0.006235852371901274, 0.006629585288465023, 0.00702331867069006, 0.007417052052915096, 0.007810785435140133, 0.00820451881736517, 0.008598252199590206, 0.008991984650492668, 0.009385718032717705, 0.009779451414942741, 0.010173184797167778, 0.010566918179392815, 0.010960651561617851, 0.011354384943842888, 0.011748118326067924, 0.012141851708292961, 0.012535584159195423, 0.01292931754142046, 0.013323050923645496, 0.013716784305870533]}, "gradients/linearlayers.2.0.weight": {"_type": "histogram", "values": [1.0, 1.0, 0.0, 0.0, 0.0, 0.0, 0.0, 2.0, 1.0, 4.0, 2.0, 2.0, 4.0, 4.0, 6.0, 10.0, 12.0, 18.0, 16.0, 20.0, 49.0, 41.0, 95.0, 109.0, 150.0, 196.0, 256.0, 448.0, 833.0, 4875.0, 307.0, 182.0, 125.0, 90.0, 72.0, 54.0, 47.0, 33.0, 23.0, 26.0, 13.0, 11.0, 10.0, 10.0, 8.0, 4.0, 3.0, 2.0, 3.0, 1.0, 2.0, 2.0, 2.0, 1.0, 2.0, 1.0, 0.0, 1.0, 0.0, 0.0, 0.0, 1.0, 0.0, 1.0], "bins": [-0.13629397749900818, -0.13159491121768951, -0.12689584493637085, -0.12219677865505219, -0.11749771237373352, -0.11279864609241486, -0.10809957981109619, -0.10340051352977753, -0.09870144724845886, -0.0940023735165596, -0.08930330723524094, -0.08460424095392227, -0.07990517467260361, -0.07520610839128494, -0.07050704210996628, -0.06580797582864761, -0.06110890954732895, -0.056409843266010284, -0.05171077698469162, -0.047011710703372955, -0.04231264442205429, -0.03761357441544533, -0.03291450813412666, -0.028215441852808, -0.023516375571489334, -0.01881730929017067, -0.01411824207752943, -0.009419174864888191, -0.004720108583569527, -2.1041836589574814e-05, 0.004678024910390377, 0.009377092123031616, 0.01407615840435028, 0.018775224685668945, 0.02347429096698761, 0.028173359110951424, 0.03287242352962494, 0.0375714935362339, 0.042270559817552567, 0.04696962609887123, 0.051668692380189896, 0.05636775866150856, 0.061066824942827225, 0.06576589494943619, 0.07046496123075485, 0.07516402751207352, 0.07986309379339218, 0.08456216007471085, 0.08926122635602951, 0.09396029263734818, 0.09865935891866684, 0.1033584251999855, 0.10805749148130417, 0.11275655776262283, 0.1174556240439415, 0.12215469032526016, 0.12685376405715942, 0.1315528303384781, 0.13625189661979675, 0.14095096290111542, 0.14565002918243408, 0.15034909546375275, 0.1550481617450714, 0.15974722802639008, 0.16444629430770874]}, "gradients/linearlayers.1.0.bias": {"_type": "histogram", "values": [1.0, 1.0, 0.0, 0.0, 0.0, 1.0, 0.0, 1.0, 0.0, 0.0, 1.0, 2.0, 3.0, 4.0, 1.0, 1.0, 1.0, 0.0, 3.0, 5.0, 0.0, 4.0, 2.0, 2.0, 1.0, 5.0, 1.0, 5.0, 3.0, 2.0, 3.0, 38.0, 0.0, 0.0, 1.0, 2.0, 4.0, 1.0, 2.0, 1.0, 2.0, 1.0, 3.0, 3.0, 3.0, 1.0, 1.0, 2.0, 2.0, 2.0, 2.0, 0.0, 1.0, 0.0, 0.0, 0.0, 0.0, 0.0, 0.0, 0.0, 2.0, 0.0, 0.0, 1.0], "bins": [-0.011447034776210785, -0.01108194887638092, -0.010716862976551056, -0.010351777076721191, -0.009986691176891327, -0.009621605277061462, -0.009256519377231598, -0.008891433477401733, -0.008526347577571869, -0.00816126074641943, -0.007796175312250853, -0.007431089412420988, -0.007066003046929836, -0.006700917147099972, -0.006335831247270107, -0.005970745347440243, -0.005605659447610378, -0.005240573547780514, -0.004875487647950649, -0.004510401748120785, -0.00414531584829092, -0.003780229715630412, -0.003415143582969904, -0.0030500576831400394, -0.002684971783310175, -0.0023198858834803104, -0.001954799983650446, -0.0015897138509899378, -0.0012246279511600733, -0.0008595419931225479, -0.0004944560350850224, -0.00012937007704749703, 0.00023571494966745377, 0.0006008009077049792, 0.0009658868657425046, 0.001330972881987691, 0.0016960587818175554, 0.00206114468164742, 0.002426230814307928, 0.0027913167141377926, 0.003156402613967657, 0.0035214885137975216, 0.003886574413627386, 0.004251660313457251, 0.004616746678948402, 0.004981832578778267, 0.005346918478608131, 0.005712004378437996, 0.00607709027826786, 0.006442176178097725, 0.006807262077927589, 0.007172347977757454, 0.007537433877587318, 0.007902519777417183, 0.008267605677247047, 0.008632691577076912, 0.008997777476906776, 0.009362864308059216, 0.00972795020788908, 0.010093036107718945, 0.010458122007548809, 0.010823207907378674, 0.011188293807208538, 0.011553379707038403, 0.011918465606868267]}, "gradients/linearlayers.1.0.weight": {"_type": "histogram", "values": [1.0, 1.0, 0.0, 0.0, 0.0, 3.0, 1.0, 3.0, 3.0, 3.0, 5.0, 5.0, 14.0, 9.0, 15.0, 15.0, 28.0, 26.0, 49.0, 56.0, 70.0, 89.0, 103.0, 177.0, 238.0, 248.0, 439.0, 566.0, 914.0, 1667.0, 3034.0, 19719.0, 1886.0, 1062.0, 668.0, 434.0, 312.0, 207.0, 187.0, 121.0, 83.0, 68.0, 56.0, 47.0, 34.0, 22.0, 17.0, 13.0, 9.0, 7.0, 9.0, 2.0, 7.0, 2.0, 4.0, 4.0, 1.0, 2.0, 0.0, 0.0, 2.0, 0.0, 0.0, 1.0], "bins": [-0.09775952994823456, -0.09464012086391449, -0.09152071923017502, -0.08840131014585495, -0.08528190106153488, -0.08216249942779541, -0.07904309034347534, -0.07592368125915527, -0.0728042721748352, -0.06968487054109573, -0.06656546145677567, -0.0634460523724556, -0.060326650738716125, -0.05720724165439606, -0.05408783629536629, -0.05096842721104622, -0.04784902185201645, -0.04472961649298668, -0.04161020740866661, -0.03849080204963684, -0.03537139296531677, -0.032251987606287, -0.029132582247257233, -0.026013175025582314, -0.022893767803907394, -0.019774360582232475, -0.016654953360557556, -0.013535548001527786, -0.010416140779852867, -0.007296734023839235, -0.0041773272678256035, -0.0010579205118119717, 0.00206148624420166, 0.005180893000215292, 0.008300299756228924, 0.011419706046581268, 0.014539113268256187, 0.017658520489931107, 0.020777925848960876, 0.023897333070635796, 0.027016740292310715, 0.030136147513985634, 0.03325555473566055, 0.03637496009469032, 0.03949436545372009, 0.04261377453804016, 0.04573317989706993, 0.04885258898139, 0.05197199434041977, 0.05509139969944954, 0.05821080878376961, 0.06133021414279938, 0.06444962322711945, 0.06756902486085892, 0.07068843394517899, 0.07380784302949905, 0.07692724466323853, 0.0800466537475586, 0.08316606283187866, 0.08628547191619873, 0.0894048735499382, 0.09252428263425827, 0.09564369171857834, 0.09876309335231781, 0.10188250243663788]}, "gradients/linearlayers.0.0.bias": {"_type": "histogram", "values": [1.0, 0.0, 0.0, 0.0, 1.0, 0.0, 0.0, 1.0, 2.0, 5.0, 4.0, 2.0, 3.0, 3.0, 3.0, 4.0, 7.0, 1.0, 4.0, 2.0, 6.0, 4.0, 10.0, 2.0, 5.0, 1.0, 4.0, 5.0, 4.0, 2.0, 6.0, 2.0, 77.0, 2.0, 6.0, 8.0, 3.0, 8.0, 5.0, 3.0, 4.0, 6.0, 1.0, 8.0, 3.0, 3.0, 3.0, 3.0, 5.0, 3.0, 2.0, 5.0, 2.0, 1.0, 0.0, 0.0, 0.0, 0.0, 0.0, 0.0, 0.0, 0.0, 0.0, 1.0], "bins": [-0.013147423043847084, -0.012738198973238468, -0.012328975833952427, -0.011919751763343811, -0.01151052862405777, -0.011101304553449154, -0.010692080482840538, -0.010282857343554497, -0.009873633272945881, -0.009464409202337265, -0.009055186063051224, -0.008645961992442608, -0.008236737921833992, -0.00782751478254795, -0.007418290711939335, -0.007009067106992006, -0.006599843502044678, -0.006190619897097349, -0.005781396292150021, -0.005372172221541405, -0.004962948616594076, -0.004553725011646748, -0.004144500941038132, -0.003735277336090803, -0.0033260537311434746, -0.002916830126196146, -0.002507606288418174, -0.0020983824506402016, -0.001689158845692873, -0.0012799351243302226, -0.0008707114029675722, -0.0004614876816049218, -5.226396024227142e-05, 0.00035695976112037897, 0.0007661834824830294, 0.0011754072038456798, 0.0015846309252083302, 0.0019938545301556587, 0.002403078367933631, 0.002812302205711603, 0.0032215258106589317, 0.0036307494156062603, 0.004039973020553589, 0.004449197091162205, 0.004858420696109533, 0.005267644301056862, 0.005676868371665478, 0.006086091976612806, 0.006495315581560135, 0.0069045391865074635, 0.007313762791454792, 0.007722986862063408, 0.00813221000134945, 0.008541434071958065, 0.008950658142566681, 0.009359881281852722, 0.009769105352461338, 0.010178329423069954, 0.010587552562355995, 0.010996776632964611, 0.011406000703573227, 0.011815223842859268, 0.012224447913467884, 0.012633671052753925, 0.013042895123362541]}, "gradients/linearlayers.0.0.weight": {"_type": "histogram", "values": [1.0, 0.0, 0.0, 0.0, 1.0, 0.0, 1.0, 1.0, 5.0, 7.0, 8.0, 7.0, 9.0, 11.0, 22.0, 43.0, 61.0, 79.0, 89.0, 109.0, 161.0, 265.0, 305.0, 370.0, 601.0, 705.0, 1036.0, 1447.0, 2157.0, 3478.0, 6918.0, 18551.0, 78435.0, 7144.0, 3229.0, 1850.0, 1197.0, 831.0, 563.0, 406.0, 299.0, 209.0, 134.0, 101.0, 68.0, 56.0, 39.0, 23.0, 10.0, 5.0, 2.0, 8.0, 4.0, 4.0, 2.0, 3.0, 0.0, 1.0, 0.0, 0.0, 0.0, 0.0, 0.0, 1.0], "bins": [-0.07957988977432251, -0.07709932327270508, -0.07461874932050705, -0.07213818281888962, -0.06965760886669159, -0.06717704236507416, -0.06469647586345673, -0.0622159019112587, -0.059735335409641266, -0.057254765182733536, -0.054774194955825806, -0.052293624728918076, -0.049813054502010345, -0.047332484275102615, -0.044851917773485184, -0.042371347546577454, -0.039890777319669724, -0.03741020709276199, -0.03492963686585426, -0.03244907036423683, -0.0299685001373291, -0.02748792991042137, -0.02500735968351364, -0.02252679131925106, -0.02004622109234333, -0.0175656508654356, -0.01508508250117302, -0.01260451227426529, -0.010123942978680134, -0.007643373683094978, -0.0051628039218485355, -0.0026822343934327364, -0.00020166486501693726, 0.002278904663398862, 0.004759474191814661, 0.007240043953061104, 0.00972061324864626, 0.012201182544231415, 0.014681752771139145, 0.017162321135401726, 0.019642891362309456, 0.022123461589217186, 0.024604029953479767, 0.027084600180387497, 0.029565170407295227, 0.03204574063420296, 0.03452630713582039, 0.03700687736272812, 0.03948744758963585, 0.04196801781654358, 0.04444858804345131, 0.04692915454506874, 0.04940972477197647, 0.0518902949988842, 0.05437086522579193, 0.05685143545269966, 0.05933200567960739, 0.06181257218122482, 0.06429314613342285, 0.06677371263504028, 0.06925427913665771, 0.07173485308885574, 0.07421541959047318, 0.0766959935426712, 0.07917656004428864]}, "gradients/embeds.2.bias": {"_type": "histogram", "values": [1.0, 0.0, 0.0, 0.0, 0.0, 0.0, 0.0, 0.0, 0.0, 0.0, 3.0, 1.0, 2.0, 6.0, 3.0, 6.0, 12.0, 7.0, 10.0, 9.0, 10.0, 11.0, 10.0, 13.0, 12.0, 15.0, 11.0, 10.0, 5.0, 13.0, 18.0, 13.0, 11.0, 15.0, 76.0, 13.0, 12.0, 11.0, 8.0, 13.0, 14.0, 11.0, 12.0, 9.0, 16.0, 16.0, 11.0, 15.0, 7.0, 10.0, 10.0, 1.0, 3.0, 6.0, 2.0, 1.0, 0.0, 3.0, 0.0, 3.0, 1.0, 0.0, 0.0, 1.0], "bins": [-0.018549839034676552, -0.01800544559955597, -0.017461050301790237, -0.016916656866669655, -0.016372263431549072, -0.01582786999642849, -0.015283475629985332, -0.014739081263542175, -0.014194687828421593, -0.01365029439330101, -0.013105900026857853, -0.012561505660414696, -0.012017112225294113, -0.01147271879017353, -0.010928324423730373, -0.010383930057287216, -0.009839536622166634, -0.009295143187046051, -0.008750748820602894, -0.008206354454159737, -0.007661961019039154, -0.007117567118257284, -0.006573173217475414, -0.006028779316693544, -0.0054843854159116745, -0.004939991515129805, -0.004395597614347935, -0.003851203713566065, -0.003306809812784195, -0.002762415912002325, -0.002218022011220455, -0.0016736281104385853, -0.0011292360723018646, -0.0005848421715199947, -4.044827073812485e-05, 0.000503945630043745, 0.001048339530825615, 0.0015927334316074848, 0.0021371273323893547, 0.0026815212331712246, 0.0032259151339530945, 0.0037703090347349644, 0.004314702935516834, 0.004859096836298704, 0.005403490737080574, 0.005947884637862444, 0.006492278538644314, 0.007036672439426184, 0.007581066340208054, 0.008125459775328636, 0.008669854141771793, 0.00921424850821495, 0.009758641943335533, 0.010303035378456116, 0.010847429744899273, 0.01139182411134243, 0.011936217546463013, 0.012480610981583595, 0.013025005348026752, 0.01356939971446991, 0.014113793149590492, 0.014658186584711075, 0.015202580951154232, 0.01574697531759739, 0.016291368752717972]}, "gradients/embeds.2.weight": {"_type": "histogram", "values": [1.0, 0.0, 0.0, 0.0, 0.0, 0.0, 0.0, 0.0, 1.0, 1.0, 3.0, 5.0, 5.0, 11.0, 4.0, 11.0, 23.0, 17.0, 44.0, 63.0, 107.0, 182.0, 272.0, 441.0, 752.0, 1171.0, 1902.0, 3082.0, 4653.0, 7049.0, 11490.0, 18563.0, 38808.0, 296468.0, 73668.0, 26263.0, 14754.0, 9070.0, 5788.0, 3614.0, 2257.0, 1378.0, 859.0, 569.0, 329.0, 217.0, 136.0, 82.0, 56.0, 50.0, 25.0, 12.0, 11.0, 8.0, 3.0, 2.0, 1.0, 2.0, 0.0, 3.0, 1.0, 0.0, 0.0, 1.0], "bins": [-0.05843763053417206, -0.05670703202486038, -0.054976437240839005, -0.05324583873152733, -0.05151524394750595, -0.049784645438194275, -0.0480540506541729, -0.04632345214486122, -0.044592857360839844, -0.04286225885152817, -0.04113166406750679, -0.039401065558195114, -0.03767047077417374, -0.03593987226486206, -0.03420927748084068, -0.03247867897152901, -0.03074808232486248, -0.029017485678195953, -0.027286889031529427, -0.0255562923848629, -0.023825695738196373, -0.022095099091529846, -0.02036450244486332, -0.018633905798196793, -0.016903307288885117, -0.015172711573541164, -0.013442114926874638, -0.01171151828020811, -0.00998092070221901, -0.008250324055552483, -0.006519727408885956, -0.004789130762219429, -0.0030585341155529022, -0.0013279373524710536, 0.000402659410610795, 0.0021332562901079655, 0.0038638529367744923, 0.005594449583441019, 0.007325046695768833, 0.00905564334243536, 0.010786239989101887, 0.012516836635768414, 0.01424743328243494, 0.015978030860424042, 0.01770862750709057, 0.019439224153757095, 0.021169820800423622, 0.02290041744709015, 0.024631014093756676, 0.026361610740423203, 0.02809220738708973, 0.029822804033756256, 0.03155340254306793, 0.03328399732708931, 0.035014595836400986, 0.03674519062042236, 0.03847578912973404, 0.04020638391375542, 0.04193698242306709, 0.04366757720708847, 0.045398175716400146, 0.047128770500421524, 0.0488593690097332, 0.05058996379375458, 0.052320562303066254]}, "gradients/embeds.0.bias": {"_type": "histogram", "values": [1.0, 0.0, 0.0, 0.0, 2.0, 2.0, 1.0, 3.0, 3.0, 0.0, 5.0, 2.0, 3.0, 4.0, 5.0, 2.0, 9.0, 17.0, 17.0, 16.0, 16.0, 17.0, 32.0, 20.0, 31.0, 40.0, 34.0, 40.0, 40.0, 37.0, 34.0, 55.0, 79.0, 32.0, 44.0, 39.0, 27.0, 24.0, 39.0, 43.0, 21.0, 21.0, 22.0, 24.0, 18.0, 11.0, 18.0, 12.0, 10.0, 14.0, 3.0, 4.0, 4.0, 6.0, 5.0, 3.0, 2.0, 0.0, 4.0, 1.0, 2.0, 2.0, 0.0, 2.0], "bins": [-0.02167503908276558, -0.021009571850299835, -0.020344102755188942, -0.019678635522723198, -0.019013166427612305, -0.01834769919514656, -0.017682230100035667, -0.017016762867569923, -0.01635129377245903, -0.015685826539993286, -0.015020358376204967, -0.014354890212416649, -0.013689422979950905, -0.013023954816162586, -0.012358486652374268, -0.011693018488585949, -0.01102755032479763, -0.010362082161009312, -0.009696613997220993, -0.009031145833432674, -0.008365677669644356, -0.0077002099715173244, -0.007034742273390293, -0.0063692741096019745, -0.005703805945813656, -0.005038337782025337, -0.004372869618237019, -0.0037074019201099873, -0.0030419337563216686, -0.00237646559253335, -0.001710997661575675, -0.0010455296142026782, -0.0003800615668296814, 0.0002854064805433154, 0.0009508745279163122, 0.001616342575289309, 0.002281810622662306, 0.0029472787864506245, 0.0036127467174082994, 0.004278214648365974, 0.004943682812154293, 0.005609150975942612, 0.00627461913973093, 0.006940086837857962, 0.00760555500164628, 0.008271022699773312, 0.00893649086356163, 0.009601959027349949, 0.010267427191138268, 0.010932895354926586, 0.011598363518714905, 0.012263831682503223, 0.012929299846291542, 0.013594767078757286, 0.014260235242545605, 0.014925703406333923, 0.015591171570122242, 0.01625663973391056, 0.016922106966376305, 0.017587576061487198, 0.018253043293952942, 0.018918512389063835, 0.01958397962152958, 0.020249448716640472, 0.020914915949106216]}, "gradients/embeds.0.weight": {"_type": "histogram", "values": [1.0, 0.0, 0.0, 0.0, 0.0, 1.0, 4.0, 1.0, 2.0, 4.0, 2.0, 3.0, 3.0, 1.0, 6.0, 2.0, 5.0, 14.0, 20.0, 21.0, 18.0, 25.0, 31.0, 38.0, 59.0, 78.0, 109.0, 140.0, 231.0, 411.0, 1086.0, 8198.0, 223146.0, 537095.0, 12900.0, 1474.0, 460.0, 232.0, 152.0, 106.0, 70.0, 45.0, 41.0, 41.0, 25.0, 14.0, 25.0, 21.0, 14.0, 13.0, 6.0, 10.0, 3.0, 4.0, 3.0, 2.0, 4.0, 3.0, 0.0, 3.0, 2.0, 1.0, 1.0, 2.0], "bins": [-0.29369568824768066, -0.2848187983036041, -0.27594193816185, -0.26706504821777344, -0.2581881582736969, -0.24931128323078156, -0.24043439328670502, -0.23155751824378967, -0.22268062829971313, -0.2138037532567978, -0.20492687821388245, -0.1960499882698059, -0.18717311322689056, -0.17829622328281403, -0.16941934823989868, -0.16054245829582214, -0.1516655832529068, -0.14278870820999146, -0.13391181826591492, -0.12503494322299957, -0.11615805327892303, -0.10728117823600769, -0.09840429574251175, -0.08952741324901581, -0.08065053075551987, -0.07177364826202393, -0.06289676576852798, -0.05401988700032234, -0.0451430045068264, -0.03626612201333046, -0.027389241382479668, -0.018512360751628876, -0.009635478258132935, -0.000758596695959568, 0.008118284866213799, 0.01699516549706459, 0.02587204799056053, 0.03474893048405647, 0.043625809252262115, 0.05250269174575806, 0.061379574239254, 0.07025645673274994, 0.07913333922624588, 0.08801022171974182, 0.09688709676265717, 0.1057639792561531, 0.11464086174964905, 0.12351774424314499, 0.13239462673664093, 0.14127150177955627, 0.1501483917236328, 0.15902526676654816, 0.1679021567106247, 0.17677903175354004, 0.18565592169761658, 0.19453279674053192, 0.20340967178344727, 0.2122865617275238, 0.22116343677043915, 0.23004032671451569, 0.23891720175743103, 0.24779409170150757, 0.2566709816455841, 0.26554784178733826, 0.2744247317314148]}, "total_best_ep": 15, "total_best_ep_tloss": 0.17177358269691467, "total_best_ep_vloss": 0.9355232119560242, "total_best_ep_AUC": 0.773175258966529, "total_best_ep_precision": 0.6479591836734694, "total_best_ep_recall": 0.8668941979522184, "total_best_ep_f1": 0.7416058394160584, "_wandb": {"runtime": 288}}