{"epoch": 19, "_timestamp": 1722985174.4914496, "_runtime": 778.7519476413727, "_step": 147, "train loss": 0.041696298867464066, "val loss": 0.7983855605125427, "val auc": 0.9085652552227328, "val precision": 0.6076115485564304, "val recall": 0.8938223938223938, "val f1": 0.7234375, "gradients/output.bias": {"_type": "histogram", "values": [0.0, 0.0, 0.0, 0.0, 0.0, 0.0, 0.0, 0.0, 0.0, 0.0, 0.0, 0.0, 0.0, 0.0, 0.0, 0.0, 0.0, 0.0, 0.0, 0.0, 0.0, 0.0, 0.0, 0.0, 0.0, 0.0, 0.0, 0.0, 0.0, 0.0, 0.0, 0.0, 1.0, 0.0, 0.0, 0.0, 0.0, 0.0, 0.0, 0.0, 0.0, 0.0, 0.0, 0.0, 0.0, 0.0, 0.0, 0.0, 0.0, 0.0, 0.0, 0.0, 0.0, 0.0, 0.0, 0.0, 0.0, 0.0, 0.0, 0.0, 0.0, 0.0, 0.0, 0.0], "bins": [-0.018187107518315315, -0.018187107518315315, -0.018187107518315315, -0.018187107518315315, -0.018187107518315315, -0.018187107518315315, -0.018187107518315315, -0.018187107518315315, -0.018187107518315315, -0.018187107518315315, -0.018187107518315315, -0.018187107518315315, -0.018187107518315315, -0.018187107518315315, -0.018187107518315315, -0.018187107518315315, -0.018187107518315315, -0.018187107518315315, -0.018187107518315315, -0.018187107518315315, -0.018187107518315315, -0.018187107518315315, -0.018187107518315315, -0.018187107518315315, -0.018187107518315315, -0.018187107518315315, -0.018187107518315315, -0.018187107518315315, -0.018187107518315315, -0.018187107518315315, -0.018187107518315315, -0.018187107518315315, -0.018187107518315315, -0.018187107518315315, -0.018187107518315315, -0.018187107518315315, -0.018187107518315315, -0.018187107518315315, -0.018187107518315315, -0.018187107518315315, -0.018187107518315315, -0.018187107518315315, -0.018187107518315315, -0.018187107518315315, -0.018187107518315315, -0.018187107518315315, -0.018187107518315315, -0.018187107518315315, -0.018187107518315315, -0.018187107518315315, -0.018187107518315315, -0.018187107518315315, -0.018187107518315315, -0.018187107518315315, -0.018187107518315315, -0.018187107518315315, -0.018187107518315315, -0.018187107518315315, -0.018187107518315315, -0.018187107518315315, -0.018187107518315315, -0.018187107518315315, -0.018187107518315315, -0.018187107518315315, -0.018187107518315315]}, "gradients/output.weight": {"_type": "histogram", "values": [1.0, 0.0, 0.0, 0.0, 0.0, 0.0, 0.0, 0.0, 0.0, 0.0, 0.0, 0.0, 0.0, 0.0, 0.0, 0.0, 0.0, 0.0, 0.0, 0.0, 0.0, 0.0, 0.0, 0.0, 0.0, 0.0, 0.0, 0.0, 0.0, 0.0, 0.0, 0.0, 0.0, 0.0, 0.0, 0.0, 0.0, 0.0, 0.0, 0.0, 0.0, 0.0, 0.0, 0.0, 1.0, 0.0, 0.0, 0.0, 0.0, 0.0, 0.0, 2.0, 2.0, 1.0, 0.0, 1.0, 0.0, 0.0, 1.0, 0.0, 2.0, 1.0, 0.0, 4.0], "bins": [-0.24963510036468506, -0.2457345575094223, -0.24183399975299835, -0.2379334568977356, -0.23403289914131165, -0.2301323562860489, -0.22623181343078613, -0.22233125567436218, -0.21843071281909943, -0.21453016996383667, -0.21062961220741272, -0.20672906935214996, -0.2028285264968872, -0.19892796874046326, -0.1950274258852005, -0.19112686812877655, -0.1872263252735138, -0.18332578241825104, -0.1794252246618271, -0.17552468180656433, -0.17162412405014038, -0.16772358119487762, -0.16382303833961487, -0.15992248058319092, -0.15602193772792816, -0.1521213948726654, -0.14822083711624146, -0.1443202942609787, -0.14041975140571594, -0.136519193649292, -0.13261865079402924, -0.12871809303760529, -0.12481755018234253, -0.12091699987649918, -0.11701644957065582, -0.11311590671539307, -0.10921535640954971, -0.10531480610370636, -0.1014142632484436, -0.09751371294260025, -0.0936131626367569, -0.08971261233091354, -0.08581206202507019, -0.08191151916980743, -0.07801096886396408, -0.07411041855812073, -0.07020987570285797, -0.06630932539701462, -0.062408775091171265, -0.05850822478532791, -0.05460767820477486, -0.0507071316242218, -0.04680658131837845, -0.042906031012535095, -0.03900548443198204, -0.035104937851428986, -0.031204387545585632, -0.02730383910238743, -0.023403290659189224, -0.01950274221599102, -0.015602193772792816, -0.011701645329594612, -0.007801096886396408, -0.003900548443198204, 0.0]}, "gradients/linearlayers.4.0.bias": {"_type": "histogram", "values": [1.0, 0.0, 0.0, 0.0, 1.0, 0.0, 0.0, 0.0, 0.0, 2.0, 0.0, 0.0, 0.0, 0.0, 0.0, 0.0, 0.0, 0.0, 0.0, 0.0, 0.0, 0.0, 1.0, 0.0, 0.0, 0.0, 0.0, 2.0, 0.0, 1.0, 0.0, 0.0, 2.0, 1.0, 0.0, 1.0, 0.0, 0.0, 0.0, 0.0, 0.0, 0.0, 0.0, 1.0, 0.0, 0.0, 0.0, 0.0, 0.0, 0.0, 0.0, 0.0, 0.0, 0.0, 0.0, 1.0, 0.0, 0.0, 0.0, 0.0, 0.0, 1.0, 0.0, 1.0], "bins": [-0.003598763607442379, -0.0034894731361418962, -0.0033801826648414135, -0.0032708921935409307, -0.003161601722240448, -0.0030523112509399652, -0.002943020546808839, -0.002833730075508356, -0.0027244396042078733, -0.0026151491329073906, -0.002505858661606908, -0.002396568190306425, -0.0022872777190059423, -0.0021779872477054596, -0.002068696776404977, -0.001959406305104494, -0.0018501157173886895, -0.0017408252460882068, -0.001631534774787724, -0.0015222441870719194, -0.0014129537157714367, -0.001303663244470954, -0.0011943727731704712, -0.0010850823018699884, -0.0009757917723618448, -0.000866501301061362, -0.0007572107715532184, -0.0006479203002527356, -0.0005386298289522529, -0.0004293392994441092, -0.00032004882814362645, -0.00021075832773931324, -0.00010146782733500004, 7.822665793355554e-06, 0.00011711315892171115, 0.00022640364477410913, 0.00033569414517842233, 0.00044498464558273554, 0.0005542751168832183, 0.000663565646391362, 0.0007728561176918447, 0.0008821465889923275, 0.0009914371185004711, 0.0011007275898009539, 0.0012100180611014366, 0.0013193085324019194, 0.001428599120117724, 0.0015378895914182067, 0.0016471800627186894, 0.0017564705340191722, 0.001865761005319655, 0.0019750515930354595, 0.0020843420643359423, 0.002193632535636425, 0.0023029230069369078, 0.0024122134782373905, 0.0025215039495378733, 0.002630794420838356, 0.0027400848921388388, 0.002849375596269965, 0.002958666067570448, 0.0030679565388709307, 0.0031772470101714134, 0.003286537481471896, 0.003395827952772379]}, "gradients/linearlayers.4.0.weight": {"_type": "histogram", "values": [1.0, 0.0, 1.0, 1.0, 0.0, 0.0, 3.0, 2.0, 2.0, 3.0, 2.0, 1.0, 2.0, 1.0, 1.0, 2.0, 4.0, 3.0, 3.0, 3.0, 5.0, 6.0, 6.0, 8.0, 14.0, 22.0, 19.0, 330.0, 13.0, 9.0, 2.0, 4.0, 7.0, 2.0, 2.0, 5.0, 0.0, 1.0, 2.0, 1.0, 3.0, 3.0, 1.0, 0.0, 0.0, 1.0, 1.0, 0.0, 1.0, 1.0, 2.0, 0.0, 2.0, 0.0, 1.0, 0.0, 0.0, 1.0, 0.0, 0.0, 1.0, 0.0, 0.0, 1.0], "bins": [-0.030327145010232925, -0.029222484678030014, -0.028117824345827103, -0.02701316401362419, -0.02590850368142128, -0.02480384148657322, -0.023699181154370308, -0.022594520822167397, -0.021489860489964485, -0.020385200157761574, -0.019280539825558662, -0.01817587949335575, -0.01707121729850769, -0.01596655696630478, -0.014861896634101868, -0.013757236301898956, -0.012652575969696045, -0.011547915637493134, -0.010443255305290222, -0.009338594041764736, -0.008233933709561825, -0.007129273377358913, -0.006024612579494715, -0.004919951781630516, -0.0038152914494276047, -0.0027106308843940496, -0.0016059703193604946, -0.0005013097543269396, 0.0006033508107066154, 0.0017080113757401705, 0.0028126719407737255, 0.003917332738637924, 0.005021996796131134, 0.006126657128334045, 0.007231317926198244, 0.008335978724062443, 0.009440639056265354, 0.010545299388468266, 0.011649960651993752, 0.012754620984196663, 0.013859281316399574, 0.014963941648602486, 0.016068601980805397, 0.01717326231300831, 0.01827792450785637, 0.01938258484005928, 0.020487245172262192, 0.021591905504465103, 0.022696565836668015, 0.023801226168870926, 0.024905886501073837, 0.02601054683327675, 0.02711520716547966, 0.02821986936032772, 0.029324529692530632, 0.030429190024733543, 0.031533852219581604, 0.032638512551784515, 0.03374317288398743, 0.03484783321619034, 0.03595249354839325, 0.03705715388059616, 0.03816181421279907, 0.039266474545001984, 0.040371134877204895]}, "gradients/linearlayers.3.0.bias": {"_type": "histogram", "values": [1.0, 0.0, 0.0, 1.0, 0.0, 0.0, 0.0, 0.0, 0.0, 0.0, 0.0, 0.0, 0.0, 0.0, 1.0, 0.0, 1.0, 0.0, 1.0, 0.0, 2.0, 0.0, 0.0, 1.0, 0.0, 0.0, 0.0, 0.0, 17.0, 2.0, 0.0, 0.0, 0.0, 0.0, 0.0, 0.0, 0.0, 0.0, 1.0, 0.0, 0.0, 0.0, 1.0, 0.0, 0.0, 1.0, 0.0, 0.0, 0.0, 0.0, 0.0, 0.0, 0.0, 0.0, 1.0, 0.0, 0.0, 0.0, 0.0, 0.0, 0.0, 0.0, 0.0, 1.0], "bins": [-0.002906473120674491, -0.0028051049448549747, -0.0027037367690354586, -0.002602368826046586, -0.00250100065022707, -0.0023996324744075537, -0.0022982642985880375, -0.0021968961227685213, -0.002095527946949005, -0.0019941600039601326, -0.0018927918281406164, -0.0017914236523211002, -0.001690055476501584, -0.0015886874170973897, -0.0014873192412778735, -0.0013859511818736792, -0.001284583006054163, -0.0011832148302346468, -0.0010818467708304524, -0.0009804785950109363, -0.000879110477399081, -0.0007777423597872257, -0.0006763741839677095, -0.0005750060663558543, -0.000473637948743999, -0.00037226983113214374, -0.000270901684416458, -0.00016953355225268751, -6.816542008891702e-05, 3.320271207485348e-05, 0.00013457084423862398, 0.00023593897640239447, 0.0003373073413968086, 0.0004386754590086639, 0.0005400435766205192, 0.0006414117524400353, 0.0007427798700518906, 0.0008441479876637459, 0.0009455161634832621, 0.0010468842228874564, 0.0011482523987069726, 0.0012496205745264888, 0.0013509886339306831, 0.0014523568097501993, 0.0015537249855697155, 0.0016550930449739099, 0.001756461220793426, 0.0018578292801976204, 0.0019591974560171366, 0.0020605656318366528, 0.002161933807656169, 0.0022633017506450415, 0.0023646699264645576, 0.002466038102284074, 0.00256740627810359, 0.002668774453923106, 0.0027701426297426224, 0.002871510572731495, 0.002972878748551011, 0.0030742469243705273, 0.0031756151001900434, 0.0032769832760095596, 0.003378351218998432, 0.0034797193948179483, 0.0035810875706374645]}, "gradients/linearlayers.3.0.weight": {"_type": "histogram", "values": [1.0, 1.0, 1.0, 1.0, 1.0, 2.0, 0.0, 1.0, 1.0, 2.0, 3.0, 2.0, 2.0, 1.0, 3.0, 3.0, 6.0, 6.0, 8.0, 5.0, 11.0, 20.0, 17.0, 23.0, 30.0, 44.0, 54.0, 93.0, 1471.0, 54.0, 29.0, 22.0, 12.0, 14.0, 15.0, 9.0, 7.0, 13.0, 7.0, 7.0, 6.0, 4.0, 6.0, 1.0, 6.0, 4.0, 1.0, 2.0, 0.0, 2.0, 3.0, 1.0, 2.0, 1.0, 1.0, 0.0, 1.0, 1.0, 0.0, 1.0, 0.0, 1.0, 1.0, 1.0], "bins": [-0.026538969948887825, -0.025595905259251595, -0.024652842432260513, -0.023709777742624283, -0.022766713052988052, -0.02182365022599697, -0.02088058553636074, -0.01993752270936966, -0.01899445801973343, -0.0180513933300972, -0.017108330503106117, -0.016165265813469887, -0.015222202055156231, -0.014279138296842575, -0.013336073607206345, -0.012393009848892689, -0.011449946090579033, -0.010506882332265377, -0.009563818573951721, -0.00862075388431549, -0.007677690126001835, -0.006734626367688179, -0.005791562143713236, -0.004848497919738293, -0.003905434161424637, -0.0029623701702803373, -0.002019306179136038, -0.0010762421879917383, -0.0001331781968474388, 0.0008098857942968607, 0.0017529497854411602, 0.0026960137765854597, 0.0036390796303749084, 0.004582143388688564, 0.0055252076126635075, 0.006468271836638451, 0.0074113355949521065, 0.008354399353265762, 0.009297464042901993, 0.010240527801215649, 0.011183591559529305, 0.01212665531784296, 0.013069719076156616, 0.014012783765792847, 0.014955847524106503, 0.01589891128242016, 0.01684197597205639, 0.01778503879904747, 0.0187281034886837, 0.01967116817831993, 0.020614231005311012, 0.021557295694947243, 0.022500358521938324, 0.023443423211574554, 0.024386487901210785, 0.025329550728201866, 0.026272615417838097, 0.027215680107474327, 0.02815874293446541, 0.02910180762410164, 0.03004487231373787, 0.03098793514072895, 0.03193099796772003, 0.03287406265735626, 0.03381712734699249]}, "gradients/linearlayers.2.0.bias": {"_type": "histogram", "values": [2.0, 0.0, 0.0, 0.0, 0.0, 0.0, 0.0, 0.0, 0.0, 0.0, 0.0, 0.0, 1.0, 0.0, 1.0, 1.0, 2.0, 1.0, 0.0, 1.0, 0.0, 1.0, 3.0, 0.0, 1.0, 2.0, 1.0, 1.0, 2.0, 1.0, 1.0, 2.0, 0.0, 19.0, 0.0, 1.0, 2.0, 0.0, 0.0, 1.0, 2.0, 0.0, 1.0, 1.0, 1.0, 1.0, 1.0, 0.0, 0.0, 1.0, 0.0, 1.0, 1.0, 0.0, 0.0, 1.0, 2.0, 0.0, 2.0, 0.0, 0.0, 0.0, 1.0, 1.0], "bins": [-0.0023596452083438635, -0.0022900209296494722, -0.0022203968837857246, -0.0021507726050913334, -0.002081148326396942, -0.002011524047702551, -0.0019418998854234815, -0.001872275723144412, -0.0018026514444500208, -0.0017330271657556295, -0.0016634030034765601, -0.0015937788411974907, -0.0015241545625030994, -0.0014545302838087082, -0.0013849061215296388, -0.0013152819592505693, -0.001245657680556178, -0.0011760334018617868, -0.0011064092395827174, -0.001036785077303648, -0.0009671607986092567, -0.0008975365781225264, -0.0008279123576357961, -0.0007582881371490657, -0.0006886639166623354, -0.0006190396961756051, -0.0005494154756888747, -0.0004797912552021444, -0.00041016703471541405, -0.0003405428142286837, -0.0002709185937419534, -0.00020129437325522304, -0.0001316701527684927, -6.204593228176236e-05, 7.578288204967976e-06, 7.720250869169831e-05, 0.00014682672917842865, 0.000216450949665159, 0.0002860751701518893, 0.00035569939063861966, 0.00042532361112535, 0.0004949478316120803, 0.0005645720520988107, 0.000634196272585541, 0.0007038204930722713, 0.0007734447135590017, 0.000843068934045732, 0.0009126931545324624, 0.0009823173750191927, 0.001051941653713584, 0.0011215658159926534, 0.0011911899782717228, 0.001260814256966114, 0.0013304385356605053, 0.0014000626979395747, 0.0014696868602186441, 0.0015393111389130354, 0.0016089354176074266, 0.001678559579886496, 0.0017481837421655655, 0.0018178080208599567, 0.001887432299554348, 0.0019570565782487392, 0.002026680624112487, 0.002096304902806878]}, "gradients/linearlayers.2.0.weight": {"_type": "histogram", "values": [3.0, 2.0, 1.0, 2.0, 1.0, 1.0, 2.0, 2.0, 0.0, 4.0, 4.0, 4.0, 3.0, 7.0, 12.0, 8.0, 13.0, 8.0, 15.0, 14.0, 20.0, 29.0, 30.0, 44.0, 52.0, 57.0, 59.0, 79.0, 137.0, 156.0, 241.0, 318.0, 400.0, 4802.0, 271.0, 253.0, 229.0, 157.0, 135.0, 117.0, 75.0, 55.0, 54.0, 45.0, 31.0, 27.0, 49.0, 22.0, 20.0, 23.0, 13.0, 19.0, 10.0, 15.0, 7.0, 11.0, 5.0, 2.0, 5.0, 2.0, 4.0, 1.0, 1.0, 4.0], "bins": [-0.013350081630051136, -0.012952616438269615, -0.012555152177810669, -0.012157686986029148, -0.011760222725570202, -0.011362757533788681, -0.010965293273329735, -0.010567828081548214, -0.010170362889766693, -0.009772898629307747, -0.009375433437526226, -0.00897796917706728, -0.008580503985285759, -0.008183039724826813, -0.007785574533045292, -0.007388109806925058, -0.006990645080804825, -0.006593180354684591, -0.006195715628564358, -0.005798250902444124, -0.005400786176323891, -0.00500332098454237, -0.004605856258422136, -0.004208391532301903, -0.0038109268061816692, -0.0034134620800614357, -0.003015997353941202, -0.002618532394990325, -0.0022210676688700914, -0.001823602942749858, -0.0014261381002143025, -0.0010286732576787472, -0.0006312085315585136, -0.0002337437472306192, 0.00016372103709727526, 0.0005611858214251697, 0.0009586506057530642, 0.0013561153318732977, 0.001753580174408853, 0.0021510450169444084, 0.002548509743064642, 0.0029459744691848755, 0.003343439195305109, 0.003740904154255986, 0.004138369113206863, 0.004535833839327097, 0.0049332985654473305, 0.005330763291567564, 0.0057282280176877975, 0.006125692743808031, 0.006523157469928265, 0.006920622196048498, 0.007318086922168732, 0.0077155521139502525, 0.008113016374409199, 0.00851048156619072, 0.008907945826649666, 0.009305411018431187, 0.009702876210212708, 0.010100340470671654, 0.010497805662453175, 0.01089526992291212, 0.011292735114693642, 0.011690199375152588, 0.012087664566934109]}, "gradients/linearlayers.1.0.bias": {"_type": "histogram", "values": [2.0, 0.0, 0.0, 0.0, 0.0, 1.0, 1.0, 0.0, 0.0, 1.0, 0.0, 1.0, 1.0, 1.0, 1.0, 0.0, 1.0, 1.0, 3.0, 3.0, 0.0, 1.0, 0.0, 1.0, 2.0, 0.0, 8.0, 1.0, 5.0, 1.0, 2.0, 43.0, 4.0, 2.0, 3.0, 1.0, 0.0, 3.0, 0.0, 2.0, 1.0, 6.0, 3.0, 1.0, 3.0, 1.0, 2.0, 1.0, 2.0, 1.0, 3.0, 1.0, 1.0, 1.0, 1.0, 0.0, 0.0, 0.0, 0.0, 1.0, 0.0, 1.0, 0.0, 2.0], "bins": [-0.0026508623268455267, -0.0025656060315668583, -0.00248034973628819, -0.0023950934410095215, -0.0023098373785614967, -0.0022245810832828283, -0.00213932478800416, -0.0020540684927254915, -0.001968812197446823, -0.0018835559021681547, -0.0017982996068894863, -0.0017130434280261397, -0.0016277871327474713, -0.001542530837468803, -0.0014572746586054564, -0.001372018363326788, -0.0012867620680481195, -0.0012015057727694511, -0.0011162494774907827, -0.0010309932986274362, -0.0009457370033487678, -0.0008604807080700994, -0.0007752244709990919, -0.0006899682339280844, -0.000604711938649416, -0.0005194556433707476, -0.0004341994062997401, -0.00034894314012490213, -0.0002636868739500642, -0.00017843060777522624, -9.317434160038829e-05, -7.918075425550342e-06, 7.733842357993126e-05, 0.0001625946897547692, 0.00024785095592960715, 0.0003331072221044451, 0.00041836348827928305, 0.0005036197835579515, 0.0005888760206289589, 0.0006741322576999664, 0.0007593885529786348, 0.0008446448482573032, 0.0009299010853283107, 0.0010151573223993182, 0.0011004136176779866, 0.001185669912956655, 0.0012709260918200016, 0.00135618238709867, 0.0014414386823773384, 0.0015266949776560068, 0.0016119512729346752, 0.0016972074517980218, 0.0017824637470766902, 0.0018677200423553586, 0.0019529762212187052, 0.0020382325164973736, 0.002123488811776042, 0.0022087451070547104, 0.002294001402333379, 0.002379257697612047, 0.002464513760060072, 0.0025497700553387403, 0.0026350263506174088, 0.002720282645896077, 0.0028055389411747456]}, "gradients/linearlayers.1.0.weight": {"_type": "histogram", "values": [2.0, 0.0, 0.0, 0.0, 1.0, 5.0, 7.0, 4.0, 1.0, 4.0, 15.0, 13.0, 7.0, 12.0, 17.0, 21.0, 28.0, 18.0, 46.0, 48.0, 54.0, 75.0, 110.0, 119.0, 153.0, 196.0, 289.0, 421.0, 622.0, 1087.0, 2137.0, 21504.0, 1474.0, 1054.0, 792.0, 515.0, 415.0, 324.0, 255.0, 183.0, 161.0, 123.0, 78.0, 74.0, 72.0, 38.0, 38.0, 34.0, 19.0, 21.0, 9.0, 11.0, 15.0, 13.0, 7.0, 5.0, 9.0, 4.0, 3.0, 1.0, 2.0, 0.0, 1.0, 2.0], "bins": [-0.01056698802858591, -0.01022789254784584, -0.009888797998428345, -0.009549702517688274, -0.009210607036948204, -0.008871512487530708, -0.008532417006790638, -0.008193321526050568, -0.007854226976633072, -0.0075151314958930016, -0.007176036015152931, -0.006836941000074148, -0.006497845984995365, -0.006158750504255295, -0.005819655489176512, -0.005480560008436441, -0.005141464993357658, -0.004802369978278875, -0.004463274497538805, -0.004124179482460022, -0.0037850842345505953, -0.0034459889866411686, -0.0031068939715623856, -0.002767798723652959, -0.002428703475743532, -0.0020896082278341055, -0.0017505130963400006, -0.0014114179648458958, -0.001072322716936469, -0.0007332275272347033, -0.0003941323375329375, -5.503714783117175e-05, 0.00028405897319316864, 0.0006231541628949344, 0.0009622493525967002, 0.001301344484090805, 0.0016404397320002317, 0.0019795349799096584, 0.0023186299949884415, 0.002657725242897868, 0.002996820490807295, 0.0033359157387167215, 0.0036750109866261482, 0.004014106001704931, 0.004353201016783714, 0.004692296497523785, 0.005031391512602568, 0.005370486993342638, 0.005709582008421421, 0.006048677023500204, 0.006387772504240274, 0.0067268675193190575, 0.007065963000059128, 0.007405058015137911, 0.007744153030216694, 0.008083248510956764, 0.00842234306037426, 0.00876143854111433, 0.0091005340218544, 0.009439629502594471, 0.009778724052011967, 0.010117819532752037, 0.010456915013492107, 0.010796009562909603, 0.011135105043649673]}, "gradients/linearlayers.0.0.bias": {"_type": "histogram", "values": [1.0, 1.0, 0.0, 0.0, 0.0, 0.0, 1.0, 0.0, 0.0, 1.0, 1.0, 1.0, 0.0, 2.0, 1.0, 1.0, 3.0, 3.0, 2.0, 2.0, 1.0, 2.0, 3.0, 3.0, 4.0, 2.0, 7.0, 2.0, 1.0, 2.0, 1.0, 3.0, 5.0, 3.0, 5.0, 88.0, 6.0, 4.0, 4.0, 3.0, 3.0, 4.0, 8.0, 6.0, 2.0, 0.0, 6.0, 6.0, 4.0, 6.0, 3.0, 6.0, 7.0, 3.0, 5.0, 3.0, 1.0, 3.0, 4.0, 1.0, 1.0, 1.0, 1.0, 3.0], "bins": [-0.003760978113859892, -0.003656182438135147, -0.0035513867624104023, -0.003446590853855014, -0.003341795178130269, -0.0032369995024055243, -0.0031322038266807795, -0.0030274081509560347, -0.002922612242400646, -0.0028178165666759014, -0.0027130208909511566, -0.002608225215226412, -0.002503429539501667, -0.0023986338637769222, -0.0022938379552215338, -0.002189042279496789, -0.002084246603772044, -0.0019794509280472994, -0.0018746551359072328, -0.001769859460182488, -0.0016650636680424213, -0.0015602679923176765, -0.0014554723165929317, -0.0013506765244528651, -0.0012458808487281203, -0.0011410851730033755, -0.001036289380863309, -0.0009314937051385641, -0.0008266979712061584, -0.0007219022372737527, -0.0006171065615490079, -0.0005123108276166022, -0.00040751509368419647, -0.00030271935975179076, -0.0001979236549232155, -9.312793554272503e-05, 1.1667783837765455e-05, 0.00011646350321825594, 0.00022125922259874642, 0.00032605492742732167, 0.0004308506613597274, 0.0005356463952921331, 0.0006404421292245388, 0.0007452378049492836, 0.0008500335388816893, 0.000954829272814095, 0.0010596249485388398, 0.0011644207406789064, 0.0012692164164036512, 0.001374012092128396, 0.0014788078842684627, 0.0015836035599932075, 0.001688399352133274, 0.0017931950278580189, 0.0018979907035827637, 0.0020027863793075085, 0.0021075820550322533, 0.0022123779635876417, 0.0023171736393123865, 0.0024219693150371313, 0.002526764990761876, 0.002631560666486621, 0.0027363565750420094, 0.002841152250766754, 0.002945947926491499]}, "gradients/linearlayers.0.0.weight": {"_type": "histogram", "values": [2.0, 1.0, 1.0, 3.0, 3.0, 3.0, 3.0, 2.0, 2.0, 7.0, 11.0, 8.0, 24.0, 18.0, 10.0, 22.0, 36.0, 39.0, 62.0, 73.0, 90.0, 97.0, 166.0, 200.0, 232.0, 297.0, 426.0, 582.0, 730.0, 1004.0, 1347.0, 1915.0, 2572.0, 3839.0, 6161.0, 78818.0, 8589.0, 5976.0, 4694.0, 3386.0, 2544.0, 1842.0, 1323.0, 1018.0, 676.0, 581.0, 408.0, 309.0, 236.0, 163.0, 122.0, 107.0, 84.0, 38.0, 52.0, 41.0, 24.0, 15.0, 9.0, 9.0, 10.0, 5.0, 3.0, 2.0], "bins": [-0.007104600314050913, -0.00690424581989646, -0.006703890860080719, -0.006503536365926266, -0.006303181406110525, -0.006102826911956072, -0.005902471952140331, -0.005702117457985878, -0.005501762963831425, -0.005301408004015684, -0.005101053509861231, -0.00490069855004549, -0.004700344055891037, -0.004499989096075296, -0.004299634601920843, -0.0040992796421051025, -0.0038989251479506493, -0.0036985704209655523, -0.0034982156939804554, -0.0032978609669953585, -0.0030975062400102615, -0.0028971517458558083, -0.0026967970188707113, -0.0024964422918856144, -0.0022960875649005175, -0.0020957328379154205, -0.0018953781109303236, -0.0016950235003605485, -0.0014946687733754516, -0.0012943140463903546, -0.0010939594358205795, -0.0008936047088354826, -0.000693250447511673, -0.000492895720526576, -0.00029254105174914, -9.218635386787355e-05, 0.00010816834401339293, 0.0003085230418946594, 0.0005088777397759259, 0.0007092324085533619, 0.0009095871355384588, 0.0011099418625235558, 0.0013102965895086527, 0.0015106512000784278, 0.0017110059270635247, 0.0019113606540486217, 0.0021117152646183968, 0.0023120699916034937, 0.0025124247185885906, 0.0027127794455736876, 0.0029131341725587845, 0.0031134888995438814, 0.0033138436265289783, 0.0035141981206834316, 0.0037145528476685286, 0.0039149075746536255, 0.004115262068808079, 0.004315617028623819, 0.004515971522778273, 0.004716326482594013, 0.0049166809767484665, 0.005117035936564207, 0.00531739043071866, 0.005517745390534401, 0.005718099884688854]}, "gradients/embeds.2.bias": {"_type": "histogram", "values": [1.0, 0.0, 0.0, 0.0, 0.0, 2.0, 0.0, 0.0, 1.0, 2.0, 3.0, 4.0, 3.0, 7.0, 2.0, 7.0, 6.0, 4.0, 8.0, 10.0, 6.0, 2.0, 10.0, 4.0, 11.0, 9.0, 12.0, 10.0, 11.0, 12.0, 20.0, 91.0, 23.0, 11.0, 17.0, 17.0, 14.0, 9.0, 9.0, 16.0, 17.0, 16.0, 9.0, 14.0, 13.0, 9.0, 9.0, 10.0, 8.0, 4.0, 4.0, 9.0, 3.0, 3.0, 2.0, 0.0, 1.0, 1.0, 1.0, 2.0, 1.0, 0.0, 0.0, 2.0], "bins": [-0.005938435439020395, -0.005751796532422304, -0.0055651580914855, -0.005378519184887409, -0.005191880743950605, -0.005005241837352514, -0.0048186033964157104, -0.004631964489817619, -0.004445325583219528, -0.004258687142282724, -0.004072048235684633, -0.0038854097947478294, -0.0036987708881497383, -0.003512132214382291, -0.0033254935406148434, -0.003138854866847396, -0.0029522161930799484, -0.002765577519312501, -0.0025789388455450535, -0.002392300171777606, -0.0022056614980101585, -0.0020190225914120674, -0.00183238391764462, -0.0016457452438771725, -0.001459106570109725, -0.0012724678963422775, -0.00108582922257483, -0.0008991904323920608, -0.0007125517586246133, -0.0005259130848571658, -0.00033927435288205743, -0.0001526356500107795, 3.400258719921112e-05, 0.00022064129007048905, 0.000407279992941767, 0.0005939187249168754, 0.0007805573986843228, 0.0009671960724517703, 0.0011538348626345396, 0.001340473536401987, 0.0015271122101694345, 0.001713750883936882, 0.0019003895577043295, 0.002087028231471777, 0.002273667138069868, 0.0024603058118373156, 0.002646944485604763, 0.0028335831593722105, 0.003020221833139658, 0.0032068605069071054, 0.003393499180674553, 0.0035801378544420004, 0.003766776528209448, 0.003953415434807539, 0.004140053875744343, 0.004326692782342434, 0.004513331688940525, 0.004699970129877329, 0.00488660903647542, 0.005073247477412224, 0.005259886384010315, 0.005446524824947119, 0.00563316373154521, 0.005819802172482014, 0.006006441079080105]}, "gradients/embeds.2.weight": {"_type": "histogram", "values": [1.0, 0.0, 0.0, 0.0, 0.0, 3.0, 1.0, 2.0, 2.0, 6.0, 11.0, 11.0, 16.0, 27.0, 34.0, 50.0, 60.0, 108.0, 162.0, 238.0, 377.0, 531.0, 814.0, 1344.0, 2050.0, 3182.0, 5116.0, 8872.0, 19988.0, 65985.0, 315264.0, 50176.0, 20790.0, 10956.0, 6450.0, 4029.0, 2625.0, 1641.0, 1067.0, 768.0, 479.0, 327.0, 213.0, 153.0, 101.0, 75.0, 59.0, 33.0, 26.0, 22.0, 11.0, 11.0, 7.0, 5.0, 2.0, 1.0, 0.0, 2.0, 2.0, 0.0, 1.0, 0.0, 0.0, 1.0], "bins": [-0.008631027303636074, -0.008345533162355423, -0.008060039021074772, -0.007774545345455408, -0.007489051204174757, -0.007203557062894106, -0.006918063387274742, -0.006632569245994091, -0.00634707510471344, -0.006061580963432789, -0.005776086822152138, -0.005490593146532774, -0.005205099005252123, -0.004919604863971472, -0.004634111188352108, -0.004348617047071457, -0.004063122905790806, -0.0037776287645101547, -0.0034921348560601473, -0.00320664094761014, -0.0029211468063294888, -0.0026356526650488377, -0.0023501587565988302, -0.002064664848148823, -0.0017791707068681717, -0.0014936766820028424, -0.0012081826571375132, -0.0009226886322721839, -0.0006371946074068546, -0.00035170058254152536, -6.62065576761961e-05, 0.00021928746718913317, 0.000504782423377037, 0.0007902764482423663, 0.0010757704731076956, 0.0013612644979730248, 0.0016467585228383541, 0.0019322525477036834, 0.0022177465725690126, 0.00250324048101902, 0.002788734622299671, 0.0030742287635803223, 0.0033597226720303297, 0.003645216580480337, 0.003930710721760988, 0.004216204863041639, 0.004501698538661003, 0.004787192679941654, 0.005072686821222305, 0.005358180962502956, 0.0056436751037836075, 0.005929168779402971, 0.006214662920683622, 0.0065001570619642735, 0.006785650737583637, 0.007071144878864288, 0.007356639020144939, 0.0076421331614255905, 0.007927627302706242, 0.008213121443986893, 0.00849861465394497, 0.00878410879522562, 0.009069602936506271, 0.009355097077786922, 0.009640591219067574]}, "gradients/embeds.0.bias": {"_type": "histogram", "values": [1.0, 0.0, 0.0, 0.0, 1.0, 0.0, 0.0, 0.0, 4.0, 1.0, 2.0, 0.0, 1.0, 0.0, 3.0, 3.0, 1.0, 1.0, 1.0, 9.0, 6.0, 6.0, 9.0, 9.0, 24.0, 17.0, 28.0, 36.0, 41.0, 63.0, 70.0, 190.0, 149.0, 76.0, 37.0, 32.0, 34.0, 31.0, 19.0, 13.0, 17.0, 5.0, 16.0, 10.0, 7.0, 6.0, 10.0, 6.0, 5.0, 4.0, 3.0, 3.0, 3.0, 3.0, 2.0, 1.0, 1.0, 0.0, 1.0, 0.0, 1.0, 0.0, 1.0, 1.0], "bins": [-0.012860825285315514, -0.012456470169126987, -0.012052115052938461, -0.011647759936749935, -0.011243404820561409, -0.010839050635695457, -0.010434695519506931, -0.010030340403318405, -0.009625985287129879, -0.009221630170941353, -0.008817275054752827, -0.0084129199385643, -0.008008565753698349, -0.0076042101718485355, -0.007199855521321297, -0.0067955004051327705, -0.006391145288944244, -0.005986790172755718, -0.005582435056567192, -0.005178080406039953, -0.004773725289851427, -0.004369370173662901, -0.003965015523135662, -0.003560660406947136, -0.0031563052907586098, -0.0027519501745700836, -0.002347595291212201, -0.0019432402914389968, -0.0015388852916657925, -0.0011345302918925881, -0.0007301752921193838, -0.0003258202923461795, 7.853563874959946e-05, 0.0004828906385228038, 0.0008872456382960081, 0.0012916006380692124, 0.0016959556378424168, 0.002100310754030943, 0.0025046656373888254, 0.002909020520746708, 0.003313375636935234, 0.0037177307531237602, 0.004122085869312286, 0.004526440519839525, 0.004930795636028051, 0.0053351507522165775, 0.005739505402743816, 0.0061438605189323425, 0.006548215635120869, 0.006952570751309395, 0.007356925867497921, 0.00776128051802516, 0.008165635168552399, 0.008569990284740925, 0.008974345400929451, 0.009378700517117977, 0.009783055633306503, 0.01018741074949503, 0.010591765865683556, 0.010996120981872082, 0.011400476098060608, 0.01180483028292656, 0.012209185399115086, 0.012613540515303612, 0.013017895631492138]}, "gradients/embeds.0.weight": {"_type": "histogram", "values": [1.0, 0.0, 0.0, 0.0, 0.0, 0.0, 2.0, 1.0, 2.0, 2.0, 0.0, 1.0, 1.0, 0.0, 4.0, 1.0, 1.0, 5.0, 6.0, 6.0, 12.0, 7.0, 16.0, 23.0, 38.0, 61.0, 104.0, 155.0, 334.0, 1337.0, 19111.0, 738237.0, 24496.0, 1565.0, 353.0, 164.0, 105.0, 56.0, 53.0, 33.0, 24.0, 16.0, 22.0, 11.0, 11.0, 13.0, 9.0, 6.0, 4.0, 4.0, 5.0, 3.0, 2.0, 3.0, 1.0, 1.0, 0.0, 1.0, 1.0, 0.0, 1.0, 0.0, 0.0, 1.0], "bins": [-0.17441248893737793, -0.1688825935125351, -0.16335269808769226, -0.15782281756401062, -0.15229292213916779, -0.14676302671432495, -0.1412331461906433, -0.13570325076580048, -0.13017335534095764, -0.12464345991611481, -0.11911357194185257, -0.11358368396759033, -0.1080537885427475, -0.10252389311790466, -0.09699400514364243, -0.09146411716938019, -0.08593422174453735, -0.08040432631969452, -0.07487443834543228, -0.06934455037117004, -0.06381465494632721, -0.05828476324677467, -0.05275487154722214, -0.0472249798476696, -0.041695088148117065, -0.03616519644856453, -0.030635304749011993, -0.025105413049459457, -0.01957552134990692, -0.014045629650354385, -0.00851573795080185, -0.0029858462512493134, 0.0025440603494644165, 0.008073952049016953, 0.013603843748569489, 0.019133735448122025, 0.02466362714767456, 0.030193518847227097, 0.03572341054677963, 0.04125330224633217, 0.046783193945884705, 0.05231308564543724, 0.05784297734498978, 0.06337286531925201, 0.06890276074409485, 0.07443265616893768, 0.07996254414319992, 0.08549243211746216, 0.09102232754230499, 0.09655222296714783, 0.10208211094141006, 0.1076119989156723, 0.11314189434051514, 0.11867178976535797, 0.12420167773962021, 0.12973156571388245, 0.13526146113872528, 0.14079135656356812, 0.14632123708724976, 0.1518511325120926, 0.15738102793693542, 0.16291092336177826, 0.1684408187866211, 0.17397069931030273, 0.17950059473514557]}, "CYP2C9 Confusion Matrix": {"_type": "image-file", "sha256": "4dcd85af07ebd6f4dc05a462e275c6c4d4642faf204fa3772080c85029ee137f", "size": 17304, "path": "media/images/CYP2C9 Confusion Matrix_111_4dcd85af07ebd6f4dc05.png", "format": "png", "width": 1000, "height": 700}, "total_best_ep": 14, "total_best_ep_tloss": 0.10672739893198013, "total_best_ep_vloss": 0.392487496137619, "total_best_ep_AUC": 0.9150885157087775, "total_best_ep_precision": 0.7780040733197556, "total_best_ep_recall": 0.7374517374517374, "total_best_ep_f1": 0.757185332011893, "_wandb": {"runtime": 778}}