{"epoch": 19, "_timestamp": 1722987405.1314585, "_runtime": 191.82498955726624, "_step": 149, "train loss": 0.2502302825450897, "val loss": 0.631637454032898, "val auc": 0.8034001926217494, "val precision": 0.7012987012987013, "val recall": 0.7552447552447552, "val f1": 0.7272727272727273, "CARDIO Confusion Matrix": {"_type": "image-file", "sha256": "8f0be7ae8090ffbbe8eaaa2ad8b9e0cdd3aec7346328eabdcf45e1c887982be2", "size": 14425, "path": "media/images/CARDIO Confusion Matrix_141_8f0be7ae8090ffbbe8ea.png", "format": "png", "width": 1000, "height": 700}, "gradients/output.bias": {"_type": "histogram", "values": [1.0], "bins": [0.051189180463552475, 0.051189180463552475]}, "gradients/output.weight": {"_type": "histogram", "values": [1.0, 0.0, 0.0, 0.0, 0.0, 0.0, 1.0, 0.0, 0.0, 0.0, 2.0, 1.0, 0.0, 1.0, 1.0, 1.0, 1.0, 0.0, 0.0, 0.0, 0.0, 0.0, 0.0, 0.0, 0.0, 1.0, 0.0, 0.0, 0.0, 0.0, 0.0, 0.0, 0.0, 0.0, 0.0, 1.0, 0.0, 0.0, 0.0, 0.0, 0.0, 0.0, 0.0, 0.0, 0.0, 0.0, 0.0, 0.0, 1.0, 0.0, 0.0, 0.0, 0.0, 0.0, 1.0, 1.0, 0.0, 1.0, 0.0, 0.0, 0.0, 0.0, 0.0, 1.0], "bins": [-0.08773819357156754, -0.08419361710548401, -0.08064903318881989, -0.07710445672273636, -0.07355988025665283, -0.0700153037905693, -0.06647072732448578, -0.06292614340782166, -0.05938156694173813, -0.0558369904756546, -0.05229241028428078, -0.04874783009290695, -0.045203253626823425, -0.0416586771607399, -0.038114096969366074, -0.03456951677799225, -0.031024940311908722, -0.027480361983180046, -0.02393578365445137, -0.020391205325722694, -0.01684662699699402, -0.013302048668265343, -0.009757470339536667, -0.006212892010807991, -0.002668313682079315, 0.0008762646466493607, 0.0044208429753780365, 0.007965421304106712, 0.011509999632835388, 0.015054577961564064, 0.01859915629029274, 0.022143734619021416, 0.025688305497169495, 0.02923288382589817, 0.032777462154626846, 0.03632204234600067, 0.0398666188120842, 0.043411195278167725, 0.04695577546954155, 0.050500355660915375, 0.0540449321269989, 0.05758950859308243, 0.06113408878445625, 0.06467866897583008, 0.0682232454419136, 0.07176782190799713, 0.07531240582466125, 0.07885698229074478, 0.08240155875682831, 0.08594613522291183, 0.08949071168899536, 0.09303529560565948, 0.09657987207174301, 0.10012444853782654, 0.10366903245449066, 0.10721360892057419, 0.11075818538665771, 0.11430276185274124, 0.11784733831882477, 0.12139192223548889, 0.12493649870157242, 0.12848107516765594, 0.13202565908432007, 0.135570228099823, 0.13911481201648712]}, "gradients/linearlayers.4.0.bias": {"_type": "histogram", "values": [2.0, 1.0, 0.0, 0.0, 0.0, 1.0, 0.0, 0.0, 0.0, 0.0, 0.0, 0.0, 1.0, 0.0, 0.0, 0.0, 0.0, 0.0, 0.0, 0.0, 1.0, 0.0, 0.0, 0.0, 0.0, 0.0, 0.0, 0.0, 0.0, 0.0, 0.0, 0.0, 0.0, 0.0, 0.0, 1.0, 0.0, 0.0, 2.0, 0.0, 1.0, 0.0, 0.0, 0.0, 1.0, 0.0, 0.0, 0.0, 0.0, 1.0, 0.0, 0.0, 0.0, 0.0, 0.0, 0.0, 0.0, 1.0, 1.0, 0.0, 0.0, 0.0, 0.0, 2.0], "bins": [-0.010378029197454453, -0.010030736215412617, -0.009683442302048206, -0.00933614932000637, -0.00898885540664196, -0.008641562424600124, -0.008294269442558289, -0.007946975529193878, -0.007599682547152042, -0.007252389099448919, -0.006905095651745796, -0.006557802204042673, -0.00621050875633955, -0.005863215308636427, -0.005515922326594591, -0.005168628878891468, -0.004821335431188345, -0.004474041983485222, -0.004126748535782099, -0.0037794553209096193, -0.00343216210603714, -0.003084868658334017, -0.0027375752106308937, -0.0023902819957584143, -0.002042988548055291, -0.00169569521676749, -0.0013484018854796886, -0.0010011084377765656, -0.0006538151064887643, -0.00030652174609713256, 4.077161429449916e-05, 0.0003880649746861309, 0.0007353583350777626, 0.0010826516663655639, 0.0014299449976533651, 0.0017772384453564882, 0.0021245316602289677, 0.0024718251079320908, 0.002819118555635214, 0.0031664117705076933, 0.0035137052182108164, 0.0038609986659139395, 0.004208291880786419, 0.004555585328489542, 0.004902878776192665, 0.005250172223895788, 0.005597465205937624, 0.005944758653640747, 0.00629205210134387, 0.006639345549046993, 0.006986638996750116, 0.007333931978791952, 0.007681225426495075, 0.008028519339859486, 0.008375812321901321, 0.008723105303943157, 0.009070399217307568, 0.009417692199349403, 0.009764986112713814, 0.01011227909475565, 0.010459572076797485, 0.010806865990161896, 0.011154158972203732, 0.011501452885568142, 0.011848745867609978]}, "gradients/linearlayers.4.0.weight": {"_type": "histogram", "values": [1.0, 0.0, 0.0, 0.0, 0.0, 1.0, 0.0, 1.0, 0.0, 3.0, 2.0, 1.0, 0.0, 1.0, 4.0, 3.0, 6.0, 2.0, 6.0, 3.0, 4.0, 8.0, 15.0, 15.0, 18.0, 18.0, 18.0, 20.0, 19.0, 27.0, 15.0, 22.0, 17.0, 13.0, 27.0, 22.0, 26.0, 24.0, 26.0, 11.0, 17.0, 17.0, 13.0, 13.0, 10.0, 8.0, 5.0, 3.0, 8.0, 2.0, 2.0, 3.0, 0.0, 4.0, 1.0, 1.0, 2.0, 1.0, 0.0, 2.0, 0.0, 0.0, 0.0, 1.0], "bins": [-0.02704855240881443, -0.026224132627248764, -0.025399712845683098, -0.024575291201472282, -0.023750871419906616, -0.02292645163834095, -0.022102031856775284, -0.021277612075209618, -0.02045319229364395, -0.019628770649433136, -0.01880435086786747, -0.017979931086301804, -0.017155511304736137, -0.01633109152317047, -0.01550667081028223, -0.01468225009739399, -0.013857830315828323, -0.013033410534262657, -0.012208989821374416, -0.01138457003980875, -0.01056014932692051, -0.009735729545354843, -0.008911309763789177, -0.008086889050900936, -0.00726246926933527, -0.006438049022108316, -0.005613628774881363, -0.004789208993315697, -0.003964788746088743, -0.0031403684988617897, -0.00231594848446548, -0.0014915283536538482, -0.0006671063601970673, 0.00015731377061456442, 0.000981733901426196, 0.0018061540322378278, 0.0026305741630494595, 0.003454994410276413, 0.004279414191842079, 0.005103834439069033, 0.005928254686295986, 0.00675267493352294, 0.007577095180749893, 0.00840151496231556, 0.009225934743881226, 0.010050355456769466, 0.010874775238335133, 0.011699195951223373, 0.01252361573278904, 0.013348035514354706, 0.014172456227242947, 0.014996876008808613, 0.015821296721696854, 0.01664571650326252, 0.017470136284828186, 0.018294556066393852, 0.01911897584795952, 0.019943397492170334, 0.020767817273736, 0.021592237055301666, 0.022416656836867332, 0.023241076618433, 0.024065498262643814, 0.02488991804420948, 0.025714337825775146]}, "gradients/linearlayers.3.0.bias": {"_type": "histogram", "values": [1.0, 0.0, 0.0, 0.0, 0.0, 0.0, 1.0, 0.0, 1.0, 2.0, 2.0, 0.0, 0.0, 0.0, 1.0, 1.0, 1.0, 1.0, 2.0, 1.0, 0.0, 0.0, 0.0, 0.0, 1.0, 1.0, 0.0, 1.0, 1.0, 1.0, 1.0, 1.0, 0.0, 0.0, 1.0, 1.0, 0.0, 0.0, 0.0, 1.0, 1.0, 0.0, 1.0, 1.0, 0.0, 1.0, 0.0, 0.0, 1.0, 1.0, 0.0, 0.0, 0.0, 0.0, 0.0, 0.0, 1.0, 0.0, 0.0, 0.0, 0.0, 0.0, 0.0, 1.0], "bins": [-0.011672774329781532, -0.011283925734460354, -0.010895077139139175, -0.010506228543817997, -0.010117379948496819, -0.00972853135317564, -0.009339682757854462, -0.008950834162533283, -0.008561985567212105, -0.008173137903213501, -0.007784288842231035, -0.007395440246909857, -0.007006592117249966, -0.006617743521928787, -0.006228894926607609, -0.00584004633128643, -0.005451197735965252, -0.0050623491406440735, -0.004673500545322895, -0.004284651950001717, -0.003895803587511182, -0.0035069549921900034, -0.0031181066296994686, -0.00272925803437829, -0.0023404094390571117, -0.0019515608437359333, -0.0015627123648300767, -0.00117386388592422, -0.0007850152906030416, -0.0003961667534895241, -7.318216376006603e-06, 0.0003815303207375109, 0.0007703797891736031, 0.0011592283844947815, 0.001548076863400638, 0.0019369253423064947, 0.002325773937627673, 0.0027146225329488516, 0.0031034708954393864, 0.003492319490760565, 0.0038811680860817432, 0.004270016681402922, 0.0046588652767241, 0.0050477138720452785, 0.00543656200170517, 0.005825410597026348, 0.0062142591923475266, 0.006603107787668705, 0.006991956382989883, 0.007380804978311062, 0.00776965357363224, 0.008158502168953419, 0.008547350764274597, 0.008936199359595776, 0.009325047954916954, 0.009713896550238132, 0.010102745145559311, 0.010491592809557915, 0.010880441404879093, 0.011269290000200272, 0.01165813859552145, 0.012046987190842628, 0.012435835786163807, 0.012824684381484985, 0.013213532976806164]}, "gradients/linearlayers.3.0.weight": {"_type": "histogram", "values": [1.0, 1.0, 0.0, 0.0, 2.0, 3.0, 2.0, 1.0, 5.0, 0.0, 2.0, 5.0, 5.0, 7.0, 4.0, 11.0, 7.0, 19.0, 7.0, 16.0, 33.0, 17.0, 27.0, 45.0, 43.0, 46.0, 58.0, 63.0, 66.0, 89.0, 93.0, 105.0, 133.0, 171.0, 156.0, 111.0, 106.0, 64.0, 90.0, 54.0, 49.0, 44.0, 45.0, 44.0, 28.0, 29.0, 22.0, 16.0, 17.0, 18.0, 10.0, 13.0, 7.0, 4.0, 10.0, 5.0, 6.0, 2.0, 4.0, 2.0, 2.0, 2.0, 0.0, 1.0], "bins": [-0.018257301300764084, -0.017713909968733788, -0.01717051863670349, -0.016627127304673195, -0.0160837359726429, -0.015540345571935177, -0.014996955171227455, -0.014453563839197159, -0.013910172507166862, -0.013366781175136566, -0.01282338984310627, -0.012279999442398548, -0.011736608110368252, -0.011193216778337955, -0.010649826377630234, -0.010106435045599937, -0.009563043713569641, -0.009019652381539345, -0.008476261049509048, -0.007932870648801327, -0.00738947931677103, -0.006846087984740734, -0.006302697118371725, -0.005759306252002716, -0.00521591491997242, -0.004672523587942123, -0.004129132721573114, -0.0035857416223734617, -0.003042350523173809, -0.0024989594239741564, -0.0019555683247745037, -0.001412177225574851, -0.0008687842637300491, -0.00032539316453039646, 0.0002179979346692562, 0.0007613890338689089, 0.0013047801330685616, 0.0018481712322682142, 0.002391562331467867, 0.0029349534306675196, 0.0034783445298671722, 0.004021735861897469, 0.004565126728266478, 0.005108517594635487, 0.005651908926665783, 0.006195300258696079, 0.006738691125065088, 0.007282081991434097, 0.007825473323464394, 0.00836886465549469, 0.008912255987524986, 0.009455646388232708, 0.009999037720263004, 0.0105424290522933, 0.011085819453001022, 0.011629210785031319, 0.012172602117061615, 0.012715993449091911, 0.013259384781122208, 0.01380277518182993, 0.014346166513860226, 0.014889557845890522, 0.015432948246598244, 0.01597633957862854, 0.016519730910658836]}, "gradients/linearlayers.2.0.bias": {"_type": "histogram", "values": [1.0, 0.0, 0.0, 0.0, 0.0, 0.0, 0.0, 0.0, 0.0, 1.0, 0.0, 1.0, 0.0, 0.0, 1.0, 1.0, 1.0, 0.0, 0.0, 1.0, 2.0, 1.0, 2.0, 1.0, 1.0, 1.0, 0.0, 1.0, 2.0, 2.0, 2.0, 2.0, 2.0, 3.0, 1.0, 3.0, 0.0, 2.0, 1.0, 3.0, 1.0, 2.0, 2.0, 2.0, 4.0, 3.0, 0.0, 0.0, 1.0, 1.0, 1.0, 0.0, 1.0, 0.0, 1.0, 0.0, 0.0, 2.0, 1.0, 0.0, 1.0, 0.0, 0.0, 2.0], "bins": [-0.01207365095615387, -0.011704903095960617, -0.01133615430444479, -0.010967406444251537, -0.01059865765273571, -0.010229909792542458, -0.009861161932349205, -0.009492413140833378, -0.009123665280640125, -0.008754917420446873, -0.008386168628931046, -0.008017420768737793, -0.007648672442883253, -0.007279924117028713, -0.006911176256835461, -0.006542427930980921, -0.006173679605126381, -0.005804931279271841, -0.005436182953417301, -0.005067435093224049, -0.004698686767369509, -0.004329938441514969, -0.003961190581321716, -0.0035924422554671764, -0.0032236939296126366, -0.0028549456037580967, -0.0024861975107342005, -0.0021174494177103043, -0.0017487010918557644, -0.0013799528824165463, -0.0010112046729773283, -0.0006424564635381103, -0.00027370918542146683, 9.503902401775122e-05, 0.00046378723345696926, 0.0008325354428961873, 0.0012012836523354053, 0.0015700318617746234, 0.0019387800712138414, 0.0023075281642377377, 0.0026762764900922775, 0.0030450248159468174, 0.0034137729089707136, 0.00378252100199461, 0.00415126932784915, 0.00452001765370369, 0.004888765513896942, 0.005257513839751482, 0.005626262165606022, 0.005995010491460562, 0.006363758817315102, 0.006732506677508354, 0.007101255003362894, 0.007470003329217434, 0.007838751189410686, 0.008207499980926514, 0.008576247841119766, 0.008944995701313019, 0.009313744492828846, 0.009682492353022099, 0.010051241144537926, 0.010419989004731178, 0.01078873686492443, 0.011157485656440258, 0.01152623351663351]}, "gradients/linearlayers.2.0.weight": {"_type": "histogram", "values": [1.0, 0.0, 1.0, 3.0, 3.0, 0.0, 5.0, 4.0, 7.0, 4.0, 1.0, 1.0, 4.0, 5.0, 8.0, 12.0, 17.0, 20.0, 23.0, 36.0, 46.0, 65.0, 71.0, 74.0, 96.0, 120.0, 178.0, 234.0, 289.0, 372.0, 535.0, 774.0, 1142.0, 1085.0, 757.0, 498.0, 394.0, 290.0, 242.0, 168.0, 104.0, 112.0, 77.0, 74.0, 48.0, 43.0, 33.0, 20.0, 16.0, 14.0, 11.0, 12.0, 8.0, 9.0, 6.0, 5.0, 2.0, 3.0, 2.0, 5.0, 1.0, 0.0, 0.0, 2.0], "bins": [-0.01883881725370884, -0.018267173320055008, -0.017695529386401176, -0.017123885452747345, -0.016552241519093513, -0.015980597585439682, -0.015408952720463276, -0.014837308786809444, -0.014265663921833038, -0.013694019988179207, -0.013122376054525375, -0.012550732120871544, -0.011979088187217712, -0.011407444253563881, -0.010835799388587475, -0.010264155454933643, -0.009692511521279812, -0.00912086758762598, -0.008549223653972149, -0.007977578788995743, -0.007405934855341911, -0.00683429092168808, -0.006262646988034248, -0.0056910025887191296, -0.005119358655065298, -0.004547714721411467, -0.003976070322096348, -0.0034044263884425163, -0.002832782221958041, -0.002261138055473566, -0.0016894940054044127, -0.0011178499553352594, -0.0005462057888507843, 2.543831942602992e-05, 0.0005970824277028441, 0.0011687264777719975, 0.0017403706442564726, 0.0023120148107409477, 0.002883658744394779, 0.0034553029108792543, 0.0040269470773637295, 0.004598591011017561, 0.00517023541033268, 0.005741879343986511, 0.006313523277640343, 0.0068851676769554615, 0.007456811610609293, 0.008028456009924412, 0.008600099943578243, 0.009171743877232075, 0.009743387810885906, 0.010315032675862312, 0.010886676609516144, 0.011458320543169975, 0.012029964476823807, 0.012601608410477638, 0.01317325234413147, 0.013744897209107876, 0.014316541142761707, 0.014888185076415539, 0.01545982901006937, 0.016031473875045776, 0.016603117808699608, 0.01717476174235344, 0.01774640567600727]}, "gradients/linearlayers.1.0.bias": {"_type": "histogram", "values": [1.0, 0.0, 0.0, 0.0, 0.0, 0.0, 0.0, 1.0, 0.0, 0.0, 2.0, 0.0, 2.0, 1.0, 3.0, 1.0, 1.0, 1.0, 2.0, 2.0, 2.0, 4.0, 4.0, 4.0, 2.0, 5.0, 3.0, 3.0, 3.0, 5.0, 6.0, 1.0, 8.0, 6.0, 8.0, 5.0, 4.0, 2.0, 1.0, 4.0, 5.0, 4.0, 1.0, 2.0, 2.0, 1.0, 3.0, 1.0, 2.0, 2.0, 0.0, 0.0, 2.0, 1.0, 0.0, 1.0, 0.0, 1.0, 1.0, 0.0, 1.0, 0.0, 0.0, 1.0], "bins": [-0.012447702698409557, -0.012061456218361855, -0.011675210669636726, -0.011288964189589024, -0.010902718640863895, -0.010516472160816193, -0.010130226612091064, -0.009743980132043362, -0.009357733651995659, -0.00897148810327053, -0.008585241623222828, -0.0081989960744977, -0.007812749594449997, -0.0074265035800635815, -0.007040257565677166, -0.0066540115512907505, -0.006267765536904335, -0.0058815195225179195, -0.005495273508131504, -0.005109027493745089, -0.004722781479358673, -0.00433653499931097, -0.003950288984924555, -0.0035640429705381393, -0.003177796956151724, -0.0027915509417653084, -0.002405304927378893, -0.0020190586801618338, -0.0016328126657754183, -0.0012465666513890028, -0.0008603205205872655, -0.0004740744479931891, -8.782930672168732e-05, 0.0002984167658723891, 0.0006846628384664655, 0.0010709089692682028, 0.0014571549836546183, 0.0018434009980410337, 0.002229647245258093, 0.0026158932596445084, 0.003002139274030924, 0.0033883852884173393, 0.003774631302803755, 0.00416087731719017, 0.004547123797237873, 0.0049333698116242886, 0.005319615826010704, 0.0057058618403971195, 0.006092107854783535, 0.0064783538691699505, 0.006864599883556366, 0.0072508458979427814, 0.007637091912329197, 0.0080233383923769, 0.008409583941102028, 0.00879583042114973, 0.009182076901197433, 0.009568322449922562, 0.009954568929970264, 0.010340814478695393, 0.010727060958743095, 0.011113306507468224, 0.011499552987515926, 0.011885798536241055, 0.012272045016288757]}, "gradients/linearlayers.1.0.weight": {"_type": "histogram", "values": [3.0, 0.0, 0.0, 2.0, 3.0, 5.0, 6.0, 8.0, 6.0, 8.0, 20.0, 12.0, 29.0, 23.0, 41.0, 49.0, 60.0, 102.0, 131.0, 151.0, 177.0, 282.0, 323.0, 414.0, 565.0, 766.0, 986.0, 1306.0, 1967.0, 3151.0, 4951.0, 5259.0, 3727.0, 2187.0, 1494.0, 1086.0, 823.0, 657.0, 448.0, 344.0, 281.0, 205.0, 162.0, 125.0, 104.0, 72.0, 59.0, 49.0, 40.0, 29.0, 22.0, 15.0, 7.0, 4.0, 8.0, 5.0, 3.0, 3.0, 0.0, 0.0, 1.0, 1.0, 0.0, 1.0], "bins": [-0.016039147973060608, -0.015524450689554214, -0.015009753406047821, -0.014495055191218853, -0.01398035790771246, -0.013465660624206066, -0.012950962409377098, -0.012436265125870705, -0.011921567842364311, -0.011406870558857918, -0.010892173275351524, -0.010377475060522556, -0.009862777777016163, -0.00934808049350977, -0.008833382278680801, -0.008318684995174408, -0.0078039877116680145, -0.007289290428161621, -0.00677459267899394, -0.00625989492982626, -0.005745197646319866, -0.005230500362813473, -0.004715802613645792, -0.004201104864478111, -0.003686407580971718, -0.0031717100646346807, -0.0026570125482976437, -0.0021423150319606066, -0.0016276175156235695, -0.0011129199992865324, -0.0005982224829494953, -8.352496661245823e-05, 0.0004311744123697281, 0.0009458719287067652, 0.0014605694450438023, 0.0019752669613808393, 0.0024899644777178764, 0.0030046619940549135, 0.0035193595103919506, 0.004034057259559631, 0.004548754543066025, 0.005063451826572418, 0.005578149575740099, 0.00609284732490778, 0.006607544608414173, 0.0071222418919205666, 0.007636939641088247, 0.008151637390255928, 0.008666334673762321, 0.009181031957268715, 0.009695729240775108, 0.010210427455604076, 0.01072512473911047, 0.011239822022616863, 0.011754520237445831, 0.012269217520952225, 0.012783914804458618, 0.013298612087965012, 0.013813309371471405, 0.014328007586300373, 0.014842704869806767, 0.01535740215331316, 0.015872100368142128, 0.01638679765164852, 0.016901494935154915]}, "gradients/linearlayers.0.0.bias": {"_type": "histogram", "values": [1.0, 0.0, 0.0, 0.0, 0.0, 1.0, 0.0, 1.0, 1.0, 1.0, 0.0, 2.0, 0.0, 3.0, 0.0, 3.0, 4.0, 3.0, 1.0, 6.0, 3.0, 8.0, 11.0, 6.0, 5.0, 9.0, 5.0, 5.0, 13.0, 13.0, 15.0, 9.0, 9.0, 10.0, 12.0, 10.0, 12.0, 13.0, 7.0, 8.0, 2.0, 4.0, 6.0, 1.0, 5.0, 6.0, 6.0, 1.0, 3.0, 0.0, 3.0, 1.0, 2.0, 1.0, 1.0, 0.0, 1.0, 0.0, 1.0, 0.0, 1.0, 0.0, 0.0, 1.0], "bins": [-0.012932054698467255, -0.012524052523076534, -0.012116050347685814, -0.011708049103617668, -0.011300046928226948, -0.010892044752836227, -0.010484042577445507, -0.010076041333377361, -0.009668039157986641, -0.00926003698259592, -0.0088520348072052, -0.00844403263181448, -0.008036031387746334, -0.007628029212355614, -0.007220027036964893, -0.00681202532723546, -0.00640402315184474, -0.0059960209764540195, -0.0055880192667245865, -0.005180017091333866, -0.004772015381604433, -0.004364013206213713, -0.00395601149648428, -0.0035480093210935593, -0.0031400073785334826, -0.002732005435973406, -0.002324003493413329, -0.0019160014344379306, -0.0015079994918778539, -0.0010999975493177772, -0.0006919955485500395, -0.00028399357688613236, 0.0001240083947777748, 0.0005320103373378515, 0.0009400123381055892, 0.0013480143388733268, 0.0017560162814334035, 0.002164018340408802, 0.0025720202829688787, 0.0029800222255289555, 0.003388024168089032, 0.003796026110649109, 0.004204028286039829, 0.004612029995769262, 0.005020032171159983, 0.005428033880889416, 0.005836036056280136, 0.006244037766009569, 0.0066520399414002895, 0.00706004211679101, 0.007468043826520443, 0.007876046001911163, 0.008284048177301884, 0.00869204942137003, 0.00910005159676075, 0.00950805377215147, 0.00991605594754219, 0.010324058122932911, 0.010732059367001057, 0.011140061542391777, 0.011548063717782497, 0.011956065893173218, 0.012364067137241364, 0.012772069312632084, 0.013180071488022804]}, "gradients/linearlayers.0.0.weight": {"_type": "histogram", "values": [1.0, 0.0, 0.0, 0.0, 1.0, 1.0, 1.0, 2.0, 2.0, 3.0, 4.0, 3.0, 12.0, 17.0, 24.0, 30.0, 43.0, 61.0, 85.0, 126.0, 179.0, 249.0, 366.0, 533.0, 811.0, 1110.0, 1692.0, 2556.0, 4149.0, 6751.0, 11612.0, 25610.0, 34453.0, 16960.0, 8631.0, 5197.0, 3245.0, 2167.0, 1431.0, 933.0, 626.0, 435.0, 301.0, 199.0, 139.0, 87.0, 69.0, 55.0, 30.0, 26.0, 16.0, 10.0, 10.0, 6.0, 4.0, 2.0, 1.0, 0.0, 2.0, 0.0, 0.0, 2.0, 0.0, 1.0], "bins": [-0.021151626482605934, -0.020495833829045296, -0.019840041175484657, -0.01918424852192402, -0.01852845586836338, -0.017872663214802742, -0.017216870561242104, -0.016561077907681465, -0.015905283391475677, -0.015249491669237614, -0.014593699015676975, -0.013937906362116337, -0.013282112777233124, -0.012626320123672485, -0.011970527470111847, -0.011314734816551208, -0.01065894216299057, -0.010003149509429932, -0.009347356855869293, -0.008691564202308655, -0.008035771548748016, -0.007379978429526091, -0.006724185310304165, -0.0060683926567435265, -0.005412600003182888, -0.00475680734962225, -0.004101014696061611, -0.0034452215768396854, -0.002789428923279047, -0.0021336362697184086, -0.0014778433833271265, -0.0008220506133511662, -0.00016625598073005676, 0.0004895367892459035, 0.0011453295592218637, 0.001801122329197824, 0.0024569150991737843, 0.0031127077527344227, 0.0037685006391257048, 0.004424293525516987, 0.005080086179077625, 0.005735878832638264, 0.006391671486198902, 0.007047464605420828, 0.007703257258981466, 0.008359050378203392, 0.00901484303176403, 0.009670635685324669, 0.010326428338885307, 0.010982220992445946, 0.011638013646006584, 0.012293806299567223, 0.012949598953127861, 0.013605392538011074, 0.014261185191571712, 0.014916977845132351, 0.01557277049869299, 0.016228564083576202, 0.01688435673713684, 0.01754014939069748, 0.018195942044258118, 0.018851734697818756, 0.019507527351379395, 0.020163320004940033, 0.02081911265850067]}, "gradients/embeds.2.bias": {"_type": "histogram", "values": [1.0, 1.0, 1.0, 0.0, 1.0, 0.0, 1.0, 2.0, 0.0, 5.0, 5.0, 0.0, 7.0, 4.0, 7.0, 8.0, 10.0, 7.0, 10.0, 10.0, 22.0, 14.0, 15.0, 18.0, 10.0, 20.0, 27.0, 17.0, 24.0, 19.0, 27.0, 25.0, 23.0, 20.0, 14.0, 11.0, 18.0, 14.0, 12.0, 20.0, 11.0, 10.0, 5.0, 2.0, 4.0, 3.0, 3.0, 5.0, 4.0, 3.0, 3.0, 3.0, 2.0, 0.0, 0.0, 1.0, 0.0, 0.0, 1.0, 0.0, 0.0, 0.0, 0.0, 2.0], "bins": [-0.012594019994139671, -0.012167178094387054, -0.011740335263311863, -0.011313493363559246, -0.01088665146380663, -0.010459808632731438, -0.01003296673297882, -0.009606124833226204, -0.009179282933473587, -0.008752440102398396, -0.008325598202645779, -0.007898756302893162, -0.00747191347181797, -0.007045071572065353, -0.006618229206651449, -0.006191387306898832, -0.005764544941484928, -0.005337702576071024, -0.004910860676318407, -0.004484018310904503, -0.004057176411151886, -0.003630334045737982, -0.0032034916803240776, -0.002776649547740817, -0.0023498074151575565, -0.001922965282574296, -0.0014961230335757136, -0.0010692807845771313, -0.0006424386519938707, -0.00021559646120294929, 0.00021124572958797216, 0.0006380879203788936, 0.0010649310424923897, 0.0014917731750756502, 0.0019186154240742326, 0.002345457673072815, 0.0027722998056560755, 0.003199141938239336, 0.00362598430365324, 0.004052826203405857, 0.004479668568819761, 0.0049065109342336655, 0.005333352833986282, 0.0057601951994001865, 0.006187037564814091, 0.006613879464566708, 0.007040721829980612, 0.007467563729733229, 0.007894406095147133, 0.00832124799489975, 0.008748090825974941, 0.009174932725727558, 0.009601774625480175, 0.010028617456555367, 0.010455459356307983, 0.0108823012560606, 0.011309143155813217, 0.011735985986888409, 0.012162827886641026, 0.012589669786393642, 0.013016512617468834, 0.01344335451722145, 0.013870196416974068, 0.01429703924804926, 0.014723881147801876]}, "gradients/embeds.2.weight": {"_type": "histogram", "values": [4.0, 0.0, 1.0, 4.0, 8.0, 20.0, 10.0, 19.0, 27.0, 37.0, 44.0, 59.0, 95.0, 118.0, 163.0, 248.0, 374.0, 476.0, 610.0, 915.0, 1223.0, 1720.0, 2384.0, 3549.0, 4965.0, 7292.0, 10978.0, 15798.0, 24157.0, 39911.0, 77936.0, 130603.0, 81782.0, 41315.0, 24953.0, 16427.0, 10925.0, 7565.0, 5220.0, 3587.0, 2462.0, 1729.0, 1300.0, 958.0, 679.0, 478.0, 346.0, 212.0, 172.0, 125.0, 86.0, 52.0, 49.0, 41.0, 29.0, 14.0, 8.0, 11.0, 4.0, 3.0, 3.0, 3.0, 1.0, 1.0], "bins": [-0.01774728298187256, -0.017184393480420113, -0.016621505841612816, -0.01605861634016037, -0.015495728701353073, -0.014932839199900627, -0.014369950629770756, -0.013807062059640884, -0.013244173489511013, -0.012681284919381142, -0.01211839634925127, -0.011555507779121399, -0.010992618277668953, -0.010429729707539082, -0.00986684113740921, -0.009303952567279339, -0.008741063997149467, -0.008178175427019596, -0.007615286856889725, -0.007052397821098566, -0.006489509250968695, -0.005926620680838823, -0.005363731645047665, -0.004800843074917793, -0.004237954504787922, -0.0036750659346580505, -0.0031121771316975355, -0.0025492883287370205, -0.001986399758607149, -0.001423511072061956, -0.0008606223855167627, -0.00029773369897156954, 0.0002651531249284744, 0.0008280418114736676, 0.0013909304980188608, 0.001953819300979376, 0.002516707871109247, 0.0030795964412391186, 0.0036424852441996336, 0.004205374047160149, 0.00476826261729002, 0.005331151187419891, 0.005894039757549763, 0.006456928793340921, 0.007019817363470793, 0.007582705933600664, 0.008145594969391823, 0.008708483539521694, 0.009271372109651566, 0.009834260679781437, 0.010397149249911308, 0.01096003782004118, 0.011522926390171051, 0.012085815891623497, 0.012648704461753368, 0.01321159303188324, 0.013774481602013111, 0.014337370172142982, 0.014900258742272854, 0.015463147312402725, 0.01602603681385517, 0.016588924452662468, 0.017151813954114914, 0.01771470159292221, 0.018277591094374657]}, "gradients/embeds.0.bias": {"_type": "histogram", "values": [1.0, 0.0, 1.0, 0.0, 0.0, 2.0, 0.0, 1.0, 2.0, 2.0, 3.0, 4.0, 4.0, 7.0, 5.0, 4.0, 7.0, 17.0, 13.0, 17.0, 14.0, 25.0, 34.0, 41.0, 25.0, 39.0, 34.0, 42.0, 53.0, 42.0, 37.0, 53.0, 46.0, 37.0, 49.0, 46.0, 45.0, 31.0, 16.0, 27.0, 23.0, 28.0, 23.0, 22.0, 17.0, 23.0, 8.0, 9.0, 6.0, 12.0, 8.0, 5.0, 3.0, 1.0, 2.0, 1.0, 2.0, 1.0, 0.0, 1.0, 1.0, 1.0, 0.0, 1.0], "bins": [-0.016460061073303223, -0.01593833975493908, -0.015416618436574936, -0.014894896186888218, -0.014373174868524075, -0.013851453550159931, -0.013329732231795788, -0.012808010913431644, -0.012286288663744926, -0.011764567345380783, -0.01124284602701664, -0.010721124708652496, -0.010199403390288353, -0.00967768207192421, -0.009155959822237492, -0.008634238503873348, -0.008112517185509205, -0.0075907958671450615, -0.007069074083119631, -0.0065473527647554874, -0.006025630980730057, -0.005503909662365913, -0.00498218834400177, -0.004460466559976339, -0.003938745241612196, -0.003417023690417409, -0.002895302139222622, -0.0023735808208584785, -0.0018518592696636915, -0.0013301377184689045, -0.0008084162836894393, -0.0002866947907023132, 0.00023502670228481293, 0.000756748195271939, 0.0012784696882590652, 0.0018001911230385303, 0.0023219126742333174, 0.0028436342254281044, 0.0033653555437922478, 0.003887077094987035, 0.004408798646181822, 0.004930519964545965, 0.005452241748571396, 0.005973963066935539, 0.006495684385299683, 0.007017406169325113, 0.007539127487689257, 0.008060849271714687, 0.00858257059007883, 0.009104291908442974, 0.009626013226807117, 0.010147735476493835, 0.010669456794857979, 0.011191178113222122, 0.011712899431586266, 0.012234620749950409, 0.012756342068314552, 0.01327806431800127, 0.013799785636365414, 0.014321506954729557, 0.0148432282730937, 0.015364949591457844, 0.015886671841144562, 0.016408393159508705, 0.01693011447787285]}, "gradients/embeds.0.weight": {"_type": "histogram", "values": [1.0, 0.0, 1.0, 0.0, 0.0, 1.0, 1.0, 1.0, 1.0, 3.0, 2.0, 6.0, 4.0, 6.0, 9.0, 5.0, 9.0, 19.0, 24.0, 23.0, 19.0, 40.0, 64.0, 68.0, 84.0, 137.0, 194.0, 332.0, 580.0, 1329.0, 13420.0, 677780.0, 87378.0, 2772.0, 852.0, 427.0, 227.0, 125.0, 88.0, 75.0, 57.0, 58.0, 39.0, 31.0, 31.0, 31.0, 12.0, 16.0, 4.0, 14.0, 8.0, 7.0, 5.0, 0.0, 4.0, 1.0, 3.0, 0.0, 0.0, 1.0, 2.0, 0.0, 0.0, 1.0], "bins": [-0.21274268627166748, -0.20603898167610168, -0.1993352770805359, -0.1926315724849701, -0.1859278678894043, -0.1792241632938385, -0.1725204586982727, -0.1658167541027069, -0.1591130495071411, -0.15240934491157532, -0.14570564031600952, -0.13900193572044373, -0.13229823112487793, -0.12559452652931213, -0.11889081448316574, -0.11218710988759995, -0.10548340529203415, -0.09877970069646835, -0.09207599610090256, -0.08537229150533676, -0.07866858690977097, -0.07196488231420517, -0.06526117771863937, -0.05855746939778328, -0.051853764802217484, -0.04515006020665169, -0.03844635561108589, -0.031742651015520096, -0.02503894455730915, -0.018335239961743355, -0.011631534434854984, -0.004927829373627901, 0.0017758756875991821, 0.008479580283164978, 0.015183285810053349, 0.02188699133694172, 0.028590695932507515, 0.03529440239071846, 0.041998106986284256, 0.04870181158185005, 0.05540551617741585, 0.062109220772981644, 0.06881292909383774, 0.07551663368940353, 0.08222033828496933, 0.08892404288053513, 0.09562774747610092, 0.10233145207166672, 0.10903515666723251, 0.11573886126279831, 0.1224425658583641, 0.1291462779045105, 0.1358499825000763, 0.1425536870956421, 0.14925739169120789, 0.15596109628677368, 0.16266480088233948, 0.16936850547790527, 0.17607221007347107, 0.18277591466903687, 0.18947961926460266, 0.19618332386016846, 0.20288702845573425, 0.20959073305130005, 0.21629443764686584]}, "total_best_ep": 18, "total_best_ep_tloss": 0.2533007264137268, "total_best_ep_vloss": 0.6516337990760803, "total_best_ep_AUC": 0.8101419538545287, "total_best_ep_precision": 0.6612021857923497, "total_best_ep_recall": 0.8461538461538461, "total_best_ep_f1": 0.7423312883435583, "_wandb": {"runtime": 191}}