{"num_of_examples": 0, "train_loss": 0.06407606601715088, "_timestamp": 1716346892.4235034, "_runtime": 32.96988248825073, "_step": 40, "num_of_test_examples": 0, "test_loss": 0.0065089213848114015, "gradients/output.bias": {"_type": "histogram", "values": [1.0, 0.0, 0.0, 0.0, 0.0, 0.0, 0.0, 0.0, 0.0, 0.0, 0.0, 0.0, 0.0, 0.0, 0.0, 0.0, 0.0, 0.0, 0.0, 0.0, 0.0, 0.0, 0.0, 0.0, 0.0, 0.0, 0.0, 0.0, 0.0, 0.0, 0.0, 0.0, 0.0, 0.0, 0.0, 0.0, 0.0, 0.0, 0.0, 0.0, 0.0, 0.0, 0.0, 0.0, 0.0, 0.0, 0.0, 0.0, 0.0, 0.0, 0.0, 0.0, 0.0, 0.0, 0.0, 0.0, 0.0, 0.0, 0.0, 0.0, 0.0, 0.0, 0.0, 1.0], "bins": [-0.10226121544837952, -0.09906554967164993, -0.09586989134550095, -0.09267422556877136, -0.08947856724262238, -0.08628290146589279, -0.08308723568916321, -0.07989157736301422, -0.07669591158628464, -0.07350024580955505, -0.07030458748340607, -0.06710892170667648, -0.0639132559299469, -0.06071759760379791, -0.05752193182706833, -0.054326269775629044, -0.05113060772418976, -0.04793494567275047, -0.04473928362131119, -0.041543617844581604, -0.03834795579314232, -0.03515229374170303, -0.03195662796497345, -0.028760965913534164, -0.02556530386209488, -0.022369641810655594, -0.01917397789657116, -0.015978313982486725, -0.01278265193104744, -0.00958698894828558, -0.00639132596552372, -0.00319566298276186, 0.0, 0.00319566298276186, 0.00639132596552372, 0.00958698894828558, 0.01278265193104744, 0.015978313982486725, 0.01917397789657116, 0.022369641810655594, 0.02556530386209488, 0.028760965913534164, 0.03195662796497345, 0.03515229374170303, 0.03834795579314232, 0.041543617844581604, 0.04473928362131119, 0.04793494567275047, 0.05113060772418976, 0.054326269775629044, 0.05752193182706833, 0.06071759760379791, 0.0639132559299469, 0.06710892170667648, 0.07030458748340607, 0.07350024580955505, 0.07669591158628464, 0.07989157736301422, 0.08308723568916321, 0.08628290146589279, 0.08947856724262238, 0.09267422556877136, 0.09586989134550095, 0.09906554967164993, 0.10226121544837952]}, "gradients/output.weight": {"_type": "histogram", "values": [2.0, 0.0, 0.0, 0.0, 0.0, 0.0, 1.0, 0.0, 1.0, 0.0, 0.0, 3.0, 0.0, 5.0, 6.0, 1.0, 6.0, 3.0, 5.0, 3.0, 5.0, 5.0, 6.0, 9.0, 5.0, 6.0, 8.0, 7.0, 9.0, 9.0, 16.0, 47.0, 223.0, 16.0, 9.0, 9.0, 7.0, 8.0, 6.0, 5.0, 9.0, 6.0, 5.0, 5.0, 3.0, 5.0, 3.0, 6.0, 1.0, 6.0, 5.0, 0.0, 3.0, 0.0, 0.0, 1.0, 0.0, 1.0, 0.0, 0.0, 0.0, 0.0, 0.0, 2.0], "bins": [-0.033874016255140305, -0.03281545266509056, -0.03175688907504082, -0.030698327347636223, -0.02963976375758648, -0.028581202030181885, -0.02752263844013214, -0.026464074850082397, -0.025405511260032654, -0.02434694953262806, -0.023288385942578316, -0.022229822352528572, -0.021171260625123978, -0.020112697035074234, -0.01905413344502449, -0.017995571717619896, -0.016937008127570152, -0.01587844453752041, -0.01481988187879324, -0.01376131922006607, -0.012702755630016327, -0.011644192971289158, -0.010585630312561989, -0.009527066722512245, -0.008468504063785076, -0.00740994093939662, -0.0063513778150081635, -0.005292815156280994, -0.004234252031892538, -0.0031756889075040817, -0.002117126015946269, -0.0010585630079731345, 0.0, 0.0010585630079731345, 0.002117126015946269, 0.0031756889075040817, 0.004234252031892538, 0.005292815156280994, 0.0063513778150081635, 0.00740994093939662, 0.008468504063785076, 0.009527066722512245, 0.010585630312561989, 0.011644192971289158, 0.012702755630016327, 0.01376131922006607, 0.01481988187879324, 0.01587844453752041, 0.016937008127570152, 0.017995571717619896, 0.01905413344502449, 0.020112697035074234, 0.021171260625123978, 0.022229822352528572, 0.023288385942578316, 0.02434694953262806, 0.025405511260032654, 0.026464074850082397, 0.02752263844013214, 0.028581202030181885, 0.02963976375758648, 0.030698327347636223, 0.03175688907504082, 0.03281545266509056, 0.033874016255140305]}, "gradients/linearlayers.4.0.bias": {"_type": "histogram", "values": [4.0, 0.0, 0.0, 1.0, 2.0, 2.0, 0.0, 3.0, 0.0, 2.0, 5.0, 3.0, 0.0, 1.0, 2.0, 2.0, 2.0, 3.0, 3.0, 3.0, 1.0, 3.0, 2.0, 4.0, 3.0, 1.0, 4.0, 2.0, 2.0, 5.0, 6.0, 9.0, 5.0, 95.0, 9.0, 8.0, 9.0, 2.0, 6.0, 5.0, 2.0, 3.0, 3.0, 3.0, 2.0, 2.0, 5.0, 4.0, 2.0, 0.0, 2.0, 0.0, 0.0, 1.0, 0.0, 2.0, 1.0, 3.0, 0.0, 0.0, 1.0, 0.0, 0.0, 1.0], "bins": [-0.011205964721739292, -0.01086860615760088, -0.010531246662139893, -0.01019388809800148, -0.009856529533863068, -0.009519170969724655, -0.009181812405586243, -0.008844452910125256, -0.008507094345986843, -0.00816973578184843, -0.007832376286387444, -0.007495017722249031, -0.007157659158110619, -0.006820300593972206, -0.006482941564172506, -0.0061455825343728065, -0.005808223970234394, -0.005470865406095982, -0.005133506376296282, -0.004796147346496582, -0.0044587887823581696, -0.004121430218219757, -0.0037840711884200573, -0.003446712391451001, -0.003109353594481945, -0.002771994797512889, -0.0024346360005438328, -0.0020972772035747766, -0.0017599184066057205, -0.0014225596096366644, -0.0010852008126676083, -0.0007478420156985521, -0.0004104822874069214, -7.312349043786526e-05, 0.00026423530653119087, 0.000601594103500247, 0.0009389529004693031, 0.0012763116974383593, 0.0016136704944074154, 0.0019510292913764715, 0.0022883880883455276, 0.0026257468853145838, 0.00296310568228364, 0.003300464479252696, 0.003637823276221752, 0.003975181840360165, 0.004312540870159864, 0.004649899899959564, 0.004987258464097977, 0.005324617028236389, 0.005661976058036089, 0.005999335087835789, 0.006336693651974201, 0.006674052216112614, 0.0070114112459123135, 0.007348770275712013, 0.007686128839850426, 0.008023487403988838, 0.00836084596812725, 0.008698205463588238, 0.00903556402772665, 0.009372922591865063, 0.00971028208732605, 0.010047640651464462, 0.010384999215602875]}, "gradients/linearlayers.4.0.weight": {"_type": "histogram", "values": [4.0, 0.0, 0.0, 1.0, 2.0, 2.0, 0.0, 3.0, 1.0, 3.0, 9.0, 10.0, 9.0, 14.0, 29.0, 19.0, 31.0, 47.0, 49.0, 61.0, 93.0, 88.0, 148.0, 168.0, 257.0, 270.0, 396.0, 506.0, 617.0, 794.0, 1044.0, 1570.0, 4204.0, 49039.0, 2298.0, 1199.0, 753.0, 489.0, 399.0, 248.0, 163.0, 145.0, 107.0, 59.0, 36.0, 37.0, 26.0, 31.0, 17.0, 11.0, 9.0, 6.0, 2.0, 3.0, 1.0, 2.0, 2.0, 3.0, 0.0, 0.0, 1.0, 0.0, 0.0, 1.0], "bins": [-0.00526966480538249, -0.005111020058393478, -0.004952375311404467, -0.004793730564415455, -0.004635085817426443, -0.004476441070437431, -0.00431779632344842, -0.004159151576459408, -0.004000506363809109, -0.0038418618496507406, -0.003683217102661729, -0.003524572355672717, -0.0033659273758530617, -0.00320728262886405, -0.003048637881875038, -0.0028899931348860264, -0.0027313483878970146, -0.002572703640908003, -0.002414058893918991, -0.0022554141469299793, -0.0020967693999409676, -0.001938124536536634, -0.0017794796731323004, -0.0016208349261432886, -0.0014621901791542768, -0.001303545432165265, -0.0011449006851762533, -0.0009862558217719197, -0.000827611074782908, -0.0006689663277938962, -0.0005103215225972235, -0.0003516767465043813, -0.00019303150475025177, -3.438672865740955e-05, 0.00012425804743543267, 0.0002829028235282749, 0.0004415475996211171, 0.0006001923466101289, 0.0007588371518068016, 0.0009174819570034742, 0.001076126703992486, 0.0012347714509814978, 0.0013934161979705095, 0.0015520610613748431, 0.0017107058083638549, 0.0018693505553528666, 0.0020279954187572002, 0.002186640165746212, 0.0023452849127352238, 0.0025039296597242355, 0.0026625744067132473, 0.002821219153702259, 0.002979863900691271, 0.0031385088805109262, 0.003297153627499938, 0.0034557983744889498, 0.0036144431214779615, 0.0037730878684669733, 0.003931732848286629, 0.0040903775952756405, 0.004249022342264652, 0.004407667089253664, 0.004566311836242676, 0.0047249565832316875, 0.004883601330220699]}, "gradients/linearlayers.3.0.bias": {"_type": "histogram", "values": [1.0, 0.0, 0.0, 0.0, 0.0, 0.0, 0.0, 0.0, 0.0, 0.0, 0.0, 0.0, 1.0, 0.0, 0.0, 0.0, 1.0, 3.0, 1.0, 0.0, 0.0, 0.0, 2.0, 2.0, 2.0, 2.0, 1.0, 2.0, 4.0, 3.0, 4.0, 4.0, 2.0, 5.0, 4.0, 7.0, 5.0, 7.0, 4.0, 11.0, 4.0, 10.0, 100.0, 9.0, 9.0, 9.0, 5.0, 2.0, 3.0, 5.0, 5.0, 4.0, 1.0, 2.0, 1.0, 0.0, 1.0, 2.0, 1.0, 2.0, 1.0, 0.0, 1.0, 1.0], "bins": [-0.013092273846268654, -0.012784191407263279, -0.012476108968257904, -0.01216802652925253, -0.011859944090247154, -0.011551862582564354, -0.011243780143558979, -0.010935697704553604, -0.01062761526554823, -0.010319532826542854, -0.01001145038753748, -0.009703367948532104, -0.009395286440849304, -0.00908720400184393, -0.008779121562838554, -0.00847103912383318, -0.008162956684827805, -0.00785487424582243, -0.007546791806817055, -0.007238709833472967, -0.006930627394467592, -0.006622544955462217, -0.00631446298211813, -0.006006380543112755, -0.00569829810410738, -0.005390215665102005, -0.00508213322609663, -0.0047740512527525425, -0.004465968813747168, -0.004157886374741793, -0.0038498041685670614, -0.00354172196239233, -0.0032336385920643806, -0.0029255561530590057, -0.0026174739468842745, -0.0023093917407095432, -0.0020013093017041683, -0.0016932269791141152, -0.0013851446565240622, -0.001077062333934009, -0.000768980011343956, -0.0004608976887539029, -0.00015281536616384983, 0.00015526695642620325, 0.00046334927901625633, 0.0007714316016063094, 0.0010795139241963625, 0.0013875962467864156, 0.0016956785693764687, 0.0020037610083818436, 0.002311843214556575, 0.002619925420731306, 0.002928007859736681, 0.003236090298742056, 0.003544172504916787, 0.0038522547110915184, 0.004160337150096893, 0.004468419589102268, 0.004776502028107643, 0.005084584001451731, 0.005392666440457106, 0.0057007488794624805, 0.006008830852806568, 0.006316913291811943, 0.006624995730817318]}, "gradients/linearlayers.3.0.weight": {"_type": "histogram", "values": [1.0, 0.0, 0.0, 0.0, 0.0, 0.0, 0.0, 0.0, 0.0, 1.0, 0.0, 0.0, 2.0, 1.0, 1.0, 2.0, 2.0, 3.0, 3.0, 1.0, 0.0, 5.0, 8.0, 6.0, 8.0, 15.0, 17.0, 18.0, 31.0, 29.0, 57.0, 61.0, 76.0, 111.0, 169.0, 241.0, 349.0, 512.0, 795.0, 1134.0, 1814.0, 4039.0, 51069.0, 2360.0, 1071.0, 555.0, 343.0, 255.0, 133.0, 86.0, 42.0, 26.0, 26.0, 18.0, 17.0, 8.0, 4.0, 4.0, 2.0, 1.0, 2.0, 0.0, 1.0, 1.0], "bins": [-0.0080401711165905, -0.007850589230656624, -0.0076610068790614605, -0.0074714249931275845, -0.007281842641532421, -0.007092260755598545, -0.006902678404003382, -0.006713096518069506, -0.006523514166474342, -0.006333932280540466, -0.00614435039460659, -0.005954768043011427, -0.005765186157077551, -0.0055756038054823875, -0.0053860219195485115, -0.005196439567953348, -0.005006857682019472, -0.004817275796085596, -0.004627693444490433, -0.004438111558556557, -0.004248529206961393, -0.004058947321027517, -0.0038693652022629976, -0.003679783083498478, -0.0034902009647339582, -0.0033006188459694386, -0.003111036727204919, -0.002921454608440399, -0.002731872722506523, -0.0025422906037420034, -0.0023527084849774837, -0.002163126366212964, -0.001973543781787157, -0.0017839616630226374, -0.0015943795442581177, -0.0014047975419089198, -0.0012152154231444001, -0.0010256333043798804, -0.0008360512438230217, -0.0006464691832661629, -0.0004568870645016432, -0.00026730497484095395, -7.772288518026471e-05, 0.00011185920448042452, 0.00030144129414111376, 0.0004910234129056334, 0.0006806054734624922, 0.000870187534019351, 0.0010597696527838707, 0.0012493517715483904, 0.00143893389031291, 0.001628515892662108, 0.0018180980114266276, 0.0020076800137758255, 0.002197262132540345, 0.002386844251304865, 0.0025764263700693846, 0.0027660084888339043, 0.002955590607598424, 0.0031451727263629436, 0.0033347546122968197, 0.0035243367310613394, 0.003713918849825859, 0.0039035009685903788, 0.0040930830873548985]}, "gradients/linearlayers.2.0.bias": {"_type": "histogram", "values": [1.0, 0.0, 0.0, 0.0, 0.0, 2.0, 0.0, 0.0, 2.0, 0.0, 3.0, 0.0, 0.0, 1.0, 3.0, 1.0, 0.0, 1.0, 4.0, 0.0, 2.0, 4.0, 2.0, 1.0, 5.0, 3.0, 4.0, 9.0, 2.0, 3.0, 7.0, 7.0, 6.0, 3.0, 9.0, 9.0, 90.0, 13.0, 12.0, 5.0, 6.0, 2.0, 6.0, 0.0, 5.0, 3.0, 0.0, 4.0, 3.0, 1.0, 2.0, 4.0, 0.0, 1.0, 2.0, 0.0, 0.0, 0.0, 0.0, 0.0, 1.0, 1.0, 0.0, 1.0], "bins": [-0.007715575397014618, -0.007505766581743956, -0.007295957300812006, -0.007086148485541344, -0.006876339204609394, -0.006666530389338732, -0.0064567215740680695, -0.00624691229313612, -0.0060371034778654575, -0.005827294196933508, -0.005617485381662846, -0.005407676566392183, -0.005197867285460234, -0.004988058470189571, -0.004778249189257622, -0.0045684403739869595, -0.004358631558716297, -0.0041488222777843475, -0.003939013462513685, -0.0037292044144123793, -0.0035193953663110733, -0.0033095863182097673, -0.0030997772701084614, -0.0028899682220071554, -0.0026801591739058495, -0.002470350358635187, -0.002260541310533881, -0.0020507322624325752, -0.0018409232143312693, -0.0016311142826452851, -0.0014213052345439792, -0.001211496302857995, -0.001001687254756689, -0.000791878264863044, -0.000582069274969399, -0.000372260226868093, -0.00016245123697444797, 4.735776747111231e-05, 0.0002571667719166726, 0.0004669757909141481, 0.0006767847808077931, 0.0008865937707014382, 0.0010964027605950832, 0.0013062118086963892, 0.0015160208567976952, 0.0017258297884836793, 0.0019356388365849853, 0.0021454477682709694, 0.0023552568163722754, 0.0025650658644735813, 0.0027748749125748873, 0.0029846837278455496, 0.0031944927759468555, 0.0034043018240481615, 0.0036141108721494675, 0.0038239199202507734, 0.004033728968352079, 0.004243537783622742, 0.004453347064554691, 0.004663155879825354, 0.004872964695096016, 0.0050827739760279655, 0.005292582791298628, 0.0055023920722305775, 0.00571220088750124]}, "gradients/linearlayers.2.0.weight": {"_type": "histogram", "values": [1.0, 1.0, 0.0, 2.0, 1.0, 2.0, 5.0, 3.0, 6.0, 2.0, 10.0, 6.0, 17.0, 15.0, 20.0, 20.0, 30.0, 33.0, 32.0, 53.0, 39.0, 74.0, 80.0, 94.0, 113.0, 133.0, 189.0, 206.0, 277.0, 339.0, 416.0, 567.0, 744.0, 1062.0, 1524.0, 2986.0, 48019.0, 4288.0, 1395.0, 726.0, 508.0, 389.0, 261.0, 177.0, 165.0, 119.0, 104.0, 61.0, 51.0, 42.0, 30.0, 26.0, 15.0, 10.0, 10.0, 9.0, 7.0, 7.0, 2.0, 6.0, 4.0, 0.0, 2.0, 1.0], "bins": [-0.004488055594265461, -0.004365905188024044, -0.004243755247443914, -0.0041216048412024975, -0.003999454900622368, -0.003877304494380951, -0.0037551543209701777, -0.0036330041475594044, -0.003510853974148631, -0.003388703800737858, -0.0032665536273270845, -0.0031444034539163113, -0.0030222530476748943, -0.002900102874264121, -0.0027779527008533478, -0.0026558025274425745, -0.0025336523540318012, -0.002411502180621028, -0.0022893520072102547, -0.0021672018337994814, -0.002045051660388708, -0.001922901370562613, -0.001800751080736518, -0.0016786009073257446, -0.0015564507339149714, -0.001434300560504198, -0.0013121503870934248, -0.0011900000972673297, -0.0010678499238565564, -0.0009456997504457831, -0.000823549518827349, -0.0007013992872089148, -0.0005792488809674978, -0.0004570986784528941, -0.00033494847593829036, -0.00021279827342368662, -9.064807090908289e-05, 3.1502131605520844e-05, 0.00015365233412012458, 0.0002758025366347283, 0.00039795273914933205, 0.0005201029125601053, 0.0006422531441785395, 0.0007644033757969737, 0.000886553549207747, 0.0010087037226185203, 0.0011308540124446154, 0.0012530041858553886, 0.001375154359266162, 0.0014973045326769352, 0.0016194547060877085, 0.0017416049959138036, 0.0018637551693245769, 0.001985905459150672, 0.0021080556325614452, 0.0022302058059722185, 0.002352355979382992, 0.002474506152793765, 0.0025966563262045383, 0.0027188064996153116, 0.002840956673026085, 0.002963107079267502, 0.003085257252678275, 0.0032074074260890484, 0.0033295575994998217]}, "gradients/linearlayers.1.0.bias": {"_type": "histogram", "values": [1.0, 0.0, 0.0, 0.0, 1.0, 0.0, 0.0, 0.0, 1.0, 1.0, 0.0, 0.0, 3.0, 1.0, 1.0, 1.0, 4.0, 1.0, 1.0, 1.0, 1.0, 0.0, 2.0, 3.0, 3.0, 2.0, 4.0, 4.0, 4.0, 4.0, 2.0, 3.0, 3.0, 6.0, 4.0, 3.0, 10.0, 7.0, 5.0, 10.0, 77.0, 18.0, 7.0, 11.0, 7.0, 7.0, 6.0, 6.0, 4.0, 2.0, 2.0, 4.0, 2.0, 1.0, 1.0, 0.0, 0.0, 0.0, 0.0, 0.0, 2.0, 1.0, 0.0, 1.0], "bins": [-0.005373627878725529, -0.005240452941507101, -0.005107278004288673, -0.004974103067070246, -0.004840928129851818, -0.00470775319263339, -0.004574578255414963, -0.004441403318196535, -0.0043082283809781075, -0.004175053909420967, -0.0040418789722025394, -0.003908704034984112, -0.003775529097765684, -0.0036423541605472565, -0.003509179223328829, -0.003376004286110401, -0.0032428293488919735, -0.003109654411673546, -0.002976479474455118, -0.0028433045372366905, -0.002710129600018263, -0.002576954895630479, -0.002443779958412051, -0.0023106050211936235, -0.002177430083975196, -0.0020442551467567682, -0.0019110802095383406, -0.0017779053887352347, -0.001644730451516807, -0.0015115555142983794, -0.0013783806934952736, -0.001245205756276846, -0.001112030353397131, -0.0009788554161787033, -0.0008456805371679366, -0.0007125056581571698, -0.0005793307209387422, -0.00044615581282414496, -0.00031298090470954776, -0.00017980599659495056, -4.6631088480353355e-05, 8.654381963424385e-05, 0.00021971872774884105, 0.00035289363586343825, 0.00048606854397803545, 0.0006192434811964631, 0.0007524183602072299, 0.0008855932392179966, 0.0010187681764364243, 0.001151943113654852, 0.0012851180508732796, 0.0014182928716763854, 0.001551467808894813, 0.0016846427461132407, 0.0018178175669163465, 0.0019509925041347742, 0.002084167441353202, 0.0022173423785716295, 0.002350517315790057, 0.002483692253008485, 0.002616866957396269, 0.0027500418946146965, 0.002883216831833124, 0.003016391769051552, 0.0031495667062699795]}, "gradients/linearlayers.1.0.weight": {"_type": "histogram", "values": [1.0, 0.0, 0.0, 0.0, 0.0, 1.0, 0.0, 0.0, 0.0, 2.0, 0.0, 3.0, 1.0, 3.0, 6.0, 4.0, 6.0, 11.0, 9.0, 8.0, 12.0, 22.0, 24.0, 36.0, 48.0, 45.0, 70.0, 59.0, 80.0, 81.0, 127.0, 150.0, 213.0, 232.0, 316.0, 426.0, 555.0, 753.0, 1106.0, 1986.0, 4307.0, 47041.0, 4324.0, 1427.0, 808.0, 434.0, 279.0, 161.0, 124.0, 73.0, 45.0, 26.0, 19.0, 17.0, 17.0, 10.0, 10.0, 10.0, 4.0, 0.0, 0.0, 0.0, 2.0, 2.0], "bins": [-0.0052390615455806255, -0.005112801678478718, -0.004986542277038097, -0.00486028240993619, -0.004734022542834282, -0.0046077631413936615, -0.004481503274291754, -0.004355243407189846, -0.004228984005749226, -0.004102724138647318, -0.00397646427154541, -0.003850204637274146, -0.003723945003002882, -0.0035976851359009743, -0.00347142550162971, -0.0033451656345278025, -0.0032189060002565384, -0.0030926463659852743, -0.0029663864988833666, -0.0028401268646121025, -0.0027138669975101948, -0.0025876073632389307, -0.0024613477289676666, -0.002335087861865759, -0.002208828227594495, -0.0020825685933232307, -0.001956308726221323, -0.001830049091950059, -0.001703789341263473, -0.0015775295905768871, -0.001451269956305623, -0.0013250102056190372, -0.001198750687763095, -0.001072490937076509, -0.000946231244597584, -0.000819971552118659, -0.0006937118014320731, -0.0005674520507454872, -0.0004411923582665622, -0.0003149326366838068, -0.00018867291510105133, -6.241319351829588e-05, 6.384652806445956e-05, 0.000190106249647215, 0.00031636597122997046, 0.0004426256928127259, 0.0005688854143954813, 0.0006951451068744063, 0.0008214048575609922, 0.0009476646082475781, 0.001073924358934164, 0.0012001839932054281, 0.001326443743892014, 0.0014527034945786, 0.001578963128849864, 0.00170522287953645, 0.0018314826302230358, 0.0019577422644943, 0.0020840021315962076, 0.0022102617658674717, 0.0023365216329693794, 0.0024627812672406435, 0.0025890409015119076, 0.0027153007686138153, 0.0028415604028850794]}, "gradients/linearlayers.0.0.bias": {"_type": "histogram", "values": [1.0, 0.0, 0.0, 1.0, 1.0, 4.0, 0.0, 2.0, 1.0, 1.0, 1.0, 1.0, 2.0, 1.0, 3.0, 3.0, 4.0, 3.0, 4.0, 2.0, 3.0, 3.0, 3.0, 5.0, 8.0, 9.0, 3.0, 5.0, 8.0, 7.0, 11.0, 12.0, 10.0, 72.0, 6.0, 8.0, 7.0, 8.0, 3.0, 6.0, 4.0, 0.0, 2.0, 3.0, 5.0, 2.0, 2.0, 2.0, 0.0, 1.0, 0.0, 0.0, 0.0, 1.0, 0.0, 0.0, 0.0, 0.0, 0.0, 0.0, 1.0, 0.0, 0.0, 1.0], "bins": [-0.003283024299889803, -0.003184289438650012, -0.003085554577410221, -0.0029868194833397865, -0.0028880846220999956, -0.0027893497608602047, -0.0026906148996204138, -0.002591880038380623, -0.0024931449443101883, -0.0023944100830703974, -0.0022956752218306065, -0.0021969403605908155, -0.0020982054993510246, -0.0019994706381112337, -0.001900735660456121, -0.0018020006828010082, -0.0017032658215612173, -0.0016045309603214264, -0.0015057959826663136, -0.0014070611214265227, -0.00130832614377141, -0.001209591282531619, -0.0011108564212918282, -0.0010121214436367154, -0.0009133865823969245, -0.0008146516629494727, -0.0007159167435020208, -0.0006171818822622299, -0.0005184469628147781, -0.00041971204336732626, -0.0003209771530237049, -0.00022224224812816828, -0.00012350711040198803, -2.4772205506451428e-05, 7.396269938908517e-05, 0.00017269760428462178, 0.0002714325091801584, 0.0003701674286276102, 0.0004689023189712316, 0.000567637209314853, 0.0006663721287623048, 0.0007651070482097566, 0.0008638419676572084, 0.0009625768288969994, 0.0010613116901367903, 0.001160046667791903, 0.001258781529031694, 0.0013575165066868067, 0.0014562513679265976, 0.0015549862291663885, 0.0016537212068215013, 0.0017524560680612922, 0.001851191045716405, 0.0019499259069561958, 0.0020486607681959867, 0.0021473956294357777, 0.0022461307235062122, 0.002344865584746003, 0.002443600445985794, 0.002542335307225585, 0.002641070168465376, 0.002739805029705167, 0.0028385401237756014, 0.0029372749850153923, 0.0030360098462551832]}, "gradients/linearlayers.0.0.weight": {"_type": "histogram", "values": [1.0, 5.0, 3.0, 1.0, 8.0, 12.0, 10.0, 13.0, 18.0, 23.0, 22.0, 32.0, 33.0, 36.0, 52.0, 65.0, 90.0, 113.0, 124.0, 166.0, 186.0, 233.0, 280.0, 339.0, 443.0, 541.0, 678.0, 925.0, 1161.0, 1580.0, 2291.0, 3843.0, 40287.0, 6124.0, 2050.0, 1239.0, 799.0, 451.0, 334.0, 229.0, 184.0, 118.0, 85.0, 83.0, 45.0, 46.0, 26.0, 23.0, 17.0, 13.0, 10.0, 7.0, 6.0, 1.0, 4.0, 3.0, 7.0, 2.0, 5.0, 4.0, 0.0, 3.0, 2.0, 2.0], "bins": [-0.0028295516967773438, -0.002743308898061514, -0.0026570658665150404, -0.002570822834968567, -0.002484580036252737, -0.002398337237536907, -0.0023120942059904337, -0.00222585117444396, -0.0021396083757281303, -0.0020533655770123005, -0.001967122545465827, -0.0018808796303346753, -0.0017946367152035236, -0.001708393800072372, -0.0016221508849412203, -0.0015359079698100686, -0.001449665054678917, -0.0013634221395477653, -0.0012771792244166136, -0.001190936309285462, -0.0011046933941543102, -0.0010184504790231586, -0.0009322075638920069, -0.0008459646487608552, -0.0007597217336297035, -0.0006734788184985518, -0.0005872359033674002, -0.0005009929882362485, -0.0004147500731050968, -0.00032850715797394514, -0.00024226424284279346, -0.0001560213277116418, -6.977841258049011e-05, 1.6464502550661564e-05, 0.00010270741768181324, 0.00018895033281296492, 0.0002751932479441166, 0.00036143616307526827, 0.00044767907820641994, 0.0005339219933375716, 0.0006201649084687233, 0.000706407823599875, 0.0007926507387310266, 0.0008788936538621783, 0.00096513656899333, 0.0010513794841244817, 0.0011376223992556334, 0.001223865314386785, 0.0013101082295179367, 0.0013963511446490884, 0.00148259405978024, 0.0015688369749113917, 0.0016550798900425434, 0.001741322805173695, 0.0018275657203048468, 0.0019138086354359984, 0.00200005155056715, 0.00208629434928298, 0.0021725373808294535, 0.002258780412375927, 0.002345023211091757, 0.0024312660098075867, 0.00251750904135406, 0.0026037520729005337, 0.0026899948716163635]}, "gradients/embeds.2.bias": {"_type": "histogram", "values": [2.0, 1.0, 0.0, 0.0, 2.0, 0.0, 1.0, 1.0, 0.0, 2.0, 0.0, 3.0, 0.0, 1.0, 1.0, 1.0, 7.0, 0.0, 2.0, 3.0, 3.0, 6.0, 4.0, 2.0, 4.0, 11.0, 2.0, 4.0, 3.0, 0.0, 5.0, 5.0, 8.0, 2.0, 8.0, 13.0, 16.0, 9.0, 62.0, 8.0, 8.0, 6.0, 8.0, 8.0, 4.0, 1.0, 4.0, 2.0, 2.0, 0.0, 1.0, 1.0, 1.0, 3.0, 1.0, 1.0, 0.0, 1.0, 1.0, 0.0, 0.0, 0.0, 0.0, 1.0], "bins": [-0.0024800433311611414, -0.0024149343371391296, -0.0023498251102864742, -0.0022847161162644625, -0.0022196071222424507, -0.0021544978953897953, -0.0020893889013677835, -0.002024279907345772, -0.0019591706804931164, -0.0018940616864711046, -0.0018289526924490929, -0.0017638435820117593, -0.0016987344715744257, -0.001633625477552414, -0.0015685163671150804, -0.0015034073730930686, -0.001438298262655735, -0.0013731891522184014, -0.0013080801581963897, -0.001242971047759056, -0.0011778620537370443, -0.0011127529432997108, -0.0010476438328623772, -0.0009825348388403654, -0.0009174257284030318, -0.0008523166761733592, -0.0007872076239436865, -0.0007220985135063529, -0.0006569894612766802, -0.0005918804090470076, -0.000526771298609674, -0.0004616622463800013, -0.0003965530777350068, -0.00033144402550533414, -0.000266334944171831, -0.0002012258773902431, -0.00013611681060865521, -7.100774382706732e-05, -5.898677045479417e-06, 5.921038973610848e-05, 0.00012431945651769638, 0.00018942852329928428, 0.0002545375900808722, 0.0003196466714143753, 0.000384755723644048, 0.00044986477587372065, 0.0005149738863110542, 0.0005800829385407269, 0.0006451919907703996, 0.0007103010430000722, 0.0007754100952297449, 0.0008405192056670785, 0.0009056282578967512, 0.0009707373101264238, 0.0010358464205637574, 0.0011009554145857692, 0.0011660645250231028, 0.0012311736354604363, 0.001296282629482448, 0.0013613917399197817, 0.0014265007339417934, 0.001491609844379127, 0.0015567189548164606, 0.0016218279488384724, 0.001686937059275806]}, "gradients/embeds.2.weight": {"_type": "histogram", "values": [2.0, 1.0, 0.0, 2.0, 1.0, 1.0, 4.0, 3.0, 3.0, 5.0, 6.0, 4.0, 8.0, 6.0, 10.0, 20.0, 19.0, 40.0, 28.0, 54.0, 82.0, 82.0, 108.0, 151.0, 181.0, 233.0, 359.0, 451.0, 588.0, 815.0, 980.0, 1414.0, 1805.0, 2466.0, 3691.0, 6487.0, 14896.0, 81330.0, 8088.0, 3067.0, 1421.0, 780.0, 479.0, 309.0, 194.0, 141.0, 74.0, 57.0, 49.0, 29.0, 14.0, 12.0, 4.0, 4.0, 5.0, 5.0, 1.0, 1.0, 0.0, 1.0, 0.0, 0.0, 0.0, 1.0], "bins": [-0.0038473436143249273, -0.0037443400360643864, -0.0036413364578038454, -0.0035383328795433044, -0.0034353293012827635, -0.0033323257230222225, -0.0032293221447616816, -0.0031263185665011406, -0.0030233149882405996, -0.0029203114099800587, -0.0028173078317195177, -0.0027143042534589767, -0.002611300675198436, -0.002508297096937895, -0.002405293518677354, -0.002302289940416813, -0.002199286362156272, -0.002096282783895731, -0.00199327920563519, -0.001890275627374649, -0.001787272049114108, -0.0016842684708535671, -0.0015812648925930262, -0.0014782613143324852, -0.0013752577360719442, -0.0012722541578114033, -0.0011692505795508623, -0.0010662470012903214, -0.0009632434230297804, -0.0008602398447692394, -0.0007572362665086985, -0.0006542326882481575, -0.0005512291099876165, -0.0004482255317270756, -0.0003452219534665346, -0.00024221837520599365, -0.0001392147969454527, -3.621121868491173e-05, 6.679235957562923e-05, 0.0001697959378361702, 0.00027279951609671116, 0.0003758030943572521, 0.0004788066726177931, 0.000581810250878334, 0.000684813829138875, 0.000787817407399416, 0.0008908209856599569, 0.000993824563920498, 0.0010968281421810389, 0.0011998317204415798, 0.0013028352987021208, 0.0014058388769626617, 0.0015088424552232027, 0.0016118460334837437, 0.0017148496117442846, 0.0018178531900048256, 0.0019208567682653666, 0.0020238603465259075, 0.0021268639247864485, 0.0022298675030469894, 0.0023328710813075304, 0.0024358746595680714, 0.0025388782378286123, 0.0026418818160891533, 0.0027448853943496943]}, "gradients/embeds.0.bias": {"_type": "histogram", "values": [1.0, 0.0, 2.0, 2.0, 1.0, 3.0, 2.0, 2.0, 1.0, 2.0, 3.0, 3.0, 5.0, 2.0, 7.0, 0.0, 2.0, 6.0, 7.0, 6.0, 6.0, 7.0, 3.0, 10.0, 5.0, 8.0, 9.0, 12.0, 14.0, 11.0, 15.0, 17.0, 19.0, 22.0, 24.0, 23.0, 91.0, 35.0, 27.0, 15.0, 15.0, 8.0, 12.0, 7.0, 5.0, 4.0, 4.0, 6.0, 5.0, 1.0, 2.0, 1.0, 2.0, 3.0, 2.0, 0.0, 0.0, 1.0, 1.0, 1.0, 1.0, 0.0, 0.0, 1.0], "bins": [-0.0013137668138369918, -0.001277379458770156, -0.00124099210370332, -0.0012046047486364841, -0.0011682173935696483, -0.0011318300385028124, -0.0010954427998512983, -0.0010590554447844625, -0.0010226680897176266, -0.0009862807346507907, -0.0009498933795839548, -0.0009135060245171189, -0.000877118669450283, -0.0008407313143834472, -0.0008043440175242722, -0.0007679566624574363, -0.0007315693073906004, -0.0006951819523237646, -0.0006587945972569287, -0.0006224073003977537, -0.0005860199453309178, -0.000549632590264082, -0.0005132452351972461, -0.00047685790923424065, -0.00044047055416740477, -0.0004040831991005689, -0.00036769587313756347, -0.0003313085180707276, -0.0002949211630038917, -0.0002585338370408863, -0.0002221464819740504, -0.00018575914145912975, -0.0001493718009442091, -0.00011298446042928845, -7.659711263841018e-05, -4.020976848551072e-05, -3.822424332611263e-06, 3.2564919820288196e-05, 6.895226397318766e-05, 0.00010533961176406592, 0.00014172695227898657, 0.00017811429279390723, 0.00021450163330882788, 0.00025088898837566376, 0.00028727634344249964, 0.00032366366940550506, 0.00036005102447234094, 0.00039643835043534636, 0.00043282570550218225, 0.0004692130605690181, 0.000505600415635854, 0.000541987712495029, 0.0005783750675618649, 0.0006147624226287007, 0.0006511497776955366, 0.0006875371327623725, 0.0007239244878292084, 0.0007603117846883833, 0.0007966991397552192, 0.0008330864948220551, 0.000869473849888891, 0.0009058612049557269, 0.0009422485018149018, 0.0009786358568817377, 0.0010150232119485736]}, "gradients/embeds.0.weight": {"_type": "histogram", "values": [1.0, 0.0, 3.0, 1.0, 1.0, 4.0, 4.0, 2.0, 1.0, 1.0, 3.0, 6.0, 6.0, 6.0, 4.0, 7.0, 7.0, 8.0, 10.0, 14.0, 11.0, 12.0, 14.0, 15.0, 16.0, 18.0, 34.0, 36.0, 50.0, 79.0, 112.0, 180.0, 529.0, 3321.0, 48142.0, 322185.0, 15786.0, 1776.0, 346.0, 143.0, 96.0, 61.0, 48.0, 25.0, 26.0, 14.0, 13.0, 10.0, 7.0, 5.0, 2.0, 6.0, 0.0, 1.0, 4.0, 0.0, 1.0, 0.0, 2.0, 0.0, 0.0, 0.0, 0.0, 1.0], "bins": [-0.015940627083182335, -0.015489178709685802, -0.01503773033618927, -0.014586282894015312, -0.01413483452051878, -0.013683386147022247, -0.01323193870484829, -0.012780490331351757, -0.012329041957855225, -0.011877593584358692, -0.01142614521086216, -0.010974697768688202, -0.01052324939519167, -0.010071801021695137, -0.00962035357952118, -0.009168905206024647, -0.008717456832528114, -0.008266008459031582, -0.00781456008553505, -0.007363112643361092, -0.006911664269864559, -0.006460215896368027, -0.006008767988532782, -0.0055573200806975365, -0.005105871707201004, -0.004654423333704472, -0.0042029754258692265, -0.0037515272852033377, -0.003300079144537449, -0.00284863100387156, -0.0023971828632056713, -0.0019457347225397825, -0.0014942865818738937, -0.001042838441208005, -0.0005913903005421162, -0.00013994215987622738, 0.0003115059807896614, 0.0007629541214555502, 0.001214402262121439, 0.0016658504027873278, 0.0021172985434532166, 0.0025687466841191053, 0.003020194824784994, 0.003471642965450883, 0.003923091106116772, 0.004374539479613304, 0.004825987387448549, 0.005277435295283794, 0.005728883668780327, 0.006180332042276859, 0.006631779950112104, 0.0070832278579473495, 0.007534676231443882, 0.007986124604940414, 0.008437572047114372, 0.008889020420610905, 0.009340468794107437, 0.00979191716760397, 0.010243365541100502, 0.01069481298327446, 0.011146261356770992, 0.011597709730267525, 0.012049157172441483, 0.012500605545938015, 0.012952053919434547]}}