{"num_of_examples": 1440, "train_loss": 0.17103453278541564, "_timestamp": 1716364980.8134177, "_runtime": 468.09727478027344, "_step": 839, "num_of_test_examples": 0, "test_loss": 0.004487852454185486, "epoch": 39, "val-auc": 0.8866541353383459, "gradients/output.bias": {"_type": "histogram", "values": [1.0, 0.0, 0.0, 0.0, 0.0, 0.0, 0.0, 0.0, 0.0, 0.0, 0.0, 0.0, 0.0, 0.0, 0.0, 0.0, 0.0, 0.0, 0.0, 0.0, 0.0, 0.0, 0.0, 0.0, 0.0, 0.0, 0.0, 0.0, 0.0, 0.0, 0.0, 0.0, 0.0, 0.0, 0.0, 0.0, 0.0, 0.0, 0.0, 0.0, 0.0, 0.0, 0.0, 0.0, 0.0, 0.0, 0.0, 0.0, 0.0, 0.0, 0.0, 0.0, 0.0, 0.0, 0.0, 0.0, 0.0, 0.0, 0.0, 0.0, 0.0, 0.0, 0.0, 1.0], "bins": [-0.0024631579872220755, -0.00238618440926075, -0.0023092105984687805, -0.002232237020507455, -0.0021552634425461292, -0.00207828963175416, -0.0020013160537928343, -0.0019243423594161868, -0.0018473686650395393, -0.0017703949706628919, -0.0016934212762862444, -0.0016164476983249187, -0.0015394740039482713, -0.0014625003095716238, -0.0013855267316102982, -0.0013085530372336507, -0.0012315793428570032, -0.0011546056484803557, -0.0010776319541037083, -0.0010006583761423826, -0.0009236846817657351, -0.0008467109873890877, -0.0007697373512201011, -0.0006927637150511146, -0.0006157900206744671, -0.0005388163262978196, -0.00046184269012883306, -0.00038486902485601604, -0.000307895359583199, -0.000230921694310382, -0.000153948029037565, -7.697436376474798e-05, -6.984919309616089e-10, 7.697296678088605e-05, 0.00015394663205370307, 0.00023092029732652009, 0.0003078939625993371, 0.0003848676278721541, 0.00046184129314497113, 0.0005388149293139577, 0.0006157886236906052, 0.0006927623180672526, 0.0007697359542362392, 0.0008467095904052258, 0.0009236832847818732, 0.0010006569791585207, 0.0010776305571198463, 0.0011546042514964938, 0.0012315779458731413, 0.0013085516402497888, 0.0013855253346264362, 0.0014624989125877619, 0.0015394726069644094, 0.0016164463013410568, 0.0016934198793023825, 0.00177039357367903, 0.0018473672680556774, 0.0019243409624323249, 0.0020013146568089724, 0.002078288234770298, 0.0021552620455622673, 0.002232235623523593, 0.0023092092014849186, 0.002386183012276888, 0.0024631565902382135]}, "gradients/output.weight": {"_type": "histogram", "values": [1.0, 0.0, 0.0, 0.0, 0.0, 0.0, 0.0, 0.0, 1.0, 1.0, 1.0, 0.0, 2.0, 6.0, 2.0, 7.0, 5.0, 1.0, 3.0, 5.0, 8.0, 10.0, 6.0, 5.0, 5.0, 5.0, 3.0, 5.0, 9.0, 5.0, 20.0, 65.0, 215.0, 20.0, 5.0, 9.0, 5.0, 3.0, 5.0, 5.0, 5.0, 6.0, 10.0, 8.0, 5.0, 3.0, 1.0, 5.0, 7.0, 2.0, 6.0, 2.0, 0.0, 1.0, 1.0, 1.0, 0.0, 0.0, 0.0, 0.0, 0.0, 0.0, 0.0, 1.0], "bins": [-0.006495886482298374, -0.006292889825999737, -0.006089893635362387, -0.005886896979063749, -0.005683900788426399, -0.005480904132127762, -0.005277907941490412, -0.005074911285191774, -0.004871915094554424, -0.004668918438255787, -0.0044659217819571495, -0.004262925591319799, -0.004059928935021162, -0.0038569325115531683, -0.0036539360880851746, -0.003450939664617181, -0.003247943241149187, -0.0030449468176811934, -0.0028419503942131996, -0.002638953970745206, -0.002435957547277212, -0.0022329608909785748, -0.002029964467510581, -0.0018269680440425873, -0.0016239716205745935, -0.0014209751971065998, -0.001217978773638606, -0.0010149822337552905, -0.0008119858102872968, -0.000608989386819303, -0.0004059929051436484, -0.0002029964525718242, -4.656612873077393e-10, 0.00020299598691053689, 0.0004059924394823611, 0.0006089889211580157, 0.0008119853446260095, 0.0010149817680940032, 0.0012179783079773188, 0.0014209747314453125, 0.0016239711549133062, 0.0018269675783813, 0.0020299640018492937, 0.0022329604253172874, 0.002435957081615925, 0.0026389535050839186, 0.0028419499285519123, 0.003044946352019906, 0.0032479427754878998, 0.0034509391989558935, 0.0036539356224238873, 0.003856932045891881, 0.004059928469359875, 0.004262925125658512, 0.004465921316295862, 0.0046689179725945, 0.00487191416323185, 0.005074910819530487, 0.0052779074758291245, 0.0054809036664664745, 0.005683900322765112, 0.005886896513402462, 0.006089893169701099, 0.0062928893603384495, 0.006495886016637087]}, "gradients/linearlayers.4.0.bias": {"_type": "histogram", "values": [1.0, 1.0, 1.0, 1.0, 3.0, 3.0, 2.0, 0.0, 2.0, 1.0, 2.0, 4.0, 0.0, 3.0, 2.0, 1.0, 4.0, 5.0, 1.0, 4.0, 1.0, 1.0, 5.0, 6.0, 4.0, 3.0, 5.0, 1.0, 2.0, 1.0, 0.0, 4.0, 80.0, 3.0, 2.0, 7.0, 8.0, 6.0, 4.0, 8.0, 3.0, 4.0, 5.0, 5.0, 7.0, 8.0, 3.0, 6.0, 1.0, 2.0, 1.0, 3.0, 5.0, 1.0, 2.0, 2.0, 1.0, 1.0, 0.0, 1.0, 2.0, 0.0, 0.0, 1.0], "bins": [-0.00032865142566151917, -0.0003183917433489114, -0.0003081320901401341, -0.00029787240782752633, -0.000287612754618749, -0.00027735307230614126, -0.00026709341909736395, -0.0002568337367847562, -0.0002465740544721484, -0.0002363144012633711, -0.00022605473350267857, -0.00021579506574198604, -0.00020553538342937827, -0.00019527571566868573, -0.0001850160479079932, -0.00017475638014730066, -0.00016449671238660812, -0.0001542370446259156, -0.00014397737686522305, -0.0001337177091045305, -0.00012345804134383798, -0.00011319836630718783, -0.00010293869127053767, -9.267902350984514e-05, -8.24193557491526e-05, -7.215968798846006e-05, -6.190002022776753e-05, -5.1640345191117376e-05, -4.138067743042484e-05, -3.11210096697323e-05, -2.086133827106096e-05, -1.0601668691379018e-05, -3.420282155275345e-07, 9.917641364154406e-06, 2.0177310943836346e-05, 3.0436980523518287e-05, 4.069665010320023e-05, 5.0956317863892764e-05, 6.121599290054291e-05, 7.147566066123545e-05, 8.173532842192799e-05, 9.199499618262053e-05, 0.00010225466394331306, 0.00011251433897996321, 0.00012277401401661336, 0.0001330336817773059, 0.00014329334953799844, 0.00015355301729869097, 0.0001638126850593835, 0.00017407235282007605, 0.00018433202058076859, 0.00019459168834146112, 0.00020485135610215366, 0.00021511103841476142, 0.00022537070617545396, 0.0002356303739361465, 0.00024589005624875426, 0.00025614970945753157, 0.00026640939177013934, 0.00027666904497891665, 0.0002869287272915244, 0.0002971883805003017, 0.0003074480628129095, 0.0003177077160216868, 0.00032796739833429456]}, "gradients/linearlayers.4.0.weight": {"_type": "histogram", "values": [1.0, 1.0, 2.0, 2.0, 5.0, 6.0, 8.0, 6.0, 15.0, 14.0, 17.0, 28.0, 34.0, 48.0, 51.0, 49.0, 76.0, 92.0, 107.0, 140.0, 144.0, 238.0, 284.0, 314.0, 388.0, 505.0, 647.0, 839.0, 1070.0, 1328.0, 1902.0, 4241.0, 41679.0, 3043.0, 2086.0, 1447.0, 1141.0, 830.0, 617.0, 493.0, 352.0, 293.0, 238.0, 157.0, 123.0, 98.0, 88.0, 57.0, 41.0, 37.0, 25.0, 25.0, 18.0, 15.0, 6.0, 9.0, 4.0, 3.0, 3.0, 2.0, 2.0, 1.0, 0.0, 1.0], "bins": [-0.000692797708325088, -0.0006711705354973674, -0.0006495433044619858, -0.0006279161316342652, -0.0006062889005988836, -0.000584661727771163, -0.0005630345549434423, -0.0005414073239080608, -0.0005197801510803401, -0.0004981529782526195, -0.00047652574721723795, -0.0004548985743895173, -0.0004332713724579662, -0.0004116441705264151, -0.00039001699769869447, -0.00036838979576714337, -0.00034676259383559227, -0.00032513539190404117, -0.00030350818997249007, -0.00028188101714476943, -0.00026025381521321833, -0.00023862661328166723, -0.00021699942590203136, -0.0001953722385223955, -0.0001737450365908444, -0.0001521178346592933, -0.00013049064727965742, -0.00010886345262406394, -8.723625796847045e-05, -6.560906331287697e-05, -4.3981868657283485e-05, -2.235467400169e-05, -7.275375537574291e-07, 2.0899657101836056e-05, 4.252685175742954e-05, 6.415404641302302e-05, 8.578124106861651e-05, 0.00010740843572421, 0.00012903563037980348, 0.00015066281775943935, 0.00017229001969099045, 0.00019391722162254155, 0.00021554440900217742, 0.0002371715963818133, 0.0002587987983133644, 0.0002804260002449155, 0.00030205317307263613, 0.0003236803750041872, 0.0003453075769357383, 0.0003669347788672894, 0.0003885619807988405, 0.00041018915362656116, 0.00043181635555811226, 0.00045344355748966336, 0.000475070730317384, 0.0004966979613527656, 0.0005183251341804862, 0.0005399523070082068, 0.0005615795380435884, 0.000583206710871309, 0.0006048339419066906, 0.0006264611147344112, 0.0006480882875621319, 0.0006697155185975134, 0.0006913426914252341]}, "gradients/linearlayers.3.0.bias": {"_type": "histogram", "values": [1.0, 0.0, 0.0, 0.0, 0.0, 1.0, 2.0, 0.0, 0.0, 3.0, 3.0, 0.0, 0.0, 1.0, 3.0, 3.0, 2.0, 2.0, 2.0, 5.0, 4.0, 6.0, 5.0, 3.0, 6.0, 4.0, 2.0, 3.0, 2.0, 3.0, 3.0, 1.0, 3.0, 0.0, 2.0, 87.0, 6.0, 2.0, 5.0, 3.0, 6.0, 3.0, 6.0, 4.0, 4.0, 1.0, 1.0, 5.0, 1.0, 2.0, 6.0, 4.0, 6.0, 5.0, 10.0, 1.0, 0.0, 2.0, 1.0, 1.0, 1.0, 3.0, 2.0, 3.0], "bins": [-0.0006230706931091845, -0.0006054386612959206, -0.0005878065712749958, -0.0005701745394617319, -0.000552542507648468, -0.0005349104176275432, -0.0005172783858142793, -0.0004996463540010154, -0.0004820142930839211, -0.0004643822321668267, -0.00044675020035356283, -0.0004291181394364685, -0.00041148607851937413, -0.00039385404670611024, -0.0003762219857890159, -0.000358589953975752, -0.00034095789305865765, -0.0003233258321415633, -0.0003056938003282994, -0.00028806173941120505, -0.00027042970759794116, -0.0002527976466808468, -0.00023516558576375246, -0.00021753353939857334, -0.00019990149303339422, -0.0001822694466682151, -0.00016463740030303597, -0.00014700533938594162, -0.0001293732930207625, -0.00011174124665558338, -9.410919301444665e-05, -7.647713937330991e-05, -5.8845034800469875e-05, -4.121298479731195e-05, -2.3580934794154018e-05, -5.94888479099609e-06, 1.1683165212161839e-05, 2.9315215215319768e-05, 4.6947265218477696e-05, 6.457931885961443e-05, 8.221136522479355e-05, 9.984341158997267e-05, 0.00011747546523110941, 0.00013510751887224615, 0.00015273956523742527, 0.0001703716116026044, 0.00018800367251969874, 0.00020563571888487786, 0.00022326776525005698, 0.0002408998116152361, 0.0002585318579804152, 0.0002761639188975096, 0.00029379595071077347, 0.0003114280116278678, 0.00032906007254496217, 0.00034669210435822606, 0.0003643241652753204, 0.00038195622619241476, 0.00039958825800567865, 0.000417220318922773, 0.00043485237983986735, 0.00045248441165313125, 0.0004701164725702256, 0.0004877485043834895, 0.0005053805653005838]}, "gradients/linearlayers.3.0.weight": {"_type": "histogram", "values": [1.0, 0.0, 0.0, 0.0, 0.0, 1.0, 3.0, 0.0, 0.0, 4.0, 3.0, 4.0, 2.0, 7.0, 8.0, 4.0, 20.0, 10.0, 24.0, 30.0, 31.0, 57.0, 71.0, 94.0, 123.0, 177.0, 235.0, 299.0, 439.0, 572.0, 833.0, 1093.0, 1530.0, 2280.0, 3513.0, 42178.0, 3799.0, 2187.0, 1644.0, 1071.0, 765.0, 659.0, 452.0, 331.0, 267.0, 192.0, 138.0, 110.0, 68.0, 52.0, 45.0, 21.0, 21.0, 22.0, 16.0, 5.0, 6.0, 5.0, 4.0, 1.0, 1.0, 3.0, 2.0, 3.0], "bins": [-0.001531134475953877, -0.0014878183137625456, -0.0014445021515712142, -0.0014011859893798828, -0.0013578698271885514, -0.00131455366499722, -0.0012712375028058887, -0.0012279213406145573, -0.0011846051784232259, -0.0011412890162318945, -0.001097972854040563, -0.0010546566918492317, -0.0010113405296579003, -0.0009680244256742299, -0.0009247082634828985, -0.0008813921012915671, -0.0008380759391002357, -0.0007947597769089043, -0.0007514436147175729, -0.0007081274525262415, -0.0006648112903349102, -0.0006214951281435788, -0.0005781789659522474, -0.000534862803760916, -0.0004915466997772455, -0.0004482305084820837, -0.0004049143462907523, -0.0003615981840994209, -0.00031828205101192, -0.0002749658888205886, -0.0002316497266292572, -0.00018833356443792582, -0.00014501740224659443, -0.00010170124005526304, -5.838508513988927e-05, -1.506892658653669e-05, 2.824723196681589e-05, 7.156339415814728e-05, 0.00011487954907352105, 0.00015819570398889482, 0.0002015118661802262, 0.0002448280283715576, 0.000288144190562889, 0.00033146035275422037, 0.0003747764858417213, 0.0004180926480330527, 0.00046140881022438407, 0.0005047249724157155, 0.0005480411346070468, 0.0005913572967983782, 0.0006346734589897096, 0.000677989621181041, 0.0007213057833723724, 0.0007646219455637038, 0.0008079381077550352, 0.0008512542699463665, 0.000894570373930037, 0.0009378865361213684, 0.0009812026983126998, 0.0010245188605040312, 0.0010678350226953626, 0.001111151184886694, 0.0011544673470780253, 0.0011977835092693567, 0.0012410996714606881]}, "gradients/linearlayers.2.0.bias": {"_type": "histogram", "values": [3.0, 0.0, 0.0, 0.0, 0.0, 0.0, 1.0, 2.0, 4.0, 0.0, 7.0, 3.0, 2.0, 6.0, 4.0, 3.0, 4.0, 7.0, 3.0, 2.0, 3.0, 4.0, 2.0, 1.0, 5.0, 3.0, 1.0, 1.0, 3.0, 3.0, 87.0, 5.0, 3.0, 0.0, 5.0, 2.0, 4.0, 2.0, 3.0, 4.0, 6.0, 4.0, 6.0, 3.0, 5.0, 3.0, 4.0, 5.0, 6.0, 5.0, 3.0, 3.0, 1.0, 1.0, 2.0, 1.0, 2.0, 0.0, 1.0, 0.0, 1.0, 1.0, 0.0, 1.0], "bins": [-0.0008887285366654396, -0.0008599901921115816, -0.0008312517893500626, -0.0008025134447962046, -0.0007737750420346856, -0.0007450366974808276, -0.0007162982947193086, -0.0006875599501654506, -0.0006588215474039316, -0.0006300832028500736, -0.0006013448582962155, -0.0005726064555346966, -0.0005438681109808385, -0.0005151297082193196, -0.00048639136366546154, -0.00045765299000777304, -0.00042891461635008454, -0.00040017624269239604, -0.00037143786903470755, -0.00034269949537701905, -0.00031396112171933055, -0.0002852227771654725, -0.000256484403507784, -0.0002277460298500955, -0.000199007656192407, -0.0001702692825347185, -0.00014153090887703001, -0.00011279254977125674, -8.405417611356825e-05, -5.5315806093858555e-05, -2.6577436074148864e-05, 2.160933945560828e-06, 3.089930396527052e-05, 5.963767398498021e-05, 8.83760440046899e-05, 0.00011711441038642079, 0.00014585278404410928, 0.00017459115770179778, 0.00020332951680757105, 0.00023206789046525955, 0.00026080626412294805, 0.00028954463778063655, 0.00031828301143832505, 0.00034702138509601355, 0.0003757597296498716, 0.0004044981033075601, 0.0004332364769652486, 0.0004619748506229371, 0.0004907132242806256, 0.0005194515688344836, 0.0005481899715960026, 0.0005769283161498606, 0.0006056667189113796, 0.0006344050634652376, 0.0006631434662267566, 0.0006918818107806146, 0.0007206201553344727, 0.0007493585580959916, 0.0007780969026498497, 0.0008068353054113686, 0.0008355736499652267, 0.0008643120527267456, 0.0008930503972806036, 0.0009217888000421226, 0.0009505271445959806]}, "gradients/linearlayers.2.0.weight": {"_type": "histogram", "values": [2.0, 1.0, 0.0, 0.0, 0.0, 0.0, 0.0, 5.0, 5.0, 3.0, 7.0, 3.0, 4.0, 21.0, 18.0, 15.0, 23.0, 47.0, 62.0, 90.0, 115.0, 183.0, 250.0, 327.0, 450.0, 550.0, 791.0, 1104.0, 1697.0, 2677.0, 5173.0, 42138.0, 3194.0, 2015.0, 1300.0, 894.0, 642.0, 457.0, 359.0, 246.0, 196.0, 140.0, 86.0, 55.0, 58.0, 36.0, 17.0, 21.0, 15.0, 15.0, 8.0, 2.0, 5.0, 1.0, 5.0, 1.0, 3.0, 0.0, 0.0, 1.0, 1.0, 1.0, 0.0, 1.0], "bins": [-0.0023526924196630716, -0.002276887884363532, -0.0022010833490639925, -0.002125278813764453, -0.0020494742784649134, -0.001973669743165374, -0.0018978652078658342, -0.0018220606725662947, -0.001746256137266755, -0.0016704516019672155, -0.001594647066667676, -0.0015188425313681364, -0.0014430379960685968, -0.0013672334607690573, -0.0012914289254695177, -0.0012156243901699781, -0.0011398198548704386, -0.001064015319570899, -0.0009882107842713594, -0.0009124062489718199, -0.0008366017136722803, -0.0007607971783727407, -0.0006849926430732012, -0.0006091881077736616, -0.000533383572474122, -0.0004575790371745825, -0.0003817745018750429, -0.00030596996657550335, -0.00023016543127596378, -0.00015436089597642422, -7.855636067688465e-05, -2.751825377345085e-06, 7.305270992219448e-05, 0.00014885724522173405, 0.0002246617805212736, 0.0003004663158208132, 0.00037627085112035275, 0.0004520753864198923, 0.0005278799217194319, 0.0006036844570189714, 0.000679488992318511, 0.0007552935276180506, 0.0008310980629175901, 0.0009069025982171297, 0.0009827071335166693, 0.0010585116688162088, 0.0011343162041157484, 0.001210120739415288, 0.0012859252747148275, 0.001361729810014367, 0.0014375343453139067, 0.0015133388806134462, 0.0015891434159129858, 0.0016649479512125254, 0.001740752486512065, 0.0018165570218116045, 0.001892361557111144, 0.0019681660924106836, 0.002043970627710223, 0.0021197751630097628, 0.0021955796983093023, 0.002271384233608842, 0.0023471887689083815, 0.002422993304207921, 0.0024987978395074606]}, "gradients/linearlayers.1.0.bias": {"_type": "histogram", "values": [1.0, 1.0, 0.0, 0.0, 0.0, 1.0, 1.0, 3.0, 1.0, 1.0, 3.0, 2.0, 4.0, 1.0, 6.0, 2.0, 0.0, 4.0, 3.0, 1.0, 4.0, 6.0, 3.0, 2.0, 2.0, 4.0, 5.0, 1.0, 5.0, 6.0, 2.0, 3.0, 80.0, 9.0, 4.0, 3.0, 2.0, 6.0, 4.0, 3.0, 6.0, 7.0, 7.0, 3.0, 4.0, 3.0, 3.0, 3.0, 6.0, 2.0, 4.0, 2.0, 3.0, 2.0, 2.0, 1.0, 0.0, 3.0, 0.0, 1.0, 1.0, 2.0, 1.0, 1.0], "bins": [-0.0014677825383841991, -0.0014227923238649964, -0.001377801992930472, -0.0013328117784112692, -0.0012878214474767447, -0.001242831232957542, -0.0011978409020230174, -0.0011528506875038147, -0.0011078603565692902, -0.0010628701420500875, -0.0010178799275308847, -0.0009728895965963602, -0.0009278993820771575, -0.0008829091093502939, -0.0008379188366234303, -0.0007929285638965666, -0.000747938291169703, -0.0007029480184428394, -0.0006579577457159758, -0.0006129674729891121, -0.0005679772002622485, -0.0005229869857430458, -0.0004779967130161822, -0.00043300644028931856, -0.00038801616756245494, -0.0003430258948355913, -0.0002980356221087277, -0.00025304537848569453, -0.0002080551057588309, -0.00016306483303196728, -0.00011807457485701889, -7.308430940611288e-05, -2.8094160370528698e-05, 1.689610508037731e-05, 6.188637053128332e-05, 0.00010687663598218933, 0.00015186690143309534, 0.00019685717415995896, 0.00024184743233490735, 0.00028683769050985575, 0.00033182796323671937, 0.000376818235963583, 0.0004218085086904466, 0.0004667987523134798, 0.000511788995936513, 0.0005567792686633766, 0.0006017695413902402, 0.0006467598141171038, 0.0006917500868439674, 0.0007367403595708311, 0.0007817306322976947, 0.0008267209050245583, 0.0008717111777514219, 0.0009167013922706246, 0.0009616916649974883, 0.0010066819377243519, 0.0010516722686588764, 0.0010966624831780791, 0.0011416526976972818, 0.0011866430286318064, 0.001231633243151009, 0.0012766235740855336, 0.0013216137886047363, 0.0013666041195392609, 0.0014115943340584636]}, "gradients/linearlayers.1.0.weight": {"_type": "histogram", "values": [1.0, 1.0, 0.0, 0.0, 0.0, 1.0, 1.0, 8.0, 5.0, 5.0, 7.0, 8.0, 20.0, 28.0, 25.0, 40.0, 46.0, 82.0, 73.0, 111.0, 133.0, 164.0, 200.0, 282.0, 339.0, 456.0, 498.0, 661.0, 831.0, 1136.0, 1801.0, 2976.0, 43239.0, 3936.0, 2217.0, 1485.0, 1091.0, 799.0, 653.0, 492.0, 372.0, 279.0, 234.0, 191.0, 139.0, 106.0, 79.0, 66.0, 55.0, 39.0, 23.0, 34.0, 14.0, 14.0, 18.0, 8.0, 5.0, 3.0, 0.0, 1.0, 1.0, 2.0, 1.0, 1.0], "bins": [-0.003133130958303809, -0.0030368389561772346, -0.00294054695405066, -0.002844254719093442, -0.0027479627169668674, -0.002651670714840293, -0.0025553787127137184, -0.002459086710587144, -0.0023627947084605694, -0.002266502473503351, -0.0021702104713767767, -0.002073918469250202, -0.0019776264671236277, -0.0018813343485817313, -0.0017850423464551568, -0.0016887502279132605, -0.001592458225786686, -0.0014961662236601114, -0.001399874105118215, -0.0013035821029916406, -0.0012072899844497442, -0.0011109979823231697, -0.0010147059801965952, -0.0009184139198623598, -0.0008221218595281243, -0.0007258297991938889, -0.0006295377388596535, -0.000533245736733079, -0.0004369536763988435, -0.0003406616160646081, -0.0002443695848342031, -0.00014807753905188292, -5.178526043891907e-05, 4.4506785343401134e-05, 0.00014079883112572134, 0.00023709087690804154, 0.00033338292269036174, 0.00042967498302459717, 0.0005259669851511717, 0.0006222590454854071, 0.0007185511058196425, 0.000814843166153878, 0.0009111352264881134, 0.001007427228614688, 0.0011037192307412624, 0.0012000113492831588, 0.0012963033514097333, 0.0013925954699516296, 0.0014888874720782042, 0.0015851794742047787, 0.001681471592746675, 0.0017777635948732495, 0.0018740557134151459, 0.0019703477155417204, 0.002066639717668295, 0.0021629317197948694, 0.002259223721921444, 0.002355515956878662, 0.0024518079590052366, 0.002548099961131811, 0.0026443919632583857, 0.00274068396538496, 0.0028369762003421783, 0.002933268202468753, 0.0030295602045953274]}, "gradients/linearlayers.0.0.bias": {"_type": "histogram", "values": [1.0, 0.0, 0.0, 0.0, 0.0, 1.0, 0.0, 0.0, 1.0, 1.0, 2.0, 2.0, 0.0, 0.0, 1.0, 0.0, 2.0, 5.0, 4.0, 5.0, 3.0, 7.0, 1.0, 4.0, 1.0, 2.0, 4.0, 6.0, 1.0, 6.0, 5.0, 6.0, 9.0, 78.0, 8.0, 8.0, 6.0, 8.0, 3.0, 2.0, 3.0, 7.0, 6.0, 3.0, 2.0, 5.0, 3.0, 2.0, 2.0, 5.0, 5.0, 6.0, 1.0, 2.0, 4.0, 1.0, 2.0, 1.0, 0.0, 1.0, 1.0, 0.0, 0.0, 1.0], "bins": [-0.0022787186317145824, -0.002210359089076519, -0.0021419995464384556, -0.002073640003800392, -0.0020052804611623287, -0.0019369210349395871, -0.0018685616087168455, -0.001800202066078782, -0.0017318425234407187, -0.0016634829808026552, -0.0015951234381645918, -0.0015267640119418502, -0.0014584044693037868, -0.0013900449266657233, -0.0013216855004429817, -0.0012533259578049183, -0.0011849664151668549, -0.0011166068725287914, -0.001048247329890728, -0.0009798879036679864, -0.000911528361029923, -0.0008431688183918595, -0.000774809333961457, -0.0007064498495310545, -0.0006380903068929911, -0.0005697307642549276, -0.0005013712798245251, -0.00043301176629029214, -0.00036465225275605917, -0.0002962927392218262, -0.00022793322568759322, -0.00015957371215336025, -9.121396578848362e-05, -2.2854452254250646e-05, 4.550506127998233e-05, 0.0001138645748142153, 0.00018222408834844828, 0.00025058360188268125, 0.0003189431154169142, 0.0003873026289511472, 0.00045566214248538017, 0.0005240216851234436, 0.0005923811695538461, 0.0006607406539842486, 0.0007291001966223121, 0.0007974597392603755, 0.000865819223690778, 0.0009341787081211805, 0.001002538250759244, 0.0010708977933973074, 0.0011392573360353708, 0.0012076167622581124, 0.0012759763048961759, 0.0013443358475342393, 0.001412695273756981, 0.0014810548163950443, 0.0015494143590331078, 0.0016177739016711712, 0.0016861334443092346, 0.0017544928705319762, 0.0018228524131700397, 0.001891211955808103, 0.0019595713820308447, 0.002027930924668908, 0.0020962904673069715]}, "gradients/linearlayers.0.0.weight": {"_type": "histogram", "values": [1.0, 1.0, 1.0, 0.0, 2.0, 1.0, 2.0, 0.0, 4.0, 8.0, 6.0, 8.0, 10.0, 11.0, 15.0, 20.0, 19.0, 42.0, 42.0, 48.0, 86.0, 108.0, 136.0, 179.0, 241.0, 308.0, 427.0, 543.0, 770.0, 1065.0, 1504.0, 2598.0, 7723.0, 38343.0, 3411.0, 2136.0, 1376.0, 1036.0, 753.0, 617.0, 444.0, 325.0, 288.0, 169.0, 169.0, 132.0, 98.0, 70.0, 59.0, 51.0, 37.0, 22.0, 18.0, 15.0, 11.0, 7.0, 7.0, 4.0, 2.0, 3.0, 1.0, 1.0, 0.0, 2.0], "bins": [-0.004523407202214003, -0.004386573098599911, -0.004249738994985819, -0.004112904891371727, -0.003976071253418922, -0.003839236916974187, -0.0037024030461907387, -0.003565568942576647, -0.003428734838962555, -0.003291900735348463, -0.003155066631734371, -0.003018232760950923, -0.002881398657336831, -0.0027445645537227392, -0.002607730682939291, -0.002470896579325199, -0.0023340624757111073, -0.0021972283720970154, -0.0020603942684829235, -0.0019235603976994753, -0.0017867262940853834, -0.0016498921904712915, -0.0015130582032725215, -0.0013762242160737514, -0.0012393901124596596, -0.0011025560088455677, -0.0009657220216467977, -0.0008288879762403667, -0.0006920539308339357, -0.0005552198854275048, -0.0004183858400210738, -0.00028155179461464286, -0.0001447177492082119, -7.883703801780939e-06, 0.00012895034160465002, 0.000265784387011081, 0.00040261843241751194, 0.0005394524778239429, 0.0006762865232303739, 0.0008131205686368048, 0.0009499546140432358, 0.0010867887176573277, 0.0012236227048560977, 0.0013604566920548677, 0.0014972907956689596, 0.0016341248992830515, 0.0017709588864818215, 0.0019077928736805916, 0.0020446269772946835, 0.0021814610809087753, 0.002318295184522867, 0.0024551290553063154, 0.0025919631589204073, 0.002728797262534499, 0.0028656311333179474, 0.0030024652369320393, 0.003139299340546131, 0.003276133444160223, 0.003412967547774315, 0.003549801418557763, 0.003686635522171855, 0.003823469625785947, 0.003960303496569395, 0.004097137600183487, 0.004233971703797579]}, "gradients/embeds.2.bias": {"_type": "histogram", "values": [1.0, 0.0, 0.0, 0.0, 1.0, 0.0, 1.0, 1.0, 0.0, 1.0, 2.0, 4.0, 3.0, 1.0, 4.0, 0.0, 2.0, 4.0, 3.0, 4.0, 1.0, 5.0, 4.0, 1.0, 3.0, 5.0, 13.0, 6.0, 2.0, 4.0, 2.0, 5.0, 6.0, 47.0, 15.0, 12.0, 6.0, 7.0, 4.0, 5.0, 8.0, 3.0, 3.0, 1.0, 5.0, 5.0, 2.0, 5.0, 6.0, 3.0, 4.0, 1.0, 3.0, 3.0, 3.0, 5.0, 2.0, 4.0, 2.0, 1.0, 1.0, 0.0, 0.0, 1.0], "bins": [-0.002461962169036269, -0.00238934182561934, -0.002316721249371767, -0.002244100905954838, -0.0021714805625379086, -0.0020988602191209793, -0.0020262396428734064, -0.001953619299456477, -0.001880998956039548, -0.0018083784962072968, -0.0017357580363750458, -0.0016631376929581165, -0.0015905172331258655, -0.0015178968897089362, -0.0014452764298766851, -0.001372656086459756, -0.0013000356266275048, -0.0012274151667952538, -0.0011547948233783245, -0.0010821743635460734, -0.0010095540201291442, -0.0009369335602968931, -0.000864313158672303, -0.0007916927570477128, -0.0007190723554231226, -0.0006464519537985325, -0.0005738315521739423, -0.0005012111505493522, -0.00042859071982093155, -0.0003559703181963414, -0.0002833498874679208, -0.00021072948584333062, -0.00013810908421874046, -6.548867531819269e-05, 7.131733582355082e-06, 7.975214248290285e-05, 0.00015237255138345063, 0.00022499295300804079, 0.0002976133837364614, 0.00037023378536105156, 0.0004428541869856417, 0.0005154745886102319, 0.000588094990234822, 0.0006607153918594122, 0.0007333358516916633, 0.0008059562533162534, 0.0008785766549408436, 0.0009511970565654337, 0.001023817458190024, 0.001096437918022275, 0.0011690582614392042, 0.0012416787212714553, 0.0013142990646883845, 0.0013869195245206356, 0.0014595398679375648, 0.001532160327769816, 0.001604780787602067, 0.0016774011310189962, 0.0017500215908512473, 0.0018226419342681766, 0.0018952623941004276, 0.001967882737517357, 0.002040503080934286, 0.002113123657181859, 0.0021857440005987883]}, "gradients/embeds.2.weight": {"_type": "histogram", "values": [1.0, 2.0, 2.0, 1.0, 4.0, 1.0, 5.0, 7.0, 13.0, 10.0, 18.0, 37.0, 29.0, 49.0, 64.0, 77.0, 122.0, 142.0, 180.0, 245.0, 306.0, 436.0, 484.0, 694.0, 837.0, 1073.0, 1468.0, 1869.0, 2514.0, 3615.0, 5030.0, 8907.0, 66315.0, 12824.0, 6297.0, 4196.0, 2796.0, 2211.0, 1782.0, 1396.0, 1114.0, 925.0, 723.0, 516.0, 447.0, 305.0, 246.0, 213.0, 138.0, 110.0, 77.0, 59.0, 46.0, 29.0, 23.0, 17.0, 11.0, 4.0, 6.0, 0.0, 0.0, 2.0, 1.0, 1.0], "bins": [-0.0037275373470038176, -0.003613254986703396, -0.0034989728592336178, -0.003384690498933196, -0.003270408371463418, -0.0031561260111629963, -0.0030418438836932182, -0.0029275615233927965, -0.002813279163092375, -0.0026989970356225967, -0.002584714675322175, -0.002470432547852397, -0.0023561501875519753, -0.002241868060082197, -0.0021275856997817755, -0.0020133035723119974, -0.0018990212120115757, -0.0017847389681264758, -0.001670456724241376, -0.001556174480356276, -0.0014418922364711761, -0.0013276098761707544, -0.0012133276322856545, -0.0010990453884005547, -0.0009847631445154548, -0.0008704809006303549, -0.000756198656745255, -0.0006419163546524942, -0.0005276341107673943, -0.0004133518668822944, -0.00029906959389336407, -0.00018478733545634896, -7.05053098499775e-05, 4.377694858703762e-05, 0.00015805920702405274, 0.0002723414800129831, 0.00038662372389808297, 0.0005009059677831829, 0.0006151882698759437, 0.0007294705137610435, 0.0008437527576461434, 0.0009580350015312433, 0.0010723172454163432, 0.001186599489301443, 0.0013008818496018648, 0.0014151640934869647, 0.0015294463373720646, 0.0016437285812571645, 0.0017580108251422644, 0.0018722930690273643, 0.001986575312912464, 0.002100857673212886, 0.002215139800682664, 0.0023294221609830856, 0.0024437042884528637, 0.0025579866487532854, 0.002672269009053707, 0.002786551136523485, 0.002900833496823907, 0.003015115624293685, 0.0031293979845941067, 0.0032436801120638847, 0.0033579624723643064, 0.0034722445998340845, 0.0035865269601345062]}, "gradients/embeds.0.bias": {"_type": "histogram", "values": [1.0, 2.0, 0.0, 2.0, 4.0, 5.0, 5.0, 4.0, 4.0, 5.0, 5.0, 10.0, 6.0, 3.0, 7.0, 10.0, 5.0, 5.0, 6.0, 6.0, 7.0, 7.0, 15.0, 15.0, 11.0, 11.0, 10.0, 16.0, 80.0, 32.0, 24.0, 9.0, 16.0, 14.0, 16.0, 6.0, 15.0, 7.0, 10.0, 10.0, 7.0, 10.0, 6.0, 4.0, 6.0, 6.0, 10.0, 4.0, 7.0, 6.0, 2.0, 5.0, 1.0, 1.0, 2.0, 1.0, 3.0, 1.0, 2.0, 0.0, 0.0, 0.0, 0.0, 2.0], "bins": [-0.001763374195434153, -0.0017018280923366547, -0.0016402818728238344, -0.001578735769726336, -0.0015171896666288376, -0.0014556434471160173, -0.001394097344018519, -0.0013325511245056987, -0.0012710050214082003, -0.0012094589183107018, -0.0011479126987978816, -0.0010863665957003832, -0.001024820376187563, -0.0009632742730900645, -0.0009017281699925661, -0.0008401820086874068, -0.0007786358473822474, -0.0007170896860770881, -0.0006555435247719288, -0.0005939974216744304, -0.000532451260369271, -0.0004709050990641117, -0.00040935896686278284, -0.00034781283466145396, -0.00028626667335629463, -0.00022472052660305053, -0.00016317437984980643, -0.00010162823309656233, -4.0082086343318224e-05, 2.1464060409925878e-05, 8.301020716316998e-05, 0.00014455635391641408, 0.00020610238425433636, 0.0002676485455594957, 0.00032919467776082456, 0.00039074080996215343, 0.00045228697126731277, 0.0005138331325724721, 0.0005753792356699705, 0.0006369253969751298, 0.0006984715582802892, 0.0007600177195854485, 0.0008215638808906078, 0.0008831099839881063, 0.0009446561452932656, 0.001006202306598425, 0.0010677484096959233, 0.0011292946292087436, 0.001190840732306242, 0.0012523868354037404, 0.0013139330549165606, 0.001375479158014059, 0.0014370253775268793, 0.0014985714806243777, 0.0015601175837218761, 0.0016216638032346964, 0.0016832099063321948, 0.0017447560094296932, 0.0018063022289425135, 0.0018678483320400119, 0.0019293944351375103, 0.0019909406546503305, 0.002052486874163151, 0.0021140328608453274, 0.0021755790803581476]}, "gradients/embeds.0.weight": {"_type": "histogram", "values": [3.0, 0.0, 3.0, 4.0, 4.0, 5.0, 6.0, 8.0, 7.0, 12.0, 12.0, 11.0, 10.0, 13.0, 19.0, 15.0, 12.0, 28.0, 17.0, 29.0, 50.0, 77.0, 101.0, 190.0, 286.0, 694.0, 4958.0, 71417.0, 298410.0, 14228.0, 1470.0, 352.0, 208.0, 137.0, 86.0, 56.0, 54.0, 37.0, 25.0, 18.0, 10.0, 17.0, 20.0, 11.0, 15.0, 7.0, 10.0, 9.0, 10.0, 5.0, 7.0, 5.0, 2.0, 2.0, 2.0, 3.0, 2.0, 3.0, 1.0, 1.0, 0.0, 0.0, 0.0, 2.0], "bins": [-0.022161560133099556, -0.021376078948378563, -0.02059059776365757, -0.019805116578936577, -0.019019635394215584, -0.01823415420949459, -0.017448673024773598, -0.016663191840052605, -0.015877708792686462, -0.015092228539288044, -0.014306747354567051, -0.013521266169846058, -0.01273578405380249, -0.011950302869081497, -0.011164821684360504, -0.010379340499639511, -0.009593859314918518, -0.008808378130197525, -0.008022896945476532, -0.007237415295094252, -0.006451934110373259, -0.0056664529256522655, -0.004880971275269985, -0.004095490090548992, -0.003310008905827999, -0.002524527721107006, -0.0017390463035553694, -0.0009535650024190545, -0.00016808370128273964, 0.0006173975998535752, 0.00140287890098989, 0.002188360318541527, 0.00297384150326252, 0.003759322687983513, 0.004544803872704506, 0.005330285523086786, 0.006115766707807779, 0.006901247892528772, 0.007686729542911053, 0.008472210727632046, 0.009257691912353039, 0.010043173097074032, 0.010828654281795025, 0.011614135466516018, 0.012399617582559586, 0.013185098767280579, 0.013970579952001572, 0.014756061136722565, 0.015541542321443558, 0.01632702350616455, 0.017112504690885544, 0.017897985875606537, 0.01868346706032753, 0.019468948245048523, 0.020254429429769516, 0.02103991061449051, 0.021825391799211502, 0.022610874846577644, 0.023396356031298637, 0.02418183721601963, 0.024967318400740623, 0.025752799585461617, 0.02653828077018261, 0.027323761954903603, 0.028109243139624596]}, "_wandb": {"runtime": 467}}