{"num_of_examples": 1440, "train_loss": 0.19249034821987152, "_timestamp": 1716353730.3406773, "_runtime": 520.2054731845856, "_step": 944, "num_of_test_examples": 0, "test_loss": 0.004347541630268097, "epoch": 44, "val-auc": 0.876508115614964, "gradients/output.bias": {"_type": "histogram", "values": [1.0, 0.0, 0.0, 0.0, 0.0, 0.0, 0.0, 0.0, 0.0, 0.0, 0.0, 0.0, 0.0, 0.0, 0.0, 0.0, 0.0, 0.0, 0.0, 0.0, 0.0, 0.0, 0.0, 0.0, 0.0, 0.0, 0.0, 0.0, 0.0, 0.0, 0.0, 0.0, 0.0, 0.0, 0.0, 0.0, 0.0, 0.0, 0.0, 0.0, 0.0, 0.0, 0.0, 0.0, 0.0, 0.0, 0.0, 0.0, 0.0, 0.0, 0.0, 0.0, 0.0, 0.0, 0.0, 0.0, 0.0, 0.0, 0.0, 0.0, 0.0, 0.0, 0.0, 1.0], "bins": [-0.005587234627455473, -0.005412633530795574, -0.005238032434135675, -0.005063431337475777, -0.004888830706477165, -0.0047142296098172665, -0.004539628513157368, -0.004365027416497469, -0.00419042631983757, -0.004015825223177671, -0.0038412243593484163, -0.0036666232626885176, -0.0034920223988592625, -0.0033174213021993637, -0.003142820205539465, -0.00296821934171021, -0.002793618245050311, -0.0026190171483904123, -0.0024444162845611572, -0.0022698151879012585, -0.0020952140912413597, -0.0019206131109967828, -0.0017460121307522058, -0.001571411034092307, -0.0013968100538477302, -0.0012222090736031532, -0.0010476079769432545, -0.0008730069966986775, -0.0006984059582464397, -0.0005238049197942019, -0.00034920391044579446, -0.00017460288654547185, -1.862645149230957e-09, 0.00017459916125517339, 0.000349200185155496, 0.0005238011945039034, 0.0006984022329561412, 0.0008730032714083791, 0.001047604251652956, 0.0012222053483128548, 0.0013968063285574317, 0.0015714073088020086, 0.0017460084054619074, 0.0019206093857064843, 0.0020952103659510612, 0.00226981146261096, 0.0024444125592708588, 0.002619013423100114, 0.0027936145197600126, 0.0029682156164199114, 0.0031428164802491665, 0.0033174175769090652, 0.003492018673568964, 0.003666619537398219, 0.003841220634058118, 0.004015821497887373, 0.004190422594547272, 0.0043650236912071705, 0.004539624787867069, 0.004714225884526968, 0.004888826981186867, 0.005063427612185478, 0.005238028708845377, 0.005412629805505276, 0.0055872309021651745]}, "gradients/output.weight": {"_type": "histogram", "values": [2.0, 0.0, 0.0, 1.0, 0.0, 1.0, 0.0, 2.0, 0.0, 2.0, 0.0, 3.0, 2.0, 5.0, 9.0, 5.0, 8.0, 11.0, 9.0, 19.0, 14.0, 21.0, 11.0, 13.0, 13.0, 13.0, 6.0, 6.0, 3.0, 2.0, 1.0, 4.0, 144.0, 1.0, 2.0, 3.0, 6.0, 6.0, 13.0, 13.0, 13.0, 11.0, 21.0, 14.0, 19.0, 9.0, 11.0, 8.0, 5.0, 9.0, 5.0, 2.0, 3.0, 0.0, 2.0, 0.0, 2.0, 0.0, 1.0, 0.0, 1.0, 0.0, 0.0, 2.0], "bins": [-0.009269513189792633, -0.008979841135442257, -0.00869016908109188, -0.008400497026741505, -0.008110824972391129, -0.007821152918040752, -0.007531480398029089, -0.007241808343678713, -0.006952136289328337, -0.006662464234977961, -0.0063727921806275845, -0.006083120126277208, -0.005793447606265545, -0.005503775551915169, -0.005214103497564793, -0.0049244314432144165, -0.00463475938886404, -0.004345087334513664, -0.004055415280163288, -0.0037657429929822683, -0.003476070938631892, -0.003186398884281516, -0.0028967265971004963, -0.00260705454275012, -0.002317382488399744, -0.002027710434049368, -0.00173803826328367, -0.001448366092517972, -0.0011586940381675959, -0.0008690219256095588, -0.0005793498130515218, -0.00028967770049348474, -4.6566128730773926e-09, 0.00028966745594516397, 0.000579339568503201, 0.000869011681061238, 0.001158683793619275, 0.0014483558479696512, 0.0017380280187353492, 0.002027700189501047, 0.0023173722438514233, 0.0026070442982017994, 0.0028967163525521755, 0.0031863886397331953, 0.0034760606940835714, 0.0037657327484339476, 0.004055405035614967, 0.0043450770899653435, 0.00463474914431572, 0.004924421198666096, 0.005214093253016472, 0.005503765307366848, 0.005793437361717224, 0.0060831098817288876, 0.006372781936079264, 0.00666245399042964, 0.006952126044780016, 0.007241798099130392, 0.007531470153480768, 0.007821142673492432, 0.008110814727842808, 0.008400486782193184, 0.00869015883654356, 0.008979830890893936, 0.009269502945244312]}, "gradients/linearlayers.4.0.bias": {"_type": "histogram", "values": [1.0, 0.0, 0.0, 1.0, 1.0, 1.0, 1.0, 2.0, 0.0, 1.0, 3.0, 4.0, 3.0, 1.0, 3.0, 3.0, 2.0, 4.0, 3.0, 3.0, 3.0, 7.0, 5.0, 5.0, 1.0, 5.0, 7.0, 5.0, 6.0, 5.0, 1.0, 2.0, 4.0, 0.0, 3.0, 71.0, 2.0, 1.0, 3.0, 3.0, 2.0, 6.0, 3.0, 4.0, 7.0, 7.0, 4.0, 3.0, 4.0, 3.0, 4.0, 3.0, 10.0, 3.0, 2.0, 0.0, 3.0, 2.0, 1.0, 2.0, 4.0, 1.0, 1.0, 1.0], "bins": [-0.000856481259688735, -0.0008325166418217123, -0.0008085520239546895, -0.0007845874060876667, -0.0007606228464283049, -0.0007366582285612822, -0.0007126936106942594, -0.0006887289928272367, -0.0006647643749602139, -0.0006407997570931911, -0.0006168351974338293, -0.0005928705795668066, -0.0005689059616997838, -0.000544941343832761, -0.0005209767259657383, -0.0004970121080987155, -0.00047304751933552325, -0.0004490829014685005, -0.0004251183127053082, -0.00040115369483828545, -0.0003771890769712627, -0.0003532244882080704, -0.00032925987034104764, -0.0003052952524740249, -0.0002813306637108326, -0.00025736604584380984, -0.0002334014279767871, -0.00020943682466167957, -0.00018547222134657204, -0.0001615076034795493, -0.00013754300016444176, -0.00011357838957337663, -8.961377898231149e-05, -6.564916839124635e-05, -4.168456143816002e-05, -1.7719952666084282e-05, 6.244656105991453e-06, 3.0209264878067188e-05, 5.417387365014292e-05, 7.813848060322925e-05, 0.00010210309119429439, 0.00012606769450940192, 0.00015003231237642467, 0.0001739969156915322, 0.00019796151900663972, 0.00022192613687366247, 0.0002458907547406852, 0.0002698553435038775, 0.0002938199613709003, 0.000317784579237923, 0.0003417491680011153, 0.0003657137858681381, 0.00038967840373516083, 0.0004136429924983531, 0.0004376076103653759, 0.00046157222823239863, 0.0004855368169955909, 0.0005095014348626137, 0.0005334660527296364, 0.0005574306705966592, 0.0005813952884636819, 0.0006053598481230438, 0.0006293244659900665, 0.0006532890838570893, 0.000677253701724112]}, "gradients/linearlayers.4.0.weight": {"_type": "histogram", "values": [1.0, 0.0, 2.0, 1.0, 0.0, 5.0, 1.0, 2.0, 9.0, 8.0, 13.0, 10.0, 10.0, 20.0, 31.0, 28.0, 40.0, 52.0, 62.0, 80.0, 107.0, 141.0, 180.0, 246.0, 330.0, 409.0, 579.0, 742.0, 1045.0, 1416.0, 1799.0, 2534.0, 3017.0, 2852.0, 36117.0, 3064.0, 2678.0, 2102.0, 1511.0, 1150.0, 852.0, 593.0, 445.0, 347.0, 217.0, 159.0, 128.0, 98.0, 84.0, 44.0, 43.0, 27.0, 27.0, 23.0, 8.0, 18.0, 10.0, 7.0, 2.0, 4.0, 3.0, 0.0, 2.0, 1.0], "bins": [-0.001701983856037259, -0.001652392791584134, -0.0016028016107156873, -0.0015532105462625623, -0.0015036193653941154, -0.0014540283009409904, -0.0014044372364878654, -0.0013548460556194186, -0.0013052549911662936, -0.0012556639267131686, -0.0012060727458447218, -0.0011564816813915968, -0.0011068906169384718, -0.001057299436070025, -0.0010077083716169, -0.000958117248956114, -0.0009085261262953281, -0.0008589350036345422, -0.0008093438809737563, -0.0007597528165206313, -0.0007101616938598454, -0.0006605705711990595, -0.0006109795067459345, -0.0005613883840851486, -0.0005117972614243627, -0.00046220613876357675, -0.0004126150452066213, -0.00036302395164966583, -0.0003134328289888799, -0.000263841706328094, -0.00021425061277113855, -0.00016465950466226786, -0.00011506828013807535, -6.547717202920467e-05, -1.588606392033398e-05, 3.3705044188536704e-05, 8.329615229740739e-05, 0.00013288726040627807, 0.00018247836851514876, 0.00023206947662401944, 0.00028166058473289013, 0.00033125170739367604, 0.0003808428009506315, 0.00043043389450758696, 0.00048002501716837287, 0.0005296161398291588, 0.0005792072042822838, 0.0006287983269430697, 0.0006783894496038556, 0.0007279805722646415, 0.0007775716949254274, 0.0008271627593785524, 0.0008767538820393384, 0.0009263450047001243, 0.0009759360691532493, 0.001025527250021696, 0.001075118314474821, 0.001124709378927946, 0.001174300559796393, 0.001223891624249518, 0.0012734828051179647, 0.0013230738695710897, 0.0013726649340242147, 0.0014222561148926616, 0.0014718471793457866]}, "gradients/linearlayers.3.0.bias": {"_type": "histogram", "values": [2.0, 0.0, 0.0, 2.0, 1.0, 1.0, 1.0, 3.0, 4.0, 0.0, 4.0, 4.0, 2.0, 3.0, 3.0, 5.0, 9.0, 2.0, 3.0, 1.0, 2.0, 1.0, 1.0, 3.0, 1.0, 1.0, 2.0, 5.0, 3.0, 0.0, 3.0, 2.0, 87.0, 1.0, 4.0, 2.0, 5.0, 4.0, 2.0, 2.0, 3.0, 5.0, 3.0, 6.0, 3.0, 4.0, 4.0, 5.0, 6.0, 6.0, 3.0, 5.0, 3.0, 2.0, 4.0, 1.0, 1.0, 3.0, 3.0, 1.0, 1.0, 2.0, 0.0, 1.0], "bins": [-0.0014187742490321398, -0.0013752953382208943, -0.001331816427409649, -0.0012883375165984035, -0.001244858605787158, -0.0012013796949759126, -0.001157900900579989, -0.0011144219897687435, -0.001070943078957498, -0.0010274641681462526, -0.0009839852573350072, -0.0009405063465237617, -0.0008970274357125163, -0.0008535485249012709, -0.0008100696722976863, -0.0007665907614864409, -0.0007231118506751955, -0.00067963293986395, -0.0006361540290527046, -0.00059267517644912, -0.0005491962656378746, -0.0005057173548266292, -0.0004622384440153837, -0.00041875956230796874, -0.0003752806514967233, -0.00033180174068547785, -0.00028832285897806287, -0.0002448439481668174, -0.00020136505190748721, -0.000157886155648157, -0.00011440725211286917, -7.092834857758135e-05, -2.7449452318251133e-05, 1.6029447579057887e-05, 5.950834747636691e-05, 0.00010298725101165473, 0.00014646614727098495, 0.00018994504353031516, 0.0002334239543415606, 0.0002769028360489756, 0.00032038174686022103, 0.00036386065767146647, 0.00040733953937888145, 0.0004508184501901269, 0.0004942973610013723, 0.0005377762718126178, 0.0005812551244162023, 0.0006247340352274477, 0.0006682129460386932, 0.0007116918568499386, 0.0007551707676611841, 0.0007986496202647686, 0.000842128531076014, 0.0008856074418872595, 0.0009290863526985049, 0.0009725652635097504, 0.0010160441743209958, 0.0010595230851322412, 0.0011030019959434867, 0.0011464807903394103, 0.0011899597011506557, 0.0012334386119619012, 0.0012769175227731466, 0.001320396433584392, 0.0013638753443956375]}, "gradients/linearlayers.3.0.weight": {"_type": "histogram", "values": [4.0, 2.0, 3.0, 6.0, 5.0, 3.0, 7.0, 20.0, 6.0, 13.0, 28.0, 22.0, 29.0, 42.0, 59.0, 63.0, 101.0, 102.0, 145.0, 164.0, 213.0, 266.0, 374.0, 407.0, 523.0, 664.0, 832.0, 1022.0, 1309.0, 1570.0, 1811.0, 2745.0, 39959.0, 2728.0, 2259.0, 1757.0, 1403.0, 1039.0, 855.0, 662.0, 496.0, 389.0, 320.0, 252.0, 179.0, 147.0, 103.0, 98.0, 79.0, 60.0, 43.0, 35.0, 24.0, 16.0, 18.0, 9.0, 10.0, 10.0, 9.0, 5.0, 5.0, 3.0, 2.0, 2.0], "bins": [-0.002760578179731965, -0.002674547955393791, -0.0025885177310556173, -0.0025024875067174435, -0.0024164572823792696, -0.0023304270580410957, -0.002244396833702922, -0.002158366609364748, -0.002072336385026574, -0.0019863061606884003, -0.0019002759363502264, -0.0018142457120120525, -0.0017282154876738787, -0.0016421852633357048, -0.001556155038997531, -0.001470124814659357, -0.0013840945903211832, -0.0012980643659830093, -0.0012120341416448355, -0.0011260039173066616, -0.0010399736929684877, -0.0009539434686303139, -0.00086791324429214, -0.0007818830199539661, -0.0006958527956157923, -0.0006098225712776184, -0.0005237923469394445, -0.0004377621226012707, -0.0003517318982630968, -0.00026570167392492294, -0.00017967144958674908, -9.364122524857521e-05, -7.611233741044998e-06, 7.841899059712887e-05, 0.00016444921493530273, 0.0002504794392734766, 0.00033650966361165047, 0.00042253988794982433, 0.0005085701122879982, 0.0005946003366261721, 0.0006806305609643459, 0.0007666607853025198, 0.0008526910096406937, 0.0009387212339788675, 0.0010247514583170414, 0.0011107816826552153, 0.0011968119069933891, 0.001282842131331563, 0.0013688723556697369, 0.0014549025800079107, 0.0015409328043460846, 0.0016269630286842585, 0.0017129932530224323, 0.0017990234773606062, 0.00188505370169878, 0.001971083926036954, 0.002057114150375128, 0.0021431443747133017, 0.0022291745990514755, 0.0023152048233896494, 0.0024012350477278233, 0.002487265272065997, 0.002573295496404171, 0.002659325720742345, 0.0027453559450805187]}, "gradients/linearlayers.2.0.bias": {"_type": "histogram", "values": [1.0, 0.0, 0.0, 1.0, 0.0, 0.0, 0.0, 5.0, 1.0, 0.0, 1.0, 4.0, 5.0, 3.0, 1.0, 6.0, 1.0, 3.0, 2.0, 1.0, 6.0, 5.0, 1.0, 3.0, 1.0, 2.0, 7.0, 4.0, 5.0, 0.0, 3.0, 2.0, 6.0, 85.0, 5.0, 1.0, 4.0, 5.0, 5.0, 5.0, 5.0, 4.0, 4.0, 3.0, 4.0, 2.0, 1.0, 6.0, 4.0, 3.0, 3.0, 6.0, 7.0, 0.0, 4.0, 0.0, 1.0, 3.0, 3.0, 1.0, 0.0, 0.0, 0.0, 2.0], "bins": [-0.0027746299747377634, -0.002690759487450123, -0.002606889232993126, -0.0025230187457054853, -0.0024391482584178448, -0.002355278003960848, -0.0022714075166732073, -0.0021875370293855667, -0.00210366677492857, -0.0020197962876409292, -0.0019359259167686105, -0.0018520555458962917, -0.0017681850586086512, -0.0016843146877363324, -0.0016004443168640137, -0.001516573829576373, -0.0014327034587040544, -0.0013488330878317356, -0.001264962600544095, -0.0011810922296717763, -0.0010972218587994576, -0.001013351371511817, -0.0009294810006394982, -0.0008456106297671795, -0.0007617402006871998, -0.0006778697716072202, -0.0005939994007349014, -0.0005101289716549218, -0.00042625857167877257, -0.00034238817170262337, -0.0002585177426226437, -0.0001746473426464945, -9.07769426703453e-05, -6.906535418238491e-06, 7.696387183386832e-05, 0.00016083428636193275, 0.00024470468633808196, 0.00032857508631423116, 0.0004124455153942108, 0.0004963158862665296, 0.0005801863153465092, 0.0006640567444264889, 0.0007479271152988076, 0.0008317975443787873, 0.0009156679734587669, 0.0009995383443310857, 0.0010834087152034044, 0.001167279202491045, 0.0012511495733633637, 0.0013350199442356825, 0.001418890431523323, 0.0015027608023956418, 0.0015866311732679605, 0.0016705016605556011, 0.0017543720314279199, 0.0018382424023002386, 0.0019221128895878792, 0.002005983144044876, 0.0020898536313325167, 0.0021737241186201572, 0.002257594373077154, 0.0023414648603647947, 0.0024253353476524353, 0.0025092056021094322, 0.002593076089397073]}, "gradients/linearlayers.2.0.weight": {"_type": "histogram", "values": [1.0, 0.0, 0.0, 1.0, 0.0, 5.0, 0.0, 7.0, 5.0, 2.0, 2.0, 30.0, 18.0, 12.0, 26.0, 48.0, 52.0, 68.0, 75.0, 91.0, 133.0, 149.0, 203.0, 240.0, 290.0, 426.0, 520.0, 807.0, 980.0, 1314.0, 1672.0, 2394.0, 42543.0, 3651.0, 2473.0, 1708.0, 1367.0, 1028.0, 746.0, 554.0, 381.0, 330.0, 239.0, 191.0, 179.0, 120.0, 97.0, 72.0, 96.0, 46.0, 22.0, 35.0, 24.0, 20.0, 18.0, 3.0, 3.0, 4.0, 11.0, 2.0, 0.0, 0.0, 0.0, 2.0], "bins": [-0.00585998734459281, -0.00568088935688138, -0.005501790903508663, -0.005322692915797234, -0.005143594462424517, -0.004964496474713087, -0.00478539802134037, -0.004606300033628941, -0.004427202045917511, -0.004248103592544794, -0.0040690056048333645, -0.0038899071514606476, -0.003710809163749218, -0.0035317109432071447, -0.0033526127226650715, -0.0031735145021229982, -0.002994416281580925, -0.0028153180610388517, -0.0026362198404967785, -0.0024571216199547052, -0.002278023399412632, -0.0020989254117012024, -0.0019198271911591291, -0.001740728970617056, -0.0015616307500749826, -0.0013825325295329094, -0.0012034343089908361, -0.0010243362048640847, -0.0008452379843220115, -0.0006661397637799382, -0.0004870416014455259, -0.0003079434100072831, -0.0001288452185690403, 5.0252972869202495e-05, 0.0002293511643074453, 0.0004084493557456881, 0.0005875475471839309, 0.0007666457677260041, 0.0009457439300604165, 0.0011248420923948288, 0.001303940312936902, 0.0014830385334789753, 0.0016621367540210485, 0.0018412348581478, 0.0020203329622745514, 0.0021994311828166246, 0.002378529403358698, 0.002557627623900771, 0.0027367258444428444, 0.0029158240649849176, 0.003094922285526991, 0.003274020506069064, 0.0034531187266111374, 0.003632216714322567, 0.0038113149348646402, 0.0039904131554067135, 0.00416951160877943, 0.00434860959649086, 0.00452770758420229, 0.0047068060375750065, 0.004885904025286436, 0.005065002478659153, 0.005244100466370583, 0.0054231989197432995, 0.005602296907454729]}, "gradients/linearlayers.1.0.bias": {"_type": "histogram", "values": [1.0, 0.0, 0.0, 1.0, 1.0, 0.0, 0.0, 0.0, 0.0, 0.0, 2.0, 0.0, 0.0, 0.0, 2.0, 4.0, 1.0, 0.0, 3.0, 4.0, 1.0, 5.0, 3.0, 2.0, 3.0, 3.0, 4.0, 5.0, 3.0, 1.0, 4.0, 0.0, 1.0, 3.0, 10.0, 83.0, 13.0, 8.0, 3.0, 3.0, 3.0, 4.0, 2.0, 6.0, 2.0, 10.0, 6.0, 8.0, 4.0, 5.0, 3.0, 0.0, 2.0, 3.0, 2.0, 4.0, 3.0, 3.0, 1.0, 3.0, 2.0, 1.0, 1.0, 1.0], "bins": [-0.005042472388595343, -0.004901214502751827, -0.0047599561512470245, -0.004618698265403509, -0.004477440379559994, -0.004336182028055191, -0.004194924142211676, -0.00405366625636816, -0.0039124079048633575, -0.003771150019019842, -0.003629891900345683, -0.003488633781671524, -0.0033473758958280087, -0.0032061177771538496, -0.0030648596584796906, -0.002923601772636175, -0.002782343653962016, -0.002641085535287857, -0.0024998276494443417, -0.0023585695307701826, -0.0022173114120960236, -0.002076053526252508, -0.0019347954075783491, -0.00179353728890419, -0.0016522792866453528, -0.0015110212843865156, -0.0013697631657123566, -0.0012285051634535193, -0.0010872471611946821, -0.0009459890425205231, -0.0008047310402616858, -0.0006634729797951877, -0.0005222149193286896, -0.00038095685886219144, -0.00023969882749952376, -9.844078158494085e-05, 4.281726432964206e-05, 0.00018407531024422497, 0.0003253333561588079, 0.00046659138752147555, 0.0006078494479879737, 0.0007491075084544718, 0.00089036556892097, 0.0010316235711798072, 0.0011728815734386444, 0.0013141396921128035, 0.0014553976943716407, 0.0015966558130457997, 0.001737913815304637, 0.0018791718175634742, 0.0020204298198223114, 0.0021616879384964705, 0.0023029460571706295, 0.002444203943014145, 0.002585462061688304, 0.002726720180362463, 0.0028679780662059784, 0.0030092361848801374, 0.0031504943035542965, 0.0032917524222284555, 0.003433010308071971, 0.00357426842674613, 0.003715526545420289, 0.0038567844312638044, 0.0039980425499379635]}, "gradients/linearlayers.1.0.weight": {"_type": "histogram", "values": [1.0, 0.0, 0.0, 1.0, 1.0, 0.0, 1.0, 1.0, 1.0, 2.0, 4.0, 6.0, 2.0, 2.0, 9.0, 10.0, 14.0, 14.0, 27.0, 37.0, 28.0, 57.0, 51.0, 63.0, 143.0, 117.0, 237.0, 239.0, 331.0, 464.0, 568.0, 780.0, 953.0, 1237.0, 1809.0, 46380.0, 3254.0, 2053.0, 1573.0, 1226.0, 909.0, 734.0, 548.0, 399.0, 302.0, 235.0, 208.0, 147.0, 107.0, 68.0, 57.0, 34.0, 24.0, 20.0, 13.0, 10.0, 7.0, 7.0, 4.0, 2.0, 2.0, 1.0, 1.0, 1.0], "bins": [-0.011529977433383465, -0.011206019669771194, -0.010882062837481499, -0.010558105073869228, -0.010234147310256958, -0.009910190477967262, -0.009586232714354992, -0.009262275882065296, -0.008938318118453026, -0.008614360354840755, -0.00829040352255106, -0.00796644575893879, -0.007642488460987806, -0.007318531163036823, -0.006994573399424553, -0.00667061610147357, -0.006346658803522587, -0.006022701505571604, -0.005698744207620621, -0.00537478644400835, -0.005050829146057367, -0.004726871848106384, -0.004402914084494114, -0.004078956786543131, -0.003754999488592148, -0.0034310421906411648, -0.003107084659859538, -0.0027831271290779114, -0.0024591698311269283, -0.0021352125331759453, -0.0018112550023943186, -0.0014872975880280137, -0.0011633401736617088, -0.000839382759295404, -0.0005154253449290991, -0.0001914679305627942, 0.00013248948380351067, 0.00045644689816981554, 0.0007804043125361204, 0.0011043617269024253, 0.0014283191412687302, 0.001752276555635035, 0.00207623397000134, 0.0024001915007829666, 0.0027241487987339497, 0.0030481060966849327, 0.0033720636274665594, 0.003696021158248186, 0.004019978456199169, 0.004343935754150152, 0.004667893052101135, 0.004991850815713406, 0.005315808113664389, 0.005639765411615372, 0.005963723175227642, 0.006287680473178625, 0.006611637771129608, 0.006935595069080591, 0.007259552367031574, 0.007583510130643845, 0.00790746696293354, 0.00823142472654581, 0.008555382490158081, 0.008879339322447777, 0.009203297086060047]}, "gradients/linearlayers.0.0.bias": {"_type": "histogram", "values": [1.0, 0.0, 2.0, 0.0, 0.0, 0.0, 0.0, 0.0, 2.0, 1.0, 3.0, 0.0, 0.0, 5.0, 5.0, 3.0, 3.0, 4.0, 3.0, 1.0, 2.0, 3.0, 2.0, 7.0, 0.0, 6.0, 4.0, 9.0, 10.0, 79.0, 13.0, 12.0, 6.0, 6.0, 3.0, 4.0, 4.0, 3.0, 4.0, 3.0, 1.0, 5.0, 4.0, 1.0, 6.0, 4.0, 3.0, 3.0, 0.0, 1.0, 1.0, 1.0, 4.0, 2.0, 2.0, 2.0, 0.0, 0.0, 1.0, 0.0, 0.0, 0.0, 1.0, 1.0], "bins": [-0.006199393421411514, -0.005990969017148018, -0.0057825446128845215, -0.005574120208621025, -0.005365695338696241, -0.005157270934432745, -0.004948846530169249, -0.004740422125905752, -0.004531997721642256, -0.004323573317378759, -0.004115148447453976, -0.003906724043190479, -0.003698299638926983, -0.0034898752346634865, -0.00328145083039999, -0.00307302619330585, -0.0028646017890423536, -0.0026561773847788572, -0.002447752747684717, -0.0022393283434212208, -0.0020309039391577244, -0.0018224794184789062, -0.001614054897800088, -0.0014056304935365915, -0.0011972059728577733, -0.000988781452178955, -0.0007803570479154587, -0.0005719325272366405, -0.00036350806476548314, -0.0001550835877424106, 5.334088928066194e-05, 0.0002617653808556497, 0.000470189843326807, 0.0006786143057979643, 0.0008870387682691216, 0.0010954632889479399, 0.0013038876932114363, 0.0015123122138902545, 0.0017207367345690727, 0.0019291611388325691, 0.0021375855430960655, 0.0023460101801902056, 0.002554434584453702, 0.0027628589887171984, 0.0029712836258113384, 0.003179708030074835, 0.0033881324343383312, 0.0035965570714324713, 0.0038049814756959677, 0.004013406112790108, 0.004221830517053604, 0.0044302549213171005, 0.004638679325580597, 0.004847103729844093, 0.00505552813410759, 0.005263953004032373, 0.00547237740829587, 0.005680801812559366, 0.005889226216822863, 0.006097650621086359, 0.006306075025349855, 0.006514499895274639, 0.0067229242995381355, 0.006931348703801632, 0.007139773108065128]}, "gradients/linearlayers.0.0.weight": {"_type": "histogram", "values": [1.0, 0.0, 1.0, 1.0, 1.0, 2.0, 1.0, 3.0, 7.0, 9.0, 5.0, 12.0, 12.0, 27.0, 27.0, 37.0, 64.0, 75.0, 100.0, 156.0, 187.0, 257.0, 345.0, 461.0, 574.0, 827.0, 1160.0, 1735.0, 3213.0, 43223.0, 4451.0, 2181.0, 1575.0, 1124.0, 843.0, 603.0, 512.0, 383.0, 283.0, 256.0, 176.0, 149.0, 99.0, 96.0, 63.0, 51.0, 36.0, 35.0, 26.0, 21.0, 10.0, 8.0, 10.0, 5.0, 4.0, 5.0, 2.0, 3.0, 0.0, 1.0, 0.0, 1.0, 0.0, 1.0], "bins": [-0.012876611202955246, -0.012441488914191723, -0.0120063666254282, -0.011571244336664677, -0.011136122047901154, -0.010700998827815056, -0.010265876539051533, -0.00983075425028801, -0.009395631961524487, -0.008960509672760963, -0.00852538738399744, -0.008090265095233917, -0.007655142340809107, -0.007220020052045584, -0.006784897297620773, -0.00634977500885725, -0.005914652720093727, -0.005479530431330204, -0.005044408142566681, -0.0046092853881418705, -0.004174163099378347, -0.0037390408106148243, -0.0033039182890206575, -0.002868795767426491, -0.0024336734786629677, -0.0019985511898994446, -0.0015634286683052778, -0.001128306263126433, -0.000693183857947588, -0.00025806145276874304, 0.0001770609524101019, 0.0006121833575889468, 0.0010473057627677917, 0.0014824281679466367, 0.0019175505731254816, 0.0023526730947196484, 0.0027877953834831715, 0.0032229176722466946, 0.0036580401938408613, 0.004093162715435028, 0.004528285004198551, 0.004963407292962074, 0.005398529581725597, 0.005833652336150408, 0.006268774624913931, 0.006703896913677454, 0.007139019668102264, 0.0075741419568657875, 0.00800926424562931, 0.008444386534392834, 0.008879508823156357, 0.00931463111191988, 0.009749753400683403, 0.0101848766207695, 0.010619998909533024, 0.011055121198296547, 0.01149024348706007, 0.011925365775823593, 0.012360488064587116, 0.01279561035335064, 0.013230733573436737, 0.01366585586220026, 0.014100978150963783, 0.014536100439727306, 0.01497122272849083]}, "gradients/embeds.2.bias": {"_type": "histogram", "values": [1.0, 0.0, 1.0, 0.0, 0.0, 1.0, 0.0, 0.0, 3.0, 0.0, 3.0, 1.0, 3.0, 2.0, 5.0, 5.0, 2.0, 6.0, 2.0, 3.0, 3.0, 2.0, 6.0, 5.0, 5.0, 4.0, 6.0, 21.0, 59.0, 11.0, 5.0, 8.0, 7.0, 6.0, 7.0, 6.0, 6.0, 7.0, 3.0, 8.0, 4.0, 4.0, 2.0, 3.0, 2.0, 4.0, 2.0, 3.0, 0.0, 3.0, 1.0, 1.0, 0.0, 1.0, 0.0, 1.0, 0.0, 0.0, 1.0, 0.0, 0.0, 0.0, 0.0, 1.0], "bins": [-0.008338714949786663, -0.008044226095080376, -0.007749736309051514, -0.007455247454345226, -0.007160758133977652, -0.006866268813610077, -0.006571779493242502, -0.0062772901728749275, -0.00598280131816864, -0.0056883119978010654, -0.005393822677433491, -0.005099333357065916, -0.004804844036698341, -0.004510354716330767, -0.004215865861624479, -0.003921376541256905, -0.00362688722088933, -0.0033323979005217552, -0.003037908812984824, -0.0027434194926172495, -0.0024489304050803185, -0.0021544410847127438, -0.001859951764345169, -0.0015654625603929162, -0.0012709733564406633, -0.0009764841524884105, -0.0006819948903284967, -0.0003875056572724134, -9.301642421633005e-05, 0.00020147280883975327, 0.0004959620418958366, 0.0007904513040557504, 0.0010849405080080032, 0.001379429711960256, 0.001673918915912509, 0.0019684082362800837, 0.0022628973238170147, 0.0025573866441845894, 0.002851875964552164, 0.003146365052089095, 0.00344085437245667, 0.0037353436928242445, 0.0040298327803611755, 0.00432432210072875, 0.004618811421096325, 0.0049133007414639, 0.005207789596170187, 0.005502278916537762, 0.005796768236905336, 0.006091257557272911, 0.006385746877640486, 0.006680235732346773, 0.006974725052714348, 0.0072692143730819225, 0.007563703693449497, 0.007858192548155785, 0.008152682334184647, 0.008447171188890934, 0.008741660974919796, 0.009036149829626083, 0.00933063868433237, 0.009625128470361233, 0.00991961732506752, 0.010214107111096382, 0.01050859596580267]}, "gradients/embeds.2.weight": {"_type": "histogram", "values": [1.0, 0.0, 1.0, 0.0, 1.0, 3.0, 5.0, 4.0, 10.0, 13.0, 12.0, 19.0, 23.0, 50.0, 44.0, 83.0, 119.0, 159.0, 226.0, 316.0, 442.0, 596.0, 848.0, 1102.0, 1450.0, 2080.0, 2918.0, 4569.0, 16061.0, 75445.0, 7508.0, 4809.0, 3309.0, 2373.0, 1702.0, 1211.0, 921.0, 680.0, 490.0, 375.0, 285.0, 198.0, 159.0, 120.0, 91.0, 55.0, 46.0, 45.0, 22.0, 14.0, 15.0, 9.0, 7.0, 10.0, 6.0, 4.0, 0.0, 6.0, 0.0, 0.0, 1.0, 0.0, 0.0, 1.0], "bins": [-0.013720035552978516, -0.013249227777123451, -0.012778419069945812, -0.012307611294090748, -0.011836802586913109, -0.011365994811058044, -0.010895186103880405, -0.010424378328025341, -0.009953569620847702, -0.009482761844992638, -0.009011954069137573, -0.008541145361959934, -0.00807033758610487, -0.007599529344588518, -0.0071287211030721664, -0.006657912861555815, -0.006187104620039463, -0.005716296378523111, -0.00524548813700676, -0.004774679895490408, -0.004303871653974056, -0.003833063645288348, -0.00336225563660264, -0.0028914473950862885, -0.0024206391535699368, -0.001949830912053585, -0.0014790227869525552, -0.0010082146618515253, -0.0005374064203351736, -6.659823702648282e-05, 0.00040420994628220797, 0.0008750181295908988, 0.0013458263128995895, 0.0018166345544159412, 0.002287442795932293, 0.002758250804618001, 0.0032290590461343527, 0.0036998672876507044, 0.004170675296336412, 0.004641483537852764, 0.005112291779369116, 0.0055831000208854675, 0.006053908262401819, 0.006524716503918171, 0.006995524279773235, 0.007466332521289587, 0.007937140762805939, 0.008407949469983578, 0.008878757245838642, 0.009349565021693707, 0.009820373728871346, 0.01029118150472641, 0.010761990211904049, 0.011232797987759113, 0.011703606694936752, 0.012174414470791817, 0.012645222246646881, 0.01311603095382452, 0.013586838729679585, 0.014057647436857224, 0.014528455212712288, 0.014999263919889927, 0.015470071695744991, 0.01594088040292263, 0.016411688178777695]}, "gradients/embeds.0.bias": {"_type": "histogram", "values": [1.0, 0.0, 0.0, 0.0, 1.0, 1.0, 0.0, 2.0, 1.0, 2.0, 5.0, 4.0, 7.0, 5.0, 6.0, 6.0, 6.0, 6.0, 14.0, 7.0, 7.0, 6.0, 14.0, 5.0, 11.0, 9.0, 16.0, 16.0, 47.0, 102.0, 32.0, 18.0, 13.0, 8.0, 14.0, 12.0, 12.0, 13.0, 11.0, 5.0, 9.0, 11.0, 8.0, 8.0, 3.0, 0.0, 5.0, 4.0, 1.0, 5.0, 1.0, 4.0, 1.0, 2.0, 1.0, 0.0, 0.0, 0.0, 0.0, 1.0, 0.0, 0.0, 1.0, 2.0], "bins": [-0.00751657597720623, -0.007261682767421007, -0.007006789557635784, -0.006751896347850561, -0.006497003138065338, -0.006242109928280115, -0.005987216718494892, -0.005732323508709669, -0.005477430298924446, -0.005222537089139223, -0.004967643879354, -0.004712750669568777, -0.004457857459783554, -0.004202964249998331, -0.003948071040213108, -0.003693177830427885, -0.003438284620642662, -0.003183391410857439, -0.002928498201072216, -0.002673604991286993, -0.00241871178150177, -0.002163818571716547, -0.001908925361931324, -0.001654032152146101, -0.001399138942360878, -0.001144245732575655, -0.000889352522790432, -0.000634459313005209, -0.00037956610321998596, -0.00012467289343476295, 0.00013022031635046005, 0.00038511352613568306, 0.0006400076672434807, 0.0008949008770287037, 0.0011497940868139267, 0.0014046872965991497, 0.0016595805063843727, 0.0019144737161695957, 0.0021693669259548187, 0.0024242601357400417, 0.0026791533455252647, 0.0029340465553104877, 0.0031889397650957108, 0.0034438329748809338, 0.0036987261846661568, 0.00395361939445138, 0.004208512604236603, 0.004463405814021826, 0.004718299023807049, 0.004973192233592272, 0.005228085443377495, 0.005482978653162718, 0.005737871862947941, 0.005992765072733164, 0.006247658282518387, 0.00650255149230361, 0.006757444702088833, 0.007012337911874056, 0.007267231121659279, 0.007522124331444502, 0.007777017541229725, 0.00803191028535366, 0.008286803960800171, 0.008541697636246681, 0.008796590380370617]}, "gradients/embeds.0.weight": {"_type": "histogram", "values": [1.0, 0.0, 0.0, 0.0, 1.0, 0.0, 2.0, 2.0, 2.0, 0.0, 6.0, 8.0, 8.0, 9.0, 12.0, 13.0, 14.0, 13.0, 32.0, 23.0, 29.0, 47.0, 60.0, 93.0, 152.0, 310.0, 972.0, 6175.0, 67853.0, 300551.0, 13925.0, 1875.0, 397.0, 171.0, 116.0, 81.0, 59.0, 51.0, 29.0, 20.0, 17.0, 17.0, 17.0, 9.0, 4.0, 7.0, 4.0, 6.0, 5.0, 4.0, 2.0, 0.0, 3.0, 1.0, 2.0, 2.0, 0.0, 0.0, 0.0, 1.0, 0.0, 1.0, 1.0, 1.0], "bins": [-0.0799638032913208, -0.07722432166337967, -0.07448484003543854, -0.07174535095691681, -0.06900586932897568, -0.06626638770103455, -0.06352689862251282, -0.060787416994571686, -0.058047935366630554, -0.05530845373868942, -0.05256896838545799, -0.04982948303222656, -0.04709000140428543, -0.0443505197763443, -0.04161103442311287, -0.03887154906988144, -0.03613206744194031, -0.033392585813999176, -0.030653100460767746, -0.027913616970181465, -0.025174133479595184, -0.022434649989008904, -0.019695166498422623, -0.016955683007836342, -0.014216199517250061, -0.01147671602666378, -0.0087372325360775, -0.005997749045491219, -0.0032582655549049377, -0.0005187820643186569, 0.002220701426267624, 0.004960184916853905, 0.0076996684074401855, 0.010439151898026466, 0.013178635388612747, 0.015918118879199028, 0.01865760236978531, 0.02139708586037159, 0.02413656935095787, 0.02687605284154415, 0.029615536332130432, 0.032355017960071564, 0.035094503313302994, 0.037833988666534424, 0.040573470294475555, 0.04331295192241669, 0.04605243727564812, 0.04879192262887955, 0.05153140425682068, 0.05427088588476181, 0.05701037123799324, 0.05974985659122467, 0.0624893382191658, 0.06522881984710693, 0.06796830892562866, 0.0707077905535698, 0.07344727218151093, 0.07618675380945206, 0.07892623543739319, 0.08166572451591492, 0.08440520614385605, 0.08714468777179718, 0.08988417685031891, 0.09262365847826004, 0.09536314010620117]}, "_wandb": {"runtime": 519}}