{"num_of_examples": 10160, "train_loss": 0.18165865242481233, "_timestamp": 1716368585.7196429, "_runtime": 3588.6454668045044, "_step": 5849, "gradients/output.bias": {"_type": "histogram", "values": [1.0, 0.0, 0.0, 0.0, 0.0, 0.0, 0.0, 0.0, 0.0, 0.0, 0.0, 0.0, 0.0, 0.0, 0.0, 0.0, 0.0, 0.0, 0.0, 0.0, 0.0, 0.0, 0.0, 0.0, 0.0, 0.0, 0.0, 0.0, 0.0, 0.0, 0.0, 0.0, 0.0, 0.0, 0.0, 0.0, 0.0, 0.0, 0.0, 0.0, 0.0, 0.0, 0.0, 0.0, 0.0, 0.0, 0.0, 0.0, 0.0, 0.0, 0.0, 0.0, 0.0, 0.0, 0.0, 0.0, 0.0, 0.0, 0.0, 0.0, 0.0, 0.0, 0.0, 1.0], "bins": [-0.0023288382217288017, -0.002256062114611268, -0.0021832857746630907, -0.002110509667545557, -0.0020377335604280233, -0.001964957220479846, -0.0018921811133623123, -0.0018194050062447786, -0.0017466287827119231, -0.0016738525591790676, -0.001601076452061534, -0.0015283002285286784, -0.001455524004995823, -0.0013827478978782892, -0.0013099716743454337, -0.0012371955672279, -0.0011644193436950445, -0.001091643120162189, -0.0010188670130446553, -0.0009460907895117998, -0.0008733146241866052, -0.0008005384588614106, -0.0007277622353285551, -0.0006549860700033605, -0.0005822099046781659, -0.0005094337393529713, -0.00043665754492394626, -0.0003638813504949212, -0.0002911051851697266, -0.00021832900529261678, -0.00014555282541550696, -7.277664553839713e-05, -4.656612873077393e-10, 7.277571421582252e-05, 0.00014555189409293234, 0.00021832807397004217, 0.000291104253847152, 0.0003638804191723466, 0.00043665661360137165, 0.0005094328080303967, 0.0005822089733555913, 0.0006549851386807859, 0.0007277613040059805, 0.000800537527538836, 0.0008733136928640306, 0.0009460898581892252, 0.0010188660817220807, 0.0010916421888396144, 0.00116441841237247, 0.0012371946359053254, 0.001309970743022859, 0.0013827469665557146, 0.0014555230736732483, 0.0015282992972061038, 0.0016010755207389593, 0.001673851627856493, 0.0017466278513893485, 0.001819404074922204, 0.0018921801820397377, 0.0019649562891572714, 0.0020377326291054487, 0.0021105087362229824, 0.002183284843340516, 0.0022560611832886934, 0.002328837290406227]}, "gradients/output.weight": {"_type": "histogram", "values": [1.0, 0.0, 0.0, 0.0, 0.0, 1.0, 0.0, 1.0, 1.0, 0.0, 2.0, 3.0, 2.0, 0.0, 3.0, 3.0, 8.0, 8.0, 15.0, 14.0, 21.0, 18.0, 23.0, 13.0, 17.0, 4.0, 8.0, 6.0, 3.0, 0.0, 0.0, 0.0, 162.0, 0.0, 0.0, 3.0, 6.0, 8.0, 4.0, 17.0, 13.0, 23.0, 18.0, 21.0, 14.0, 15.0, 8.0, 8.0, 3.0, 3.0, 0.0, 2.0, 3.0, 2.0, 0.0, 1.0, 1.0, 0.0, 1.0, 0.0, 0.0, 0.0, 0.0, 1.0], "bins": [-0.004143191501498222, -0.004013716708868742, -0.0038842421490699053, -0.0037547675892710686, -0.003625292796641588, -0.0034958182368427515, -0.003366343677043915, -0.0032368688844144344, -0.0031073943246155977, -0.002977919764816761, -0.0028484449721872807, -0.002718970412388444, -0.0025894958525896072, -0.002460021059960127, -0.00233054650016129, -0.00220107170753181, -0.002071597147732973, -0.0019421224715188146, -0.001812647795304656, -0.0016831732355058193, -0.0015536985592916608, -0.0014242238830775023, -0.0012947493232786655, -0.001165274647064507, -0.0010357999708503485, -0.0009063252946361899, -0.0007768506766296923, -0.0006473760586231947, -0.0005179013824090362, -0.0003884267352987081, -0.00025895208818838, -0.00012947744107805192, -2.3283064365386963e-09, 0.00012947231880389154, 0.0002589469659142196, 0.0003884216130245477, 0.0005178962601348758, 0.0006473709363490343, 0.0007768455543555319, 0.0009063201723620296, 0.001035794848576188, 0.0011652695247903466, 0.0012947442010045052, 0.0014242187608033419, 0.0015536934370175004, 0.001683168113231659, 0.0018126426730304956, 0.0019421173492446542, 0.0020715920254588127, 0.0022010665852576494, 0.00233054137788713, 0.0024600159376859665, 0.002589490730315447, 0.0027189652901142836, 0.0028484398499131203, 0.0029779146425426006, 0.0031073892023414373, 0.003236863762140274, 0.0033663385547697544, 0.003495813114568591, 0.003625287674367428, 0.003754762466996908, 0.003884237026795745, 0.004013711586594582, 0.004143186379224062]}, "gradients/linearlayers.4.0.bias": {"_type": "histogram", "values": [4.0, 2.0, 1.0, 1.0, 5.0, 2.0, 3.0, 1.0, 7.0, 4.0, 3.0, 8.0, 2.0, 5.0, 4.0, 9.0, 7.0, 5.0, 4.0, 5.0, 7.0, 1.0, 2.0, 4.0, 2.0, 0.0, 1.0, 0.0, 0.0, 1.0, 1.0, 0.0, 81.0, 0.0, 0.0, 2.0, 0.0, 1.0, 3.0, 3.0, 1.0, 2.0, 0.0, 4.0, 6.0, 8.0, 1.0, 6.0, 4.0, 8.0, 3.0, 3.0, 1.0, 3.0, 3.0, 2.0, 2.0, 0.0, 1.0, 3.0, 1.0, 1.0, 0.0, 2.0], "bins": [-0.0003966304357163608, -0.0003842984151560813, -0.00037196639459580183, -0.00035963437403552234, -0.00034730235347524285, -0.00033497033291496336, -0.0003226382832508534, -0.00031030626269057393, -0.00029797424213029444, -0.00028564222157001495, -0.00027331020100973547, -0.000260978180449456, -0.0002486461598891765, -0.000236314139328897, -0.00022398210421670228, -0.0002116500836564228, -0.0001993180630961433, -0.00018698604253586382, -0.00017465402197558433, -0.0001623219868633896, -0.00014998996630311012, -0.00013765794574283063, -0.00012532592518255115, -0.00011299389734631404, -0.00010066187678603455, -8.832985622575507e-05, -7.599782838951796e-05, -6.366580782923847e-05, -5.133378363098018e-05, -3.900175943272188e-05, -2.666973705345299e-05, -1.4337713764689397e-05, -2.005690475925803e-06, 1.032633281283779e-05, 2.2658356101601385e-05, 3.499037848087028e-05, 4.732240267912857e-05, 5.965442687738687e-05, 7.198644743766636e-05, 8.431847527390346e-05, 9.665049583418295e-05, 0.00010898251639446244, 0.00012131454423069954, 0.00013364656479097903, 0.00014597858535125852, 0.000158310605911538, 0.00017064264102373272, 0.0001829746615840122, 0.0001953066821442917, 0.0002076387027045712, 0.00021997072326485068, 0.0002323027583770454, 0.0002446347789373249, 0.00025696679949760437, 0.00026929882005788386, 0.00028163084061816335, 0.00029396286117844284, 0.0003062948817387223, 0.0003186269022990018, 0.00033095895196311176, 0.00034329097252339125, 0.00035562299308367074, 0.0003679550136439502, 0.0003802870342042297, 0.0003926190547645092]}, "gradients/linearlayers.4.0.weight": {"_type": "histogram", "values": [4.0, 2.0, 1.0, 1.0, 5.0, 2.0, 3.0, 13.0, 20.0, 9.0, 20.0, 28.0, 27.0, 26.0, 58.0, 60.0, 79.0, 131.0, 132.0, 246.0, 251.0, 343.0, 503.0, 623.0, 797.0, 1084.0, 1331.0, 1771.0, 2402.0, 3073.0, 2831.0, 1478.0, 36238.0, 2328.0, 2440.0, 1911.0, 1319.0, 1035.0, 745.0, 577.0, 413.0, 307.0, 217.0, 163.0, 132.0, 108.0, 48.0, 49.0, 37.0, 28.0, 22.0, 9.0, 14.0, 13.0, 9.0, 4.0, 8.0, 0.0, 1.0, 3.0, 1.0, 1.0, 0.0, 2.0], "bins": [-0.0008310319390147924, -0.0008051959448494017, -0.0007793600088916719, -0.0007535240147262812, -0.0007276880205608904, -0.0007018520846031606, -0.0006760160904377699, -0.0006501800962723792, -0.0006243441021069884, -0.0005985081661492586, -0.0005726721719838679, -0.0005468361778184772, -0.0005210002418607473, -0.0004951642476953566, -0.00046932828263379633, -0.0004434922884684056, -0.00041765632340684533, -0.00039182035834528506, -0.00036598436417989433, -0.00034014839911833405, -0.0003143124049529433, -0.00028847643989138305, -0.0002626404748298228, -0.00023680449521634728, -0.00021096851560287178, -0.00018513253598939627, -0.00015929655637592077, -0.0001334605913143605, -0.000107624611700885, -8.17886320874095e-05, -5.595265974989161e-05, -3.0116683774394915e-05, -4.2807660065591335e-06, 2.155520996893756e-05, 4.7391185944434255e-05, 7.322715828195214e-05, 9.906313789542764e-05, 0.00012489911750890315, 0.00015073508257046342, 0.00017657106218393892, 0.00020240704179741442, 0.00022824302141088992, 0.0002540790010243654, 0.0002799149660859257, 0.00030575093114748597, 0.0003315869253128767, 0.000357422890374437, 0.0003832588845398277, 0.000409094849601388, 0.00043493081466294825, 0.000460766808828339, 0.00048660277388989925, 0.00051243876805529, 0.0005382747040130198, 0.0005641106981784105, 0.0005899466923438013, 0.000615782686509192, 0.0006416186224669218, 0.0006674546166323125, 0.0006932906107977033, 0.0007191265467554331, 0.0007449625409208238, 0.0007707985350862145, 0.0007966344710439444, 0.0008224704652093351]}, "gradients/linearlayers.3.0.bias": {"_type": "histogram", "values": [1.0, 0.0, 3.0, 1.0, 2.0, 4.0, 3.0, 0.0, 3.0, 6.0, 1.0, 4.0, 10.0, 2.0, 5.0, 2.0, 3.0, 1.0, 4.0, 7.0, 4.0, 8.0, 1.0, 2.0, 0.0, 2.0, 1.0, 3.0, 1.0, 4.0, 2.0, 1.0, 0.0, 0.0, 83.0, 2.0, 3.0, 1.0, 5.0, 0.0, 1.0, 2.0, 3.0, 1.0, 4.0, 2.0, 1.0, 2.0, 2.0, 2.0, 3.0, 3.0, 6.0, 5.0, 6.0, 8.0, 3.0, 1.0, 4.0, 6.0, 0.0, 1.0, 1.0, 4.0], "bins": [-0.0014126960886642337, -0.001372067490592599, -0.0013314387761056423, -0.0012908101780340075, -0.0012501815799623728, -0.0012095528654754162, -0.0011689242674037814, -0.0011282956693321466, -0.00108766695484519, -0.0010470383567735553, -0.0010064097587019205, -0.0009657810442149639, -0.0009251524461433291, -0.0008845237898640335, -0.0008438951335847378, -0.000803266535513103, -0.0007626378792338073, -0.0007220092229545116, -0.0006813806248828769, -0.0006407519686035812, -0.0006001233123242855, -0.0005594947142526507, -0.0005188660579733551, -0.00047823740169405937, -0.00043760877451859415, -0.0003969801473431289, -0.00035635149106383324, -0.000315722863888368, -0.0002750942367129028, -0.0002344655804336071, -0.00019383695325814188, -0.00015320831153076142, -0.00011257966980338097, -7.195102807600051e-05, -3.132239362457767e-05, 9.306244464823976e-06, 4.9934882554225624e-05, 9.056352428160608e-05, 0.0001311921514570713, 0.00017182079318445176, 0.0002124494349118322, 0.00025307806208729744, 0.0002937067183665931, 0.00033433534554205835, 0.0003749639727175236, 0.00041559262899681926, 0.0004562212561722845, 0.0004968498833477497, 0.0005374785396270454, 0.0005781071959063411, 0.0006187357939779758, 0.0006593644502572715, 0.0006999931065365672, 0.000740621704608202, 0.0007812503608874977, 0.0008218790171667933, 0.0008625076152384281, 0.0009031362715177238, 0.0009437649277970195, 0.0009843935258686543, 0.0010250222403556108, 0.0010656508384272456, 0.0011062794364988804, 0.001146908150985837, 0.0011875367490574718]}, "gradients/linearlayers.3.0.weight": {"_type": "histogram", "values": [1.0, 1.0, 3.0, 1.0, 6.0, 4.0, 10.0, 7.0, 16.0, 25.0, 29.0, 38.0, 44.0, 62.0, 72.0, 65.0, 108.0, 122.0, 114.0, 167.0, 172.0, 218.0, 272.0, 306.0, 423.0, 502.0, 568.0, 759.0, 978.0, 1222.0, 1489.0, 1903.0, 2103.0, 1926.0, 39010.0, 2106.0, 1956.0, 1843.0, 1353.0, 1186.0, 898.0, 695.0, 535.0, 421.0, 337.0, 241.0, 225.0, 176.0, 168.0, 138.0, 109.0, 116.0, 60.0, 58.0, 62.0, 30.0, 17.0, 25.0, 17.0, 6.0, 1.0, 5.0, 2.0, 4.0], "bins": [-0.002456385176628828, -0.00238572945818305, -0.0023150737397372723, -0.0022444177884608507, -0.002173762070015073, -0.002103106351569295, -0.0020324504002928734, -0.0019617946818470955, -0.0018911389634013176, -0.0018204832449555397, -0.00174982741009444, -0.0016791715752333403, -0.0016085158567875624, -0.0015378601383417845, -0.0014672043034806848, -0.001396548468619585, -0.0013258927501738071, -0.0012552370317280293, -0.0011845811968669295, -0.0011139253620058298, -0.001043269643560052, -0.0009726138669066131, -0.0009019580902531743, -0.0008313023135997355, -0.0007606465369462967, -0.0006899907602928579, -0.0006193349836394191, -0.0005486792069859803, -0.00047802343033254147, -0.00040736765367910266, -0.00033671187702566385, -0.00026605610037222505, -0.00019540032371878624, -0.00012474454706534743, -5.4088770411908627e-05, 1.656700624153018e-05, 8.722278289496899e-05, 0.0001578785595484078, 0.0002285343362018466, 0.0002991901128552854, 0.0003698458895087242, 0.000440501666162163, 0.0005111574428156018, 0.0005818132194690406, 0.0006524689961224794, 0.0007231247727759182, 0.000793780549429357, 0.0008644363260827959, 0.0009350921027362347, 0.0010057478211820126, 0.0010764036560431123, 0.001147059490904212, 0.0012177152093499899, 0.0012883709277957678, 0.0013590267626568675, 0.0014296825975179672, 0.0015003383159637451, 0.001570994034409523, 0.0016416498692706227, 0.0017123057041317225, 0.0017829614225775003, 0.0018536171410232782, 0.001924272975884378, 0.0019949288107454777, 0.0020655845291912556]}, "gradients/linearlayers.2.0.bias": {"_type": "histogram", "values": [3.0, 0.0, 1.0, 4.0, 2.0, 1.0, 4.0, 1.0, 8.0, 6.0, 4.0, 3.0, 5.0, 7.0, 3.0, 4.0, 4.0, 7.0, 6.0, 1.0, 4.0, 2.0, 1.0, 1.0, 3.0, 4.0, 0.0, 4.0, 2.0, 94.0, 1.0, 2.0, 1.0, 2.0, 4.0, 6.0, 4.0, 5.0, 2.0, 5.0, 0.0, 2.0, 3.0, 7.0, 2.0, 3.0, 2.0, 2.0, 3.0, 3.0, 4.0, 0.0, 0.0, 1.0, 1.0, 0.0, 0.0, 1.0, 0.0, 0.0, 0.0, 0.0, 0.0, 1.0], "bins": [-0.003525654086843133, -0.0034056513104587793, -0.003285648301243782, -0.0031656455248594284, -0.0030456427484750748, -0.002925639972090721, -0.0028056371957063675, -0.00268563418649137, -0.0025656314101070166, -0.002445628633722663, -0.0023256256245076656, -0.002205622848123312, -0.0020856200717389584, -0.0019656172953546047, -0.0018456144025549293, -0.0017256115097552538, -0.0016056087333709002, -0.0014856059569865465, -0.001365603064186871, -0.0012456001713871956, -0.001125597395002842, -0.0010055946186184883, -0.0008855917258188128, -0.0007655888912267983, -0.0006455860566347837, -0.0005255832220427692, -0.00040558038745075464, -0.0002855775528587401, -0.00016557471826672554, -4.557188367471099e-05, 7.443095091730356e-05, 0.0001944337855093181, 0.000314436387270689, 0.00043443922186270356, 0.0005544420564547181, 0.0006744448910467327, 0.0007944477256387472, 0.0009144505602307618, 0.0010344533948227763, 0.0011544562876224518, 0.0012744590640068054, 0.001394461840391159, 0.0015144647331908345, 0.00163446762599051, 0.0017544704023748636, 0.0018744731787592173, 0.0019944761879742146, 0.002114478964358568, 0.002234481740742922, 0.0023544845171272755, 0.002474487293511629, 0.0025944903027266264, 0.00271449307911098, 0.0028344958554953337, 0.002954498864710331, 0.0030745016410946846, 0.0031945044174790382, 0.003314507193863392, 0.0034345099702477455, 0.003554512979462743, 0.0036745157558470964, 0.00379451853223145, 0.003914521541446447, 0.004034524317830801, 0.004154527094215155]}, "gradients/linearlayers.2.0.weight": {"_type": "histogram", "values": [3.0, 3.0, 4.0, 5.0, 7.0, 7.0, 10.0, 12.0, 19.0, 24.0, 46.0, 35.0, 80.0, 73.0, 141.0, 161.0, 207.0, 307.0, 352.0, 472.0, 571.0, 663.0, 877.0, 1006.0, 1292.0, 1572.0, 1961.0, 2365.0, 2854.0, 40441.0, 2412.0, 1835.0, 1423.0, 1048.0, 759.0, 575.0, 427.0, 373.0, 293.0, 220.0, 134.0, 137.0, 89.0, 57.0, 42.0, 40.0, 21.0, 19.0, 15.0, 17.0, 8.0, 7.0, 2.0, 3.0, 3.0, 1.0, 2.0, 1.0, 0.0, 0.0, 0.0, 1.0, 1.0, 1.0], "bins": [-0.006013267673552036, -0.005808592773973942, -0.005603917874395847, -0.005399242974817753, -0.005194568075239658, -0.004989893175661564, -0.004785218276083469, -0.004580543376505375, -0.00437586847692728, -0.004171193577349186, -0.0039665186777710915, -0.003761843778192997, -0.0035571688786149025, -0.003352493979036808, -0.0031478190794587135, -0.002943144179880619, -0.0027384692803025246, -0.00253379438072443, -0.0023291194811463356, -0.002124444581568241, -0.0019197696819901466, -0.0017150947824120522, -0.0015104198828339577, -0.0013057449832558632, -0.0011010700836777687, -0.0008963951840996742, -0.0006917202845215797, -0.00048704538494348526, -0.0002823704853653908, -7.76955857872963e-05, 0.0001269793137907982, 0.00033165421336889267, 0.0005363291129469872, 0.0007410040125250816, 0.0009456789121031761, 0.0011503538116812706, 0.001355028711259365, 0.0015597036108374596, 0.001764378510415554, 0.0019690534099936485, 0.002173728309571743, 0.0023784032091498375, 0.002583078108727932, 0.0027877530083060265, 0.002992427907884121, 0.0031971028074622154, 0.00340177770704031, 0.0036064526066184044, 0.003811127506196499, 0.004015802405774593, 0.004220477305352688, 0.004425152204930782, 0.004629827104508877, 0.004834502004086971, 0.005039176903665066, 0.00524385180324316, 0.005448526702821255, 0.005653201602399349, 0.005857876501977444, 0.006062551401555538, 0.006267226301133633, 0.006471901200711727, 0.006676576100289822, 0.006881250999867916, 0.007085925899446011]}, "gradients/linearlayers.1.0.bias": {"_type": "histogram", "values": [1.0, 0.0, 0.0, 0.0, 0.0, 1.0, 0.0, 1.0, 0.0, 2.0, 4.0, 1.0, 1.0, 4.0, 3.0, 4.0, 4.0, 5.0, 3.0, 2.0, 5.0, 2.0, 7.0, 3.0, 5.0, 3.0, 6.0, 7.0, 5.0, 6.0, 4.0, 2.0, 4.0, 3.0, 2.0, 2.0, 83.0, 1.0, 3.0, 2.0, 1.0, 5.0, 6.0, 3.0, 3.0, 3.0, 3.0, 6.0, 3.0, 2.0, 6.0, 2.0, 1.0, 4.0, 2.0, 2.0, 2.0, 1.0, 0.0, 5.0, 3.0, 0.0, 1.0, 1.0], "bins": [-0.008560377173125744, -0.008324532769620419, -0.008088688366115093, -0.007852843962609768, -0.007616999093443155, -0.007381154224276543, -0.007145309820771217, -0.006909465417265892, -0.006673621013760567, -0.006437776144593954, -0.006201931741088629, -0.0059660873375833035, -0.005730242468416691, -0.0054943980649113655, -0.00525855366140604, -0.005022708792239428, -0.004786864388734102, -0.004551019985228777, -0.004315175116062164, -0.004079330712556839, -0.0038434863090515137, -0.0036076416727155447, -0.0033717970363795757, -0.0031359526328742504, -0.0029001079965382814, -0.0026642633602023125, -0.002428418956696987, -0.002192574320361018, -0.001956729684025049, -0.001720885280519724, -0.001485040644183755, -0.0012491961242631078, -0.0010133511386811733, -0.0007775066187605262, -0.0005416620406322181, -0.0003058174916077405, -6.997294258326292e-05, 0.00016587160644121468, 0.0004017161554656923, 0.0006375607335940003, 0.0008734052535146475, 0.0011092497734352946, 0.0013450942933559418, 0.0015809389296919107, 0.0018167834496125579, 0.002052627969533205, 0.002288472605869174, 0.0025243170093744993, 0.0027601616457104683, 0.0029960062820464373, 0.0032318506855517626, 0.0034676953218877316, 0.003703539725393057, 0.0039393845945596695, 0.004175228998064995, 0.00441107340157032, 0.0046469178050756454, 0.004882762674242258, 0.005118607077747583, 0.005354451481252909, 0.005590296350419521, 0.005826140753924847, 0.006061985157430172, 0.006297830026596785, 0.00653367443010211]}, "gradients/linearlayers.1.0.weight": {"_type": "histogram", "values": [1.0, 1.0, 0.0, 0.0, 0.0, 2.0, 1.0, 1.0, 1.0, 3.0, 8.0, 6.0, 7.0, 11.0, 10.0, 15.0, 20.0, 26.0, 36.0, 45.0, 55.0, 85.0, 127.0, 137.0, 202.0, 262.0, 306.0, 375.0, 449.0, 608.0, 847.0, 1137.0, 1555.0, 2116.0, 3001.0, 3624.0, 41049.0, 2631.0, 1835.0, 1364.0, 903.0, 646.0, 519.0, 342.0, 263.0, 235.0, 168.0, 127.0, 104.0, 77.0, 51.0, 47.0, 29.0, 16.0, 10.0, 7.0, 7.0, 4.0, 6.0, 8.0, 4.0, 1.0, 2.0, 1.0], "bins": [-0.01588081382215023, -0.01544328685849905, -0.01500575989484787, -0.01456823293119669, -0.01413070596754551, -0.013693179003894329, -0.013255652040243149, -0.012818125076591969, -0.012380598112940788, -0.011943071149289608, -0.011505544185638428, -0.011068017221987247, -0.010630490258336067, -0.010192963294684887, -0.009755436331033707, -0.009317909367382526, -0.008880382403731346, -0.008442855440080166, -0.008005328476428986, -0.007567801512777805, -0.007130274549126625, -0.006692747585475445, -0.0062552206218242645, -0.005817693658173084, -0.005380166694521904, -0.004942639730870724, -0.0045051127672195435, -0.004067585803568363, -0.003630058839917183, -0.0031925318762660027, -0.0027550049126148224, -0.002317477948963642, -0.0018799519166350365, -0.0014424249529838562, -0.001004897989332676, -0.0005673710256814957, -0.0001298440620303154, 0.00030768290162086487, 0.0007452098652720451, 0.0011827368289232254, 0.0016202637925744057, 0.002057790756225586, 0.002495317719876766, 0.0029328446835279465, 0.0033703716471791267, 0.003807898610830307, 0.004245425574481487, 0.0046829525381326675, 0.005120479501783848, 0.005558006465435028, 0.005995533429086208, 0.006433060392737389, 0.006870587356388569, 0.007308114320039749, 0.007745641283690929, 0.00818316824734211, 0.00862069521099329, 0.00905822217464447, 0.00949574913829565, 0.00993327610194683, 0.010370803065598011, 0.010808330029249191, 0.011245856992900372, 0.011683383956551552, 0.012120910920202732]}, "gradients/linearlayers.0.0.bias": {"_type": "histogram", "values": [2.0, 0.0, 0.0, 1.0, 0.0, 0.0, 0.0, 0.0, 0.0, 2.0, 0.0, 1.0, 3.0, 2.0, 8.0, 4.0, 3.0, 1.0, 3.0, 1.0, 2.0, 4.0, 4.0, 6.0, 3.0, 5.0, 1.0, 1.0, 5.0, 3.0, 3.0, 4.0, 5.0, 1.0, 2.0, 100.0, 2.0, 4.0, 7.0, 3.0, 3.0, 5.0, 4.0, 4.0, 6.0, 6.0, 2.0, 2.0, 1.0, 3.0, 4.0, 4.0, 4.0, 3.0, 0.0, 0.0, 3.0, 2.0, 0.0, 1.0, 0.0, 0.0, 1.0, 2.0], "bins": [-0.015599670819938183, -0.015160285867750645, -0.014720899984240532, -0.014281515032052994, -0.013842130079865456, -0.013402744196355343, -0.012963359244167805, -0.012523974291980267, -0.012084588408470154, -0.011645203456282616, -0.011205818504095078, -0.010766432620584965, -0.010327047668397427, -0.009887662716209888, -0.009448276832699776, -0.009008891880512238, -0.0085695069283247, -0.008130121044814587, -0.0076907360926270485, -0.007251350674778223, -0.006811965256929398, -0.0063725803047418594, -0.005933194886893034, -0.0054938094690442085, -0.00505442451685667, -0.004615039099007845, -0.0041756536811590195, -0.0037362684961408377, -0.003296883311122656, -0.0028574978932738304, -0.0024181127082556486, -0.001978727290406823, -0.0015393421053886414, -0.0010999568039551377, -0.000660571560729295, -0.00022118628839962184, 0.00021819898393005133, 0.000657584285363555, 0.0010969694703817368, 0.0015363547718152404, 0.001975740073248744, 0.002415125258266926, 0.0028545106761157513, 0.003293895861133933, 0.003733281046152115, 0.00417266646400094, 0.004612051881849766, 0.005051436834037304, 0.005490822251886129, 0.005930207669734955, 0.006369592621922493, 0.0068089780397713184, 0.007248363457620144, 0.007687748409807682, 0.008127134293317795, 0.008566519245505333, 0.009005904197692871, 0.009445290081202984, 0.009884675033390522, 0.01032405998557806, 0.010763445869088173, 0.011202830821275711, 0.01164221577346325, 0.012081601656973362, 0.0125209866091609]}, "gradients/linearlayers.0.0.weight": {"_type": "histogram", "values": [6.0, 0.0, 0.0, 2.0, 3.0, 4.0, 0.0, 4.0, 8.0, 11.0, 9.0, 7.0, 17.0, 15.0, 30.0, 36.0, 42.0, 50.0, 78.0, 72.0, 107.0, 122.0, 136.0, 166.0, 236.0, 265.0, 313.0, 414.0, 538.0, 615.0, 827.0, 1158.0, 1346.0, 1881.0, 2562.0, 44350.0, 2927.0, 1913.0, 1337.0, 932.0, 724.0, 524.0, 388.0, 282.0, 234.0, 183.0, 140.0, 114.0, 94.0, 65.0, 68.0, 41.0, 31.0, 30.0, 13.0, 12.0, 22.0, 9.0, 5.0, 7.0, 2.0, 0.0, 3.0, 6.0], "bins": [-0.025531809777021408, -0.024812674149870872, -0.024093536660075188, -0.023374401032924652, -0.022655265405774117, -0.02193612791597843, -0.021216992288827896, -0.02049785666167736, -0.019778721034526825, -0.01905958354473114, -0.018340447917580605, -0.01762131229043007, -0.016902174800634384, -0.01618303917348385, -0.015463902615010738, -0.014744766987860203, -0.014025630429387093, -0.013306493870913982, -0.012587358243763447, -0.011868221685290337, -0.011149086058139801, -0.01042994949966669, -0.00971081294119358, -0.008991677314043045, -0.008272540755569935, -0.007553404662758112, -0.006834268569946289, -0.006115132011473179, -0.005395995918661356, -0.004676859825849533, -0.003957723267376423, -0.0032385871745646, -0.0025194529443979263, -0.0018003167351707816, -0.001081180525943637, -0.0003620443167164922, 0.00035709189251065254, 0.0010762281017377973, 0.001795364310964942, 0.0025145006366074085, 0.0032336367294192314, 0.003952772822231054, 0.004671908915042877, 0.005391045473515987, 0.00611018156632781, 0.006829317659139633, 0.007548454217612743, 0.008267589844763279, 0.00898672640323639, 0.0097058629617095, 0.010424998588860035, 0.011144135147333145, 0.01186327077448368, 0.012582407332956791, 0.013301543891429901, 0.014020679518580437, 0.014739816077053547, 0.015458952635526657, 0.016178088262677193, 0.01689722388982773, 0.017616361379623413, 0.01833549700677395, 0.019054632633924484, 0.01977377012372017, 0.020492905750870705]}, "gradients/embeds.2.bias": {"_type": "histogram", "values": [1.0, 0.0, 0.0, 0.0, 0.0, 1.0, 0.0, 0.0, 1.0, 1.0, 1.0, 2.0, 0.0, 3.0, 1.0, 1.0, 6.0, 1.0, 1.0, 4.0, 1.0, 3.0, 7.0, 4.0, 3.0, 3.0, 3.0, 7.0, 2.0, 4.0, 4.0, 9.0, 5.0, 2.0, 2.0, 2.0, 89.0, 11.0, 6.0, 4.0, 1.0, 3.0, 4.0, 4.0, 5.0, 2.0, 1.0, 2.0, 4.0, 1.0, 2.0, 5.0, 2.0, 7.0, 6.0, 1.0, 1.0, 2.0, 1.0, 2.0, 1.0, 1.0, 1.0, 2.0], "bins": [-0.02297780103981495, -0.022356461733579636, -0.021735122427344322, -0.02111378312110901, -0.020492441952228546, -0.019871102645993233, -0.01924976333975792, -0.018628424033522606, -0.018007084727287292, -0.01738574542105198, -0.016764406114816666, -0.016143066808581352, -0.015521726571023464, -0.01490038726478815, -0.014279047027230263, -0.01365770772099495, -0.013036368414759636, -0.012415029108524323, -0.011793689802289009, -0.011172349564731121, -0.010551010258495808, -0.009929670952260494, -0.009308330714702606, -0.008686991408467293, -0.00806565210223198, -0.007444312795996666, -0.006822973024100065, -0.0062016332522034645, -0.005580293945968151, -0.004958954639732838, -0.004337614867836237, -0.00371627532877028, -0.003094937652349472, -0.002473598113283515, -0.001852258574217558, -0.0012309190351516008, -0.0006095794960856438, 1.1760042980313301e-05, 0.0006330995820462704, 0.0012544391211122274, 0.0018757786601781845, 0.0024971181992441416, 0.0031184577383100986, 0.0037397972773760557, 0.004361136816442013, 0.004982476122677326, 0.005603815894573927, 0.006225155666470528, 0.006846494972705841, 0.0074678342789411545, 0.008089173585176468, 0.008710513822734356, 0.00933185312896967, 0.009953192435204983, 0.01057453267276287, 0.011195871978998184, 0.011817211285233498, 0.012438550591468811, 0.013059889897704124, 0.013681230135262012, 0.014302569441497326, 0.01492390874773264, 0.015545248985290527, 0.01616658829152584, 0.016787927597761154]}, "gradients/embeds.2.weight": {"_type": "histogram", "values": [1.0, 0.0, 0.0, 0.0, 0.0, 1.0, 0.0, 0.0, 3.0, 5.0, 3.0, 3.0, 1.0, 8.0, 10.0, 11.0, 19.0, 31.0, 21.0, 53.0, 46.0, 86.0, 115.0, 131.0, 185.0, 240.0, 351.0, 422.0, 562.0, 825.0, 1089.0, 1426.0, 1951.0, 2647.0, 3695.0, 5372.0, 88040.0, 8909.0, 3992.0, 2655.0, 2063.0, 1635.0, 1226.0, 831.0, 662.0, 530.0, 305.0, 276.0, 180.0, 163.0, 84.0, 60.0, 43.0, 37.0, 23.0, 12.0, 16.0, 9.0, 1.0, 1.0, 2.0, 1.0, 1.0, 2.0], "bins": [-0.04009902849793434, -0.03901471942663193, -0.037930410355329514, -0.0368461012840271, -0.035761792212724686, -0.03467748314142227, -0.03359317407011986, -0.032508864998817444, -0.03142455592751503, -0.030340246856212616, -0.029255937784910202, -0.028171628713607788, -0.027087319642305374, -0.02600301057100296, -0.024918701499700546, -0.023834392428398132, -0.02275008335709572, -0.021665774285793304, -0.02058146521449089, -0.019497156143188477, -0.018412847071886063, -0.01732853800058365, -0.016244228929281235, -0.01515991985797882, -0.014075610786676407, -0.012991301715373993, -0.011906992644071579, -0.010822683572769165, -0.009738374501466751, -0.008654065430164337, -0.007569756358861923, -0.006485447287559509, -0.005401138216257095, -0.004316829144954681, -0.0032325200736522675, -0.0021482110023498535, -0.0010639019310474396, 2.0407140254974365e-05, 0.0011047162115573883, 0.0021890252828598022, 0.003273334354162216, 0.00435764342546463, 0.005441952496767044, 0.006526261568069458, 0.007610570639371872, 0.008694879710674286, 0.0097791887819767, 0.010863497853279114, 0.011947806924581528, 0.013032115995883942, 0.014116425067186356, 0.01520073413848877, 0.016285043209791183, 0.017369352281093597, 0.01845366135239601, 0.019537970423698425, 0.02062227949500084, 0.021706588566303253, 0.022790897637605667, 0.02387520670890808, 0.024959515780210495, 0.02604382485151291, 0.027128133922815323, 0.028212442994117737, 0.02929675206542015]}, "gradients/embeds.0.bias": {"_type": "histogram", "values": [1.0, 0.0, 0.0, 0.0, 1.0, 2.0, 2.0, 3.0, 1.0, 3.0, 1.0, 0.0, 6.0, 2.0, 5.0, 3.0, 5.0, 4.0, 2.0, 5.0, 7.0, 6.0, 14.0, 12.0, 13.0, 14.0, 16.0, 9.0, 7.0, 10.0, 8.0, 212.0, 12.0, 14.0, 11.0, 8.0, 12.0, 8.0, 10.0, 12.0, 7.0, 7.0, 4.0, 5.0, 6.0, 4.0, 2.0, 2.0, 1.0, 4.0, 1.0, 3.0, 0.0, 1.0, 0.0, 0.0, 2.0, 0.0, 1.0, 0.0, 0.0, 0.0, 0.0, 1.0], "bins": [-0.02315816655755043, -0.022415490821003914, -0.021672813221812248, -0.020930137485265732, -0.020187459886074066, -0.01944478414952755, -0.018702106550335884, -0.017959430813789368, -0.017216753214597702, -0.016474077478051186, -0.01573140174150467, -0.014988724142313004, -0.014246048405766487, -0.013503371737897396, -0.012760695070028305, -0.012018018402159214, -0.011275341734290123, -0.010532665066421032, -0.009789988398551941, -0.00904731173068285, -0.008304635062813759, -0.007561958860605955, -0.006819282658398151, -0.00607660599052906, -0.005333929322659969, -0.004591252654790878, -0.003848576219752431, -0.0031058997847139835, -0.0023632231168448925, -0.0016205465653911233, -0.0008778700139373541, -0.00013519346248358488, 0.0006074830889701843, 0.0013501596404239535, 0.0020928361918777227, 0.00283551262691617, 0.003578189294785261, 0.004320865962654352, 0.005063542164862156, 0.005806218832731247, 0.006548895500600338, 0.007291572168469429, 0.00803424883633852, 0.008776925504207611, 0.009519601240754128, 0.010262277908623219, 0.01100495457649231, 0.0117476312443614, 0.012490307912230492, 0.013232984580099583, 0.013975661247968674, 0.014718337915837765, 0.015461014583706856, 0.016203690320253372, 0.016946367919445038, 0.017689043655991554, 0.01843171939253807, 0.019174396991729736, 0.019917072728276253, 0.02065975032746792, 0.021402426064014435, 0.0221451036632061, 0.022887779399752617, 0.023630456998944283, 0.0243731327354908]}, "gradients/embeds.0.weight": {"_type": "histogram", "values": [1.0, 0.0, 0.0, 1.0, 1.0, 2.0, 2.0, 4.0, 3.0, 7.0, 2.0, 2.0, 8.0, 4.0, 10.0, 7.0, 10.0, 10.0, 11.0, 7.0, 15.0, 23.0, 31.0, 45.0, 62.0, 66.0, 126.0, 282.0, 1270.0, 6684.0, 60483.0, 307014.0, 13693.0, 2332.0, 530.0, 147.0, 79.0, 50.0, 40.0, 31.0, 23.0, 16.0, 15.0, 19.0, 8.0, 7.0, 4.0, 6.0, 3.0, 6.0, 1.0, 4.0, 0.0, 3.0, 0.0, 1.0, 2.0, 0.0, 1.0, 0.0, 1.0, 0.0, 0.0, 1.0], "bins": [-0.24206101894378662, -0.23429790139198303, -0.22653479874134064, -0.21877168118953705, -0.21100857853889465, -0.20324546098709106, -0.19548234343528748, -0.18771924078464508, -0.1799561232328415, -0.1721930205821991, -0.1644299030303955, -0.15666678547859192, -0.14890368282794952, -0.14114056527614594, -0.13337746262550354, -0.12561434507369995, -0.11785123497247696, -0.11008812487125397, -0.10232501477003098, -0.09456189721822739, -0.0867987871170044, -0.0790356770157814, -0.07127256691455841, -0.06350945681333542, -0.05574634298682213, -0.047983232885599136, -0.040220119059085846, -0.032457008957862854, -0.024693896993994713, -0.01693078503012657, -0.009167673997581005, -0.0014045624993741512, 0.006358548998832703, 0.014121660962700844, 0.021884772926568985, 0.029647883027791977, 0.03741099685430527, 0.04517410695552826, 0.05293721705675125, 0.06070033088326454, 0.06846344470977783, 0.07622655481100082, 0.08398966491222382, 0.09175277501344681, 0.0995158851146698, 0.10727899521589279, 0.11504211276769638, 0.12280522286891937, 0.13056832551956177, 0.13833144307136536, 0.14609456062316895, 0.15385766327381134, 0.16162078082561493, 0.16938388347625732, 0.1771470010280609, 0.1849101185798645, 0.1926732212305069, 0.20043633878231049, 0.20819944143295288, 0.21596255898475647, 0.22372567653656006, 0.23148877918720245, 0.23925189673900604, 0.24701499938964844, 0.254778116941452]}, "num_of_test_examples": 0, "test_loss": 0.00567716121673584, "epoch": 44, "val-auc": 0.8755108579003851, "_wandb": {"runtime": 3588}}