{"num_of_examples": 1520, "train_loss": 0.18583541512489318, "_timestamp": 1716349812.9342632, "_runtime": 401.06963634490967, "_step": 703, "num_of_test_examples": 0, "test_loss": 0.0040673789381980895, "epoch": 31, "val-auc": 0.8715229619355833, "gradients/output.bias": {"_type": "histogram", "values": [1.0, 0.0, 0.0, 0.0, 0.0, 0.0, 0.0, 0.0, 0.0, 0.0, 0.0, 0.0, 0.0, 0.0, 0.0, 0.0, 0.0, 0.0, 0.0, 0.0, 0.0, 0.0, 0.0, 0.0, 0.0, 0.0, 0.0, 0.0, 0.0, 0.0, 0.0, 0.0, 0.0, 0.0, 0.0, 0.0, 0.0, 0.0, 0.0, 0.0, 0.0, 0.0, 0.0, 0.0, 0.0, 0.0, 0.0, 0.0, 0.0, 0.0, 0.0, 0.0, 0.0, 0.0, 0.0, 0.0, 0.0, 0.0, 0.0, 0.0, 0.0, 0.0, 0.0, 1.0], "bins": [-0.0020171040669083595, -0.0019540695939213037, -0.001891035120934248, -0.0018280006479471922, -0.0017649661749601364, -0.0017019315855577588, -0.001638897112570703, -0.0015758626395836473, -0.0015128281665965915, -0.0014497936936095357, -0.00138675922062248, -0.0013237247476354241, -0.0012606901582330465, -0.0011976556852459908, -0.001134621212258935, -0.0010715867392718792, -0.0010085522662848234, -0.0009455177932977676, -0.0008824833203107119, -0.0008194487891159952, -0.0007564143161289394, -0.0006933798431418836, -0.0006303453119471669, -0.0005673108389601111, -0.0005042763659730554, -0.0004412418929859996, -0.00037820739089511335, -0.0003151728888042271, -0.00025213841581717134, -0.00018910392827820033, -0.00012606944073922932, -6.303495320025831e-05, -6.984919309616089e-10, 6.303378904704005e-05, 0.00012606827658601105, 0.00018910276412498206, 0.00025213725166395307, 0.00031517172465100884, 0.0003782062267418951, 0.0004412407288327813, 0.0005042752018198371, 0.0005673096748068929, 0.0006303441477939487, 0.0006933786789886653, 0.0007564131519757211, 0.0008194476249627769, 0.0008824821561574936, 0.0009455166291445494, 0.0010085511021316051, 0.001071585575118661, 0.0011346200481057167, 0.0011976545210927725, 0.0012606889940798283, 0.0013237235834822059, 0.0013867580564692616, 0.0014497925294563174, 0.0015128270024433732, 0.001575861475430429, 0.0016388959484174848, 0.0017019304214045405, 0.0017649650108069181, 0.001827999483793974, 0.0018910339567810297, 0.0019540684297680855, 0.0020171029027551413]}, "gradients/output.weight": {"_type": "histogram", "values": [1.0, 1.0, 0.0, 3.0, 0.0, 4.0, 2.0, 3.0, 1.0, 2.0, 1.0, 5.0, 4.0, 3.0, 5.0, 7.0, 2.0, 3.0, 1.0, 4.0, 7.0, 3.0, 6.0, 0.0, 3.0, 5.0, 3.0, 8.0, 19.0, 12.0, 23.0, 29.0, 201.0, 23.0, 12.0, 19.0, 8.0, 3.0, 5.0, 3.0, 0.0, 6.0, 3.0, 7.0, 4.0, 1.0, 3.0, 2.0, 7.0, 5.0, 3.0, 4.0, 5.0, 1.0, 2.0, 1.0, 3.0, 2.0, 4.0, 0.0, 3.0, 0.0, 1.0, 1.0], "bins": [-0.004399353172630072, -0.004261873662471771, -0.0041243936866521835, -0.003986914176493883, -0.0038494342006742954, -0.003711954690515995, -0.003574474947527051, -0.003436995204538107, -0.003299515461549163, -0.003162035718560219, -0.0030245559755712748, -0.0028870762325823307, -0.0027495967224240303, -0.0026121169794350863, -0.002474637236446142, -0.002337157493457198, -0.002199677750468254, -0.00206219800747931, -0.001924718264490366, -0.0017872386379167438, -0.0016497588949277997, -0.0015122791519388556, -0.0013747995253652334, -0.0012373197823762894, -0.0010998400393873453, -0.0009623602963984013, -0.0008248806116171181, -0.000687400926835835, -0.0005499211838468909, -0.00041244146996177733, -0.00027496175607666373, -0.00013748204219155014, -1.862645149230957e-09, 0.00013747785123996437, 0.00027495756512507796, 0.00041243727901019156, 0.0005499169928953052, 0.0006873967358842492, 0.0008248764206655324, 0.0009623561054468155, 0.0010998358484357595, 0.0012373155914247036, 0.0013747953344136477, 0.0015122749609872699, 0.001649754703976214, 0.001787234446965158, 0.0019247140735387802, 0.0020621938165277243, 0.0021996735595166683, 0.0023371533025056124, 0.0024746330454945564, 0.0026121127884835005, 0.0027495925314724445, 0.002887072041630745, 0.003024551784619689, 0.003162031527608633, 0.003299511270597577, 0.003436991013586521, 0.003574470756575465, 0.0037119504995644093, 0.0038494300097227097, 0.003986909985542297, 0.004124389495700598, 0.0042618694715201855, 0.004399348981678486]}, "gradients/linearlayers.4.0.bias": {"_type": "histogram", "values": [1.0, 0.0, 0.0, 0.0, 4.0, 2.0, 1.0, 3.0, 3.0, 3.0, 0.0, 3.0, 3.0, 1.0, 2.0, 0.0, 4.0, 3.0, 2.0, 3.0, 1.0, 2.0, 4.0, 1.0, 4.0, 3.0, 2.0, 3.0, 4.0, 7.0, 2.0, 3.0, 1.0, 0.0, 90.0, 1.0, 3.0, 4.0, 9.0, 4.0, 4.0, 5.0, 3.0, 7.0, 8.0, 5.0, 3.0, 3.0, 5.0, 5.0, 3.0, 2.0, 2.0, 2.0, 2.0, 3.0, 2.0, 2.0, 1.0, 0.0, 0.0, 0.0, 2.0, 1.0], "bins": [-0.0002846944844350219, -0.0002763853990472853, -0.00026807631365954876, -0.00025976725737564266, -0.0002514581719879061, -0.00024314908660016954, -0.0002348400157643482, -0.00022653093037661165, -0.00021822185954079032, -0.00020991277415305376, -0.0002016036887653172, -0.00019329461792949587, -0.0001849855325417593, -0.00017667646170593798, -0.00016836737631820142, -0.0001600583054823801, -0.00015174922009464353, -0.00014344013470690697, -0.00013513106387108564, -0.00012682197848334908, -0.00011851290764752775, -0.0001102038222597912, -0.00010189474414801225, -9.35856660362333e-05, -8.527658792445436e-05, -7.696750981267542e-05, -6.865843170089647e-05, -6.034934995113872e-05, -5.2040271839359775e-05, -4.373119372758083e-05, -3.542211197782308e-05, -2.7113033866044134e-05, -1.880395575426519e-05, -1.0494876732991543e-05, -2.185797711717896e-06, 6.12328130955575e-06, 1.4432360330829397e-05, 2.274143844260834e-05, 3.1050520192366093e-05, 3.935959830414504e-05, 4.766867641592398e-05, 5.597775452770293e-05, 6.428683263948187e-05, 7.259591075126082e-05, 8.090499613899738e-05, 8.921407425077632e-05, 9.752315236255527e-05, 0.00010583223047433421, 0.00011414130858611315, 0.00012245039397384971, 0.00013075946480967104, 0.0001390685501974076, 0.00014737762103322893, 0.0001556867064209655, 0.00016399577725678682, 0.00017230486264452338, 0.00018061394803225994, 0.00018892301886808127, 0.00019723210425581783, 0.00020554117509163916, 0.00021385026047937572, 0.00022215933131519705, 0.0002304684167029336, 0.00023877748753875494, 0.0002470865729264915]}, "gradients/linearlayers.4.0.weight": {"_type": "histogram", "values": [1.0, 1.0, 0.0, 4.0, 4.0, 5.0, 7.0, 19.0, 20.0, 23.0, 35.0, 34.0, 51.0, 58.0, 65.0, 66.0, 70.0, 97.0, 127.0, 140.0, 166.0, 209.0, 236.0, 239.0, 306.0, 323.0, 382.0, 432.0, 472.0, 596.0, 747.0, 966.0, 1514.0, 3079.0, 45018.0, 2517.0, 1580.0, 1119.0, 943.0, 746.0, 604.0, 526.0, 397.0, 344.0, 259.0, 212.0, 170.0, 144.0, 92.0, 83.0, 73.0, 53.0, 32.0, 36.0, 26.0, 24.0, 13.0, 6.0, 5.0, 6.0, 6.0, 4.0, 3.0, 1.0], "bins": [-0.0005727564566768706, -0.0005560898571275175, -0.0005394231993705034, -0.0005227565998211503, -0.0005060900002717972, -0.0004894233425147831, -0.00047275674296543, -0.0004560901434160769, -0.0004394235147628933, -0.00042275688610970974, -0.0004060902865603566, -0.00038942365790717304, -0.00037275702925398946, -0.00035609042970463634, -0.00033942380105145276, -0.00032275720150209963, -0.00030609057284891605, -0.0002894239441957325, -0.00027275734464637935, -0.00025609071599319577, -0.00023942410189192742, -0.00022275748779065907, -0.0002060908591374755, -0.00018942424503620714, -0.0001727576309349388, -0.00015609101683367044, -0.00013942440273240209, -0.0001227577740792185, -0.00010609115997795016, -8.94245458766818e-05, -7.275792449945584e-05, -5.609130676020868e-05, -3.942463081330061e-05, -2.275801307405345e-05, -6.091395334806293e-06, 1.0575222404440865e-05, 2.7241840143688023e-05, 4.390845788293518e-05, 6.057507562218234e-05, 7.72416969994083e-05, 9.390831110067666e-05, 0.00011057492520194501, 0.00012724153930321336, 0.00014390816795639694, 0.0001605747820576653, 0.00017724139615893364, 0.00019390802481211722, 0.00021057463891338557, 0.00022724125301465392, 0.00024390786711592227, 0.0002605744812171906, 0.0002772411098703742, 0.0002939077094197273, 0.0003105743380729109, 0.0003272409667260945, 0.0003439075662754476, 0.0003605741949286312, 0.00037724082358181477, 0.0003939074231311679, 0.00041057405178435147, 0.00042724068043753505, 0.00044390727998688817, 0.00046057390864007175, 0.00047724050818942487, 0.0004939071368426085]}, "gradients/linearlayers.3.0.bias": {"_type": "histogram", "values": [1.0, 0.0, 1.0, 0.0, 0.0, 1.0, 0.0, 0.0, 1.0, 2.0, 2.0, 1.0, 5.0, 0.0, 2.0, 2.0, 2.0, 5.0, 4.0, 5.0, 4.0, 5.0, 3.0, 4.0, 4.0, 3.0, 0.0, 2.0, 3.0, 5.0, 3.0, 2.0, 4.0, 99.0, 4.0, 1.0, 2.0, 2.0, 6.0, 5.0, 2.0, 3.0, 3.0, 3.0, 7.0, 3.0, 5.0, 3.0, 5.0, 3.0, 2.0, 7.0, 4.0, 1.0, 2.0, 1.0, 3.0, 2.0, 1.0, 0.0, 0.0, 0.0, 0.0, 1.0], "bins": [-0.00044558587251231074, -0.0004321137093938887, -0.0004186415462754667, -0.00040516938315704465, -0.0003916972200386226, -0.0003782250569202006, -0.00036475289380177855, -0.0003512807306833565, -0.0003378085675649345, -0.0003243364335503429, -0.0003108642704319209, -0.00029739210731349885, -0.0002839199441950768, -0.0002704477810766548, -0.00025697561795823276, -0.00024350345483981073, -0.0002300312917213887, -0.00021655912860296667, -0.00020308696548454463, -0.0001896148023661226, -0.00017614263924770057, -0.00016267049068119377, -0.00014919832756277174, -0.0001357261644443497, -0.00012225400132592767, -0.00010878183820750564, -9.530967508908361e-05, -8.18375192466192e-05, -6.836535612819716e-05, -5.489319300977513e-05, -4.142103352933191e-05, -2.794887222989928e-05, -1.4476740034297109e-05, -1.0045787348644808e-06, 1.2467582564568147e-05, 2.5939743864000775e-05, 3.94119051634334e-05, 5.2884068281855434e-05, 6.635622412431985e-05, 7.982838724274188e-05, 9.330055036116391e-05, 0.00010677271347958595, 0.00012024487659800798, 0.00013371703971643, 0.0001471891882829368, 0.00016066135140135884, 0.00017413351451978087, 0.0001876056776382029, 0.00020107784075662494, 0.00021455000387504697, 0.000228022166993469, 0.00024149433011189103, 0.00025496649323031306, 0.0002684386563487351, 0.0002819108194671571, 0.00029538298258557916, 0.0003088551457040012, 0.00032232727971859276, 0.0003357994428370148, 0.0003492716059554368, 0.00036274376907385886, 0.0003762159321922809, 0.0003896880953107029, 0.00040316025842912495, 0.000416632421547547]}, "gradients/linearlayers.3.0.weight": {"_type": "histogram", "values": [1.0, 1.0, 1.0, 1.0, 2.0, 1.0, 2.0, 2.0, 5.0, 7.0, 8.0, 15.0, 20.0, 26.0, 29.0, 38.0, 45.0, 78.0, 106.0, 137.0, 170.0, 196.0, 250.0, 349.0, 410.0, 484.0, 555.0, 705.0, 730.0, 897.0, 1315.0, 2103.0, 4288.0, 42411.0, 2331.0, 1561.0, 1166.0, 913.0, 710.0, 652.0, 579.0, 458.0, 403.0, 320.0, 300.0, 208.0, 140.0, 118.0, 94.0, 58.0, 35.0, 34.0, 24.0, 12.0, 10.0, 6.0, 6.0, 4.0, 1.0, 3.0, 0.0, 0.0, 0.0, 2.0], "bins": [-0.0008515322697348893, -0.0008258151356130838, -0.0008000979432836175, -0.0007743808091618121, -0.0007486636168323457, -0.0007229464827105403, -0.000697229290381074, -0.0006715121562592685, -0.0006457950221374631, -0.0006200778298079967, -0.0005943606956861913, -0.000568643503356725, -0.0005429263692349195, -0.0005172091769054532, -0.0004914920427836478, -0.0004657748795580119, -0.000440057716332376, -0.0004143405531067401, -0.00038862338988110423, -0.00036290622665546834, -0.00033718906342983246, -0.00031147192930802703, -0.00028575476608239114, -0.00026003760285675526, -0.00023432043963111937, -0.00020860327640548348, -0.0001828861131798476, -0.00015716896450612694, -0.00013145180128049105, -0.00010573463805485517, -8.00174821051769e-05, -5.430032251751982e-05, -2.8583162929862738e-05, -2.8660033422056586e-06, 2.285115624545142e-05, 4.85683158331085e-05, 7.428547542076558e-05, 0.00010000263864640146, 0.00012571978732012212, 0.000151436950545758, 0.0001771541137713939, 0.00020287127699702978, 0.00022858844022266567, 0.00025430560344830155, 0.000280022737570107, 0.00030573990079574287, 0.00033145706402137876, 0.00035717422724701464, 0.00038289139047265053, 0.0004086085536982864, 0.0004343257169239223, 0.0004600428801495582, 0.00048576004337519407, 0.0005114771774969995, 0.0005371943698264658, 0.0005629115039482713, 0.0005886286962777376, 0.000614345830399543, 0.0006400629645213485, 0.0006657801568508148, 0.0006914972909726202, 0.0007172144833020866, 0.000742931617423892, 0.0007686488097533584, 0.0007943659438751638]}, "gradients/linearlayers.2.0.bias": {"_type": "histogram", "values": [1.0, 0.0, 0.0, 0.0, 0.0, 1.0, 1.0, 0.0, 0.0, 1.0, 3.0, 3.0, 3.0, 1.0, 2.0, 1.0, 4.0, 3.0, 5.0, 3.0, 4.0, 3.0, 8.0, 4.0, 0.0, 3.0, 5.0, 4.0, 1.0, 4.0, 0.0, 8.0, 4.0, 3.0, 84.0, 3.0, 5.0, 2.0, 6.0, 4.0, 7.0, 5.0, 3.0, 4.0, 8.0, 3.0, 7.0, 5.0, 2.0, 2.0, 1.0, 2.0, 4.0, 3.0, 3.0, 1.0, 4.0, 2.0, 0.0, 2.0, 0.0, 0.0, 0.0, 1.0], "bins": [-0.00068824173649773, -0.0006680648657493293, -0.0006478879367932677, -0.000627711066044867, -0.0006075341370888054, -0.0005873572663404047, -0.0005671803373843431, -0.0005470034666359425, -0.0005268265376798809, -0.0005066496669314802, -0.000486472767079249, -0.0004662958672270179, -0.00044611896737478673, -0.0004259420675225556, -0.00040576516767032444, -0.0003855882678180933, -0.00036541136796586215, -0.000345234468113631, -0.00032505756826139987, -0.0003048806684091687, -0.0002847037685569376, -0.00026452686870470643, -0.0002443499688524753, -0.00022417308355215937, -0.00020399618369992822, -0.00018381928384769708, -0.00016364238399546593, -0.0001434654841432348, -0.00012328859884291887, -0.00010311169171473011, -8.293479913845658e-05, -6.275789928622544e-05, -4.258099943399429e-05, -2.2404101400752552e-05, -2.2272033675108105e-06, 1.794969466573093e-05, 3.812659269897267e-05, 5.830349255120382e-05, 7.848038512747735e-05, 9.865728497970849e-05, 0.00011883418483193964, 0.00013901108468417078, 0.00015918798453640193, 0.00017936488438863307, 0.000199541769688949, 0.00021971866954118013, 0.00023989556939341128, 0.0002600724692456424, 0.00028024936909787357, 0.0003004262689501047, 0.00032060316880233586, 0.000340780068654567, 0.00036095696850679815, 0.0003811338683590293, 0.00040131076821126044, 0.0004214876680634916, 0.00044166453881189227, 0.0004618414386641234, 0.00048201833851635456, 0.0005021952674724162, 0.0005223721382208169, 0.0005425490671768785, 0.0005627259379252791, 0.0005829028668813407, 0.0006030797376297414]}, "gradients/linearlayers.2.0.weight": {"_type": "histogram", "values": [1.0, 0.0, 0.0, 0.0, 1.0, 3.0, 1.0, 1.0, 3.0, 2.0, 7.0, 8.0, 14.0, 11.0, 15.0, 27.0, 36.0, 49.0, 47.0, 80.0, 91.0, 133.0, 160.0, 191.0, 275.0, 368.0, 442.0, 535.0, 682.0, 881.0, 1071.0, 1408.0, 2052.0, 3832.0, 42209.0, 2952.0, 1978.0, 1430.0, 1105.0, 806.0, 591.0, 497.0, 377.0, 281.0, 214.0, 151.0, 120.0, 101.0, 80.0, 57.0, 46.0, 33.0, 26.0, 20.0, 11.0, 7.0, 5.0, 6.0, 1.0, 4.0, 0.0, 0.0, 0.0, 1.0], "bins": [-0.0014301108894869685, -0.001388360047712922, -0.0013466092059388757, -0.0013048583641648293, -0.001263107405975461, -0.0012213565642014146, -0.0011796057224273682, -0.0011378548806533217, -0.0010961040388792753, -0.001054353197105229, -0.0010126023553311825, -0.0009708514553494751, -0.0009291006135754287, -0.0008873497718013823, -0.000845598871819675, -0.0008038480300456285, -0.0007620971882715821, -0.0007203463464975357, -0.0006785955047234893, -0.000636844604741782, -0.0005950937629677355, -0.0005533429211936891, -0.0005115920212119818, -0.00046984117943793535, -0.00042809033766388893, -0.0003863394958898425, -0.00034458862501196563, -0.00030283775413408875, -0.00026108691236004233, -0.00021933605603408068, -0.00017758519970811903, -0.00013583434338215739, -9.408360347151756e-05, -5.2332747145555913e-05, -1.0581890819594264e-05, 3.1168965506367385e-05, 7.291982183232903e-05, 0.00011467067815829068, 0.00015642153448425233, 0.00019817239081021398, 0.00023992324713617563, 0.00028167408891022205, 0.00032342495978809893, 0.0003651758306659758, 0.00040692667244002223, 0.00044867751421406865, 0.000490428414195776, 0.0005321792559698224, 0.0005739300977438688, 0.0006156809395179152, 0.0006574317812919617, 0.000699182681273669, 0.0007409335230477154, 0.0007826843648217618, 0.0008244352648034692, 0.0008661861065775156, 0.000907936948351562, 0.0009496877901256084, 0.0009914386318996549, 0.0010331894736737013, 0.0010749404318630695, 0.001116691273637116, 0.0011584421154111624, 0.0012001929571852088, 0.0012419437989592552]}, "gradients/linearlayers.1.0.bias": {"_type": "histogram", "values": [1.0, 0.0, 0.0, 0.0, 0.0, 0.0, 0.0, 0.0, 0.0, 0.0, 0.0, 1.0, 4.0, 1.0, 2.0, 5.0, 2.0, 1.0, 2.0, 3.0, 2.0, 3.0, 5.0, 1.0, 1.0, 2.0, 9.0, 5.0, 5.0, 6.0, 4.0, 7.0, 5.0, 6.0, 3.0, 3.0, 84.0, 5.0, 6.0, 5.0, 4.0, 4.0, 4.0, 2.0, 4.0, 2.0, 7.0, 5.0, 1.0, 6.0, 4.0, 3.0, 3.0, 3.0, 2.0, 1.0, 0.0, 3.0, 2.0, 2.0, 1.0, 1.0, 0.0, 3.0], "bins": [-0.0010877052554860711, -0.001057952642440796, -0.0010281999129801989, -0.0009984472999349236, -0.0009686946286819875, -0.0009389420156367123, -0.0009091893443837762, -0.0008794366731308401, -0.0008496840018779039, -0.0008199313888326287, -0.0007901787175796926, -0.0007604260463267565, -0.0007306734332814813, -0.0007009207620285451, -0.000671168090775609, -0.0006414154777303338, -0.0006116628064773977, -0.0005819101352244616, -0.0005521575221791863, -0.0005224048509262502, -0.0004926521796733141, -0.0004628995375242084, -0.00043314689537510276, -0.00040339422412216663, -0.00037364158197306097, -0.0003438889398239553, -0.00031413626857101917, -0.0002843836264219135, -0.00025463098427280784, -0.0002248783130198717, -0.00019512567087076604, -0.00016537301416974515, -0.00013562041567638516, -0.00010586775897536427, -7.611510955030099e-05, -4.6362456487258896e-05, -1.6609803424216807e-05, 1.3142849638825282e-05, 4.289550270186737e-05, 7.264815212693065e-05, 0.00010240080882795155, 0.00013215346552897245, 0.00016190612222999334, 0.000191658764379099, 0.0002214114210801199, 0.0002511640777811408, 0.00028091671993024647, 0.0003106693911831826, 0.00034042203333228827, 0.00037017467548139393, 0.00039992734673433006, 0.0004296799888834357, 0.00045943266013637185, 0.0004891852731816471, 0.0005189379444345832, 0.0005486906156875193, 0.0005784432869404554, 0.0006081958999857306, 0.0006379485712386668, 0.0006677012424916029, 0.0006974538555368781, 0.0007272065267898142, 0.0007569591980427504, 0.0007867118110880256, 0.0008164644823409617]}, "gradients/linearlayers.1.0.weight": {"_type": "histogram", "values": [1.0, 0.0, 1.0, 0.0, 1.0, 0.0, 0.0, 0.0, 0.0, 1.0, 3.0, 6.0, 5.0, 5.0, 9.0, 9.0, 11.0, 19.0, 22.0, 33.0, 35.0, 68.0, 75.0, 92.0, 125.0, 183.0, 227.0, 244.0, 318.0, 452.0, 593.0, 834.0, 1129.0, 1667.0, 2751.0, 4667.0, 42072.0, 3176.0, 1855.0, 1224.0, 870.0, 664.0, 482.0, 408.0, 262.0, 224.0, 176.0, 145.0, 98.0, 72.0, 67.0, 44.0, 28.0, 20.0, 15.0, 17.0, 9.0, 7.0, 2.0, 2.0, 4.0, 4.0, 0.0, 3.0], "bins": [-0.002281750785186887, -0.0022189251612871885, -0.002156099770218134, -0.0020932741463184357, -0.002030448755249381, -0.001967623131349683, -0.0019047976238653064, -0.00184197211638093, -0.0017791464924812317, -0.0017163209849968553, -0.0016534954775124788, -0.0015906699700281024, -0.001527844462543726, -0.0014650189550593495, -0.0014021933311596513, -0.0013393678236752748, -0.0012765423161908984, -0.001213716808706522, -0.0011508913012221456, -0.0010880656773224473, -0.0010252401698380709, -0.0009624146623536944, -0.000899589154869318, -0.0008367635891772807, -0.0007739380816929042, -0.0007111125742085278, -0.0006482870085164905, -0.000585461501032114, -0.0005226359935477376, -0.00045981042785570025, -0.0003969849203713238, -0.00033415938378311694, -0.0002713339636102319, -0.000208508427022025, -0.00014568290498573333, -8.285737567348406e-05, -2.0031846361234784e-05, 4.279368295101449e-05, 0.00010561921226326376, 0.00016844473429955542, 0.0002312702708877623, 0.0002940958074759692, 0.0003569213440641761, 0.0004197468515485525, 0.0004825723881367594, 0.0005453979247249663, 0.0006082234322093427, 0.0006710489979013801, 0.0007338745053857565, 0.0007967000128701329, 0.0008595255785621703, 0.0009223510860465467, 0.000985176651738584, 0.0010480021592229605, 0.001110827666707337, 0.0011736531741917133, 0.0012364787980914116, 0.001299304305575788, 0.0013621298130601645, 0.0014249553205445409, 0.0014877808280289173, 0.0015506063355132937, 0.001613431959412992, 0.0016762574668973684, 0.0017390829743817449]}, "gradients/linearlayers.0.0.bias": {"_type": "histogram", "values": [1.0, 0.0, 0.0, 0.0, 0.0, 0.0, 0.0, 0.0, 0.0, 1.0, 0.0, 1.0, 0.0, 0.0, 2.0, 4.0, 0.0, 1.0, 3.0, 0.0, 2.0, 5.0, 2.0, 4.0, 4.0, 6.0, 5.0, 5.0, 1.0, 2.0, 0.0, 5.0, 4.0, 1.0, 5.0, 8.0, 13.0, 78.0, 6.0, 9.0, 9.0, 2.0, 7.0, 7.0, 7.0, 8.0, 4.0, 1.0, 8.0, 2.0, 5.0, 2.0, 4.0, 2.0, 0.0, 0.0, 1.0, 4.0, 2.0, 2.0, 0.0, 0.0, 0.0, 1.0], "bins": [-0.0016203603008762002, -0.0015771163161844015, -0.0015338723314926028, -0.0014906283468008041, -0.0014473842456936836, -0.001404140261001885, -0.0013608962763100863, -0.0013176522916182876, -0.0012744083069264889, -0.0012311643222346902, -0.0011879203375428915, -0.0011446763528510928, -0.0011014323681592941, -0.0010581882670521736, -0.001014944282360375, -0.0009717002976685762, -0.0009284563129767776, -0.0008852123282849789, -0.0008419683435931802, -0.0007987243006937206, -0.0007554803160019219, -0.0007122363313101232, -0.0006689922884106636, -0.0006257483037188649, -0.0005825043190270662, -0.0005392603343352675, -0.0004960163496434689, -0.00045277230674400926, -0.00040952832205221057, -0.0003662843373604119, -0.00032304032356478274, -0.0002797963097691536, -0.00023655220866203308, -0.00019330820941831917, -0.00015006421017460525, -0.00010682021093089134, -6.357621168717742e-05, -2.0332212443463504e-05, 2.291178680025041e-05, 6.615578604396433e-05, 0.00010939978528767824, 0.00015264378453139216, 0.00019588778377510607, 0.00023913178301882, 0.0002823757822625339, 0.0003256197669543326, 0.00036886378074996173, 0.0004121077945455909, 0.00045535177923738956, 0.0004985957639291883, 0.0005418397486209869, 0.0005850837915204465, 0.0006283277762122452, 0.0006715717609040439, 0.0007148158038035035, 0.0007580597884953022, 0.0008013037731871009, 0.0008445477578788996, 0.0008877917425706983, 0.0009310357854701579, 0.0009742797701619565, 0.0010175238130614161, 0.0010607677977532148, 0.0011040117824450135, 0.0011472557671368122]}, "gradients/linearlayers.0.0.weight": {"_type": "histogram", "values": [2.0, 1.0, 1.0, 0.0, 0.0, 1.0, 0.0, 1.0, 2.0, 4.0, 3.0, 7.0, 4.0, 4.0, 9.0, 10.0, 15.0, 14.0, 28.0, 29.0, 43.0, 41.0, 56.0, 75.0, 91.0, 148.0, 174.0, 223.0, 284.0, 378.0, 442.0, 619.0, 788.0, 1012.0, 1392.0, 2440.0, 5618.0, 39643.0, 4438.0, 2318.0, 1510.0, 989.0, 740.0, 516.0, 371.0, 255.0, 203.0, 164.0, 112.0, 74.0, 56.0, 58.0, 37.0, 24.0, 13.0, 12.0, 16.0, 14.0, 4.0, 4.0, 2.0, 1.0, 1.0, 2.0], "bins": [-0.0029368812683969736, -0.002858145860955119, -0.002779410220682621, -0.0027006748132407665, -0.0026219391729682684, -0.002543203765526414, -0.002464468125253916, -0.0023857327178120613, -0.002306997310370207, -0.0022282616700977087, -0.0021495262626558542, -0.002070790622383356, -0.0019920552149415016, -0.0019133196910843253, -0.001834584167227149, -0.0017558486433699727, -0.0016771131195127964, -0.00159837759565562, -0.0015196420717984438, -0.0014409065479412675, -0.0013621710240840912, -0.0012834356166422367, -0.0012047000927850604, -0.001125964568927884, -0.0010472290450707078, -0.0009684935212135315, -0.0008897579973563552, -0.0008110225317068398, -0.0007322870078496635, -0.0006535514839924872, -0.0005748160183429718, -0.0004960804944857955, -0.00041734473779797554, -0.00033860921394079924, -0.0002598737191874534, -0.00018113820988219231, -0.00010240270057693124, -2.3667191271670163e-05, 5.506831803359091e-05, 0.000133803827338852, 0.00021253933664411306, 0.00029127486050128937, 0.0003700103552546352, 0.00044874585000798106, 0.0005274813738651574, 0.0006062168977223337, 0.0006849523633718491, 0.0007636878872290254, 0.0008424234110862017, 0.000921158934943378, 0.0009998944588005543, 0.0010786299826577306, 0.0011573655065149069, 0.0012361009139567614, 0.0013148364378139377, 0.001393571961671114, 0.0014723074855282903, 0.0015510430093854666, 0.0016297785332426429, 0.0017085140570998192, 0.0017872494645416737, 0.00186598498839885, 0.0019447205122560263, 0.0020234561525285244, 0.002102191559970379]}, "gradients/embeds.2.bias": {"_type": "histogram", "values": [2.0, 1.0, 1.0, 2.0, 4.0, 1.0, 1.0, 0.0, 3.0, 1.0, 4.0, 4.0, 5.0, 3.0, 4.0, 2.0, 6.0, 3.0, 5.0, 0.0, 1.0, 5.0, 1.0, 4.0, 8.0, 7.0, 8.0, 6.0, 7.0, 52.0, 7.0, 5.0, 7.0, 5.0, 9.0, 5.0, 3.0, 7.0, 3.0, 7.0, 6.0, 0.0, 0.0, 2.0, 4.0, 5.0, 3.0, 3.0, 1.0, 4.0, 1.0, 1.0, 2.0, 1.0, 2.0, 3.0, 0.0, 1.0, 3.0, 2.0, 1.0, 1.0, 0.0, 1.0], "bins": [-0.001263002515770495, -0.0012205507373437285, -0.0011780989589169621, -0.0011356472969055176, -0.0010931955184787512, -0.0010507437400519848, -0.0010082919616252184, -0.0009658402414061129, -0.0009233884629793465, -0.0008809366845525801, -0.0008384849643334746, -0.0007960331859067082, -0.0007535814074799418, -0.0007111296872608364, -0.00066867790883407, -0.0006262261886149645, -0.0005837744101881981, -0.0005413226317614317, -0.0004988709115423262, -0.0004564191331155598, -0.0004139673837926239, -0.00037151563446968794, -0.00032906385604292154, -0.0002866121067199856, -0.00024416035739704967, -0.00020170860807411373, -0.00015925684419926256, -0.000116805087600369, -7.435333100147545e-05, -3.19015744025819e-05, 1.0550182196311653e-05, 5.3001938795205206e-05, 9.545357897877693e-05, 0.00013790532830171287, 0.00018035709217656404, 0.0002228088560514152, 0.00026526060537435114, 0.0003077123546972871, 0.0003501641331240535, 0.0003926158824469894, 0.00043506763176992536, 0.0004775193810928613, 0.0005199711304157972, 0.0005624229088425636, 0.00060487468726933, 0.0006473264074884355, 0.0006897781859152019, 0.0007322299061343074, 0.0007746816845610738, 0.0008171334629878402, 0.0008595851832069457, 0.000902036961633712, 0.0009444886818528175, 0.000986940460279584, 0.0010293922387063503, 0.0010718440171331167, 0.0011142957955598831, 0.0011567474575713277, 0.001199199235998094, 0.0012416510144248605, 0.0012841027928516269, 0.0013265545712783933, 0.0013690062332898378, 0.0014114580117166042, 0.0014539097901433706]}, "gradients/embeds.2.weight": {"_type": "histogram", "values": [1.0, 2.0, 0.0, 4.0, 2.0, 5.0, 0.0, 11.0, 12.0, 13.0, 29.0, 31.0, 55.0, 57.0, 106.0, 128.0, 170.0, 204.0, 275.0, 421.0, 541.0, 721.0, 959.0, 1287.0, 1738.0, 2382.0, 3320.0, 5079.0, 8535.0, 68600.0, 14440.0, 6743.0, 4189.0, 2798.0, 1981.0, 1460.0, 1075.0, 873.0, 639.0, 514.0, 396.0, 292.0, 226.0, 163.0, 144.0, 112.0, 86.0, 76.0, 41.0, 43.0, 27.0, 16.0, 16.0, 10.0, 5.0, 8.0, 0.0, 5.0, 3.0, 1.0, 0.0, 1.0, 0.0, 1.0], "bins": [-0.0022381639573723078, -0.002163057215511799, -0.0020879502408206463, -0.0020128434989601374, -0.0019377367570996284, -0.0018626300152391195, -0.0017875231569632888, -0.001712416298687458, -0.0016373095568269491, -0.0015622028149664402, -0.0014870959566906095, -0.0014119890984147787, -0.0013368823565542698, -0.0012617756146937609, -0.0011866687564179301, -0.0011115618981420994, -0.0010364551562815905, -0.0009613483562134206, -0.0008862415561452508, -0.000811134756077081, -0.0007360279560089111, -0.0006609211559407413, -0.0005858143558725715, -0.0005107075558044016, -0.0004356007557362318, -0.00036049395566806197, -0.00028538715559989214, -0.0002102803555317223, -0.00013517355546355247, -6.006675539538264e-05, 1.504004467278719e-05, 9.014684474095702e-05, 0.0001652534119784832, 0.00024036021204665303, 0.00031546701211482286, 0.0003905738121829927, 0.00046568061225116253, 0.0005407874123193324, 0.0006158942123875022, 0.000691001012455672, 0.0007661078125238419, 0.0008412146125920117, 0.0009163214126601815, 0.0009914282709360123, 0.0010665350127965212, 0.00114164175465703, 0.0012167486129328609, 0.0012918554712086916, 0.0013669622130692005, 0.0014420689549297094, 0.0015171758132055402, 0.001592282671481371, 0.0016673894133418798, 0.0017424961552023888, 0.0018176030134782195, 0.0018927098717540503, 0.001967816613614559, 0.002042923355475068, 0.002118030097335577, 0.0021931370720267296, 0.0022682438138872385, 0.0023433505557477474, 0.0024184575304389, 0.002493564272299409, 0.002568671014159918]}, "gradients/embeds.0.bias": {"_type": "histogram", "values": [1.0, 0.0, 2.0, 0.0, 0.0, 0.0, 1.0, 0.0, 1.0, 4.0, 3.0, 3.0, 4.0, 4.0, 2.0, 6.0, 9.0, 6.0, 7.0, 7.0, 10.0, 11.0, 11.0, 10.0, 14.0, 13.0, 13.0, 19.0, 18.0, 20.0, 105.0, 18.0, 22.0, 16.0, 18.0, 21.0, 14.0, 7.0, 14.0, 12.0, 5.0, 5.0, 9.0, 9.0, 4.0, 8.0, 1.0, 5.0, 5.0, 1.0, 1.0, 2.0, 2.0, 1.0, 3.0, 1.0, 1.0, 0.0, 1.0, 0.0, 1.0, 0.0, 0.0, 1.0], "bins": [-0.0016323947347700596, -0.001578470692038536, -0.0015245466493070126, -0.001470622606575489, -0.0014166985638439655, -0.0013627744046971202, -0.0013088503619655967, -0.0012549263192340732, -0.0012010022765025496, -0.0011470782337710261, -0.0010931541910395026, -0.001039230148307979, -0.0009853059891611338, -0.0009313820046372712, -0.0008774579036980867, -0.0008235338609665632, -0.0007696098182350397, -0.0007156857755035162, -0.0006617617327719927, -0.0006078376318328083, -0.0005539135891012847, -0.0004999895463697612, -0.00044606547453440726, -0.0003921414026990533, -0.0003382173599675298, -0.00028429331723600626, -0.0002303692454006523, -0.00017644518811721355, -0.0001225211308337748, -6.859707355033606e-05, -1.467301626689732e-05, 3.925104101654142e-05, 9.317521471530199e-05, 0.00014709927199874073, 0.00020102332928217947, 0.00025494740111753345, 0.00030887144384905696, 0.0003627954865805805, 0.00041671955841593444, 0.0004706436302512884, 0.0005245676729828119, 0.0005784917157143354, 0.000632415758445859, 0.0006863398593850434, 0.0007402639021165669, 0.0007941879448480904, 0.0008481120457872748, 0.0009020360885187984, 0.0009559601312503219, 0.0010098841739818454, 0.001063808216713369, 0.0011177322594448924, 0.0011716564185917377, 0.0012255804613232613, 0.0012795045040547848, 0.0013334285467863083, 0.0013873525895178318, 0.0014412766322493553, 0.0014952006749808788, 0.0015491247177124023, 0.0016030487604439259, 0.0016569729195907712, 0.0017108969623222947, 0.0017648210050538182, 0.0018187450477853417]}, "gradients/embeds.0.weight": {"_type": "histogram", "values": [1.0, 0.0, 1.0, 1.0, 0.0, 0.0, 1.0, 0.0, 2.0, 1.0, 2.0, 0.0, 3.0, 4.0, 6.0, 8.0, 12.0, 14.0, 14.0, 23.0, 22.0, 35.0, 45.0, 60.0, 88.0, 93.0, 144.0, 308.0, 1194.0, 6440.0, 44995.0, 297851.0, 34766.0, 5266.0, 1007.0, 244.0, 130.0, 100.0, 73.0, 64.0, 49.0, 38.0, 20.0, 19.0, 14.0, 13.0, 9.0, 5.0, 2.0, 6.0, 4.0, 5.0, 1.0, 1.0, 5.0, 1.0, 1.0, 1.0, 2.0, 0.0, 0.0, 1.0, 0.0, 1.0], "bins": [-0.01529083400964737, -0.014804492704570293, -0.014318150468170643, -0.013831809163093567, -0.013345466926693916, -0.01285912562161684, -0.012372784316539764, -0.011886442080140114, -0.011400100775063038, -0.010913758538663387, -0.010427417233586311, -0.009941075928509235, -0.009454733692109585, -0.008968392387032509, -0.008482050150632858, -0.007995708845555782, -0.007509367074817419, -0.007023025304079056, -0.0065366835333406925, -0.0060503422282636166, -0.005564000457525253, -0.00507765868678689, -0.004591316916048527, -0.0041049751453101635, -0.003618633607402444, -0.0031322918366640806, -0.002645950298756361, -0.0021596085280179977, -0.0016732668736949563, -0.0011869252193719149, -0.0007005835068412125, -0.00021424182341434062, 0.0002720998600125313, 0.0007584415143355727, 0.0012447831686586142, 0.0017311249393969774, 0.002217466477304697, 0.0027038082480430603, 0.0031901500187814236, 0.003676491556689143, 0.004162833094596863, 0.004649174865335226, 0.005135516636073589, 0.005621858406811953, 0.006108200177550316, 0.006594541948288679, 0.007080883253365755, 0.007567225024104118, 0.008053567260503769, 0.008539908565580845, 0.00902624987065792, 0.009512592107057571, 0.009998933412134647, 0.010485275648534298, 0.010971616953611374, 0.01145795825868845, 0.0119443004950881, 0.012430641800165176, 0.012916984036564827, 0.013403325341641903, 0.013889666646718979, 0.01437600888311863, 0.014862350188195705, 0.015348692424595356, 0.015835033729672432]}, "_wandb": {"runtime": 400}}