{"num_of_examples": 400, "train_loss": 0.19248250126838684, "_timestamp": 1716369836.4374049, "_runtime": 164.96765279769897, "_step": 343, "num_of_test_examples": 0, "test_loss": 0.005534310340881348, "epoch": 42, "val-auc": 0.7953692115143931, "gradients/output.bias": {"_type": "histogram", "values": [1.0, 0.0, 0.0, 0.0, 0.0, 0.0, 0.0, 0.0, 0.0, 0.0, 0.0, 0.0, 0.0, 0.0, 0.0, 0.0, 0.0, 0.0, 0.0, 0.0, 0.0, 0.0, 0.0, 0.0, 0.0, 0.0, 0.0, 0.0, 0.0, 0.0, 0.0, 0.0, 0.0, 0.0, 0.0, 0.0, 0.0, 0.0, 0.0, 0.0, 0.0, 0.0, 0.0, 0.0, 0.0, 0.0, 0.0, 0.0, 0.0, 0.0, 0.0, 0.0, 0.0, 0.0, 0.0, 0.0, 0.0, 0.0, 0.0, 0.0, 0.0, 0.0, 0.0, 1.0], "bins": [-4.205666482448578e-05, -4.0742386772762984e-05, -3.942810872104019e-05, -3.8113830669317394e-05, -3.67995526175946e-05, -3.5485274565871805e-05, -3.417099651414901e-05, -3.2856718462426215e-05, -3.154244041070342e-05, -3.0228162358980626e-05, -2.891388430725783e-05, -2.7599606255535036e-05, -2.628532820381224e-05, -2.4971050152089447e-05, -2.3656772100366652e-05, -2.2342494048643857e-05, -2.1028215996921062e-05, -1.9713937945198268e-05, -1.8399659893475473e-05, -1.7085381841752678e-05, -1.5771103790029883e-05, -1.4456825738307089e-05, -1.3142547686584294e-05, -1.1828269634861499e-05, -1.0513991583138704e-05, -9.19971353141591e-06, -7.885435479693115e-06, -6.57115742797032e-06, -5.256879376247525e-06, -3.9426013245247304e-06, -2.6283232728019357e-06, -1.314045221079141e-06, 2.3283064365386963e-10, 1.3145108823664486e-06, 2.6287889340892434e-06, 3.943066985812038e-06, 5.257345037534833e-06, 6.571623089257628e-06, 7.885901140980422e-06, 9.200179192703217e-06, 1.0514457244426012e-05, 1.1828735296148807e-05, 1.3143013347871602e-05, 1.4457291399594396e-05, 1.577156945131719e-05, 1.7085847503039986e-05, 1.840012555476278e-05, 1.9714403606485575e-05, 2.102868165820837e-05, 2.2342959709931165e-05, 2.365723776165396e-05, 2.4971515813376755e-05, 2.628579386509955e-05, 2.7600071916822344e-05, 2.891434996854514e-05, 3.0228628020267934e-05, 3.154290607199073e-05, 3.285718412371352e-05, 3.417146217543632e-05, 3.548574022715911e-05, 3.680001827888191e-05, 3.81142963306047e-05, 3.94285743823275e-05, 4.074285243405029e-05, 4.2057130485773087e-05]}, "gradients/output.weight": {"_type": "histogram", "values": [1.0, 0.0, 1.0, 1.0, 2.0, 0.0, 1.0, 2.0, 2.0, 4.0, 3.0, 2.0, 11.0, 6.0, 9.0, 19.0, 7.0, 9.0, 8.0, 12.0, 15.0, 13.0, 11.0, 5.0, 9.0, 3.0, 2.0, 3.0, 3.0, 3.0, 2.0, 5.0, 169.0, 2.0, 3.0, 3.0, 3.0, 2.0, 3.0, 9.0, 5.0, 11.0, 13.0, 15.0, 12.0, 8.0, 9.0, 7.0, 19.0, 9.0, 6.0, 11.0, 2.0, 3.0, 4.0, 2.0, 2.0, 1.0, 0.0, 2.0, 1.0, 1.0, 0.0, 1.0], "bins": [-0.008507450111210346, -0.008241591975092888, -0.007975734770298004, -0.007709876634180546, -0.007444018963724375, -0.007178160827606916, -0.006912303157150745, -0.006646445486694574, -0.006380587816238403, -0.006114729680120945, -0.005848872009664774, -0.005583014339208603, -0.0053171562030911446, -0.0050512985326349735, -0.0047854408621788025, -0.004519582726061344, -0.004253725055605173, -0.003987867385149002, -0.0037220094818621874, -0.0034561515785753727, -0.0031902939081192017, -0.002924436004832387, -0.0026585781015455723, -0.0023927204310894012, -0.0021268625278025866, -0.0018610047409310937, -0.0015951469540596008, -0.0013292890507727861, -0.0010634312639012933, -0.0007975734770298004, -0.0005317156319506466, -0.0002658578159753233, 0.0, 0.0002658578159753233, 0.0005317156319506466, 0.0007975734770298004, 0.0010634312639012933, 0.0013292890507727861, 0.0015951469540596008, 0.0018610047409310937, 0.0021268625278025866, 0.0023927204310894012, 0.0026585781015455723, 0.002924436004832387, 0.0031902939081192017, 0.0034561515785753727, 0.0037220094818621874, 0.003987867385149002, 0.004253725055605173, 0.004519582726061344, 0.0047854408621788025, 0.0050512985326349735, 0.0053171562030911446, 0.005583014339208603, 0.005848872009664774, 0.006114729680120945, 0.006380587816238403, 0.006646445486694574, 0.006912303157150745, 0.007178160827606916, 0.007444018963724375, 0.007709876634180546, 0.007975734770298004, 0.008241591975092888, 0.008507450111210346]}, "gradients/linearlayers.4.0.bias": {"_type": "histogram", "values": [1.0, 0.0, 0.0, 0.0, 0.0, 0.0, 0.0, 0.0, 0.0, 0.0, 0.0, 0.0, 2.0, 0.0, 0.0, 0.0, 0.0, 0.0, 1.0, 2.0, 2.0, 2.0, 2.0, 2.0, 3.0, 2.0, 5.0, 6.0, 11.0, 25.0, 36.0, 126.0, 4.0, 1.0, 1.0, 3.0, 3.0, 1.0, 1.0, 1.0, 1.0, 2.0, 1.0, 1.0, 4.0, 1.0, 0.0, 0.0, 0.0, 0.0, 0.0, 1.0, 0.0, 0.0, 0.0, 0.0, 1.0, 0.0, 0.0, 0.0, 0.0, 0.0, 0.0, 1.0], "bins": [-0.000549013027921319, -0.000531463825609535, -0.0005139146815054119, -0.0004963654791936278, -0.00047881630598567426, -0.0004612671327777207, -0.0004437179595697671, -0.00042616878636181355, -0.0004086195840500295, -0.00039107041084207594, -0.00037352123763412237, -0.0003559720644261688, -0.00033842289121821523, -0.00032087371801026165, -0.0003033245156984776, -0.00028577534249052405, -0.0002682261692825705, -0.0002506769960746169, -0.0002331278083147481, -0.00021557863510679454, -0.00019802944734692574, -0.00018048027413897216, -0.0001629311009310186, -0.0001453819131711498, -0.00012783273996319622, -0.00011028355947928503, -9.273437899537385e-05, -7.518520578742027e-05, -5.7636025303509086e-05, -4.00868448195979e-05, -2.253766797366552e-05, -4.988489308743738e-06, 1.2560689356178045e-05, 3.0109868021099828e-05, 4.765904668602161e-05, 6.520822353195399e-05, 8.275740401586518e-05, 0.00010030658449977636, 0.00011785575770772994, 0.00013540494546759874, 0.0001529541186755523, 0.00017050329188350588, 0.00018805247964337468, 0.00020560165285132825, 0.00022315082605928183, 0.00024070001381915063, 0.00025824920157901943, 0.000275798374786973, 0.00029334754799492657, 0.00031089672120288014, 0.0003284458944108337, 0.00034599509672261775, 0.0003635442699305713, 0.0003810934431385249, 0.00039864261634647846, 0.00041619178955443203, 0.0004337409627623856, 0.00045129016507416964, 0.0004688393382821232, 0.0004863885114900768, 0.0005039377138018608, 0.0005214868579059839, 0.000539036060217768, 0.0005565852043218911, 0.0005741344066336751]}, "gradients/linearlayers.4.0.weight": {"_type": "histogram", "values": [1.0, 0.0, 0.0, 0.0, 0.0, 2.0, 2.0, 0.0, 2.0, 3.0, 4.0, 4.0, 10.0, 20.0, 37.0, 54.0, 87.0, 155.0, 215.0, 335.0, 461.0, 739.0, 942.0, 1369.0, 2148.0, 3175.0, 4923.0, 41151.0, 3157.0, 1988.0, 1377.0, 999.0, 638.0, 466.0, 322.0, 216.0, 140.0, 113.0, 74.0, 54.0, 35.0, 30.0, 18.0, 13.0, 9.0, 16.0, 5.0, 8.0, 2.0, 5.0, 0.0, 1.0, 2.0, 3.0, 4.0, 0.0, 0.0, 1.0, 0.0, 0.0, 0.0, 0.0, 0.0, 1.0], "bins": [-0.0012584347277879715, -0.0012121677864342928, -0.001165900961495936, -0.0011196340201422572, -0.0010733671952039003, -0.0010271002538502216, -0.0009808334289118648, -0.0009345664875581861, -0.0008882996044121683, -0.0008420327212661505, -0.0007957658381201327, -0.0007494989549741149, -0.0007032320136204362, -0.0006569651304744184, -0.0006106982473284006, -0.0005644313641823828, -0.000518164481036365, -0.00047189759789034724, -0.00042563071474432945, -0.0003793638024944812, -0.0003330969193484634, -0.0002868300362024456, -0.0002405631385045126, -0.0001942962408065796, -0.0001480293576605618, -0.0001017624672385864, -5.549557681661099e-05, -9.228686394635588e-06, 3.7038204027339816e-05, 8.330509444931522e-05, 0.00012957198487129062, 0.00017583888256922364, 0.00022210588213056326, 0.00026837276527658105, 0.00031463964842259884, 0.0003609065606724471, 0.0004071734438184649, 0.00045344032696448267, 0.0004997072392143309, 0.0005459741223603487, 0.0005922410055063665, 0.0006385078886523843, 0.0006847747717984021, 0.0007310416549444199, 0.0007773085962980986, 0.0008235754794441164, 0.0008698423625901341, 0.0009161092457361519, 0.0009623761288821697, 0.0010086430702358484, 0.0010549098951742053, 0.001101176836527884, 0.0011474436614662409, 0.0011937106028199196, 0.0012399774277582765, 0.0012862443691119552, 0.001332511194050312, 0.0013787781354039907, 0.0014250450767576694, 0.0014713119016960263, 0.001517578843049705, 0.001563845667988062, 0.0016101126093417406, 0.0016563794342800975, 0.0017026463756337762]}, "gradients/linearlayers.3.0.bias": {"_type": "histogram", "values": [1.0, 0.0, 0.0, 1.0, 0.0, 0.0, 0.0, 0.0, 0.0, 0.0, 0.0, 0.0, 0.0, 0.0, 1.0, 0.0, 0.0, 0.0, 0.0, 0.0, 2.0, 0.0, 1.0, 0.0, 0.0, 0.0, 1.0, 3.0, 2.0, 4.0, 9.0, 16.0, 14.0, 16.0, 16.0, 100.0, 16.0, 8.0, 10.0, 4.0, 7.0, 4.0, 6.0, 2.0, 2.0, 1.0, 0.0, 1.0, 1.0, 0.0, 0.0, 0.0, 1.0, 0.0, 2.0, 1.0, 0.0, 0.0, 1.0, 1.0, 0.0, 0.0, 0.0, 1.0], "bins": [-0.001057359972037375, -0.0010276190005242825, -0.0009978779125958681, -0.0009681368828751147, -0.0009383959113620222, -0.0009086548816412687, -0.0008789138519205153, -0.0008491728221997619, -0.0008194317924790084, -0.000789690762758255, -0.0007599497912451625, -0.0007302087615244091, -0.0007004677318036556, -0.0006707267020829022, -0.0006409856723621488, -0.0006112446426413953, -0.0005815036129206419, -0.0005517626414075494, -0.000522021611686796, -0.0004922805819660425, -0.0004625395522452891, -0.0004327985516283661, -0.0004030575219076127, -0.00037331649218685925, -0.0003435754915699363, -0.00031383446184918284, -0.0002840934321284294, -0.000254352402407676, -0.000224611401790753, -0.00019487037206999958, -0.00016512935690116137, -0.00013538832718040794, -0.00010564731201156974, -7.590628956677392e-05, -4.616527075995691e-05, -1.6424250134150498e-05, 1.3316770491655916e-05, 4.305779293645173e-05, 7.279880810528994e-05, 0.00010253983055008575, 0.00013228085299488157, 0.00016202186816371977, 0.0001917628978844732, 0.0002215039130533114, 0.0002512449282221496, 0.00028098595794290304, 0.0003107269876636565, 0.00034046798828057945, 0.0003702090180013329, 0.0003999500477220863, 0.0004296910483390093, 0.0004594320780597627, 0.0004891731077805161, 0.0005189141375012696, 0.000548655167222023, 0.0005783961387351155, 0.000608137168455869, 0.0006378781981766224, 0.0006676192278973758, 0.0006973602576181293, 0.0007271012873388827, 0.0007568422588519752, 0.0007865832885727286, 0.0008163243182934821, 0.0008460653480142355]}, "gradients/linearlayers.3.0.weight": {"_type": "histogram", "values": [1.0, 0.0, 1.0, 0.0, 2.0, 1.0, 1.0, 2.0, 2.0, 1.0, 4.0, 1.0, 5.0, 6.0, 6.0, 2.0, 11.0, 15.0, 16.0, 23.0, 39.0, 72.0, 78.0, 154.0, 194.0, 334.0, 448.0, 709.0, 1037.0, 1554.0, 2100.0, 2995.0, 4229.0, 39466.0, 3774.0, 2412.0, 1667.0, 1182.0, 872.0, 567.0, 395.0, 295.0, 196.0, 166.0, 117.0, 89.0, 63.0, 60.0, 37.0, 32.0, 28.0, 9.0, 13.0, 15.0, 11.0, 8.0, 2.0, 4.0, 2.0, 4.0, 2.0, 1.0, 0.0, 4.0], "bins": [-0.0019366972846910357, -0.0018786825239658356, -0.0018206676468253136, -0.0017626528861001134, -0.0017046380089595914, -0.0016466232482343912, -0.0015886083710938692, -0.001530593610368669, -0.001472578733228147, -0.0014145639725029469, -0.0013565490953624249, -0.0012985343346372247, -0.0012405194574967027, -0.0011825046967715025, -0.0011244898196309805, -0.0010664750589057803, -0.0010084602981805801, -0.0009504454210400581, -0.000892430602107197, -0.000834415783174336, -0.0007764009642414749, -0.0007183861453086138, -0.0006603713263757527, -0.0006023565074428916, -0.0005443417467176914, -0.0004863268986809999, -0.0004283120797481388, -0.0003702972608152777, -0.00031228247098624706, -0.000254267652053386, -0.00019625283312052488, -0.0001382380141876638, -8.02231952548027e-05, -2.220837995992042e-05, 3.580643533496186e-05, 9.382124699186534e-05, 0.00015183606592472643, 0.00020985088485758752, 0.0002678656892385334, 0.00032588050817139447, 0.00038389532710425556, 0.00044191014603711665, 0.0004999249358661473, 0.0005579397547990084, 0.0006159545737318695, 0.0006739693926647305, 0.0007319842115975916, 0.0007899990305304527, 0.0008480138494633138, 0.0009060286683961749, 0.000964043487329036, 0.001022058306261897, 0.0010800730669870973, 0.0011380879441276193, 0.0011961027048528194, 0.0012541175819933414, 0.0013121323427185416, 0.0013701472198590636, 0.0014281619805842638, 0.0014861768577247858, 0.001544191618449986, 0.001602206495590508, 0.0016602212563157082, 0.0017182361334562302, 0.0017762508941814303]}, "gradients/linearlayers.2.0.bias": {"_type": "histogram", "values": [1.0, 0.0, 0.0, 0.0, 0.0, 0.0, 0.0, 0.0, 0.0, 0.0, 0.0, 1.0, 0.0, 0.0, 1.0, 0.0, 1.0, 0.0, 0.0, 0.0, 2.0, 2.0, 0.0, 2.0, 1.0, 1.0, 0.0, 1.0, 3.0, 3.0, 7.0, 11.0, 8.0, 7.0, 4.0, 17.0, 18.0, 11.0, 83.0, 10.0, 11.0, 7.0, 11.0, 11.0, 3.0, 3.0, 2.0, 3.0, 3.0, 1.0, 2.0, 0.0, 0.0, 1.0, 0.0, 0.0, 0.0, 0.0, 0.0, 0.0, 0.0, 0.0, 1.0, 2.0], "bins": [-0.0016533422749489546, -0.0016101655783131719, -0.0015669888816773891, -0.0015238123014569283, -0.0014806356048211455, -0.0014374589081853628, -0.00139428221154958, -0.0013511055149137974, -0.0013079289346933365, -0.0012647522380575538, -0.001221575541421771, -0.0011783988447859883, -0.0011352221481502056, -0.001092045451514423, -0.001048868871293962, -0.0010056921746581793, -0.0009625154780223966, -0.0009193387813866138, -0.000876162142958492, -0.0008329854463227093, -0.0007898088078945875, -0.0007466321112588048, -0.0007034554146230221, -0.0006602787761949003, -0.0006171020795591176, -0.0005739253829233348, -0.000530748744495213, -0.0004875720478594303, -0.00044439538032747805, -0.0004012187127955258, -0.00035804201615974307, -0.0003148653486277908, -0.0002716885646805167, -0.00022851189714856446, -0.00018533521506469697, -0.00014215853298082948, -9.898186544887722e-05, -5.580519064096734e-05, -1.2628515833057463e-05, 3.054815897485241e-05, 7.372483378276229e-05, 0.00011690150859067217, 0.00016007818339858204, 0.00020325486548244953, 0.0002464315330144018, 0.00028960820054635406, 0.0003327848971821368, 0.00037596156471408904, 0.0004191382322460413, 0.00046231489977799356, 0.0005054915673099458, 0.0005486682639457285, 0.0005918449023738503, 0.0006350215990096331, 0.0006781982956454158, 0.0007213749340735376, 0.0007645516307093203, 0.000807728327345103, 0.0008509049657732248, 0.0008940816624090075, 0.0009372583590447903, 0.000980435055680573, 0.0010236116359010339, 0.0010667883325368166, 0.0011099650291725993]}, "gradients/linearlayers.2.0.weight": {"_type": "histogram", "values": [1.0, 2.0, 1.0, 1.0, 1.0, 2.0, 2.0, 4.0, 5.0, 7.0, 10.0, 5.0, 7.0, 16.0, 15.0, 17.0, 35.0, 41.0, 45.0, 66.0, 98.0, 108.0, 146.0, 236.0, 328.0, 439.0, 627.0, 848.0, 1195.0, 1691.0, 2603.0, 3684.0, 36953.0, 6394.0, 3265.0, 2052.0, 1357.0, 961.0, 647.0, 429.0, 327.0, 245.0, 161.0, 112.0, 76.0, 60.0, 44.0, 38.0, 29.0, 24.0, 20.0, 17.0, 9.0, 10.0, 4.0, 4.0, 4.0, 3.0, 2.0, 1.0, 1.0, 0.0, 0.0, 1.0], "bins": [-0.002681449754163623, -0.002599999075755477, -0.002518548397347331, -0.002437097718939185, -0.0023556470405310392, -0.0022741963621228933, -0.0021927456837147474, -0.0021112950053066015, -0.002029844094067812, -0.0019483935320749879, -0.001866942853666842, -0.001785492175258696, -0.0017040413804352283, -0.0016225907020270824, -0.0015411400236189365, -0.0014596893452107906, -0.0013782386668026447, -0.0012967879883944988, -0.001215337309986353, -0.001133886631578207, -0.0010524359531700611, -0.0009709852165542543, -0.0008895344799384475, -0.0008080838015303016, -0.0007266331231221557, -0.0006451824447140098, -0.0005637317663058639, -0.00048228102969005704, -0.00040083035128191113, -0.00031937967287376523, -0.00023792896536178887, -0.00015647827240172774, -7.502781227231026e-05, 6.422880687750876e-06, 8.787357364781201e-05, 0.00016932426660787314, 0.0002507749595679343, 0.0003322256379760802, 0.00041367634548805654, 0.0004951270530000329, 0.0005765777314081788, 0.0006580284098163247, 0.0007394790882244706, 0.0008209298248402774, 0.0009023805032484233, 0.0009838312398642302, 0.001065281918272376, 0.001146732596680522, 0.0012281832750886679, 0.0013096339534968138, 0.0013910846319049597, 0.0014725353103131056, 0.0015539859887212515, 0.0016354367835447192, 0.0017168874619528651, 0.001798338140361011, 0.001879788818769157, 0.0019612396135926247, 0.0020426902920007706, 0.0021241409704089165, 0.0022055916488170624, 0.0022870423272252083, 0.002368493005633354, 0.0024499436840415, 0.002531394362449646]}, "gradients/linearlayers.1.0.bias": {"_type": "histogram", "values": [1.0, 0.0, 0.0, 0.0, 0.0, 0.0, 0.0, 0.0, 0.0, 0.0, 0.0, 1.0, 0.0, 0.0, 0.0, 0.0, 0.0, 0.0, 0.0, 1.0, 0.0, 0.0, 0.0, 0.0, 0.0, 1.0, 1.0, 2.0, 1.0, 2.0, 1.0, 5.0, 6.0, 8.0, 4.0, 8.0, 11.0, 14.0, 22.0, 85.0, 12.0, 14.0, 10.0, 10.0, 7.0, 5.0, 9.0, 1.0, 2.0, 2.0, 0.0, 0.0, 1.0, 2.0, 1.0, 0.0, 5.0, 0.0, 0.0, 0.0, 0.0, 0.0, 0.0, 1.0], "bins": [-0.0035412139259278774, -0.0034524935763329268, -0.003363773226737976, -0.003275053109973669, -0.0031863327603787184, -0.0030976124107837677, -0.003008892061188817, -0.00292017194442451, -0.0028314515948295593, -0.0027427312452346087, -0.002654010895639658, -0.0025652905460447073, -0.0024765704292804003, -0.0023878500796854496, -0.002299129730090499, -0.0022104093804955482, -0.0021216892637312412, -0.0020329689141362906, -0.0019442485645413399, -0.0018555282149463892, -0.0017668079817667603, -0.0016780876321718097, -0.0015893673989921808, -0.0015006470493972301, -0.0014119266998022795, -0.0013232064666226506, -0.0012344861170277, -0.001145765883848071, -0.0010570455342531204, -0.0009683252428658307, -0.0008796049514785409, -0.0007908846600912511, -0.0007021643687039614, -0.0006134440773166716, -0.0005247237859293818, -0.00043600346543826163, -0.00034728317405097187, -0.0002585628826636821, -0.0001698425767244771, -8.112227806122974e-05, 7.598020602017641e-06, 9.631831926526502e-05, 0.0001850386179285124, 0.0002737589238677174, 0.00036247921525500715, 0.0004511995066422969, 0.0005399198271334171, 0.0006286401185207069, 0.0007173604099079967, 0.0008060807012952864, 0.0008948009926825762, 0.0009835213422775269, 0.0010722415754571557, 0.0011609619250521064, 0.0012496821582317352, 0.001338402507826686, 0.0014271228574216366, 0.0015158430906012654, 0.001604563440196216, 0.001693283673375845, 0.0017820040229707956, 0.0018707242561504245, 0.0019594444893300533, 0.002048164838925004, 0.0021368851885199547]}, "gradients/linearlayers.1.0.weight": {"_type": "histogram", "values": [1.0, 1.0, 0.0, 1.0, 1.0, 2.0, 2.0, 2.0, 5.0, 6.0, 3.0, 5.0, 12.0, 15.0, 10.0, 8.0, 16.0, 30.0, 32.0, 51.0, 66.0, 72.0, 91.0, 128.0, 191.0, 233.0, 338.0, 595.0, 831.0, 1273.0, 1994.0, 2938.0, 5255.0, 38906.0, 4901.0, 2668.0, 1550.0, 980.0, 664.0, 467.0, 320.0, 207.0, 145.0, 107.0, 104.0, 94.0, 51.0, 43.0, 40.0, 26.0, 10.0, 12.0, 14.0, 6.0, 0.0, 1.0, 4.0, 1.0, 2.0, 2.0, 1.0, 1.0, 0.0, 1.0], "bins": [-0.005005498416721821, -0.004855774808675051, -0.004706051200628281, -0.004556327126920223, -0.004406603518873453, -0.004256879910826683, -0.004107155837118626, -0.0039574322290718555, -0.0038077086210250854, -0.0036579850129783154, -0.0035082611721009016, -0.003358537331223488, -0.0032088137231767178, -0.0030590901151299477, -0.002909366274252534, -0.00275964243337512, -0.00260991882532835, -0.00246019521728158, -0.0023104713764041662, -0.0021607475355267525, -0.0020110239274799824, -0.0018613002030178905, -0.0017115764785557985, -0.0015618527540937066, -0.0014121290296316147, -0.0012624053051695228, -0.0011126815807074308, -0.0009629578562453389, -0.000813234131783247, -0.0006635104073211551, -0.0005137866828590631, -0.0003640629583969712, -0.000214338768273592, -6.461504381150007e-05, 8.510868065059185e-05, 0.00023483240511268377, 0.0003845561295747757, 0.0005342798540368676, 0.0006840035784989595, 0.0008337273029610515, 0.0009834510274231434, 0.0011331747518852353, 0.0012828984763473272, 0.0014326222008094192, 0.001582345925271511, 0.001732069649733603, 0.001881793374195695, 0.0020315172150731087, 0.0021812408231198788, 0.002330964431166649, 0.0024806882720440626, 0.0026304121129214764, 0.0027801357209682465, 0.0029298593290150166, 0.0030795831698924303, 0.003229307010769844, 0.003379030618816614, 0.0035287542268633842, 0.003678478067740798, 0.0038282019086182117, 0.003977925516664982, 0.004127649124711752, 0.004277372732758522, 0.0044270968064665794, 0.0045768204145133495]}, "gradients/linearlayers.0.0.bias": {"_type": "histogram", "values": [2.0, 1.0, 0.0, 1.0, 0.0, 0.0, 1.0, 0.0, 0.0, 0.0, 0.0, 2.0, 2.0, 0.0, 1.0, 3.0, 0.0, 3.0, 3.0, 1.0, 7.0, 1.0, 6.0, 5.0, 7.0, 9.0, 8.0, 11.0, 8.0, 10.0, 70.0, 13.0, 8.0, 10.0, 11.0, 7.0, 4.0, 5.0, 6.0, 3.0, 0.0, 3.0, 3.0, 2.0, 1.0, 2.0, 3.0, 2.0, 3.0, 1.0, 0.0, 0.0, 3.0, 0.0, 0.0, 0.0, 1.0, 1.0, 1.0, 0.0, 0.0, 0.0, 0.0, 1.0], "bins": [-0.002740111667662859, -0.002650909125804901, -0.0025617065839469433, -0.0024725040420889854, -0.0023833015002310276, -0.002294098725542426, -0.0022048961836844683, -0.0021156936418265104, -0.0020264910999685526, -0.0019372885581105947, -0.001848086016252637, -0.0017588833579793572, -0.0016696808161213994, -0.0015804782742634416, -0.001491275615990162, -0.001402073074132204, -0.0013128705322742462, -0.0012236679904162884, -0.0011344654485583305, -0.0010452627902850509, -0.000956060248427093, -0.0008668577065691352, -0.0007776551065035164, -0.0006884525064378977, -0.0005992499645799398, -0.000510047422721982, -0.00042084482265636325, -0.00033164225169457495, -0.00024243968073278666, -0.00015323710977099836, -6.403453880921006e-05, 2.5168032152578235e-05, 0.00011437060311436653, 0.00020357317407615483, 0.0002927757450379431, 0.0003819783159997314, 0.0004711808869615197, 0.0005603834288194776, 0.0006495860288850963, 0.0007387886289507151, 0.0008279911708086729, 0.0009171937126666307, 0.0010063962545245886, 0.0010955989127978683, 0.001184801454655826, 0.001274003996513784, 0.0013632066547870636, 0.0014524091966450214, 0.0015416117385029793, 0.0016308142803609371, 0.001720016822218895, 0.0018092194804921746, 0.0018984220223501325, 0.001987624680623412, 0.00207682722248137, 0.002166029764339328, 0.0022552323061972857, 0.0023444348480552435, 0.0024336373899132013, 0.002522839931771159, 0.0026120427064597607, 0.0027012452483177185, 0.0027904477901756763, 0.002879650332033634, 0.002968852873891592]}, "gradients/linearlayers.0.0.weight": {"_type": "histogram", "values": [1.0, 0.0, 0.0, 1.0, 1.0, 0.0, 2.0, 0.0, 2.0, 3.0, 6.0, 8.0, 7.0, 5.0, 19.0, 18.0, 37.0, 30.0, 51.0, 72.0, 71.0, 121.0, 152.0, 183.0, 309.0, 387.0, 564.0, 761.0, 1056.0, 1687.0, 2468.0, 4248.0, 36173.0, 6885.0, 3343.0, 2015.0, 1387.0, 948.0, 666.0, 480.0, 337.0, 257.0, 196.0, 142.0, 115.0, 76.0, 52.0, 51.0, 35.0, 28.0, 19.0, 16.0, 8.0, 12.0, 6.0, 4.0, 4.0, 4.0, 4.0, 0.0, 1.0, 1.0, 0.0, 1.0], "bins": [-0.006816431879997253, -0.006608730647712946, -0.0064010294154286385, -0.006193328183144331, -0.005985626485198736, -0.005777925252914429, -0.005570224020630121, -0.005362522788345814, -0.005154821556061506, -0.004947120323777199, -0.004739418625831604, -0.0045317173935472965, -0.004324016161262989, -0.0041163149289786816, -0.003908613696694374, -0.003700912231579423, -0.0034932109992951155, -0.003285509767010808, -0.003077808301895857, -0.0028701070696115494, -0.002662405837327242, -0.0024547043722122908, -0.0022470031399279833, -0.002039301907643676, -0.0018316005589440465, -0.0016238992102444172, -0.0014161979779601097, -0.0012084966292604804, -0.001000795280560851, -0.0007930940482765436, -0.0005853926995769143, -0.0003776914090849459, -0.00016999011859297752, 3.77111864509061e-05, 0.0002454124914947897, 0.00045311381109058857, 0.000660815101582557, 0.0008685163920745254, 0.0010762177407741547, 0.0012839189730584621, 0.0014916203217580914, 0.0016993216704577208, 0.0019070229027420282, 0.0021147241350263357, 0.002322425600141287, 0.0025301268324255943, 0.002737828064709902, 0.002945529529824853, 0.0031532307621091604, 0.003360931994393468, 0.003568633459508419, 0.0037763346917927265, 0.003984035924077034, 0.0041917371563613415, 0.004399438388645649, 0.004607140086591244, 0.004814841318875551, 0.005022542551159859, 0.005230243783444166, 0.005437945015728474, 0.005645646248012781, 0.005853347945958376, 0.006061049178242683, 0.006268750410526991, 0.006476451642811298]}, "gradients/embeds.2.bias": {"_type": "histogram", "values": [2.0, 0.0, 0.0, 0.0, 0.0, 0.0, 0.0, 0.0, 0.0, 0.0, 0.0, 1.0, 0.0, 0.0, 2.0, 3.0, 0.0, 2.0, 1.0, 4.0, 1.0, 3.0, 3.0, 4.0, 4.0, 3.0, 6.0, 7.0, 10.0, 9.0, 10.0, 8.0, 12.0, 55.0, 9.0, 7.0, 11.0, 6.0, 10.0, 9.0, 10.0, 6.0, 4.0, 3.0, 7.0, 3.0, 1.0, 1.0, 4.0, 0.0, 0.0, 1.0, 1.0, 2.0, 1.0, 0.0, 1.0, 0.0, 1.0, 2.0, 2.0, 0.0, 3.0, 1.0], "bins": [-0.00430281413719058, -0.0041750650852918625, -0.004047316499054432, -0.003919567447155714, -0.00379181862808764, -0.0036640698090195656, -0.0035363207571208477, -0.0034085719380527735, -0.0032808231189846992, -0.003153074299916625, -0.003025325480848551, -0.002897576428949833, -0.0027698276098817587, -0.0026420787908136845, -0.0025143297389149666, -0.0023865809198468924, -0.002258832100778818, -0.002131083281710744, -0.0020033344626426697, -0.0018755854107439518, -0.0017478365916758776, -0.0016200877726078033, -0.0014923388371244073, -0.0013645899016410112, -0.001236841082572937, -0.0011090922635048628, -0.0009813433280214667, -0.0008535944507457316, -0.0007258455734699965, -0.0005980966961942613, -0.00047034781891852617, -0.00034259894164279103, -0.00021484959870576859, -8.710072143003345e-05, 4.0648155845701694e-05, 0.00016839703312143683, 0.000296145910397172, 0.0004238947876729071, 0.0005516436649486423, 0.0006793925422243774, 0.0008071414195001125, 0.0009348902967758477, 0.0010626391740515828, 0.0011903881095349789, 0.001318136928603053, 0.0014458857476711273, 0.0015736346831545234, 0.0017013836186379194, 0.0018291324377059937, 0.001956881256774068, 0.002084630075842142, 0.00221237912774086, 0.002340127946808934, 0.0024678767658770084, 0.0025956258177757263, 0.0027233746368438005, 0.0028511234559118748, 0.002978872274979949, 0.0031066210940480232, 0.003234370145946741, 0.0033621189650148153, 0.0034898677840828896, 0.0036176168359816074, 0.0037453656550496817, 0.003873114474117756]}, "gradients/embeds.2.weight": {"_type": "histogram", "values": [2.0, 0.0, 0.0, 1.0, 1.0, 4.0, 6.0, 4.0, 4.0, 11.0, 11.0, 20.0, 25.0, 39.0, 54.0, 60.0, 95.0, 154.0, 178.0, 246.0, 346.0, 519.0, 673.0, 946.0, 1429.0, 2162.0, 3053.0, 5036.0, 8523.0, 67423.0, 16558.0, 8431.0, 5042.0, 3120.0, 1959.0, 1349.0, 985.0, 682.0, 466.0, 361.0, 286.0, 174.0, 159.0, 111.0, 78.0, 61.0, 62.0, 32.0, 27.0, 32.0, 23.0, 12.0, 12.0, 10.0, 3.0, 1.0, 2.0, 5.0, 2.0, 1.0, 0.0, 0.0, 0.0, 1.0], "bins": [-0.00919179804623127, -0.008883713744580746, -0.008575629442930222, -0.008267546072602272, -0.007959461770951748, -0.007651377469301224, -0.007343293633311987, -0.007035209331661463, -0.006727125495672226, -0.006419041194021702, -0.006110956892371178, -0.005802873056381941, -0.005494788754731417, -0.00518670491874218, -0.004878620617091656, -0.004570536781102419, -0.004262452479451895, -0.003954368177801371, -0.003646284341812134, -0.0033382002729922533, -0.003030116204172373, -0.0027220319025218487, -0.002413947833701968, -0.0021058637648820877, -0.0017977796960622072, -0.0014896956272423267, -0.0011816115584224463, -0.0008735273731872439, -0.0005654433043673635, -0.0002573592064436525, 5.072489148005843e-05, 0.0003588089894037694, 0.0006668930873274803, 0.0009749771561473608, 0.0012830612249672413, 0.0015911454102024436, 0.001899229479022324, 0.0022073136642575264, 0.002515397733077407, 0.0028234818018972874, 0.003131565870717168, 0.0034396499395370483, 0.003747734008356929, 0.004055818077176809, 0.0043639023788273335, 0.00467198621481657, 0.004980070516467094, 0.005288154352456331, 0.005596238654106855, 0.0059043229557573795, 0.006212406791746616, 0.0065204910933971405, 0.006828574929386377, 0.0071366592310369015, 0.007444743067026138, 0.0077528273686766624, 0.008060911670327187, 0.00836899597197771, 0.00867707934230566, 0.008985163643956184, 0.009293247945606709, 0.009601332247257233, 0.009909415617585182, 0.010217499919235706, 0.01052558422088623]}, "gradients/embeds.0.bias": {"_type": "histogram", "values": [2.0, 0.0, 1.0, 0.0, 0.0, 1.0, 0.0, 0.0, 2.0, 0.0, 1.0, 1.0, 1.0, 2.0, 6.0, 1.0, 1.0, 1.0, 3.0, 4.0, 8.0, 3.0, 6.0, 5.0, 8.0, 17.0, 10.0, 17.0, 25.0, 26.0, 20.0, 36.0, 89.0, 27.0, 18.0, 28.0, 19.0, 17.0, 18.0, 13.0, 11.0, 11.0, 3.0, 10.0, 5.0, 9.0, 6.0, 2.0, 4.0, 3.0, 2.0, 0.0, 1.0, 1.0, 2.0, 0.0, 1.0, 0.0, 1.0, 1.0, 0.0, 1.0, 0.0, 1.0], "bins": [-0.005379185080528259, -0.005215709563344717, -0.005052234046161175, -0.0048887585289776325, -0.00472528301179409, -0.004561807960271835, -0.004398332443088293, -0.004234856925904751, -0.004071381408721209, -0.003907905891537666, -0.003744430374354124, -0.0035809550900012255, -0.0034174795728176832, -0.003254004055634141, -0.0030905287712812424, -0.0029270532540977, -0.002763577736914158, -0.0026001022197306156, -0.0024366267025470734, -0.0022731514181941748, -0.0021096759010106325, -0.0019462003838270903, -0.0017827249830588698, -0.0016192495822906494, -0.0014557740651071072, -0.001292298547923565, -0.0011288231471553445, -0.0009653476881794631, -0.0008018722292035818, -0.0006383967702277005, -0.00047492131125181913, -0.0003114458522759378, -0.00014797039330005646, 1.550506567582488e-05, 0.00017898052465170622, 0.00034245598362758756, 0.0005059314426034689, 0.0006694069015793502, 0.0008328823605552316, 0.000996357761323452, 0.0011598332785069942, 0.0013233087956905365, 0.001486784196458757, 0.0016502595972269773, 0.0018137351144105196, 0.001977210631594062, 0.0021406859159469604, 0.0023041614331305027, 0.002467636950314045, 0.002631112467497587, 0.0027945879846811295, 0.002958063269034028, 0.0031215387862175703, 0.0032850143034011126, 0.003448489587754011, 0.0036119651049375534, 0.0037754406221210957, 0.003938916139304638, 0.00410239165648818, 0.004265867173671722, 0.004429342225193977, 0.00459281774237752, 0.004756293259561062, 0.004919768776744604, 0.005083244293928146]}, "gradients/embeds.0.weight": {"_type": "histogram", "values": [1.0, 1.0, 0.0, 0.0, 0.0, 1.0, 1.0, 0.0, 1.0, 0.0, 2.0, 1.0, 2.0, 2.0, 2.0, 5.0, 3.0, 0.0, 5.0, 5.0, 7.0, 8.0, 7.0, 10.0, 17.0, 32.0, 41.0, 65.0, 100.0, 337.0, 2007.0, 15756.0, 259786.0, 103487.0, 9683.0, 1276.0, 276.0, 96.0, 44.0, 38.0, 24.0, 15.0, 19.0, 7.0, 10.0, 6.0, 8.0, 3.0, 7.0, 2.0, 2.0, 1.0, 0.0, 2.0, 0.0, 1.0, 1.0, 1.0, 1.0, 0.0, 0.0, 0.0, 0.0, 1.0], "bins": [-0.07505587488412857, -0.07277350127696991, -0.07049113512039185, -0.06820876151323318, -0.06592638790607452, -0.06364401429891586, -0.0613616444170475, -0.05907927453517914, -0.05679690092802048, -0.054514531046152115, -0.05223216116428375, -0.04994978755712509, -0.04766741767525673, -0.04538504406809807, -0.043102674186229706, -0.040820300579071045, -0.03853793069720268, -0.03625556081533432, -0.03397318720817566, -0.0316908173263073, -0.029408443719148636, -0.027126073837280273, -0.024843702092766762, -0.02256133034825325, -0.02027895860373974, -0.017996586859226227, -0.015714215114712715, -0.013431844301521778, -0.011149472557008266, -0.008867100812494755, -0.0065847295336425304, -0.004302358254790306, -0.0020199865102767944, 0.00026238500140607357, 0.0025447565130889416, 0.004827127791941166, 0.007109499536454678, 0.00939187128096819, 0.011674242094159126, 0.013956613838672638, 0.01623898558318615, 0.01852135732769966, 0.020803729072213173, 0.023086100816726685, 0.025368470698595047, 0.02765084244310856, 0.02993321418762207, 0.03221558779478073, 0.034497957676649094, 0.036780327558517456, 0.03906270116567612, 0.04134507104754448, 0.04362744465470314, 0.0459098145365715, 0.048192188143730164, 0.050474558025598526, 0.05275692790746689, 0.05503930151462555, 0.05732167139649391, 0.05960404500365257, 0.061886414885520935, 0.0641687884926796, 0.06645116209983826, 0.06873352825641632, 0.07101590186357498]}, "_wandb": {"runtime": 164}}