{"num_of_examples": 1440, "train_loss": 0.17644825279712678, "_timestamp": 1716347637.1304588, "_runtime": 452.255245923996, "_step": 818, "num_of_test_examples": 0, "test_loss": 0.004836865067481995, "epoch": 38, "val-auc": 0.9117258800521513, "gradients/output.bias": {"_type": "histogram", "values": [1.0, 0.0, 0.0, 0.0, 0.0, 0.0, 0.0, 0.0, 0.0, 0.0, 0.0, 0.0, 0.0, 0.0, 0.0, 0.0, 0.0, 0.0, 0.0, 0.0, 0.0, 0.0, 0.0, 0.0, 0.0, 0.0, 0.0, 0.0, 0.0, 0.0, 0.0, 0.0, 0.0, 0.0, 0.0, 0.0, 0.0, 0.0, 0.0, 0.0, 0.0, 0.0, 0.0, 0.0, 0.0, 0.0, 0.0, 0.0, 0.0, 0.0, 0.0, 0.0, 0.0, 0.0, 0.0, 0.0, 0.0, 0.0, 0.0, 0.0, 0.0, 0.0, 0.0, 1.0], "bins": [-0.009090141393244267, -0.008806074969470501, -0.00852200761437416, -0.008237941190600395, -0.007953873835504055, -0.0076698074117302895, -0.007385740522295237, -0.007101673632860184, -0.006817606743425131, -0.006533539853990078, -0.006249472964555025, -0.005965406075119972, -0.005681339651346207, -0.005397272761911154, -0.005113205872476101, -0.004829138983041048, -0.004545072093605995, -0.004261005204170942, -0.0039769383147358894, -0.0036928716581314802, -0.0034088047686964273, -0.0031247378792613745, -0.0028406712226569653, -0.0025566043332219124, -0.0022725374437868595, -0.0019884705543518066, -0.0017044037813320756, -0.0014203370083123446, -0.0011362701188772917, -0.0008522032876498997, -0.0005681364564225078, -0.0002840696251951158, -1.862645149230957e-09, 0.00028406496858224273, 0.0005681317998096347, 0.0008521986310370266, 0.0011362654622644186, 0.0014203323516994715, 0.0017043991247192025, 0.0019884658977389336, 0.0022725327871739864, 0.0025565996766090393, 0.002840666566044092, 0.0031247332226485014, 0.0034088001120835543, 0.003692867001518607, 0.003976933658123016, 0.004261000547558069, 0.004545067436993122, 0.004829134326428175, 0.005113201215863228, 0.005397268105298281, 0.005681334994733334, 0.005965401418507099, 0.006249468307942152, 0.006533535197377205, 0.006817602086812258, 0.007101668976247311, 0.0073857358656823635, 0.007669802755117416, 0.007953869178891182, 0.008237936533987522, 0.008522002957761288, 0.008806070312857628, 0.009090136736631393]}, "gradients/output.weight": {"_type": "histogram", "values": [1.0, 0.0, 0.0, 0.0, 0.0, 1.0, 0.0, 0.0, 1.0, 0.0, 0.0, 1.0, 1.0, 3.0, 1.0, 7.0, 3.0, 8.0, 11.0, 8.0, 15.0, 14.0, 14.0, 14.0, 12.0, 17.0, 15.0, 8.0, 8.0, 1.0, 1.0, 12.0, 170.0, 1.0, 1.0, 8.0, 8.0, 15.0, 17.0, 12.0, 14.0, 14.0, 14.0, 15.0, 8.0, 11.0, 8.0, 3.0, 7.0, 1.0, 3.0, 1.0, 1.0, 0.0, 0.0, 1.0, 0.0, 0.0, 1.0, 0.0, 0.0, 0.0, 0.0, 1.0], "bins": [-0.022325793281197548, -0.021628111600875854, -0.02093043178319931, -0.020232750102877617, -0.019535070285201073, -0.01883738860487938, -0.018139708787202835, -0.01744202710688114, -0.016744345426559448, -0.016046665608882904, -0.015348984859883785, -0.014651304110884666, -0.013953622430562973, -0.013255941681563854, -0.012558260932564735, -0.011860580183565617, -0.011162899434566498, -0.010465218685567379, -0.00976753793656826, -0.009069857187569141, -0.008372176438570023, -0.0076744952239096165, -0.00697681400924921, -0.0062791332602500916, -0.005581452511250973, -0.004883771762251854, -0.004186091013252735, -0.003488409798592329, -0.0027907290495932102, -0.0020930483005940914, -0.001395367318764329, -0.0006976864533498883, -7.450580596923828e-09, 0.0006976734148338437, 0.0013953542802482843, 0.002093035262078047, 0.0027907160110771656, 0.0034883967600762844, 0.0041860779747366905, 0.004883758723735809, 0.005581439472734928, 0.006279120221734047, 0.006976800970733166, 0.007674482185393572, 0.008372163400053978, 0.009069844149053097, 0.009767524898052216, 0.010465205647051334, 0.011162886396050453, 0.011860567145049572, 0.01255824789404869, 0.01325592864304781, 0.013953609392046928, 0.014651291072368622, 0.01534897182136774, 0.01604665257036686, 0.016744334250688553, 0.017442014068365097, 0.01813969574868679, 0.018837375566363335, 0.019535057246685028, 0.020232737064361572, 0.020930418744683266, 0.02162809856235981, 0.022325780242681503]}, "gradients/linearlayers.4.0.bias": {"_type": "histogram", "values": [1.0, 0.0, 0.0, 1.0, 1.0, 1.0, 1.0, 2.0, 1.0, 3.0, 4.0, 5.0, 2.0, 2.0, 3.0, 3.0, 1.0, 3.0, 4.0, 1.0, 8.0, 3.0, 2.0, 8.0, 1.0, 5.0, 3.0, 5.0, 5.0, 4.0, 1.0, 3.0, 1.0, 1.0, 91.0, 2.0, 1.0, 3.0, 1.0, 3.0, 7.0, 6.0, 4.0, 2.0, 5.0, 1.0, 1.0, 3.0, 4.0, 1.0, 4.0, 2.0, 1.0, 3.0, 6.0, 5.0, 3.0, 0.0, 2.0, 2.0, 0.0, 1.0, 2.0, 1.0], "bins": [-0.0013653731439262629, -0.0013256687670946121, -0.0012859645066782832, -0.0012462601298466325, -0.0012065558694303036, -0.0011668514925986528, -0.001127147115767002, -0.0010874428553506732, -0.0010477384785190225, -0.0010080341016873717, -0.0009683298412710428, -0.0009286254644393921, -0.0008889211458154023, -0.0008492168271914124, -0.0008095124503597617, -0.0007698081317357719, -0.0007301038131117821, -0.0006903994944877923, -0.0006506951758638024, -0.0006109907990321517, -0.0005712864804081619, -0.0005315821617841721, -0.0004918777849525213, -0.0004521734663285315, -0.0004124691477045417, -0.00037276482908055186, -0.0003330604813527316, -0.0002933561336249113, -0.0002536518150009215, -0.00021394748182501644, -0.0001742431486491114, -0.00013453881547320634, -9.483459871262312e-05, -5.513026553671807e-05, -1.542593236081302e-05, 2.4278400815092027e-05, 6.398273399099708e-05, 0.00010368706716690212, 0.00014339140034280717, 0.00018309573351871222, 0.00022280006669461727, 0.0002625043853186071, 0.00030220873304642737, 0.00034191308077424765, 0.00038161739939823747, 0.0004213217180222273, 0.00046102606575004756, 0.0005007304134778678, 0.0005404347321018577, 0.0005801390507258475, 0.0006198433693498373, 0.000659547746181488, 0.0006992520648054779, 0.0007389563834294677, 0.0007786607602611184, 0.0008183650788851082, 0.000858069397509098, 0.0008977737161330879, 0.0009374780347570777, 0.0009771824115887284, 0.0010168866720050573, 0.001056591048836708, 0.0010962954256683588, 0.0011359996860846877, 0.0011757040629163384]}, "gradients/linearlayers.4.0.weight": {"_type": "histogram", "values": [1.0, 1.0, 1.0, 2.0, 2.0, 4.0, 8.0, 9.0, 10.0, 16.0, 25.0, 35.0, 41.0, 55.0, 70.0, 90.0, 88.0, 109.0, 136.0, 136.0, 177.0, 232.0, 267.0, 360.0, 398.0, 492.0, 563.0, 674.0, 908.0, 1189.0, 1503.0, 1959.0, 2187.0, 2092.0, 40544.0, 2147.0, 1794.0, 1587.0, 1163.0, 873.0, 635.0, 523.0, 422.0, 375.0, 296.0, 258.0, 173.0, 175.0, 140.0, 128.0, 117.0, 83.0, 68.0, 61.0, 35.0, 34.0, 23.0, 11.0, 13.0, 8.0, 4.0, 2.0, 3.0, 1.0], "bins": [-0.0029872464947402477, -0.002900229999795556, -0.0028132135048508644, -0.0027261970099061728, -0.002639180514961481, -0.0025521640200167894, -0.0024651475250720978, -0.002378131030127406, -0.0022911145351827145, -0.002204098040238023, -0.002117081545293331, -0.0020300650503486395, -0.0019430485554039478, -0.0018560320604592562, -0.0017690155655145645, -0.0016819990705698729, -0.0015949825756251812, -0.0015079660806804895, -0.0014209495857357979, -0.0013339330907911062, -0.0012469165958464146, -0.001159900100901723, -0.0010728836059570312, -0.0009858671110123396, -0.0008988506160676479, -0.0008118341211229563, -0.0007248176261782646, -0.000637801131233573, -0.0005507846362888813, -0.00046376814134418964, -0.000376751646399498, -0.00028973515145480633, -0.00020271888934075832, -0.00011570239439606667, -2.8685899451375008e-05, 5.833059549331665e-05, 0.0001453470904380083, 0.00023236358538269997, 0.0003193800803273916, 0.0004063965752720833, 0.0004934130702167749, 0.0005804295651614666, 0.0006674460601061583, 0.0007544625550508499, 0.0008414790499955416, 0.0009284955449402332, 0.0010155120398849249, 0.0011025285348296165, 0.0011895450297743082, 0.0012765615247189999, 0.0013635780196636915, 0.0014505945146083832, 0.0015376110095530748, 0.0016246275044977665, 0.0017116439994424582, 0.0017986604943871498, 0.0018856769893318415, 0.001972693484276533, 0.002059709979221225, 0.0021467264741659164, 0.002233742969110608, 0.0023207594640552998, 0.0024077759589999914, 0.002494792453944683, 0.0025818089488893747]}, "gradients/linearlayers.3.0.bias": {"_type": "histogram", "values": [1.0, 2.0, 2.0, 0.0, 0.0, 2.0, 6.0, 5.0, 7.0, 5.0, 2.0, 1.0, 9.0, 3.0, 3.0, 3.0, 2.0, 3.0, 1.0, 3.0, 4.0, 3.0, 5.0, 2.0, 1.0, 2.0, 3.0, 2.0, 0.0, 101.0, 0.0, 2.0, 1.0, 3.0, 0.0, 1.0, 1.0, 2.0, 2.0, 1.0, 4.0, 3.0, 2.0, 4.0, 4.0, 9.0, 0.0, 6.0, 7.0, 2.0, 1.0, 5.0, 3.0, 4.0, 1.0, 3.0, 0.0, 0.0, 0.0, 0.0, 0.0, 0.0, 0.0, 2.0], "bins": [-0.0020072327461093664, -0.001939248526468873, -0.0018712643068283796, -0.001803280203603208, -0.0017352959839627147, -0.0016673117643222213, -0.0015993276610970497, -0.0015313434414565563, -0.001463359221816063, -0.0013953750021755695, -0.0013273907825350761, -0.0012594066793099046, -0.0011914224596694112, -0.0011234382400289178, -0.0010554541368037462, -0.0009874699171632528, -0.0009194856975227594, -0.000851501477882266, -0.0007835173164494336, -0.0007155331550166011, -0.0006475489353761077, -0.0005795647157356143, -0.0005115805543027818, -0.0004435963637661189, -0.00037561217322945595, -0.000307627982692793, -0.00023964379215613008, -0.00017165960161946714, -0.0001036754110828042, -3.569122054614127e-05, 3.229296999052167e-05, 0.0001002771605271846, 0.0001682615838944912, 0.00023624577443115413, 0.00030422996496781707, 0.00037221415550448, 0.00044019834604114294, 0.0005081825656816363, 0.0005761667271144688, 0.0006441508885473013, 0.0007121351081877947, 0.0007801193278282881, 0.0008481034892611206, 0.000916087650693953, 0.0009840718703344464, 0.0010520560899749398, 0.0011200401932001114, 0.0011880244128406048, 0.0012560086324810982, 0.0013239928521215916, 0.001391977071762085, 0.0014599611749872565, 0.00152794539462775, 0.0015959296142682433, 0.0016639137174934149, 0.0017318979371339083, 0.0017998821567744017, 0.001867866376414895, 0.0019358505960553885, 0.002003834815695882, 0.0020718188025057316, 0.002139803022146225, 0.0022077872417867184, 0.0022757714614272118, 0.002343755681067705]}, "gradients/linearlayers.3.0.weight": {"_type": "histogram", "values": [1.0, 3.0, 3.0, 1.0, 2.0, 2.0, 8.0, 14.0, 16.0, 16.0, 16.0, 18.0, 44.0, 47.0, 67.0, 106.0, 116.0, 151.0, 225.0, 230.0, 269.0, 376.0, 435.0, 615.0, 922.0, 1444.0, 2042.0, 2757.0, 2976.0, 40987.0, 2288.0, 2509.0, 1919.0, 1301.0, 884.0, 630.0, 412.0, 362.0, 304.0, 219.0, 190.0, 143.0, 122.0, 82.0, 57.0, 59.0, 30.0, 30.0, 20.0, 10.0, 14.0, 12.0, 8.0, 8.0, 5.0, 3.0, 2.0, 0.0, 0.0, 0.0, 0.0, 1.0, 1.0, 2.0], "bins": [-0.006473669782280922, -0.00625426322221756, -0.00603485619649291, -0.005815449636429548, -0.005596043076366186, -0.005376636516302824, -0.005157229490578175, -0.0049378229305148125, -0.00471841637045145, -0.004499009344726801, -0.004279602784663439, -0.004060196224600077, -0.003840789431706071, -0.0036213828716427088, -0.003401976078748703, -0.003182569518685341, -0.002963162725791335, -0.0027437559328973293, -0.002524349372833967, -0.0023049425799399614, -0.0020855360198765993, -0.0018661292269825935, -0.0016467225505039096, -0.0014273158740252256, -0.0012079091975465417, -0.0009885025210678577, -0.0007690958445891738, -0.0005496891099028289, -0.000330282433424145, -0.0001108757423935458, 0.00010853094863705337, 0.0003279376542195678, 0.0005473443306982517, 0.0007667510071769357, 0.0009861576836556196, 0.0012055643601343036, 0.0014249710366129875, 0.0016443778295069933, 0.0018637845059856772, 0.002083191182464361, 0.0023025977425277233, 0.002522004535421729, 0.002741411328315735, 0.002960817888379097, 0.0031802246812731028, 0.003399631241336465, 0.0036190380342304707, 0.0038384445942938328, 0.004057851620018482, 0.004277258180081844, 0.0044966647401452065, 0.004716071300208569, 0.004935478325933218, 0.00515488488599658, 0.005374291446059942, 0.005593698006123304, 0.005813105031847954, 0.006032511591911316, 0.006251918151974678, 0.0064713251776993275, 0.00669073173776269, 0.006910138297826052, 0.007129544857889414, 0.007348951883614063, 0.007568358443677425]}, "gradients/linearlayers.2.0.bias": {"_type": "histogram", "values": [2.0, 1.0, 0.0, 0.0, 2.0, 1.0, 2.0, 1.0, 0.0, 3.0, 1.0, 2.0, 3.0, 3.0, 2.0, 2.0, 4.0, 5.0, 4.0, 7.0, 3.0, 3.0, 3.0, 7.0, 4.0, 5.0, 4.0, 0.0, 0.0, 4.0, 2.0, 2.0, 2.0, 4.0, 88.0, 5.0, 2.0, 3.0, 2.0, 2.0, 3.0, 1.0, 8.0, 3.0, 2.0, 4.0, 7.0, 3.0, 4.0, 3.0, 2.0, 4.0, 3.0, 3.0, 3.0, 2.0, 4.0, 1.0, 1.0, 1.0, 2.0, 1.0, 0.0, 1.0], "bins": [-0.004157942719757557, -0.004037179984152317, -0.003916417248547077, -0.0037956545129418373, -0.0036748917773365974, -0.0035541290417313576, -0.0034333663061261177, -0.003312603570520878, -0.003191840834915638, -0.003071078099310398, -0.0029503153637051582, -0.0028295526280999184, -0.0027087898924946785, -0.0025880271568894386, -0.0024672644212841988, -0.002346501685678959, -0.002225738950073719, -0.002104976214468479, -0.0019842134788632393, -0.0018634507432579994, -0.0017426880076527596, -0.0016219252720475197, -0.0015011625364422798, -0.00138039980083704, -0.0012596370652318, -0.0011388743296265602, -0.0010181115940213203, -0.0008973488584160805, -0.0007765861228108406, -0.0006558233872056007, -0.0005350606516003609, -0.000414297915995121, -0.0002935349475592375, -0.0001727722119539976, -5.2009476348757744e-05, 6.875325925648212e-05, 0.000189515994861722, 0.00031027873046696186, 0.00043104146607220173, 0.0005518042016774416, 0.0006725669372826815, 0.0007933296728879213, 0.0009140924084931612, 0.001034855144098401, 0.001155617879703641, 0.0012763806153088808, 0.0013971433509141207, 0.0015179060865193605, 0.0016386688221246004, 0.0017594315577298403, 0.0018801942933350801, 0.00200095702894032, 0.00212171976454556, 0.0022424825001507998, 0.0023632452357560396, 0.0024840079713612795, 0.0026047707069665194, 0.0027255334425717592, 0.002846296178176999, 0.002967058913782239, 0.003087821649387479, 0.0032085843849927187, 0.0033293471205979586, 0.0034501098562031984, 0.0035708725918084383]}, "gradients/linearlayers.2.0.weight": {"_type": "histogram", "values": [2.0, 3.0, 2.0, 2.0, 4.0, 4.0, 6.0, 9.0, 6.0, 8.0, 11.0, 13.0, 13.0, 17.0, 29.0, 27.0, 30.0, 55.0, 63.0, 89.0, 114.0, 122.0, 175.0, 201.0, 300.0, 372.0, 499.0, 609.0, 761.0, 1051.0, 1334.0, 1693.0, 2190.0, 2255.0, 43035.0, 2384.0, 2049.0, 1510.0, 1093.0, 810.0, 629.0, 492.0, 364.0, 266.0, 218.0, 157.0, 111.0, 80.0, 57.0, 47.0, 35.0, 28.0, 23.0, 16.0, 17.0, 10.0, 10.0, 9.0, 4.0, 5.0, 4.0, 2.0, 1.0, 1.0], "bins": [-0.012771262787282467, -0.01240030862390995, -0.012029353529214859, -0.011658399365842342, -0.011287444271147251, -0.010916490107774734, -0.010545535013079643, -0.010174580849707127, -0.00980362668633461, -0.009432671591639519, -0.009061717428267002, -0.00869076233357191, -0.008319808170199394, -0.007948853075504303, -0.007577898912131786, -0.007206944283097982, -0.0068359896540641785, -0.0064650350250303745, -0.006094080395996571, -0.005723125766962767, -0.005352171137928963, -0.004981216974556446, -0.004610262345522642, -0.004239307716488838, -0.0038683530874550343, -0.0034973984584212303, -0.0031264438293874264, -0.002755489433184266, -0.002384534804150462, -0.002013580175116658, -0.001642625662498176, -0.001271671149879694, -0.0009007155895233154, -0.0005297610186971724, -0.00015880644787102938, 0.00021214812295511365, 0.0005831026937812567, 0.0009540572646073997, 0.0013250118354335427, 0.0016959663480520248, 0.0020669209770858288, 0.0024378756061196327, 0.0028088302351534367, 0.003179784631356597, 0.003550739260390401, 0.003921693656593561, 0.004292648285627365, 0.004663602914661169, 0.005034557543694973, 0.005405512172728777, 0.005776466801762581, 0.006147421430796385, 0.006518376059830189, 0.006889330223202705, 0.007260284852236509, 0.007631239481270313, 0.00800219364464283, 0.008373148739337921, 0.008744102902710438, 0.009115057997405529, 0.009486012160778046, 0.009856967255473137, 0.010227921418845654, 0.010598876513540745, 0.010969830676913261]}, "gradients/linearlayers.1.0.bias": {"_type": "histogram", "values": [1.0, 0.0, 0.0, 0.0, 2.0, 2.0, 1.0, 1.0, 1.0, 2.0, 1.0, 2.0, 5.0, 1.0, 3.0, 5.0, 4.0, 2.0, 2.0, 5.0, 4.0, 6.0, 5.0, 3.0, 5.0, 4.0, 2.0, 3.0, 3.0, 0.0, 3.0, 104.0, 1.0, 2.0, 4.0, 3.0, 1.0, 4.0, 6.0, 3.0, 4.0, 6.0, 4.0, 4.0, 7.0, 2.0, 2.0, 3.0, 4.0, 3.0, 2.0, 3.0, 2.0, 0.0, 0.0, 0.0, 1.0, 0.0, 2.0, 0.0, 0.0, 0.0, 0.0, 1.0], "bins": [-0.006712442263960838, -0.00649837963283062, -0.006284317467361689, -0.00607025483623147, -0.005856192205101252, -0.005642129573971033, -0.005428067408502102, -0.005214004777371883, -0.004999942146241665, -0.004785879980772734, -0.004571817349642515, -0.004357754718512297, -0.004143692087382078, -0.003929629921913147, -0.0037155672907829285, -0.00350150465965271, -0.003287442261353135, -0.0030733798630535603, -0.0028593172319233418, -0.002645254833623767, -0.0024311922024935484, -0.0022171298041939735, -0.002003067173063755, -0.0017890047747641802, -0.0015749422600492835, -0.0013608797453343868, -0.0011468172306194901, -0.0009327547741122544, -0.0007186922593973577, -0.000504629744682461, -0.0002905672590713948, -7.650475890841335e-05, 0.0001375577412545681, 0.0003516202559694648, 0.0005656827706843615, 0.0007797452271915972, 0.0009938078001141548, 0.0012078701984137297, 0.0014219327131286263, 0.001635995227843523, 0.0018500577425584197, 0.0020641202572733164, 0.0022781826555728912, 0.0024922452867031097, 0.0027063076850026846, 0.002920370316132903, 0.003134432714432478, 0.0033484953455626965, 0.0035625577438622713, 0.003776620142161846, 0.003990682773292065, 0.004204745404422283, 0.004418807569891214, 0.004632870201021433, 0.004846932832151651, 0.00506099546328187, 0.005275057628750801, 0.00548912025988102, 0.005703182891011238, 0.005917245056480169, 0.006131307687610388, 0.006345370318740606, 0.006559432949870825, 0.006773495115339756, 0.0069875577464699745]}, "gradients/linearlayers.1.0.weight": {"_type": "histogram", "values": [1.0, 0.0, 0.0, 0.0, 2.0, 2.0, 1.0, 2.0, 2.0, 3.0, 3.0, 6.0, 11.0, 10.0, 8.0, 17.0, 30.0, 17.0, 36.0, 50.0, 66.0, 98.0, 146.0, 231.0, 324.0, 527.0, 739.0, 1109.0, 1686.0, 2442.0, 3092.0, 45571.0, 2980.0, 2144.0, 1447.0, 981.0, 580.0, 408.0, 227.0, 159.0, 110.0, 76.0, 40.0, 47.0, 23.0, 20.0, 15.0, 13.0, 4.0, 6.0, 8.0, 5.0, 4.0, 1.0, 0.0, 1.0, 2.0, 0.0, 2.0, 0.0, 0.0, 0.0, 0.0, 1.0], "bins": [-0.02715517394244671, -0.026289166882634163, -0.025423159822821617, -0.02455715276300907, -0.023691143840551376, -0.02282513678073883, -0.021959129720926285, -0.02109312266111374, -0.020227115601301193, -0.019361108541488647, -0.0184951014816761, -0.017629094421863556, -0.01676308736205101, -0.015897078439593315, -0.01503107137978077, -0.014165064319968224, -0.013299057260155678, -0.012433050200343132, -0.011567043140530586, -0.010701035149395466, -0.00983502808958292, -0.008969021029770374, -0.008103013038635254, -0.007237005978822708, -0.006370998919010162, -0.005504991859197617, -0.0046389843337237835, -0.003772977041080594, -0.0029069697484374046, -0.002040962455794215, -0.0011749551631510258, -0.00030894787050783634, 0.0005570594221353531, 0.0014230667147785425, 0.002289074007421732, 0.0031550813000649214, 0.004021088592708111, 0.004887095652520657, 0.00575310317799449, 0.006619110703468323, 0.0074851177632808685, 0.008351124823093414, 0.00921713188290596, 0.01008313987404108, 0.010949146933853626, 0.011815153993666172, 0.012681161984801292, 0.013547169044613838, 0.014413176104426384, 0.01527918316423893, 0.016145190224051476, 0.01701119728386402, 0.017877206206321716, 0.018743213266134262, 0.019609220325946808, 0.020475227385759354, 0.0213412344455719, 0.022207241505384445, 0.02307324856519699, 0.023939255625009537, 0.024805262684822083, 0.025671271607279778, 0.026537278667092323, 0.02740328572690487, 0.028269292786717415]}, "gradients/linearlayers.0.0.bias": {"_type": "histogram", "values": [1.0, 0.0, 0.0, 1.0, 1.0, 0.0, 3.0, 1.0, 3.0, 0.0, 2.0, 6.0, 2.0, 2.0, 2.0, 0.0, 7.0, 7.0, 12.0, 3.0, 3.0, 1.0, 4.0, 4.0, 1.0, 6.0, 0.0, 0.0, 5.0, 97.0, 9.0, 7.0, 5.0, 5.0, 5.0, 2.0, 3.0, 2.0, 5.0, 4.0, 2.0, 3.0, 2.0, 3.0, 3.0, 4.0, 0.0, 5.0, 3.0, 0.0, 2.0, 2.0, 1.0, 0.0, 2.0, 0.0, 0.0, 0.0, 1.0, 1.0, 0.0, 0.0, 0.0, 1.0], "bins": [-0.009045814163982868, -0.008743003010749817, -0.008440191857516766, -0.008137381635606289, -0.007834570482373238, -0.007531759329140186, -0.007228948175907135, -0.006926137488335371, -0.00662332633510232, -0.006320515181869268, -0.006017704494297504, -0.005714893341064453, -0.005412082187831402, -0.005109271500259638, -0.0048064603470265865, -0.0045036496594548225, -0.004200838506221771, -0.0038980275858193636, -0.003595216665416956, -0.0032924055121839046, -0.002989594591781497, -0.0026867836713790894, -0.002383972518146038, -0.0020811615977436304, -0.0017783506773412228, -0.0014755397569388151, -0.0011727287201210856, -0.0008699177415110171, -0.0005671067629009485, -0.00026429578429087996, 3.8515194319188595e-05, 0.00034132617292925715, 0.0006441371515393257, 0.0009469481301493943, 0.0012497591087594628, 0.0015525701455771923, 0.0018553810659796, 0.0021581919863820076, 0.002461003139615059, 0.0027638140600174665, 0.003066624980419874, 0.003369435900822282, 0.0036722468212246895, 0.003975057974457741, 0.004277869127690792, 0.004580679815262556, 0.004883490968495607, 0.005186301656067371, 0.005489112809300423, 0.005791923962533474, 0.006094734650105238, 0.006397545803338289, 0.006700356490910053, 0.0070031676441431046, 0.007305978797376156, 0.00760878948494792, 0.007911600172519684, 0.008214411325752735, 0.008517222478985786, 0.008820033632218838, 0.009122844785451889, 0.00942565593868494, 0.009728466160595417, 0.010031277313828468, 0.01033408846706152]}, "gradients/linearlayers.0.0.weight": {"_type": "histogram", "values": [1.0, 0.0, 0.0, 1.0, 2.0, 3.0, 3.0, 5.0, 9.0, 10.0, 18.0, 25.0, 30.0, 38.0, 52.0, 63.0, 90.0, 96.0, 120.0, 176.0, 254.0, 327.0, 398.0, 530.0, 694.0, 882.0, 1401.0, 1812.0, 2641.0, 43812.0, 4594.0, 2207.0, 1415.0, 928.0, 673.0, 509.0, 399.0, 284.0, 203.0, 174.0, 147.0, 106.0, 87.0, 68.0, 62.0, 44.0, 29.0, 30.0, 18.0, 15.0, 11.0, 10.0, 7.0, 6.0, 6.0, 3.0, 1.0, 3.0, 1.0, 2.0, 0.0, 0.0, 0.0, 1.0], "bins": [-0.02770249731838703, -0.026775024831295013, -0.025847554206848145, -0.024920081719756126, -0.02399260923266411, -0.02306513674557209, -0.022137664258480072, -0.021210193634033203, -0.020282721146941185, -0.019355248659849167, -0.018427778035402298, -0.01750030554831028, -0.01657283306121826, -0.015645360574126244, -0.0147178890183568, -0.013790417462587357, -0.012862944975495338, -0.01193547248840332, -0.011008000932633877, -0.010080529376864433, -0.009153056889772415, -0.008225584402680397, -0.0072981128469109535, -0.006370640825480223, -0.005443168804049492, -0.004515696782618761, -0.0035882247611880302, -0.0026607527397572994, -0.0017332807183265686, -0.0008058086968958378, 0.00012166332453489304, 0.0010491353459656239, 0.001976609230041504, 0.0029040812514722347, 0.0038315532729029655, 0.004759025294333696, 0.005686497315764427, 0.006613969337195158, 0.007541441358625889, 0.008468912914395332, 0.00939638540148735, 0.010323857888579369, 0.011251329444348812, 0.012178801000118256, 0.013106273487210274, 0.014033745974302292, 0.014961217530071735, 0.01588868908584118, 0.016816161572933197, 0.017743634060025215, 0.018671106547117233, 0.019598577171564102, 0.02052604965865612, 0.02145352214574814, 0.022380992770195007, 0.023308465257287025, 0.024235937744379044, 0.02516341023147106, 0.02609088271856308, 0.02701835334300995, 0.027945825830101967, 0.028873298317193985, 0.029800768941640854, 0.030728241428732872, 0.03165571391582489]}, "gradients/embeds.2.bias": {"_type": "histogram", "values": [1.0, 0.0, 1.0, 1.0, 1.0, 0.0, 0.0, 0.0, 0.0, 1.0, 1.0, 2.0, 1.0, 4.0, 0.0, 4.0, 4.0, 4.0, 3.0, 0.0, 5.0, 5.0, 5.0, 3.0, 2.0, 4.0, 1.0, 1.0, 4.0, 5.0, 5.0, 4.0, 2.0, 5.0, 4.0, 83.0, 5.0, 4.0, 2.0, 8.0, 0.0, 6.0, 4.0, 5.0, 2.0, 3.0, 7.0, 3.0, 3.0, 4.0, 5.0, 7.0, 3.0, 1.0, 3.0, 2.0, 1.0, 1.0, 2.0, 2.0, 2.0, 2.0, 0.0, 3.0], "bins": [-0.013069495558738708, -0.012703931890428066, -0.012338368222117424, -0.011972803622484207, -0.011607239954173565, -0.011241676285862923, -0.01087611261755228, -0.010510548017919064, -0.010144984349608421, -0.009779420681297779, -0.009413857012987137, -0.009048293344676495, -0.008682728745043278, -0.008317165076732635, -0.007951601408421993, -0.007586037274450064, -0.0072204736061394215, -0.006854909937828779, -0.00648934580385685, -0.006123782135546207, -0.005758218001574278, -0.005392654333263636, -0.005027090199291706, -0.004661526530981064, -0.004295962862670422, -0.003930398728698492, -0.003564834827557206, -0.0031992709264159203, -0.002833707258105278, -0.002468143356963992, -0.0021025794558227062, -0.0017370155546814203, -0.0013714516535401344, -0.0010058877523988485, -0.0006403239094652236, -0.0002747600374277681, 9.080383460968733e-05, 0.00045636770664714277, 0.0008219315786845982, 0.0011874954216182232, 0.001553059322759509, 0.001918623223900795, 0.002284187125042081, 0.0026497510261833668, 0.003015314694494009, 0.003380878595635295, 0.003746442496776581, 0.00411200663074851, 0.004477570299059153, 0.004843133967369795, 0.005208698101341724, 0.005574261769652367, 0.005939825903624296, 0.006305389571934938, 0.006670953705906868, 0.00703651737421751, 0.0074020810425281525, 0.007767645176500082, 0.008133209310472012, 0.008498772978782654, 0.008864336647093296, 0.009229900315403938, 0.009595464915037155, 0.009961028583347797, 0.01032659225165844]}, "gradients/embeds.2.weight": {"_type": "histogram", "values": [1.0, 1.0, 1.0, 3.0, 3.0, 2.0, 3.0, 4.0, 7.0, 4.0, 5.0, 16.0, 12.0, 21.0, 27.0, 34.0, 52.0, 44.0, 70.0, 93.0, 129.0, 156.0, 190.0, 271.0, 337.0, 429.0, 562.0, 745.0, 919.0, 1255.0, 1634.0, 2201.0, 2898.0, 3845.0, 5536.0, 82144.0, 7921.0, 5080.0, 3756.0, 2760.0, 2029.0, 1469.0, 1134.0, 781.0, 614.0, 472.0, 340.0, 255.0, 209.0, 137.0, 124.0, 89.0, 68.0, 44.0, 41.0, 26.0, 11.0, 22.0, 11.0, 6.0, 11.0, 3.0, 2.0, 3.0], "bins": [-0.031210429966449738, -0.030337881296873093, -0.029465334489941597, -0.028592785820364952, -0.027720237150788307, -0.02684769034385681, -0.025975141674280167, -0.02510259300470352, -0.024230046197772026, -0.02335749752819538, -0.022484948858618736, -0.02161240205168724, -0.020739853382110596, -0.01986730471253395, -0.018994757905602455, -0.01812220923602581, -0.017249662429094315, -0.01637711375951767, -0.015504565089941025, -0.014632017351686954, -0.013759469613432884, -0.01288692094385624, -0.012014373205602169, -0.011141825467348099, -0.010269276797771454, -0.009396729059517384, -0.008524181321263313, -0.007651633117347956, -0.006779084913432598, -0.005906537175178528, -0.00503398897126317, -0.0041614412330091, -0.0032888930290937424, -0.0024163450580090284, -0.0015437969705089927, -0.0006712489412166178, 0.00020129908807575703, 0.001073847059160471, 0.0019463951466605067, 0.0028189432341605425, 0.0036914912052452564, 0.004564039409160614, 0.005436587147414684, 0.006309135351330042, 0.0071816835552453995, 0.00805423129349947, 0.00892677903175354, 0.009799327701330185, 0.010671875439584255, 0.011544423177838326, 0.01241697184741497, 0.01328951958566904, 0.014162067323923111, 0.015034615993499756, 0.01590716280043125, 0.016779711470007896, 0.01765226013958454, 0.018524806946516037, 0.019397355616092682, 0.020269904285669327, 0.021142451092600822, 0.022014999762177467, 0.022887548431754112, 0.023760095238685608, 0.024632643908262253]}, "gradients/embeds.0.bias": {"_type": "histogram", "values": [2.0, 1.0, 0.0, 2.0, 2.0, 1.0, 4.0, 4.0, 5.0, 7.0, 4.0, 2.0, 7.0, 8.0, 4.0, 8.0, 10.0, 8.0, 6.0, 10.0, 9.0, 6.0, 10.0, 8.0, 10.0, 8.0, 11.0, 14.0, 39.0, 135.0, 21.0, 11.0, 8.0, 8.0, 6.0, 11.0, 8.0, 9.0, 5.0, 12.0, 10.0, 8.0, 9.0, 8.0, 6.0, 2.0, 6.0, 5.0, 2.0, 4.0, 1.0, 1.0, 1.0, 1.0, 2.0, 0.0, 0.0, 0.0, 0.0, 0.0, 0.0, 0.0, 1.0, 1.0], "bins": [-0.011090288870036602, -0.010711222887039185, -0.010332155972719193, -0.0099530890583992, -0.009574023075401783, -0.009194957092404366, -0.008815890178084373, -0.008436823263764381, -0.008057757280766964, -0.007678690832108259, -0.0072996243834495544, -0.00692055793479085, -0.006541491486132145, -0.00616242503747344, -0.005783358588814735, -0.005404292140156031, -0.005025225691497326, -0.004646159242838621, -0.004267092794179916, -0.0038880263455212116, -0.003508959896862507, -0.003129893448203802, -0.0027508269995450974, -0.0023717605508863926, -0.001992694102227688, -0.001613627653568983, -0.0012345612049102783, -0.0008554947562515736, -0.0004764283075928688, -9.736185893416405e-05, 0.0002817045897245407, 0.0006607710383832455, 0.0010398365557193756, 0.0014189030043780804, 0.0017979694530367851, 0.00217703590169549, 0.0025561023503541946, 0.0029351687990128994, 0.003314235247671604, 0.003693301696330309, 0.004072368144989014, 0.004451434593647718, 0.004830501042306423, 0.005209567490965128, 0.005588633939623833, 0.0059677003882825375, 0.006346766836941242, 0.006725833285599947, 0.007104899734258652, 0.0074839661829173565, 0.007863032631576061, 0.008242098614573479, 0.00862116552889347, 0.009000232443213463, 0.00937929842621088, 0.009758364409208298, 0.01013743132352829, 0.010516498237848282, 0.0108955642208457, 0.011274630203843117, 0.011653697118163109, 0.012032764032483101, 0.012411830015480518, 0.012790895998477936, 0.013169962912797928]}, "gradients/embeds.0.weight": {"_type": "histogram", "values": [2.0, 1.0, 0.0, 2.0, 2.0, 1.0, 4.0, 4.0, 5.0, 7.0, 4.0, 3.0, 9.0, 10.0, 7.0, 14.0, 17.0, 17.0, 11.0, 25.0, 19.0, 26.0, 27.0, 48.0, 90.0, 162.0, 439.0, 3913.0, 63970.0, 312188.0, 10807.0, 772.0, 216.0, 117.0, 61.0, 45.0, 26.0, 27.0, 14.0, 20.0, 16.0, 10.0, 12.0, 11.0, 6.0, 3.0, 5.0, 6.0, 2.0, 4.0, 2.0, 1.0, 1.0, 2.0, 1.0, 0.0, 0.0, 0.0, 0.0, 0.0, 0.0, 0.0, 1.0, 1.0], "bins": [-0.1690254956483841, -0.16323213279247284, -0.1574387550354004, -0.15164539217948914, -0.1458520144224167, -0.14005865156650543, -0.13426527380943298, -0.12847191095352173, -0.12267854064702988, -0.11688517034053802, -0.11109180003404617, -0.10529842972755432, -0.09950506687164307, -0.09371169656515121, -0.08791832625865936, -0.08212495595216751, -0.07633158564567566, -0.07053821533918381, -0.06474484503269196, -0.0589514784514904, -0.05315810814499855, -0.0473647378385067, -0.041571371257305145, -0.03577800095081329, -0.02998463064432144, -0.02419126033782959, -0.018397891893982887, -0.01260452251881361, -0.006811153143644333, -0.0010177837684750557, 0.0047755856066942215, 0.010568954981863499, 0.016362309455871582, 0.022155679762363434, 0.027949048206210136, 0.03374241665005684, 0.03953578695654869, 0.04532915726304054, 0.051122523844242096, 0.05691589415073395, 0.0627092644572258, 0.06850263476371765, 0.0742960050702095, 0.08008937537670135, 0.08588273823261261, 0.09167610853910446, 0.09746947884559631, 0.10326284915208817, 0.10905621945858002, 0.11484958976507187, 0.12064296007156372, 0.12643632292747498, 0.13222970068454742, 0.13802306354045868, 0.14381644129753113, 0.14960980415344238, 0.15540316700935364, 0.1611965447664261, 0.16698990762233734, 0.1727832853794098, 0.17857664823532104, 0.1843700259923935, 0.19016338884830475, 0.1959567666053772, 0.20175012946128845]}, "_wandb": {"runtime": 451}}