{"num_of_examples": 1360, "train_loss": 0.1572835087776184, "_timestamp": 1716357822.924874, "_runtime": 547.2150640487671, "_step": 959, "num_of_test_examples": 0, "test_loss": 0.0037576860189437867, "epoch": 47, "val-auc": 0.8082417582417583, "gradients/output.bias": {"_type": "histogram", "values": [1.0, 0.0, 0.0, 0.0, 0.0, 0.0, 0.0, 0.0, 0.0, 0.0, 0.0, 0.0, 0.0, 0.0, 0.0, 0.0, 0.0, 0.0, 0.0, 0.0, 0.0, 0.0, 0.0, 0.0, 0.0, 0.0, 0.0, 0.0, 0.0, 0.0, 0.0, 0.0, 0.0, 0.0, 0.0, 0.0, 0.0, 0.0, 0.0, 0.0, 0.0, 0.0, 0.0, 0.0, 0.0, 0.0, 0.0, 0.0, 0.0, 0.0, 0.0, 0.0, 0.0, 0.0, 0.0, 0.0, 0.0, 0.0, 0.0, 0.0, 0.0, 0.0, 0.0, 1.0], "bins": [-0.00041728391079232097, -0.0004042438231408596, -0.0003912037645932287, -0.00037816367694176733, -0.00036512361839413643, -0.00035208353074267507, -0.0003390434430912137, -0.0003260033845435828, -0.00031296329689212143, -0.00029992320924066007, -0.00028688315069302917, -0.0002738430630415678, -0.00026080297539010644, -0.00024776291684247553, -0.00023472282919101417, -0.00022168275609146804, -0.0002086426829919219, -0.00019560260989237577, -0.00018256253679282963, -0.00016952244914136827, -0.00015648237604182214, -0.000143442302942276, -0.00013040221529081464, -0.0001173621421912685, -0.00010432206909172237, -9.128199599217623e-05, -7.824191561667249e-05, -6.520183524116874e-05, -5.21617621416226e-05, -3.912168540409766e-05, -2.608160866657272e-05, -1.3041531929047778e-05, -1.4551915228366852e-09, 1.3038621546002105e-05, 2.6078698283527046e-05, 3.911877502105199e-05, 5.215885175857693e-05, 6.519892485812306e-05, 7.823900523362681e-05, 9.127908560913056e-05, 0.0001043191587086767, 0.00011735923180822283, 0.00013039930490776896, 0.00014343939255923033, 0.00015647946565877646, 0.0001695195387583226, 0.00018255962640978396, 0.0001955996995093301, 0.00020863977260887623, 0.00022167984570842236, 0.0002347199188079685, 0.00024776000645942986, 0.00026080006500706077, 0.00027384015265852213, 0.0002868802403099835, 0.0002999202988576144, 0.00031296038650907576, 0.0003260004741605371, 0.00033904053270816803, 0.0003520806203596294, 0.00036512070801109076, 0.00037816076655872166, 0.000391200854210183, 0.00040424091275781393, 0.0004172810004092753]}, "gradients/output.weight": {"_type": "histogram", "values": [1.0, 0.0, 0.0, 1.0, 0.0, 0.0, 2.0, 0.0, 1.0, 1.0, 3.0, 1.0, 3.0, 7.0, 4.0, 2.0, 10.0, 8.0, 8.0, 4.0, 6.0, 9.0, 5.0, 3.0, 4.0, 0.0, 0.0, 2.0, 4.0, 12.0, 53.0, 17.0, 187.0, 53.0, 12.0, 4.0, 2.0, 0.0, 0.0, 4.0, 3.0, 5.0, 9.0, 6.0, 4.0, 8.0, 8.0, 10.0, 2.0, 4.0, 7.0, 3.0, 1.0, 3.0, 1.0, 1.0, 0.0, 2.0, 0.0, 0.0, 1.0, 0.0, 0.0, 1.0], "bins": [-0.001417350023984909, -0.0013730579521507025, -0.001328765763901174, -0.0012844735756516457, -0.001240181503817439, -0.0011958894319832325, -0.001151597243733704, -0.0011073050554841757, -0.001063012983649969, -0.0010187209118157625, -0.0009744287235662341, -0.0009301365935243666, -0.0008858444634824991, -0.0008415523334406316, -0.0007972602033987641, -0.0007529680733568966, -0.0007086759433150291, -0.0006643838132731616, -0.0006200916832312942, -0.0005757995531894267, -0.0005315074231475592, -0.00048721529310569167, -0.0004429231630638242, -0.0003986310330219567, -0.0003543389029800892, -0.0003100467729382217, -0.0002657546428963542, -0.0002214625128544867, -0.0001771703828126192, -0.00013287825277075171, -8.858612272888422e-05, -4.4293992687016726e-05, -1.7462298274040222e-09, 4.429038381204009e-05, 8.858251385390759e-05, 0.00013287464389577508, 0.00017716677393764257, 0.00022145890397951007, 0.00026575103402137756, 0.00031004316406324506, 0.00035433529410511255, 0.00039862742414698005, 0.00044291955418884754, 0.00048721168423071504, 0.0005315038142725825, 0.00057579594431445, 0.0006200880743563175, 0.000664380204398185, 0.0007086723344400525, 0.00075296446448192, 0.0007972565945237875, 0.000841548724565655, 0.0008858408546075225, 0.00093013298464939, 0.0009744251146912575, 0.001018717186525464, 0.0010630093747749925, 0.0011073015630245209, 0.0011515936348587275, 0.001195885706692934, 0.0012401778949424624, 0.0012844700831919909, 0.0013287621550261974, 0.001373054226860404, 0.0014173464151099324]}, "gradients/linearlayers.4.0.bias": {"_type": "histogram", "values": [3.0, 0.0, 1.0, 1.0, 0.0, 2.0, 0.0, 0.0, 2.0, 2.0, 3.0, 2.0, 1.0, 0.0, 2.0, 5.0, 3.0, 1.0, 1.0, 4.0, 6.0, 1.0, 4.0, 6.0, 4.0, 4.0, 3.0, 6.0, 4.0, 6.0, 1.0, 9.0, 6.0, 4.0, 89.0, 3.0, 1.0, 2.0, 5.0, 6.0, 3.0, 2.0, 4.0, 6.0, 2.0, 4.0, 4.0, 4.0, 4.0, 2.0, 2.0, 1.0, 2.0, 3.0, 0.0, 3.0, 1.0, 2.0, 0.0, 1.0, 1.0, 1.0, 0.0, 1.0], "bins": [-6.112532719271258e-05, -5.9340167354093865e-05, -5.7555007515475154e-05, -5.576984767685644e-05, -5.398468783823773e-05, -5.219952799961902e-05, -5.041436816100031e-05, -4.86292083223816e-05, -4.684404848376289e-05, -4.505888864514418e-05, -4.327372880652547e-05, -4.148856896790676e-05, -3.970340912928805e-05, -3.791824929066934e-05, -3.6133089452050626e-05, -3.4347929613431916e-05, -3.2562769774813205e-05, -3.07776135741733e-05, -2.8992451916565187e-05, -2.7207292077946477e-05, -2.5422132239327766e-05, -2.3636972400709055e-05, -2.1851812562090345e-05, -2.0066652723471634e-05, -1.8281494703842327e-05, -1.6496334865223616e-05, -1.4711174117110204e-05, -1.2926014278491493e-05, -1.1140855349367484e-05, -9.355695510748774e-06, -7.570535672130063e-06, -5.7853758335113525e-06, -4.000215994892642e-06, -2.2150561562739313e-06, -4.2989654502889607e-07, 1.3552631799029768e-06, 3.1404229048348498e-06, 4.92558274345356e-06, 6.71074212732492e-06, 8.49590196594363e-06, 1.0281061804562341e-05, 1.2066221643181052e-05, 1.3851381481799763e-05, 1.563654041092377e-05, 1.7421700249542482e-05, 1.9206860088161193e-05, 2.0992019926779903e-05, 2.2777179765398614e-05, 2.4562339604017325e-05, 2.6347499442636035e-05, 2.8132659281254746e-05, 2.9917819119873457e-05, 3.1702977139502764e-05, 3.3488136978121474e-05, 3.5273296816740185e-05, 3.7058456655358896e-05, 3.8843616493977606e-05, 4.062877633259632e-05, 4.241393617121503e-05, 4.419909600983374e-05, 4.598425584845245e-05, 4.776941568707116e-05, 4.955457552568987e-05, 5.133973536430858e-05, 5.312489520292729e-05]}, "gradients/linearlayers.4.0.weight": {"_type": "histogram", "values": [2.0, 1.0, 1.0, 1.0, 1.0, 3.0, 3.0, 2.0, 4.0, 8.0, 10.0, 8.0, 13.0, 16.0, 23.0, 29.0, 40.0, 53.0, 64.0, 80.0, 120.0, 144.0, 189.0, 213.0, 314.0, 332.0, 454.0, 564.0, 752.0, 868.0, 1148.0, 1418.0, 1965.0, 3404.0, 44154.0, 1786.0, 1393.0, 1160.0, 943.0, 829.0, 703.0, 525.0, 442.0, 337.0, 241.0, 194.0, 152.0, 120.0, 88.0, 63.0, 44.0, 33.0, 23.0, 18.0, 7.0, 12.0, 4.0, 7.0, 2.0, 2.0, 2.0, 3.0, 0.0, 2.0], "bins": [-0.0001535087067168206, -0.00014908492448739707, -0.00014466114225797355, -0.00014023736002855003, -0.0001358135777991265, -0.0001313898101216182, -0.0001269660278921947, -0.00012254224566277117, -0.00011811846343334764, -0.00011369468120392412, -0.0001092708989745006, -0.00010484712402103469, -0.00010042334179161116, -9.599955956218764e-05, -9.157578460872173e-05, -8.715200237929821e-05, -8.272822014987469e-05, -7.830443792045116e-05, -7.388065569102764e-05, -6.945688073756173e-05, -6.503309850813821e-05, -6.060931627871469e-05, -5.618553768726997e-05, -5.1761759095825255e-05, -4.733797686640173e-05, -4.291419463697821e-05, -3.849041604553349e-05, -3.406663745408878e-05, -2.9642855224665254e-05, -2.5219074814231135e-05, -2.0795294403797016e-05, -1.6371513993362896e-05, -1.1947719031013548e-05, -7.523938620579429e-06, -3.1001582101453096e-06, 1.3236222002888098e-06, 5.747402610722929e-06, 1.0171183021157049e-05, 1.4594963431591168e-05, 1.9018743842025287e-05, 2.3442524252459407e-05, 2.7866304662893526e-05, 3.2290085073327646e-05, 3.671386366477236e-05, 4.1137645894195884e-05, 4.556142812361941e-05, 4.998520671506412e-05, 5.440898530650884e-05, 5.883276753593236e-05, 6.325654976535589e-05, 6.768033199477941e-05, 7.210410694824532e-05, 7.652788917766884e-05, 8.095167140709236e-05, 8.537544636055827e-05, 8.97992285899818e-05, 9.422301081940532e-05, 9.864679304882884e-05, 0.00010307057527825236, 0.00010749435023171827, 0.0001119181324611418, 0.00011634191469056532, 0.00012076568964403123, 0.00012518947187345475, 0.00012961325410287827]}, "gradients/linearlayers.3.0.bias": {"_type": "histogram", "values": [1.0, 0.0, 0.0, 0.0, 0.0, 1.0, 0.0, 0.0, 0.0, 3.0, 1.0, 1.0, 2.0, 5.0, 5.0, 4.0, 5.0, 1.0, 2.0, 5.0, 7.0, 5.0, 7.0, 5.0, 7.0, 3.0, 4.0, 5.0, 3.0, 4.0, 1.0, 1.0, 0.0, 3.0, 86.0, 6.0, 4.0, 3.0, 4.0, 2.0, 2.0, 3.0, 2.0, 4.0, 7.0, 4.0, 2.0, 6.0, 4.0, 3.0, 7.0, 1.0, 5.0, 2.0, 4.0, 1.0, 2.0, 0.0, 0.0, 0.0, 0.0, 0.0, 0.0, 1.0], "bins": [-0.00011328746768413112, -0.00010997658682754263, -0.00010666571324691176, -0.00010335483239032328, -0.0001000439515337348, -9.673307795310393e-05, -9.342219709651545e-05, -9.011131623992696e-05, -8.68004426592961e-05, -8.348956180270761e-05, -8.017868094611913e-05, -7.686780008953065e-05, -7.355692650889978e-05, -7.02460456523113e-05, -6.693516479572281e-05, -6.362429121509194e-05, -6.031341035850346e-05, -5.7002533139893785e-05, -5.36916522833053e-05, -5.0380775064695626e-05, -4.7069894208107144e-05, -4.375901698949747e-05, -4.044813977088779e-05, -3.713725891429931e-05, -3.3826381695689633e-05, -3.0515502658090554e-05, -2.7204623620491475e-05, -2.38937464018818e-05, -2.058286736428272e-05, -1.727198832668364e-05, -1.3961110198579263e-05, -1.0650232070474885e-05, -7.33936030883342e-06, -4.028481725981692e-06, -7.176031431299634e-07, 2.593275439721765e-06, 5.904154022573493e-06, 9.215033060172573e-06, 1.252591118827695e-05, 1.5836789316381328e-05, 1.9147668353980407e-05, 2.2458547391579486e-05, 2.5769426429178566e-05, 2.908030364778824e-05, 3.239118086639792e-05, 3.57020617229864e-05, 3.9012938941596076e-05, 4.232381979818456e-05, 4.5634697016794235e-05, 4.894557423540391e-05, 5.225645509199239e-05, 5.556733231060207e-05, 5.887821316719055e-05, 6.218908674782142e-05, 6.54999676044099e-05, 6.881084846099839e-05, 7.212172204162925e-05, 7.543260289821774e-05, 7.874348375480622e-05, 8.20543646113947e-05, 8.536523819202557e-05, 8.867611904861405e-05, 9.198699990520254e-05, 9.52978734858334e-05, 9.860875434242189e-05]}, "gradients/linearlayers.3.0.weight": {"_type": "histogram", "values": [1.0, 0.0, 0.0, 0.0, 0.0, 1.0, 0.0, 0.0, 0.0, 3.0, 1.0, 1.0, 4.0, 4.0, 7.0, 7.0, 6.0, 5.0, 8.0, 21.0, 26.0, 37.0, 79.0, 113.0, 163.0, 279.0, 410.0, 560.0, 848.0, 1404.0, 2010.0, 2943.0, 3693.0, 38837.0, 5010.0, 2764.0, 2014.0, 1480.0, 979.0, 627.0, 428.0, 316.0, 188.0, 93.0, 68.0, 29.0, 22.0, 5.0, 11.0, 5.0, 10.0, 3.0, 3.0, 4.0, 2.0, 2.0, 1.0, 0.0, 0.0, 0.0, 0.0, 0.0, 0.0, 1.0], "bins": [-0.00032601540442556143, -0.00031639900407753885, -0.0003067825746256858, -0.00029716617427766323, -0.00028754977392964065, -0.0002779333444777876, -0.00026831694412976503, -0.00025870054378174245, -0.0002490841434337199, -0.00023946771398186684, -0.00022985131363384426, -0.00022023489873390645, -0.00021061848383396864, -0.00020100208348594606, -0.00019138566858600825, -0.00018176926823798567, -0.00017215285333804786, -0.00016253643843811005, -0.00015292003809008747, -0.00014330362319014966, -0.00013368722284212708, -0.00012407080794218928, -0.00011445439304225147, -0.00010483798541827127, -9.522157779429108e-05, -8.560517017031088e-05, -7.598876254633069e-05, -6.637234764639288e-05, -5.675594002241269e-05, -4.713953239843249e-05, -3.752312113647349e-05, -2.7906711693503894e-05, -1.829027314670384e-05, -8.673863703734241e-06, 9.425457392353565e-07, 1.0558955182204954e-05, 2.0175364625174552e-05, 2.979177406814415e-05, 3.940818351111375e-05, 4.902459477307275e-05, 5.8641002397052944e-05, 6.825741002103314e-05, 7.787381764501333e-05, 8.749023254495114e-05, 9.710664016893134e-05, 0.00010672304779291153, 0.00011633946269284934, 0.00012595586304087192, 0.00013557227794080973, 0.00014518869284074754, 0.00015480509318877012, 0.00016442150808870792, 0.0001740379084367305, 0.0001836543233366683, 0.00019327073823660612, 0.0002028871385846287, 0.0002125035534845665, 0.00022211996838450432, 0.0002317363687325269, 0.0002413527836324647, 0.0002509691985324025, 0.0002605855988804251, 0.0002702019992284477, 0.0002798184286803007, 0.0002894348290283233]}, "gradients/linearlayers.2.0.bias": {"_type": "histogram", "values": [3.0, 0.0, 0.0, 0.0, 3.0, 4.0, 1.0, 5.0, 3.0, 3.0, 3.0, 3.0, 7.0, 2.0, 12.0, 6.0, 4.0, 5.0, 3.0, 7.0, 2.0, 4.0, 0.0, 1.0, 2.0, 1.0, 2.0, 5.0, 2.0, 2.0, 1.0, 4.0, 75.0, 4.0, 1.0, 1.0, 4.0, 4.0, 1.0, 3.0, 4.0, 1.0, 3.0, 3.0, 4.0, 4.0, 9.0, 4.0, 3.0, 4.0, 4.0, 3.0, 4.0, 1.0, 3.0, 2.0, 0.0, 2.0, 2.0, 1.0, 1.0, 0.0, 0.0, 1.0], "bins": [-0.00015109291416592896, -0.0001464408269384876, -0.00014178873971104622, -0.00013713663793168962, -0.00013248455070424825, -0.00012783246347680688, -0.0001231803762493655, -0.00011852828174596652, -0.00011387619451852515, -0.00010922410729108378, -0.0001045720127876848, -9.991992556024343e-05, -9.526783833280206e-05, -9.061574382940307e-05, -8.59636566019617e-05, -8.131156209856272e-05, -7.665947487112135e-05, -7.200738764367998e-05, -6.735529314028099e-05, -6.270320591283962e-05, -5.8051115047419444e-05, -5.3399024181999266e-05, -4.8746936954557896e-05, -4.409484608913772e-05, -3.944275522371754e-05, -3.479066435829736e-05, -3.013857531186659e-05, -2.5486486265435815e-05, -2.0834395400015637e-05, -1.618230453459546e-05, -1.1530215488164686e-05, -6.87812553223921e-06, -2.226035576313734e-06, 2.4260543796117418e-06, 7.0781443355372176e-06, 1.1730234291462693e-05, 1.638232424738817e-05, 2.1034415112808347e-05, 2.568650415923912e-05, 3.0338593205669895e-05, 3.499068407109007e-05, 3.964277493651025e-05, 4.429486580193043e-05, 4.89469530293718e-05, 5.3599043894791976e-05, 5.825113476021215e-05, 6.290322198765352e-05, 6.755531649105251e-05, 7.220740371849388e-05, 7.685949094593525e-05, 8.151158544933423e-05, 8.61636726767756e-05, 9.081576718017459e-05, 9.546785440761596e-05, 0.00010011994163505733, 0.00010477203613845631, 0.00010942412336589769, 0.00011407621059333906, 0.00011872830509673804, 0.0001233803923241794, 0.00012803247955162078, 0.00013268456677906215, 0.00013733666855841875, 0.00014198875578586012, 0.0001466408430133015]}, "gradients/linearlayers.2.0.weight": {"_type": "histogram", "values": [3.0, 0.0, 0.0, 0.0, 3.0, 4.0, 1.0, 5.0, 3.0, 3.0, 3.0, 5.0, 16.0, 11.0, 19.0, 33.0, 44.0, 59.0, 77.0, 123.0, 178.0, 278.0, 343.0, 494.0, 691.0, 932.0, 1137.0, 1592.0, 1940.0, 2437.0, 2634.0, 3126.0, 37934.0, 2519.0, 2345.0, 1823.0, 1328.0, 987.0, 750.0, 520.0, 357.0, 242.0, 173.0, 118.0, 77.0, 49.0, 38.0, 22.0, 20.0, 10.0, 7.0, 5.0, 5.0, 1.0, 3.0, 2.0, 0.0, 2.0, 2.0, 1.0, 1.0, 0.0, 0.0, 1.0], "bins": [-0.0003668900753837079, -0.00035553189809434116, -0.0003441737499088049, -0.00033281557261943817, -0.0003214574244339019, -0.0003100992471445352, -0.0002987410989589989, -0.0002873829216696322, -0.0002760247443802655, -0.0002646665961947292, -0.0002533084189053625, -0.00024195027071982622, -0.0002305920934304595, -0.000219233930693008, -0.0002078757679555565, -0.00019651760521810502, -0.00018515944248065352, -0.00017380127974320203, -0.00016244311700575054, -0.00015108495426829904, -0.00013972679153084755, -0.00012836861424148083, -0.00011701045150402933, -0.00010565228876657784, -9.429412602912635e-05, -8.293596329167485e-05, -7.157780055422336e-05, -6.021963054081425e-05, -4.886146780336276e-05, -3.750330506591126e-05, -2.6145138690480962e-05, -1.4786974134040065e-05, -3.428780473768711e-06, 7.929384082672186e-06, 1.9287548639113083e-05, 3.0645715014543384e-05, 4.200387775199488e-05, 5.336204048944637e-05, 6.472021050285548e-05, 7.607837324030697e-05, 8.743653597775847e-05, 9.879469871520996e-05, 0.00011015286145266145, 0.00012151103146607056, 0.00013286920147947967, 0.00014422736421693116, 0.00015558552695438266, 0.00016694368969183415, 0.00017830185242928565, 0.00018966001516673714, 0.00020101817790418863, 0.00021237634064164013, 0.00022373450337909162, 0.00023509268066845834, 0.0002464508288539946, 0.00025780900614336133, 0.00026916718343272805, 0.0002805253316182643, 0.00029188350890763104, 0.0003032416570931673, 0.000314599834382534, 0.0003259579825680703, 0.000337316159857437, 0.0003486743080429733, 0.00036003248533234]}, "gradients/linearlayers.1.0.bias": {"_type": "histogram", "values": [2.0, 1.0, 1.0, 1.0, 0.0, 0.0, 1.0, 5.0, 3.0, 4.0, 4.0, 2.0, 2.0, 4.0, 4.0, 2.0, 2.0, 5.0, 7.0, 3.0, 2.0, 3.0, 3.0, 5.0, 7.0, 3.0, 6.0, 1.0, 2.0, 2.0, 9.0, 1.0, 6.0, 5.0, 74.0, 3.0, 5.0, 6.0, 0.0, 2.0, 5.0, 4.0, 2.0, 3.0, 4.0, 2.0, 4.0, 1.0, 5.0, 3.0, 3.0, 4.0, 5.0, 1.0, 1.0, 2.0, 2.0, 2.0, 1.0, 0.0, 1.0, 0.0, 2.0, 1.0], "bins": [-0.000277626677416265, -0.00026953054475598037, -0.0002614344411995262, -0.00025333830853924155, -0.00024524220498278737, -0.00023714607232250273, -0.00022904995421413332, -0.0002209538361057639, -0.00021285770344547927, -0.00020476158533710986, -0.00019666546722874045, -0.00018856934912037104, -0.00018047323101200163, -0.00017237711290363222, -0.00016428098024334759, -0.00015618486213497818, -0.00014808874402660877, -0.00013999262591823936, -0.00013189650780986995, -0.0001238003751495853, -0.0001157042570412159, -0.00010760813893284649, -9.951202082447708e-05, -9.141589544015005e-05, -8.331977733178064e-05, -7.522365922341123e-05, -6.712753383908421e-05, -5.90314157307148e-05, -5.093529398436658e-05, -4.2839172238018364e-05, -3.4743054129648954e-05, -2.6646932383300737e-05, -1.8550825188867748e-05, -1.0454704352014232e-05, -2.358583515160717e-06, 5.737537321692798e-06, 1.3833658158546314e-05, 2.192977990489453e-05, 3.0025899832253344e-05, 3.812201975961216e-05, 4.6218141505960375e-05, 5.431426325230859e-05, 6.241038499865681e-05, 7.050650310702622e-05, 7.860262121539563e-05, 8.669874659972265e-05, 9.479486470809206e-05, 0.00010289099009241909, 0.0001109871082007885, 0.00011908322630915791, 0.00012717934441752732, 0.00013527547707781196, 0.00014337159518618137, 0.00015146771329455078, 0.0001595638314029202, 0.0001676599495112896, 0.00017575608217157423, 0.00018385220027994365, 0.00019194831838831306, 0.00020004443649668247, 0.00020814055460505188, 0.00021623667271342129, 0.00022433280537370592, 0.00023242892348207533, 0.00024052504159044474]}, "gradients/linearlayers.1.0.weight": {"_type": "histogram", "values": [2.0, 1.0, 1.0, 1.0, 0.0, 0.0, 1.0, 4.0, 4.0, 4.0, 4.0, 6.0, 6.0, 15.0, 10.0, 13.0, 23.0, 49.0, 57.0, 60.0, 79.0, 132.0, 156.0, 223.0, 284.0, 352.0, 481.0, 642.0, 906.0, 1235.0, 1681.0, 2293.0, 3201.0, 5600.0, 38870.0, 2860.0, 1902.0, 1355.0, 873.0, 618.0, 454.0, 309.0, 220.0, 163.0, 115.0, 76.0, 58.0, 37.0, 26.0, 24.0, 7.0, 18.0, 7.0, 5.0, 2.0, 2.0, 2.0, 2.0, 1.0, 0.0, 1.0, 0.0, 2.0, 1.0], "bins": [-0.0006459385622292757, -0.0006270558224059641, -0.0006081730825826526, -0.0005892902845516801, -0.0005704075447283685, -0.000551524804905057, -0.0005326420650817454, -0.0005137593252584338, -0.0004948765272274613, -0.00047599381650798023, -0.0004571110475808382, -0.00043822830775752664, -0.00041934556793421507, -0.00040046279900707304, -0.0003815800591837615, -0.00036269729025661945, -0.0003438145504333079, -0.0003249318106099963, -0.0003060490416828543, -0.00028716630185954273, -0.0002682835329324007, -0.00024940079310908914, -0.00023051805328577757, -0.00021163529891055077, -0.00019275254453532398, -0.00017386979016009718, -0.00015498703578487039, -0.00013610429596155882, -0.00011722154158633202, -9.833878721110523e-05, -7.945604011183605e-05, -6.057328937458806e-05, -4.169053863734007e-05, -2.280778790009208e-05, -3.925037162844092e-06, 1.4957713574403897e-05, 3.3840464311651886e-05, 5.2723215048899874e-05, 7.160596578614786e-05, 9.048871288541704e-05, 0.00010937146726064384, 0.00012825422163587064, 0.00014713697601109743, 0.000166019715834409, 0.0001849024702096358, 0.0002037852245848626, 0.00022266796440817416, 0.00024155071878340095, 0.00026043347315862775, 0.0002793162129819393, 0.00029819898190908134, 0.0003170817217323929, 0.00033596449065953493, 0.0003548472304828465, 0.00037372997030615807, 0.0003926127392333001, 0.00041149547905661166, 0.0004303782188799232, 0.00044926098780706525, 0.0004681437276303768, 0.0004870264674536884, 0.000505909207277, 0.0005247920053079724, 0.000543674745131284, 0.0005625574849545956]}, "gradients/linearlayers.0.0.bias": {"_type": "histogram", "values": [1.0, 0.0, 3.0, 2.0, 4.0, 1.0, 2.0, 6.0, 3.0, 3.0, 2.0, 5.0, 3.0, 1.0, 4.0, 6.0, 4.0, 6.0, 3.0, 7.0, 10.0, 9.0, 3.0, 6.0, 6.0, 3.0, 3.0, 3.0, 6.0, 70.0, 8.0, 5.0, 5.0, 1.0, 3.0, 4.0, 2.0, 4.0, 0.0, 1.0, 3.0, 4.0, 2.0, 4.0, 6.0, 1.0, 2.0, 2.0, 2.0, 3.0, 1.0, 1.0, 0.0, 1.0, 2.0, 0.0, 1.0, 1.0, 0.0, 0.0, 0.0, 1.0, 0.0, 1.0], "bins": [-0.0003945011121686548, -0.0003811603819485754, -0.00036781965172849596, -0.00035447892150841653, -0.00034113822039216757, -0.00032779749017208815, -0.0003144567599520087, -0.0003011160297319293, -0.0002877752995118499, -0.00027443456929177046, -0.00026109383907169104, -0.0002477531088516116, -0.00023441239318344742, -0.000221071662963368, -0.0002077309472952038, -0.00019439021707512438, -0.00018104948685504496, -0.00016770875663496554, -0.00015436802641488612, -0.00014102731074672192, -0.0001276865805266425, -0.00011434585030656308, -0.00010100512736244127, -8.766440441831946e-05, -7.432367419824004e-05, -6.098294761613943e-05, -4.764222103403881e-05, -3.43014944519382e-05, -2.0960767869837582e-05, -7.620041287736967e-06, 5.720685294363648e-06, 1.9061411876464263e-05, 3.240213845856488e-05, 4.574286504066549e-05, 5.908359162276611e-05, 7.242431456688792e-05, 8.576504478696734e-05, 9.910577500704676e-05, 0.00011244649795116857, 0.00012578722089529037, 0.0001391279511153698, 0.00015246868133544922, 0.00016580941155552864, 0.00017915012722369283, 0.00019249085744377226, 0.00020583158766385168, 0.00021917230333201587, 0.0002325130335520953, 0.0002458537637721747, 0.00025919449399225414, 0.00027253522421233356, 0.000285875954432413, 0.00029921665554866195, 0.00031255738576874137, 0.0003258981159888208, 0.0003392388462089002, 0.00035257957642897964, 0.00036592030664905906, 0.0003792610368691385, 0.0003926017670892179, 0.0004059424973092973, 0.0004192831984255463, 0.0004326239286456257, 0.00044596465886570513, 0.00045930538908578455]}, "gradients/linearlayers.0.0.weight": {"_type": "histogram", "values": [1.0, 1.0, 5.0, 3.0, 10.0, 8.0, 15.0, 14.0, 26.0, 33.0, 30.0, 57.0, 86.0, 92.0, 131.0, 185.0, 223.0, 291.0, 322.0, 416.0, 506.0, 641.0, 838.0, 1026.0, 1394.0, 1683.0, 2100.0, 2639.0, 3915.0, 39275.0, 2630.0, 1486.0, 1092.0, 851.0, 677.0, 542.0, 476.0, 386.0, 313.0, 252.0, 186.0, 149.0, 115.0, 99.0, 70.0, 54.0, 46.0, 30.0, 30.0, 20.0, 13.0, 16.0, 9.0, 6.0, 6.0, 2.0, 3.0, 4.0, 0.0, 3.0, 0.0, 3.0, 0.0, 1.0], "bins": [-0.0006147621315903962, -0.0005939481779932976, -0.0005731341661885381, -0.0005523202125914395, -0.00053150620078668, -0.0005106922471895814, -0.0004898782353848219, -0.0004690642817877233, -0.00044825029908679426, -0.0004274363163858652, -0.00040662233368493617, -0.0003858083509840071, -0.00036499439738690853, -0.0003441804146859795, -0.00032336643198505044, -0.0003025524492841214, -0.00028173846658319235, -0.0002609244838822633, -0.00024011050118133426, -0.00021929653303232044, -0.0001984825503313914, -0.00017766856763046235, -0.00015685459948144853, -0.00013604061678051949, -0.00011522663407959044, -9.44126513786614e-05, -7.359867595368996e-05, -5.2784696890739724e-05, -3.1970717827789485e-05, -1.1156738764839247e-05, 9.657240298110992e-06, 3.047121936106123e-05, 5.128519842401147e-05, 7.209918112494051e-05, 9.291315654991195e-05, 0.00011372713197488338, 0.00013454111467581242, 0.00015535509737674147, 0.00017616906552575529, 0.00019698304822668433, 0.00021779703092761338, 0.00023861101362854242, 0.00025942499632947147, 0.0002802389790304005, 0.0003010529326274991, 0.00032186691532842815, 0.0003426808980293572, 0.00036349488073028624, 0.0003843088634312153, 0.00040512284613214433, 0.0004259368288330734, 0.0004467508115340024, 0.00046756479423493147, 0.0004883787478320301, 0.0005091927596367896, 0.0005300067132338881, 0.0005508207250386477, 0.0005716346786357462, 0.0005924486322328448, 0.0006132626440376043, 0.0006340765976347029, 0.0006548906094394624, 0.000675704563036561, 0.0006965185748413205, 0.0007173325284384191]}, "gradients/embeds.2.bias": {"_type": "histogram", "values": [1.0, 0.0, 0.0, 0.0, 0.0, 1.0, 0.0, 1.0, 0.0, 0.0, 1.0, 1.0, 2.0, 3.0, 4.0, 4.0, 3.0, 2.0, 2.0, 4.0, 0.0, 4.0, 4.0, 9.0, 7.0, 3.0, 10.0, 3.0, 3.0, 3.0, 6.0, 5.0, 6.0, 11.0, 71.0, 13.0, 7.0, 8.0, 3.0, 2.0, 4.0, 7.0, 3.0, 1.0, 1.0, 1.0, 1.0, 4.0, 6.0, 4.0, 0.0, 2.0, 3.0, 1.0, 3.0, 2.0, 1.0, 1.0, 2.0, 0.0, 0.0, 0.0, 0.0, 2.0], "bins": [-0.0007442282512784004, -0.0007227506139315665, -0.0007012730347923934, -0.0006797953974455595, -0.0006583177600987256, -0.0006368401227518916, -0.0006153625436127186, -0.0005938849062658846, -0.0005724072689190507, -0.0005509296897798777, -0.0005294520524330437, -0.0005079744150862098, -0.0004864968068432063, -0.00046501916949637234, -0.00044354156125336885, -0.0004220639239065349, -0.0004005863156635314, -0.00037910870742052794, -0.000357631070073694, -0.0003361534618306905, -0.00031467582448385656, -0.00029319821624085307, -0.0002717205788940191, -0.00025024297065101564, -0.00022876534785609692, -0.0002072877250611782, -0.0001858101022662595, -0.00016433247947134078, -0.0001428548712283373, -0.00012137724115746096, -9.989962563849986e-05, -7.842200284358114e-05, -5.6944380048662424e-05, -3.546675725374371e-05, -1.39891380968038e-05, 7.488482879125513e-06, 2.8966103855054826e-05, 5.044372664997354e-05, 7.192134216893464e-05, 9.339896496385336e-05, 0.00011487658775877208, 0.0001363542105536908, 0.0001578318333486095, 0.00017930945614352822, 0.0002007870643865317, 0.00022226468718145043, 0.00024374230997636914, 0.0002652199473232031, 0.0002866975555662066, 0.00030817516380921006, 0.000329652801156044, 0.0003511304093990475, 0.00037260804674588144, 0.0003940856549888849, 0.00041556329233571887, 0.00043704090057872236, 0.00045851850882172585, 0.0004799961461685598, 0.0005014737835153937, 0.0005229513626545668, 0.0005444290000014007, 0.0005659066373482347, 0.0005873842746950686, 0.0006088618538342416, 0.0006303394911810756]}, "gradients/embeds.2.weight": {"_type": "histogram", "values": [1.0, 0.0, 0.0, 0.0, 1.0, 2.0, 2.0, 2.0, 3.0, 2.0, 7.0, 11.0, 10.0, 7.0, 22.0, 21.0, 41.0, 39.0, 67.0, 96.0, 115.0, 156.0, 194.0, 233.0, 320.0, 449.0, 630.0, 830.0, 1090.0, 1560.0, 2177.0, 3180.0, 4535.0, 7552.0, 84046.0, 10440.0, 4094.0, 2583.0, 1706.0, 1221.0, 901.0, 645.0, 474.0, 412.0, 300.0, 223.0, 166.0, 137.0, 95.0, 75.0, 55.0, 35.0, 30.0, 18.0, 24.0, 14.0, 3.0, 7.0, 5.0, 4.0, 2.0, 0.0, 0.0, 2.0], "bins": [-0.0012597322929650545, -0.0012235294561833143, -0.0011873265029862523, -0.0011511236662045121, -0.001114920829422772, -0.00107871787622571, -0.0010425150394439697, -0.0010063122026622295, -0.0009701093076728284, -0.0009339064126834273, -0.0008977035759016871, -0.000861500680912286, -0.0008252977859228849, -0.0007890949491411448, -0.0007528920541517437, -0.0007166892173700035, -0.0006804863223806024, -0.0006442834273912013, -0.0006080805906094611, -0.00057187769562006, -0.0005356748588383198, -0.0004994719638489187, -0.0004632690688595176, -0.00042706620297394693, -0.0003908633370883763, -0.00035466047120280564, -0.000318457605317235, -0.0002822547103278339, -0.00024605184444226325, -0.0002098489785566926, -0.00017364609811920673, -0.00013744321768172085, -0.00010124046821147203, -6.503759504994377e-05, -2.8834721888415515e-05, 7.368151273112744e-06, 4.3571024434641004e-05, 7.977389759616926e-05, 0.00011597677075769752, 0.0001521796511951834, 0.00018838251708075404, 0.0002245853829663247, 0.00026078824885189533, 0.00029699114384129643, 0.0003331940097268671, 0.0003693968756124377, 0.00040559977060183883, 0.00044180263648740947, 0.0004780055023729801, 0.0005142083973623812, 0.0005504112341441214, 0.0005866141291335225, 0.0006228169659152627, 0.0006590198609046638, 0.0006952227558940649, 0.0007314255926758051, 0.0007676284876652062, 0.0008038313826546073, 0.0008400342194363475, 0.0008762371144257486, 0.0009124400094151497, 0.0009486428461968899, 0.00098484568297863, 0.001021048636175692, 0.0010572514729574323]}, "gradients/embeds.0.bias": {"_type": "histogram", "values": [2.0, 0.0, 0.0, 0.0, 1.0, 0.0, 0.0, 2.0, 2.0, 2.0, 0.0, 1.0, 4.0, 0.0, 2.0, 4.0, 1.0, 3.0, 5.0, 3.0, 4.0, 9.0, 3.0, 12.0, 14.0, 9.0, 15.0, 8.0, 15.0, 11.0, 13.0, 18.0, 21.0, 19.0, 28.0, 118.0, 26.0, 14.0, 13.0, 9.0, 6.0, 10.0, 9.0, 10.0, 1.0, 8.0, 6.0, 10.0, 6.0, 3.0, 5.0, 4.0, 4.0, 2.0, 4.0, 4.0, 3.0, 2.0, 1.0, 0.0, 0.0, 1.0, 1.0, 1.0], "bins": [-0.0006646198453381658, -0.0006458399584516883, -0.0006270600715652108, -0.0006082801264710724, -0.000589500239584595, -0.0005707203526981175, -0.0005519404076039791, -0.0005331605207175016, -0.0005143806338310242, -0.0004956007469445467, -0.00047682083095423877, -0.00045804091496393085, -0.0004392610280774534, -0.0004204811411909759, -0.000401701225200668, -0.00038292130921036005, -0.0003641414223238826, -0.0003453615354374051, -0.0003265816194470972, -0.00030780170345678926, -0.0002890218165703118, -0.0002702419296838343, -0.0002514620136935264, -0.0002326821122551337, -0.000213902210816741, -0.0001951223093783483, -0.0001763424079399556, -0.0001575625065015629, -0.0001387826050631702, -0.0001200027036247775, -0.0001012228021863848, -8.24429007479921e-05, -6.366294110193849e-05, -4.488303966354579e-05, -2.610313822515309e-05, -7.32323678676039e-06, 1.1456664651632309e-05, 3.0236566090025008e-05, 4.9016467528417706e-05, 6.77963689668104e-05, 8.65762704052031e-05, 0.0001053561718435958, 0.0001241360732819885, 0.0001429159747203812, 0.0001616958761587739, 0.0001804757775971666, 0.0001992556790355593, 0.000218035580473952, 0.0002368154819123447, 0.00025559536879882216, 0.0002743752847891301, 0.000293155200779438, 0.0003119350876659155, 0.00033071497455239296, 0.0003494948905427009, 0.0003682748065330088, 0.0003870546934194863, 0.00040583458030596375, 0.0004246144962962717, 0.0004433944122865796, 0.0004621742991730571, 0.00048095418605953455, 0.000499734072946012, 0.0005185140180401504, 0.0005372939049266279]}, "gradients/embeds.0.weight": {"_type": "histogram", "values": [2.0, 0.0, 0.0, 0.0, 1.0, 0.0, 2.0, 2.0, 4.0, 0.0, 1.0, 1.0, 6.0, 4.0, 1.0, 5.0, 5.0, 4.0, 8.0, 7.0, 9.0, 13.0, 9.0, 24.0, 25.0, 28.0, 48.0, 41.0, 69.0, 78.0, 114.0, 208.0, 512.0, 2419.0, 28645.0, 338120.0, 19872.0, 1900.0, 415.0, 181.0, 122.0, 71.0, 49.0, 31.0, 26.0, 25.0, 16.0, 21.0, 12.0, 6.0, 9.0, 12.0, 5.0, 7.0, 4.0, 5.0, 3.0, 4.0, 2.0, 0.0, 0.0, 1.0, 1.0, 1.0], "bins": [-0.0075989337638020515, -0.007384478114545345, -0.007170021999627352, -0.0069555663503706455, -0.006741110235452652, -0.006526654586195946, -0.0063121989369392395, -0.006097742822021246, -0.00588328717276454, -0.0056688315235078335, -0.00545437540858984, -0.005239919759333134, -0.0050254641100764275, -0.004811007995158434, -0.004596552345901728, -0.004382096230983734, -0.004167640581727028, -0.003953184932470322, -0.003738728817552328, -0.003524273168295622, -0.003309817286208272, -0.003095361404120922, -0.002880905754864216, -0.002666449872776866, -0.002451993990689516, -0.002237538108602166, -0.0020230822265148163, -0.00180862657725811, -0.0015941706951707602, -0.0013797148130834103, -0.0011652590474113822, -0.0009508032235316932, -0.0007363469339907169, -0.000521891110111028, -0.000307435286231339, -9.297946235165e-05, 0.00012147636152803898, 0.00033593218540772796, 0.0005503880092874169, 0.0007648438331671059, 0.0009792996570467949, 0.0011937555391341448, 0.0014082113048061728, 0.001622667070478201, 0.0018371229525655508, 0.0020515788346529007, 0.002266034483909607, 0.002480490365996957, 0.0026949462480843067, 0.0029094021301716566, 0.0031238580122590065, 0.0033383136615157127, 0.0035527695436030626, 0.0037672254256904125, 0.003981681074947119, 0.004196137189865112, 0.0044105928391218185, 0.004625048488378525, 0.004839504603296518, 0.0050539602525532246, 0.005268416367471218, 0.005482872016727924, 0.005697327665984631, 0.005911783780902624, 0.00612623943015933]}, "_wandb": {"runtime": 546}}