{"num_of_examples": 10400, "train_loss": 0.1831560790538788, "_timestamp": 1716357256.9521205, "_runtime": 3509.563893556595, "_step": 5718, "gradients/output.bias": {"_type": "histogram", "values": [1.0, 0.0, 0.0, 0.0, 0.0, 0.0, 0.0, 0.0, 0.0, 0.0, 0.0, 0.0, 0.0, 0.0, 0.0, 0.0, 0.0, 0.0, 0.0, 0.0, 0.0, 0.0, 0.0, 0.0, 0.0, 0.0, 0.0, 0.0, 0.0, 0.0, 0.0, 0.0, 0.0, 0.0, 0.0, 0.0, 0.0, 0.0, 0.0, 0.0, 0.0, 0.0, 0.0, 0.0, 0.0, 0.0, 0.0, 0.0, 0.0, 0.0, 0.0, 0.0, 0.0, 0.0, 0.0, 0.0, 0.0, 0.0, 0.0, 0.0, 0.0, 0.0, 0.0, 1.0], "bins": [-4.112219903618097e-05, -3.9837144868215546e-05, -3.855208706227131e-05, -3.7267032894305885e-05, -3.598197872634046e-05, -3.4696920920396224e-05, -3.34118667524308e-05, -3.212681258446537e-05, -3.084175841649994e-05, -2.955670061055571e-05, -2.827164644259028e-05, -2.698659045563545e-05, -2.570153446868062e-05, -2.4416480300715193e-05, -2.3131424313760363e-05, -2.1846370145794936e-05, -2.0561314158840105e-05, -1.9276258171885274e-05, -1.7991204003919847e-05, -1.6706148016965017e-05, -1.542109384899959e-05, -1.4136037862044759e-05, -1.2850981875089929e-05, -1.15659267976298e-05, -1.0280871720169671e-05, -8.995816642709542e-06, -7.710761565249413e-06, -6.425705578294583e-06, -5.140650500834454e-06, -3.855595423374325e-06, -2.5705398911668453e-06, -1.285484586333041e-06, -4.3291947804391384e-10, 1.2846223853557603e-06, 2.5696776901895646e-06, 3.854733222397044e-06, 5.139788299857173e-06, 6.424843377317302e-06, 7.709899364272133e-06, 8.994954441732261e-06, 1.028000951919239e-05, 1.1565064596652519e-05, 1.2850119674112648e-05, 1.4135175661067478e-05, 1.542023164802231e-05, 1.6705285815987736e-05, 1.7990341802942567e-05, 1.9275395970907994e-05, 2.0560451957862824e-05, 2.1845507944817655e-05, 2.3130562112783082e-05, 2.4415618099737912e-05, 2.570067226770334e-05, 2.698572825465817e-05, 2.8270784241613e-05, 2.9555838409578428e-05, 3.0840892577543855e-05, 3.212595038348809e-05, 3.3411004551453516e-05, 3.469605871941894e-05, 3.598111652536318e-05, 3.7266170693328604e-05, 3.855122486129403e-05, 3.9836282667238265e-05, 4.112133683520369e-05]}, "gradients/output.weight": {"_type": "histogram", "values": [1.0, 0.0, 0.0, 1.0, 0.0, 0.0, 0.0, 0.0, 0.0, 0.0, 1.0, 2.0, 3.0, 2.0, 5.0, 5.0, 12.0, 13.0, 13.0, 16.0, 12.0, 6.0, 4.0, 4.0, 2.0, 2.0, 5.0, 1.0, 7.0, 11.0, 16.0, 34.0, 190.0, 16.0, 10.0, 8.0, 1.0, 5.0, 2.0, 2.0, 4.0, 4.0, 6.0, 12.0, 16.0, 13.0, 13.0, 12.0, 5.0, 5.0, 2.0, 3.0, 2.0, 1.0, 0.0, 0.0, 0.0, 0.0, 0.0, 0.0, 1.0, 0.0, 0.0, 1.0], "bins": [-0.00010638626554282382, -0.00010306171316187829, -9.973715350497514e-05, -9.641259384807199e-05, -9.308804146712646e-05, -8.976348908618093e-05, -8.643892942927778e-05, -8.311436977237463e-05, -7.97898173914291e-05, -7.646526501048356e-05, -7.314070535358042e-05, -6.981614569667727e-05, -6.649159331573173e-05, -6.31670409347862e-05, -5.984248127788305e-05, -5.651792525895871e-05, -5.319336924003437e-05, -4.986881322111003e-05, -4.654425720218569e-05, -4.321970118326135e-05, -3.989514516433701e-05, -3.657058914541267e-05, -3.324603312648833e-05, -2.9921477107563987e-05, -2.6596921088639647e-05, -2.3272365069715306e-05, -1.9947809050790966e-05, -1.6623253031866625e-05, -1.3298697012942284e-05, -9.974140994017944e-06, -6.649584975093603e-06, -3.3250289561692625e-06, -4.802132025361061e-10, 3.3240758057218045e-06, 6.648631824646145e-06, 9.973187843570486e-06, 1.3297743862494826e-05, 1.6622299881419167e-05, 1.9946855900343508e-05, 2.3271411919267848e-05, 2.659596793819219e-05, 2.992052395711653e-05, 3.324507997604087e-05, 3.656963599496521e-05, 3.989419201388955e-05, 4.321874803281389e-05, 4.654330405173823e-05, 4.986786007066257e-05, 5.3192416089586914e-05, 5.6516972108511254e-05, 5.9841528127435595e-05, 6.316608050838113e-05, 6.649064016528428e-05, 6.981519982218742e-05, 7.313975220313296e-05, 7.646430458407849e-05, 7.978886424098164e-05, 8.311342389788479e-05, 8.643797627883032e-05, 8.976252865977585e-05, 9.3087088316679e-05, 9.641164797358215e-05, 9.973620035452768e-05, 0.00010306075273547322, 0.00010638531239237636]}, "gradients/linearlayers.4.0.bias": {"_type": "histogram", "values": [1.0, 1.0, 0.0, 2.0, 2.0, 1.0, 1.0, 3.0, 2.0, 3.0, 4.0, 2.0, 2.0, 4.0, 9.0, 5.0, 6.0, 1.0, 6.0, 2.0, 3.0, 8.0, 5.0, 3.0, 3.0, 2.0, 1.0, 2.0, 5.0, 0.0, 0.0, 3.0, 2.0, 1.0, 0.0, 1.0, 1.0, 78.0, 1.0, 0.0, 0.0, 1.0, 0.0, 1.0, 1.0, 3.0, 0.0, 2.0, 7.0, 7.0, 5.0, 5.0, 7.0, 9.0, 3.0, 3.0, 9.0, 5.0, 3.0, 3.0, 1.0, 3.0, 1.0, 1.0], "bins": [-9.132698323810473e-06, -8.891701327229384e-06, -8.650703421153594e-06, -8.409706424572505e-06, -8.168709427991416e-06, -7.927711521915626e-06, -7.686714525334537e-06, -7.445717528753448e-06, -7.204720077425009e-06, -6.963722626096569e-06, -6.72272562951548e-06, -6.481728178187041e-06, -6.240730726858601e-06, -5.999733730277512e-06, -5.758736278949073e-06, -5.517739282367984e-06, -5.276741831039544e-06, -5.0357443797111046e-06, -4.794747383130016e-06, -4.553749931801576e-06, -4.312752935220487e-06, -4.071755483892048e-06, -3.830758032563608e-06, -3.589760808608844e-06, -3.3487635846540798e-06, -3.1077663606993156e-06, -2.8667691367445514e-06, -2.6257716854161117e-06, -2.3847744614613475e-06, -2.1437772375065833e-06, -1.9027798998649814e-06, -1.6617825622233795e-06, -1.420786247763317e-06, -1.1797890238085529e-06, -9.38791686166951e-07, -6.977944053687679e-07, -4.5679712457058486e-07, -2.157998437724018e-07, 2.5197437025781255e-08, 2.661947178239643e-07, 5.071919986221474e-07, 7.481892794203304e-07, 9.891865602185135e-07, 1.2301838978601154e-06, 1.4711811218148796e-06, 1.7121783457696438e-06, 1.9531757970980834e-06, 2.1941730210528476e-06, 2.435170245007612e-06, 2.676167468962376e-06, 2.91716469291714e-06, 3.15816214424558e-06, 3.399159368200344e-06, 3.6401565921551082e-06, 3.881154043483548e-06, 4.122151040064637e-06, 4.363148491393076e-06, 4.604145942721516e-06, 4.845142939302605e-06, 5.086140390631044e-06, 5.327137841959484e-06, 5.568134838540573e-06, 5.809132289869012e-06, 6.050129286450101e-06, 6.291126737778541e-06]}, "gradients/linearlayers.4.0.weight": {"_type": "histogram", "values": [1.0, 1.0, 0.0, 2.0, 2.0, 1.0, 1.0, 3.0, 3.0, 8.0, 4.0, 6.0, 9.0, 13.0, 16.0, 25.0, 31.0, 27.0, 39.0, 63.0, 82.0, 90.0, 110.0, 167.0, 201.0, 269.0, 353.0, 499.0, 612.0, 862.0, 1051.0, 1398.0, 1718.0, 1952.0, 2298.0, 2559.0, 2814.0, 34914.0, 2385.0, 2080.0, 2186.0, 1935.0, 1468.0, 1010.0, 709.0, 494.0, 327.0, 213.0, 160.0, 120.0, 66.0, 61.0, 37.0, 27.0, 13.0, 12.0, 10.0, 7.0, 3.0, 3.0, 1.0, 3.0, 1.0, 1.0], "bins": [-2.174390283471439e-05, -2.116361793014221e-05, -2.0583333025570028e-05, -2.0003048120997846e-05, -1.9422763216425665e-05, -1.8842478311853483e-05, -1.8262193407281302e-05, -1.768190850270912e-05, -1.710162359813694e-05, -1.6521338693564758e-05, -1.5941053788992576e-05, -1.5360768884420395e-05, -1.4780483979848213e-05, -1.4200199075276032e-05, -1.361991417070385e-05, -1.303962926613167e-05, -1.2459344361559488e-05, -1.1879059456987306e-05, -1.1298774552415125e-05, -1.0718489647842944e-05, -1.0138204743270762e-05, -9.557919838698581e-06, -8.9776349341264e-06, -8.397350029554218e-06, -7.817065124982037e-06, -7.236780220409855e-06, -6.656495315837674e-06, -6.0762104112654924e-06, -5.495925506693311e-06, -4.91564060212113e-06, -4.335355697548948e-06, -3.755070792976767e-06, -3.1747858884045854e-06, -2.594500983832404e-06, -2.0142160792602226e-06, -1.4339311746880412e-06, -8.536462701158598e-07, -2.733613655436784e-07, 3.06923539028503e-07, 8.872084436006844e-07, 1.4674933481728658e-06, 2.047778252745047e-06, 2.6280631573172286e-06, 3.20834806188941e-06, 3.7886329664615914e-06, 4.368917871033773e-06, 4.949202775605954e-06, 5.529487680178136e-06, 6.109772584750317e-06, 6.6900574893224984e-06, 7.27034239389468e-06, 7.850627298466861e-06, 8.430912203039043e-06, 9.011197107611224e-06, 9.591482012183405e-06, 1.0171766916755587e-05, 1.0752051821327768e-05, 1.133233672589995e-05, 1.1912621630472131e-05, 1.2492906535044312e-05, 1.3073191439616494e-05, 1.3653476344188675e-05, 1.4233761248760857e-05, 1.4814046153333038e-05, 1.539433105790522e-05]}, "gradients/linearlayers.3.0.bias": {"_type": "histogram", "values": [2.0, 1.0, 1.0, 3.0, 1.0, 2.0, 4.0, 6.0, 2.0, 6.0, 4.0, 7.0, 6.0, 3.0, 4.0, 5.0, 2.0, 2.0, 1.0, 4.0, 4.0, 0.0, 3.0, 3.0, 2.0, 0.0, 2.0, 4.0, 1.0, 3.0, 3.0, 3.0, 68.0, 1.0, 0.0, 4.0, 4.0, 3.0, 6.0, 1.0, 2.0, 1.0, 2.0, 1.0, 4.0, 1.0, 1.0, 5.0, 4.0, 4.0, 6.0, 8.0, 8.0, 2.0, 4.0, 4.0, 2.0, 0.0, 1.0, 5.0, 1.0, 5.0, 0.0, 4.0], "bins": [-2.5213190383510664e-05, -2.4445460439892486e-05, -2.3677730496274307e-05, -2.2910002371645533e-05, -2.2142272428027354e-05, -2.1374542484409176e-05, -2.0606812540790997e-05, -1.9839084416162223e-05, -1.9071354472544044e-05, -1.8303624528925866e-05, -1.7535894585307688e-05, -1.676816464168951e-05, -1.6000436517060734e-05, -1.5232706573442556e-05, -1.4464976629824378e-05, -1.3697247595700901e-05, -1.2929517652082723e-05, -1.2161787708464544e-05, -1.1394058674341068e-05, -1.062632873072289e-05, -9.858599696599413e-06, -9.090869752981234e-06, -8.323140718857758e-06, -7.555410775239579e-06, -6.787681286368752e-06, -6.019951797497924e-06, -5.252222308627097e-06, -4.4844928197562695e-06, -3.7167631035117665e-06, -2.949033614640939e-06, -2.181303898396436e-06, -1.4135744095256086e-06, -6.458449206547812e-07, 1.2188462505946518e-07, 8.896141707737115e-07, 1.6573437733313767e-06, 2.425073262202204e-06, 3.1928027510730317e-06, 3.960532467317535e-06, 4.728261956188362e-06, 5.4959914450591896e-06, 6.263720933930017e-06, 7.0314504228008445e-06, 7.799179911671672e-06, 8.56690985528985e-06, 9.334638889413327e-06, 1.0102368833031505e-05, 1.0870097867154982e-05, 1.163782781077316e-05, 1.2405557754391339e-05, 1.3173286788514815e-05, 1.3941016732132994e-05, 1.470874576625647e-05, 1.5476474800379947e-05, 1.6244204743998125e-05, 1.7011934687616304e-05, 1.7779664631234482e-05, 1.854739457485266e-05, 1.9315122699481435e-05, 2.0082852643099613e-05, 2.0850582586717792e-05, 2.161831253033597e-05, 2.2386040654964745e-05, 2.3153770598582923e-05, 2.3921500542201102e-05]}, "gradients/linearlayers.3.0.weight": {"_type": "histogram", "values": [2.0, 3.0, 4.0, 5.0, 5.0, 9.0, 12.0, 19.0, 24.0, 24.0, 32.0, 45.0, 59.0, 58.0, 76.0, 101.0, 109.0, 129.0, 170.0, 201.0, 272.0, 311.0, 425.0, 500.0, 625.0, 757.0, 956.0, 1202.0, 1482.0, 1753.0, 1938.0, 2220.0, 36680.0, 2550.0, 2248.0, 2059.0, 1771.0, 1332.0, 1087.0, 864.0, 688.0, 567.0, 425.0, 343.0, 280.0, 216.0, 189.0, 139.0, 123.0, 85.0, 75.0, 69.0, 40.0, 41.0, 32.0, 26.0, 17.0, 14.0, 14.0, 9.0, 8.0, 8.0, 5.0, 4.0], "bins": [-4.7112662286963314e-05, -4.567883297568187e-05, -4.4245007302379236e-05, -4.281117799109779e-05, -4.137735231779516e-05, -3.9943523006513715e-05, -3.850969369523227e-05, -3.7075868021929637e-05, -3.5642038710648194e-05, -3.420821303734556e-05, -3.2774383726064116e-05, -3.134055441478267e-05, -2.9906728741480038e-05, -2.8472901249188e-05, -2.7039071937906556e-05, -2.5605244445614517e-05, -2.4171416953322478e-05, -2.273758946103044e-05, -2.13037619687384e-05, -1.9869932657456957e-05, -1.8436105165164918e-05, -1.700227767287288e-05, -1.556845018058084e-05, -1.4134621778794099e-05, -1.270079428650206e-05, -1.126696679421002e-05, -9.83313839242328e-06, -8.39931090013124e-06, -6.9654829530918505e-06, -5.5316550060524605e-06, -4.0978275137604214e-06, -2.6639995667210314e-06, -1.2301716196816415e-06, 2.036562136709108e-07, 1.637484047023463e-06, 3.0713117666891776e-06, 4.505139713728568e-06, 5.9389676607679576e-06, 7.372795153059997e-06, 8.806623554846738e-06, 1.0240451047138777e-05, 1.1674278539430816e-05, 1.3108106941217557e-05, 1.4541934433509596e-05, 1.5975761925801635e-05, 1.7409589418093674e-05, 1.8843418729375117e-05, 2.0277246221667156e-05, 2.1711073713959195e-05, 2.3144901206251234e-05, 2.4578728698543273e-05, 2.6012558009824716e-05, 2.7446385502116755e-05, 2.8880212994408794e-05, 3.0314040486700833e-05, 3.1747869797982275e-05, 3.318169547128491e-05, 3.4615524782566354e-05, 3.604935045586899e-05, 3.748317976715043e-05, 3.8917009078431875e-05, 4.035083475173451e-05, 4.178466406301595e-05, 4.321848973631859e-05, 4.465231904760003e-05]}, "gradients/linearlayers.2.0.bias": {"_type": "histogram", "values": [2.0, 2.0, 0.0, 5.0, 0.0, 2.0, 2.0, 4.0, 3.0, 3.0, 4.0, 1.0, 2.0, 1.0, 5.0, 1.0, 1.0, 6.0, 3.0, 6.0, 6.0, 3.0, 4.0, 3.0, 1.0, 4.0, 1.0, 5.0, 1.0, 1.0, 1.0, 3.0, 3.0, 88.0, 3.0, 2.0, 1.0, 1.0, 2.0, 2.0, 7.0, 2.0, 5.0, 5.0, 1.0, 3.0, 5.0, 3.0, 1.0, 2.0, 5.0, 4.0, 2.0, 2.0, 2.0, 6.0, 1.0, 2.0, 1.0, 3.0, 2.0, 1.0, 1.0, 2.0], "bins": [-6.893852696521208e-05, -6.689748261123896e-05, -6.485643098130822e-05, -6.28153866273351e-05, -6.077434227336198e-05, -5.873329791938886e-05, -5.669224992743693e-05, -5.4651201935485005e-05, -5.2610157581511885e-05, -5.0569113227538764e-05, -4.852806523558684e-05, -4.648701724363491e-05, -4.444597288966179e-05, -4.240492853568867e-05, -4.036388054373674e-05, -3.8322832551784813e-05, -3.628178819781169e-05, -3.424074384383857e-05, -3.2199695851886645e-05, -3.015864967892412e-05, -2.8117603505961597e-05, -2.6076557332999073e-05, -2.403551116003655e-05, -2.1994464987074025e-05, -1.99534188141115e-05, -1.7912372641148977e-05, -1.5871326468186453e-05, -1.3830280295223929e-05, -1.1789234122261405e-05, -9.748187949298881e-06, -7.707141776336357e-06, -5.666095603373833e-06, -3.625049430411309e-06, -1.584003257448785e-06, 4.57042915513739e-07, 2.498089088476263e-06, 4.539135261438787e-06, 6.580181434401311e-06, 8.621227607363835e-06, 1.0662273780326359e-05, 1.2703319953288883e-05, 1.4744366126251407e-05, 1.678541229921393e-05, 1.8826458472176455e-05, 2.086750464513898e-05, 2.2908550818101503e-05, 2.4949596991064027e-05, 2.699064316402655e-05, 2.9031689336989075e-05, 3.1072733690962195e-05, 3.311378168291412e-05, 3.515482967486605e-05, 3.719587402883917e-05, 3.923691838281229e-05, 4.127796637476422e-05, 4.3319014366716146e-05, 4.536005872068927e-05, 4.740110307466239e-05, 4.9442151066614315e-05, 5.148319905856624e-05, 5.352424341253936e-05, 5.556528776651248e-05, 5.760633575846441e-05, 5.964738375041634e-05, 6.168842810438946e-05]}, "gradients/linearlayers.2.0.weight": {"_type": "histogram", "values": [2.0, 2.0, 0.0, 5.0, 0.0, 3.0, 6.0, 3.0, 9.0, 5.0, 8.0, 10.0, 11.0, 10.0, 23.0, 20.0, 36.0, 50.0, 64.0, 74.0, 108.0, 115.0, 156.0, 224.0, 285.0, 432.0, 555.0, 706.0, 940.0, 1381.0, 1852.0, 2316.0, 2672.0, 41413.0, 2931.0, 2481.0, 1937.0, 1377.0, 893.0, 648.0, 510.0, 331.0, 255.0, 174.0, 118.0, 91.0, 79.0, 46.0, 48.0, 27.0, 24.0, 15.0, 12.0, 9.0, 5.0, 10.0, 3.0, 4.0, 2.0, 4.0, 2.0, 1.0, 1.0, 2.0], "bins": [-0.00016720578423701227, -0.0001622556446818635, -0.00015730551967862993, -0.00015235538012348115, -0.0001474052551202476, -0.00014245511556509882, -0.00013750499056186527, -0.0001325548510067165, -0.00012760472600348294, -0.00012265458644833416, -0.00011770445416914299, -0.00011275432188995183, -0.00010780418961076066, -0.00010285405733156949, -9.790392505237833e-05, -9.295379277318716e-05, -8.8003660493996e-05, -8.305352821480483e-05, -7.810339593561366e-05, -7.31532636564225e-05, -6.820313137723133e-05, -6.325299909804016e-05, -5.830286318087019e-05, -5.3352730901679024e-05, -4.840259862248786e-05, -4.345246634329669e-05, -3.8502334064105526e-05, -3.355220178491436e-05, -2.860206768673379e-05, -2.3651935407542624e-05, -1.8701801309362054e-05, -1.3751669030170888e-05, -8.801536750979722e-06, -3.8514040170412045e-06, 1.0987287168973126e-06, 6.04886145083583e-06, 1.0998994184774347e-05, 1.5949126463965513e-05, 2.0899260562146083e-05, 2.584939284133725e-05, 3.0799525120528415e-05, 3.574965739971958e-05, 4.069978967891075e-05, 4.564992195810191e-05, 5.0600057875271887e-05, 5.555019015446305e-05, 6.050032243365422e-05, 6.545045471284539e-05, 7.040058699203655e-05, 7.535071927122772e-05, 8.030085155041888e-05, 8.525098382961005e-05, 9.020111610880122e-05, 9.515124838799238e-05, 0.00010010138066718355, 0.00010505151294637471, 0.0001100016525015235, 0.00011495178478071466, 0.00011990191705990583, 0.00012485204206313938, 0.00012980218161828816, 0.0001347523066215217, 0.0001397024461766705, 0.00014465257117990404, 0.00014960271073505282]}, "gradients/linearlayers.1.0.bias": {"_type": "histogram", "values": [1.0, 0.0, 0.0, 0.0, 0.0, 0.0, 0.0, 0.0, 1.0, 2.0, 1.0, 1.0, 1.0, 2.0, 2.0, 1.0, 4.0, 1.0, 1.0, 4.0, 5.0, 6.0, 4.0, 5.0, 8.0, 4.0, 3.0, 1.0, 9.0, 5.0, 5.0, 1.0, 1.0, 3.0, 1.0, 4.0, 8.0, 86.0, 5.0, 3.0, 5.0, 6.0, 4.0, 4.0, 1.0, 10.0, 1.0, 2.0, 4.0, 1.0, 5.0, 2.0, 2.0, 2.0, 3.0, 2.0, 1.0, 3.0, 1.0, 3.0, 2.0, 1.0, 0.0, 2.0], "bins": [-0.00018494600953999907, -0.00017997056420426816, -0.00017499513342045248, -0.00017001968808472157, -0.00016504424274899065, -0.00016006881196517497, -0.00015509336662944406, -0.00015011793584562838, -0.00014514249050989747, -0.00014016704517416656, -0.00013519161439035088, -0.00013021616905461997, -0.00012524073827080429, -0.00012026529293507338, -0.00011528984759934247, -0.00011031440953956917, -0.00010533897147979587, -0.00010036353342002258, -9.538809536024928e-05, -9.041265002451837e-05, -8.543721196474507e-05, -8.046177390497178e-05, -7.548632856924087e-05, -7.051089050946757e-05, -6.553545244969428e-05, -6.056001438992098e-05, -5.5584572692168877e-05, -5.060913099441677e-05, -4.563369293464348e-05, -4.065825487487018e-05, -3.568281317711808e-05, -3.0707371479365975e-05, -2.5731947971507907e-05, -2.0756508092745207e-05, -1.5781068213982508e-05, -1.0805628335219808e-05, -5.830188456457108e-06, -8.547485776944086e-07, 4.120691301068291e-06, 9.09613117983099e-06, 1.407157105859369e-05, 1.904701093735639e-05, 2.402245081611909e-05, 2.899789069488179e-05, 3.397333057364449e-05, 3.8948768633417785e-05, 4.392421033116989e-05, 4.889965202892199e-05, 5.387509008869529e-05, 5.8850528148468584e-05, 6.382596620824188e-05, 6.880141154397279e-05, 7.377684960374609e-05, 7.875228766351938e-05, 8.372773299925029e-05, 8.870317105902359e-05, 9.367860911879689e-05, 9.865404717857018e-05, 0.00010362948523834348, 0.00010860493057407439, 0.00011358036863384768, 0.00011855580669362098, 0.0001235312520293519, 0.00012850668281316757, 0.00013348212814889848]}, "gradients/linearlayers.1.0.weight": {"_type": "histogram", "values": [1.0, 1.0, 1.0, 1.0, 1.0, 0.0, 2.0, 0.0, 2.0, 2.0, 8.0, 6.0, 9.0, 14.0, 12.0, 11.0, 20.0, 25.0, 37.0, 38.0, 48.0, 60.0, 93.0, 98.0, 141.0, 181.0, 213.0, 260.0, 397.0, 469.0, 644.0, 811.0, 1091.0, 1376.0, 1769.0, 2203.0, 6220.0, 41603.0, 2116.0, 1443.0, 972.0, 787.0, 556.0, 401.0, 326.0, 250.0, 177.0, 130.0, 124.0, 87.0, 66.0, 51.0, 40.0, 30.0, 27.0, 19.0, 16.0, 14.0, 12.0, 10.0, 6.0, 4.0, 2.0, 2.0], "bins": [-0.00036711429129354656, -0.000357195851393044, -0.000347277382388711, -0.00033735891338437796, -0.0003274404734838754, -0.00031752203358337283, -0.0003076035645790398, -0.0002976850955747068, -0.00028776665567420423, -0.00027784821577370167, -0.00026792974676936865, -0.00025801127776503563, -0.00024809283786453307, -0.00023817438341211528, -0.00022825592895969748, -0.0002183374745072797, -0.0002084190200548619, -0.0001985005656024441, -0.00018858211115002632, -0.00017866365669760853, -0.00016874520224519074, -0.00015882674779277295, -0.00014890829334035516, -0.00013898983888793737, -0.00012907138443551958, -0.00011915292998310179, -0.000109234475530684, -9.93160210782662e-05, -8.939756662584841e-05, -7.947911217343062e-05, -6.956065772101283e-05, -5.964220326859504e-05, -4.972374881617725e-05, -3.980529436375946e-05, -2.9886839911341667e-05, -1.9968385458923876e-05, -1.0049931006506085e-05, -1.314765540882945e-07, 9.786977898329496e-06, 1.9705432350747287e-05, 2.9623886803165078e-05, 3.954234125558287e-05, 4.946079570800066e-05, 5.937925016041845e-05, 6.929770461283624e-05, 7.921615906525403e-05, 8.913461351767182e-05, 9.905306797008961e-05, 0.0001089715224225074, 0.0001188899768749252, 0.000128808431327343, 0.00013872688577976078, 0.00014864534023217857, 0.00015856379468459636, 0.00016848224913701415, 0.00017840070358943194, 0.00018831915804184973, 0.00019823761249426752, 0.00020815606694668531, 0.0002180745213991031, 0.0002279929758515209, 0.0002379114303039387, 0.0002478298847563565, 0.0002577483537606895, 0.00026766679366119206]}, "gradients/linearlayers.0.0.bias": {"_type": "histogram", "values": [1.0, 0.0, 0.0, 2.0, 1.0, 0.0, 0.0, 0.0, 0.0, 1.0, 3.0, 3.0, 1.0, 1.0, 4.0, 3.0, 2.0, 4.0, 4.0, 2.0, 2.0, 4.0, 2.0, 4.0, 7.0, 2.0, 4.0, 6.0, 2.0, 3.0, 5.0, 2.0, 4.0, 8.0, 83.0, 11.0, 3.0, 9.0, 3.0, 1.0, 1.0, 3.0, 3.0, 4.0, 3.0, 5.0, 2.0, 6.0, 7.0, 3.0, 4.0, 3.0, 1.0, 3.0, 1.0, 0.0, 2.0, 1.0, 4.0, 0.0, 1.0, 0.0, 1.0, 1.0], "bins": [-0.0002740642230492085, -0.0002662058104760945, -0.00025834739790298045, -0.0002504889853298664, -0.00024263055820483714, -0.0002347721456317231, -0.00022691371850669384, -0.0002190553059335798, -0.00021119689336046576, -0.00020333848078735173, -0.0001954800682142377, -0.00018762164108920842, -0.0001797632285160944, -0.00017190481594298035, -0.00016404638881795108, -0.00015618797624483705, -0.000148329563671723, -0.00014047115109860897, -0.00013261273852549493, -0.00012475431140046567, -0.00011689589882735163, -0.00010903748625423759, -0.00010117906640516594, -9.332064655609429e-05, -8.546223398298025e-05, -7.760382140986621e-05, -6.974540156079456e-05, -6.188698171172291e-05, -5.402856913860887e-05, -4.617015292751603e-05, -3.8311736716423184e-05, -3.045332050533034e-05, -2.2594904294237494e-05, -1.473648808314465e-05, -6.878071872051805e-06, 9.803443390410393e-07, 8.838760550133884e-06, 1.669717676122673e-05, 2.4555592972319573e-05, 3.241400918341242e-05, 4.027242539450526e-05, 4.813084160559811e-05, 5.598925781669095e-05, 6.38476776657626e-05, 7.170609023887664e-05, 7.956450281199068e-05, 8.742292266106233e-05, 9.528134251013398e-05, 0.00010313975508324802, 0.00011099816765636206, 0.00011885658750543371, 0.00012671500735450536, 0.0001345734199276194, 0.00014243183250073344, 0.0001502902596257627, 0.00015814867219887674, 0.00016600708477199078, 0.00017386549734510481, 0.00018172390991821885, 0.00018958233704324812, 0.00019744074961636215, 0.0002052991621894762, 0.00021315758931450546, 0.0002210160018876195, 0.00022887441446073353]}, "gradients/linearlayers.0.0.weight": {"_type": "histogram", "values": [1.0, 0.0, 0.0, 2.0, 1.0, 0.0, 0.0, 0.0, 0.0, 1.0, 3.0, 4.0, 2.0, 2.0, 10.0, 8.0, 8.0, 20.0, 21.0, 31.0, 45.0, 71.0, 61.0, 144.0, 179.0, 218.0, 312.0, 411.0, 549.0, 732.0, 995.0, 1382.0, 1922.0, 2527.0, 43446.0, 4581.0, 2128.0, 1539.0, 1166.0, 873.0, 620.0, 467.0, 347.0, 210.0, 134.0, 133.0, 55.0, 66.0, 43.0, 16.0, 20.0, 9.0, 4.0, 6.0, 1.0, 0.0, 2.0, 1.0, 4.0, 0.0, 1.0, 0.0, 1.0, 1.0], "bins": [-0.0006528623052872717, -0.0006341416737996042, -0.0006154210423119366, -0.0005967003526166081, -0.0005779797211289406, -0.000559259089641273, -0.0005405384581536055, -0.0005218178266659379, -0.0005030971951782703, -0.0004843765345867723, -0.0004656558739952743, -0.00044693524250760674, -0.0004282146110199392, -0.00040949395042844117, -0.0003907733189407736, -0.0003720526583492756, -0.00035333202686160803, -0.00033461139537394047, -0.00031589073478244245, -0.0002971701032947749, -0.00027844944270327687, -0.0002597288112156093, -0.00024100817972794175, -0.00022228753368835896, -0.00020356688764877617, -0.00018484624160919338, -0.0001661255955696106, -0.00014740496408194304, -0.00012868431804236025, -0.00010996367200277746, -9.124303323915228e-05, -7.252239447552711e-05, -5.380174843594432e-05, -3.508110603434034e-05, -1.6360463632736355e-05, 2.3601787688676268e-06, 2.108082117047161e-05, 3.980146357207559e-05, 5.852210597367957e-05, 7.724274473730475e-05, 9.596339077688754e-05, 0.00011468403681647032, 0.00013340468285605311, 0.00015212531434372067, 0.00017084596038330346, 0.00018956660642288625, 0.0002082872379105538, 0.0002270078839501366, 0.0002457285299897194, 0.00026444916147738695, 0.00028316982206888497, 0.00030189045355655253, 0.00032061111414805055, 0.0003393317456357181, 0.00035805237712338567, 0.0003767730377148837, 0.00039549366920255125, 0.0004142143006902188, 0.0004329349612817168, 0.0004516555927693844, 0.00047037622425705194, 0.0004890968557447195, 0.000507817545440048, 0.0005265381769277155, 0.0005452588084153831]}, "gradients/embeds.2.bias": {"_type": "histogram", "values": [1.0, 1.0, 0.0, 0.0, 1.0, 0.0, 2.0, 2.0, 1.0, 1.0, 0.0, 1.0, 0.0, 0.0, 3.0, 2.0, 4.0, 3.0, 4.0, 2.0, 2.0, 3.0, 5.0, 7.0, 3.0, 3.0, 4.0, 2.0, 1.0, 4.0, 3.0, 1.0, 6.0, 6.0, 15.0, 71.0, 16.0, 8.0, 4.0, 2.0, 5.0, 2.0, 1.0, 4.0, 5.0, 3.0, 2.0, 5.0, 3.0, 5.0, 3.0, 4.0, 5.0, 1.0, 3.0, 0.0, 4.0, 3.0, 1.0, 1.0, 0.0, 1.0, 0.0, 1.0], "bins": [-0.00039432794437743723, -0.00038327896618284285, -0.00037222998798824847, -0.00036118098068982363, -0.00035013200249522924, -0.00033908302430063486, -0.0003280340461060405, -0.00031698503880761564, -0.00030593606061302125, -0.00029488708241842687, -0.0002838381042238325, -0.0002727891260292381, -0.00026174011873081326, -0.0002506911405362189, -0.0002396421623416245, -0.0002285931695951149, -0.0002175441914005205, -0.00020649521320592612, -0.0001954462204594165, -0.00018439724226482213, -0.00017334824951831251, -0.00016229927132371813, -0.00015125027857720852, -0.00014020130038261414, -0.00012915232218801975, -0.00011810332944151014, -0.00010705434397095814, -9.600535850040615e-05, -8.495638030581176e-05, -7.390739483525977e-05, -6.285840936470777e-05, -5.180942389415577e-05, -4.076043842360377e-05, -2.9711452953051776e-05, -1.8662469301489182e-05, -7.613484740431886e-06, 3.4354998206254095e-06, 1.4484484381682705e-05, 2.553346894274e-05, 3.6582452594302595e-05, 4.763143806485459e-05, 5.868042353540659e-05, 6.972940900595859e-05, 8.077839447651058e-05, 9.182737267110497e-05, 0.00010287635814165697, 0.00011392534361220896, 0.00012497433635871857, 0.00013602331455331296, 0.00014707229274790734, 0.00015812128549441695, 0.00016917026368901134, 0.00018021925643552095, 0.00019126823463011533, 0.00020231722737662494, 0.00021336620557121933, 0.0002244151837658137, 0.00023546417651232332, 0.00024651316925883293, 0.0002575621474534273, 0.0002686111256480217, 0.0002796601038426161, 0.0002907091111410409, 0.0003017580893356353, 0.0003128070675302297]}, "gradients/embeds.2.weight": {"_type": "histogram", "values": [1.0, 3.0, 0.0, 1.0, 2.0, 1.0, 6.0, 5.0, 7.0, 11.0, 11.0, 7.0, 17.0, 16.0, 22.0, 32.0, 35.0, 39.0, 58.0, 80.0, 109.0, 116.0, 146.0, 166.0, 248.0, 328.0, 433.0, 523.0, 694.0, 959.0, 1221.0, 1690.0, 2129.0, 2882.0, 3930.0, 21933.0, 78302.0, 4063.0, 2800.0, 2150.0, 1613.0, 1100.0, 834.0, 629.0, 430.0, 319.0, 245.0, 190.0, 145.0, 105.0, 72.0, 53.0, 48.0, 36.0, 21.0, 18.0, 12.0, 9.0, 6.0, 6.0, 1.0, 1.0, 2.0, 1.0], "bins": [-0.0007727234624326229, -0.0007512741722166538, -0.0007298248820006847, -0.0007083755917847157, -0.0006869263015687466, -0.0006654770695604384, -0.0006440277793444693, -0.0006225784891285002, -0.0006011291989125311, -0.000579679908696562, -0.000558230618480593, -0.0005367813282646239, -0.0005153320962563157, -0.0004938828060403466, -0.00047243351582437754, -0.00045098422560840845, -0.00042953493539243937, -0.0004080856451764703, -0.0003866363549605012, -0.00036518709384836257, -0.0003437378036323935, -0.0003222885134164244, -0.00030083925230428576, -0.0002793899620883167, -0.0002579406718723476, -0.0002364913816563785, -0.00021504210599232465, -0.0001935928303282708, -0.0001721435401123017, -0.00015069424989633262, -0.00012924497423227876, -0.00010779569129226729, -8.634640835225582e-05, -6.489712541224435e-05, -4.344784247223288e-05, -2.1998559532221407e-05, -5.492765922099352e-07, 2.0900006347801536e-05, 4.234928928781301e-05, 6.379857222782448e-05, 8.524785516783595e-05, 0.00010669713810784742, 0.0001281464210478589, 0.00014959569671191275, 0.00017104498692788184, 0.00019249427714385092, 0.00021394355280790478, 0.00023539282847195864, 0.0002568421186879277, 0.0002782914089038968, 0.0002997406991198659, 0.0003211899602320045, 0.0003426392504479736, 0.0003640885406639427, 0.0003855378017760813, 0.0004069870919920504, 0.0004284363822080195, 0.0004498856724239886, 0.00047133496263995767, 0.0004927842528559268, 0.0005142334848642349, 0.000535682775080204, 0.0005571320652961731, 0.0005785813555121422, 0.0006000306457281113]}, "gradients/embeds.0.bias": {"_type": "histogram", "values": [1.0, 0.0, 0.0, 1.0, 0.0, 4.0, 1.0, 1.0, 2.0, 1.0, 3.0, 2.0, 1.0, 2.0, 3.0, 7.0, 5.0, 3.0, 4.0, 2.0, 10.0, 10.0, 9.0, 10.0, 8.0, 6.0, 12.0, 12.0, 5.0, 12.0, 25.0, 57.0, 136.0, 33.0, 13.0, 10.0, 10.0, 6.0, 4.0, 6.0, 9.0, 5.0, 9.0, 5.0, 5.0, 4.0, 4.0, 7.0, 3.0, 2.0, 4.0, 3.0, 1.0, 1.0, 3.0, 2.0, 1.0, 1.0, 3.0, 0.0, 0.0, 2.0, 0.0, 1.0], "bins": [-0.0003722801338881254, -0.00036071104113943875, -0.0003491419192869216, -0.00033757282653823495, -0.0003260037046857178, -0.00031443461193703115, -0.0003028655191883445, -0.00029129639733582735, -0.0002797273045871407, -0.000268158211838454, -0.0002565890899859369, -0.0002450199972372502, -0.0002334508899366483, -0.0002218817826360464, -0.00021031268988735974, -0.00019874358258675784, -0.00018717447528615594, -0.00017560536798555404, -0.00016403626068495214, -0.00015246716793626547, -0.00014089806063566357, -0.00012932895333506167, -0.00011775985331041738, -0.0001061907532857731, -9.46216459851712e-05, -8.30525386845693e-05, -7.148343865992501e-05, -5.991433499730192e-05, -4.834523133467883e-05, -3.6776127672055736e-05, -2.5207024009432644e-05, -1.3637920346809551e-05, -2.0688166841864586e-06, 9.500286978436634e-06, 2.1069390641059726e-05, 3.263849430368282e-05, 4.420759796630591e-05, 5.5776701628929004e-05, 6.73458052915521e-05, 7.891490531619638e-05, 9.048401261679828e-05, 0.00010205311991740018, 0.00011362221994204447, 0.00012519131996668875, 0.00013676042726729065, 0.00014832953456789255, 0.00015989862731657922, 0.00017146773461718112, 0.00018303684191778302, 0.00019460594921838492, 0.00020617505651898682, 0.0002177441492676735, 0.0002293132565682754, 0.0002408823638688773, 0.00025245145661756396, 0.0002640205784700811, 0.00027558967121876776, 0.00028715876396745443, 0.00029872788581997156, 0.00031029697856865823, 0.0003218660713173449, 0.00033343519316986203, 0.0003450042859185487, 0.00035657340777106583, 0.0003681425005197525]}, "gradients/embeds.0.weight": {"_type": "histogram", "values": [2.0, 0.0, 0.0, 2.0, 0.0, 5.0, 4.0, 2.0, 4.0, 2.0, 6.0, 2.0, 5.0, 5.0, 4.0, 15.0, 11.0, 8.0, 10.0, 14.0, 23.0, 26.0, 47.0, 42.0, 49.0, 71.0, 96.0, 207.0, 523.0, 1948.0, 8502.0, 49419.0, 308684.0, 17921.0, 3821.0, 932.0, 312.0, 127.0, 69.0, 54.0, 44.0, 34.0, 33.0, 17.0, 19.0, 14.0, 13.0, 13.0, 7.0, 4.0, 9.0, 4.0, 3.0, 3.0, 7.0, 2.0, 3.0, 2.0, 4.0, 1.0, 0.0, 4.0, 0.0, 2.0], "bins": [-0.0038090080488473177, -0.0036908285692334175, -0.0035726488567888737, -0.0034544693771749735, -0.0033362898975610733, -0.0032181101851165295, -0.0030999307055026293, -0.002981751225888729, -0.0028635715134441853, -0.002745392033830285, -0.002627212554216385, -0.002509032841771841, -0.002390853362157941, -0.0022726738825440407, -0.002154494170099497, -0.0020363146904855967, -0.0019181350944563746, -0.0017999554984271526, -0.0016817760188132524, -0.0015635964227840304, -0.0014454168267548084, -0.0013272373471409082, -0.0012090577511116862, -0.0010908781550824642, -0.0009726986172609031, -0.000854519079439342, -0.00073633948341012, -0.0006181599455885589, -0.0004999804077669978, -0.0003818008117377758, -0.0002636212739162147, -0.00014544170699082315, -2.7262140065431595e-05, 9.091741958400235e-05, 0.0002090969792334363, 0.0003272765316069126, 0.00044545609853230417, 0.0005636356654576957, 0.0006818152032792568, 0.0007999947993084788, 0.0009181743371300399, 0.001036353874951601, 0.001154533470980823, 0.001272713067010045, 0.0013908925466239452, 0.0015090721426531672, 0.0016272517386823893, 0.0017454312182962894, 0.0018636108143255115, 0.0019817904103547335, 0.0020999698899686337, 0.0022181496024131775, 0.0023363290820270777, 0.002454508561640978, 0.0025726882740855217, 0.002690867753699422, 0.002809047233313322, 0.002927226945757866, 0.003045406425371766, 0.0031635859049856663, 0.00328176561743021, 0.0033999450970441103, 0.0035181245766580105, 0.0036363042891025543, 0.0037544837687164545]}, "num_of_test_examples": 0, "test_loss": 0.005343316793441772, "epoch": 42, "val-auc": 0.8779753009990607, "_wandb": {"runtime": 3509}}