{"num_of_examples": 10000, "train_loss": 0.1887318104505539, "_timestamp": 1716360771.9176497, "_runtime": 2930.9089617729187, "_step": 4735, "gradients/output.bias": {"_type": "histogram", "values": [1.0, 0.0, 0.0, 0.0, 0.0, 0.0, 0.0, 0.0, 0.0, 0.0, 0.0, 0.0, 0.0, 0.0, 0.0, 0.0, 0.0, 0.0, 0.0, 0.0, 0.0, 0.0, 0.0, 0.0, 0.0, 0.0, 0.0, 0.0, 0.0, 0.0, 0.0, 0.0, 0.0, 0.0, 0.0, 0.0, 0.0, 0.0, 0.0, 0.0, 0.0, 0.0, 0.0, 0.0, 0.0, 0.0, 0.0, 0.0, 0.0, 0.0, 0.0, 0.0, 0.0, 0.0, 0.0, 0.0, 0.0, 0.0, 0.0, 0.0, 0.0, 0.0, 0.0, 1.0], "bins": [-0.002329994924366474, -0.0022571824956685305, -0.0021843702998012304, -0.0021115578711032867, -0.0020387456752359867, -0.001965933246538043, -0.001893121050670743, -0.0018203087383881211, -0.0017474964261054993, -0.0016746839974075556, -0.0016018716851249337, -0.0015290593728423119, -0.00145624706055969, -0.0013834347482770681, -0.0013106224359944463, -0.0012378101237118244, -0.0011649978114292026, -0.0010921854991465807, -0.0010193731868639588, -0.000946560874581337, -0.0008737485622987151, -0.0008009361918084323, -0.0007281238795258105, -0.0006553115672431886, -0.0005824992549605668, -0.0005096869426779449, -0.00043687463039532304, -0.0003640622890088707, -0.00029124997672624886, -0.000218437664443627, -0.0001456253376090899, -7.281301805051044e-05, -6.984919309616089e-10, 7.281162106664851e-05, 0.000145623940625228, 0.00021843626745976508, 0.00029124857974238694, 0.0003640608920250088, 0.0004368732334114611, 0.000509685545694083, 0.0005824978579767048, 0.0006553101702593267, 0.0007281224825419486, 0.0008009347948245704, 0.0008737471653148532, 0.000946559477597475, 0.001019371789880097, 0.0010921841021627188, 0.0011649964144453406, 0.0012378087267279625, 0.0013106210390105844, 0.0013834333512932062, 0.001456245663575828, 0.00152905797585845, 0.0016018702881410718, 0.0016746826004236937, 0.0017474950291216373, 0.0018203073414042592, 0.001893119653686881, 0.001965931849554181, 0.002038744278252125, 0.002111556474119425, 0.0021843689028173685, 0.0022571810986846685, 0.0023299935273826122]}, "gradients/output.weight": {"_type": "histogram", "values": [3.0, 0.0, 1.0, 1.0, 0.0, 2.0, 1.0, 2.0, 3.0, 2.0, 8.0, 5.0, 4.0, 6.0, 6.0, 7.0, 10.0, 15.0, 13.0, 12.0, 10.0, 12.0, 4.0, 14.0, 7.0, 5.0, 8.0, 9.0, 11.0, 1.0, 2.0, 4.0, 140.0, 2.0, 1.0, 11.0, 9.0, 8.0, 5.0, 7.0, 14.0, 4.0, 12.0, 10.0, 12.0, 13.0, 15.0, 10.0, 7.0, 6.0, 6.0, 4.0, 5.0, 8.0, 2.0, 3.0, 2.0, 1.0, 2.0, 0.0, 1.0, 1.0, 0.0, 3.0], "bins": [-0.0037014640402048826, -0.0035857935436069965, -0.003470122814178467, -0.0033544523175805807, -0.0032387818209826946, -0.0031231113243848085, -0.0030074408277869225, -0.0028917700983583927, -0.0027760996017605066, -0.0026604291051626205, -0.002544758375734091, -0.0024290878791362047, -0.0023134173825383186, -0.0021977468859404325, -0.0020820763893425465, -0.0019664056599140167, -0.0018507351633161306, -0.0017350646667182446, -0.0016193940537050366, -0.0015037234406918287, -0.0013880529440939426, -0.0012723824474960566, -0.0011567118344828486, -0.0010410412214696407, -0.0009253707248717546, -0.0008097001700662076, -0.0006940296152606606, -0.0005783590604551136, -0.00046268850564956665, -0.00034701795084401965, -0.00023134739603847265, -0.00011567684123292565, -6.05359673500061e-09, 0.000115664501208812, 0.000231335056014359, 0.000347005610819906, 0.000462676165625453, 0.000578346720431, 0.000694017275236547, 0.000809687830042094, 0.000925358384847641, 0.001041028881445527, 0.001156699494458735, 0.001272370107471943, 0.001388040604069829, 0.001503711100667715, 0.001619381713680923, 0.001735052326694131, 0.001850722823292017, 0.001966393319889903, 0.002082063816487789, 0.002197734545916319, 0.002313405042514205, 0.002429075539112091, 0.002544746268540621, 0.002660416765138507, 0.002776087261736393, 0.002891757758334279, 0.003007428254932165, 0.003123098984360695, 0.003238769480958581, 0.003354439977556467, 0.003470110706984997, 0.003585781203582883, 0.003701451700180769]}, "gradients/linearlayers.4.0.bias": {"_type": "histogram", "values": [3.0, 0.0, 5.0, 4.0, 3.0, 1.0, 4.0, 1.0, 2.0, 1.0, 5.0, 6.0, 5.0, 6.0, 3.0, 3.0, 7.0, 2.0, 8.0, 7.0, 5.0, 2.0, 1.0, 2.0, 0.0, 1.0, 0.0, 0.0, 0.0, 0.0, 71.0, 0.0, 0.0, 0.0, 2.0, 2.0, 0.0, 3.0, 4.0, 4.0, 4.0, 7.0, 6.0, 3.0, 3.0, 2.0, 5.0, 1.0, 1.0, 4.0, 8.0, 6.0, 7.0, 5.0, 7.0, 3.0, 2.0, 3.0, 3.0, 1.0, 0.0, 0.0, 1.0, 1.0], "bins": [-0.0003406024188734591, -0.00032944773556664586, -0.0003182930522598326, -0.00030713839805684984, -0.0002959837147500366, -0.00028482903144322336, -0.0002736743481364101, -0.0002625196648295969, -0.0002513650106266141, -0.00024021031276788563, -0.00022905564401298761, -0.00021790096070617437, -0.00020674627739936113, -0.00019559160864446312, -0.00018443692533764988, -0.00017328225658275187, -0.00016212757327593863, -0.0001509728899691254, -0.00013981822121422738, -0.00012866353790741414, -0.00011750886187655851, -0.00010635418584570289, -9.519950253888965e-05, -8.404482650803402e-05, -7.28901504771784e-05, -6.173547444632277e-05, -5.0580794777488336e-05, -3.94261151086539e-05, -2.8271439077798277e-05, -1.7116761227953248e-05, -5.962083378108218e-06, 5.192594471736811e-06, 1.634727232158184e-05, 2.750195017142687e-05, 3.86566280212719e-05, 4.981130769010633e-05, 6.096598372096196e-05, 7.212065975181758e-05, 8.327534305863082e-05, 9.443001908948645e-05, 0.00010558469512034208, 0.0001167393711511977, 0.00012789404718205333, 0.00013904873048886657, 0.0001502034137956798, 0.00016135808255057782, 0.00017251276585739106, 0.00018366743461228907, 0.0001948221179191023, 0.00020597680122591555, 0.00021713146998081356, 0.0002282861532876268, 0.00023944082204252481, 0.00025059550534933805, 0.0002617501886561513, 0.00027290487196296453, 0.0002840595552697778, 0.00029521420947276056, 0.0003063688927795738, 0.00031752357608638704, 0.0003286782593932003, 0.0003398329427000135, 0.0003509875969029963, 0.00036214228020980954, 0.0003732969635166228]}, "gradients/linearlayers.4.0.weight": {"_type": "histogram", "values": [3.0, 0.0, 5.0, 6.0, 7.0, 3.0, 17.0, 8.0, 7.0, 8.0, 19.0, 34.0, 66.0, 91.0, 87.0, 112.0, 111.0, 172.0, 242.0, 337.0, 367.0, 472.0, 649.0, 889.0, 1145.0, 1538.0, 2089.0, 2705.0, 3064.0, 2179.0, 30606.0, 2696.0, 3238.0, 2934.0, 2322.0, 1788.0, 1272.0, 935.0, 701.0, 574.0, 424.0, 347.0, 268.0, 272.0, 181.0, 154.0, 105.0, 71.0, 57.0, 34.0, 30.0, 29.0, 16.0, 15.0, 12.0, 8.0, 1.0, 5.0, 4.0, 2.0, 1.0, 0.0, 1.0, 1.0], "bins": [-0.0006902431487105787, -0.0006676436169072986, -0.0006450440268963575, -0.0006224444950930774, -0.0005998449632897973, -0.0005772453732788563, -0.0005546458414755762, -0.000532046309672296, -0.000509446719661355, -0.0004868471878580749, -0.0004642476560547948, -0.0004416480951476842, -0.00041904853424057364, -0.00039644900243729353, -0.00037384944153018296, -0.00035124990972690284, -0.00032865034881979227, -0.0003060507879126817, -0.0002834512561094016, -0.000260851695202291, -0.00023825214884709567, -0.00021565260249190032, -0.00019305304158478975, -0.0001704534952295944, -0.00014785394887439907, -0.00012525440251920372, -0.00010265484888805076, -8.005529525689781e-05, -5.7455748901702464e-05, -3.485619890852831e-05, -1.2256648915354162e-05, 1.0342901077819988e-05, 3.2942392863333225e-05, 5.5541942856507376e-05, 7.814149284968153e-05, 0.00010074104648083448, 0.00012334059283602983, 0.00014594013919122517, 0.00016853970009833574, 0.00019113924645353109, 0.00021373879280872643, 0.00023633833916392177, 0.0002589378855191171, 0.0002815374464262277, 0.00030413700733333826, 0.0003267365391366184, 0.00034933610004372895, 0.00037193563184700906, 0.00039453519275411963, 0.0004171347536612302, 0.0004397342854645103, 0.0004623338463716209, 0.000484933378174901, 0.000507532968185842, 0.0005301324999891222, 0.0005527320317924023, 0.0005753316218033433, 0.0005979311536066234, 0.0006205306854099035, 0.0006431302172131836, 0.0006657298072241247, 0.0006883293390274048, 0.0007109288708306849, 0.0007335284608416259, 0.000756127992644906]}, "gradients/linearlayers.3.0.bias": {"_type": "histogram", "values": [1.0, 0.0, 0.0, 1.0, 0.0, 1.0, 1.0, 1.0, 2.0, 4.0, 5.0, 7.0, 7.0, 5.0, 9.0, 3.0, 4.0, 5.0, 3.0, 3.0, 2.0, 3.0, 6.0, 1.0, 2.0, 1.0, 0.0, 2.0, 2.0, 1.0, 66.0, 2.0, 3.0, 2.0, 3.0, 5.0, 2.0, 2.0, 0.0, 2.0, 2.0, 2.0, 3.0, 2.0, 6.0, 3.0, 6.0, 8.0, 5.0, 6.0, 6.0, 7.0, 7.0, 5.0, 3.0, 3.0, 5.0, 2.0, 2.0, 0.0, 2.0, 0.0, 0.0, 2.0], "bins": [-0.0011498394887894392, -0.0011126876343041658, -0.0010755358962342143, -0.001038384041748941, -0.0010012323036789894, -0.000964080449193716, -0.0009269286529161036, -0.0008897768566384912, -0.0008526250603608787, -0.0008154732640832663, -0.0007783214678056538, -0.0007411696715280414, -0.000704017817042768, -0.0006668660207651556, -0.0006297142244875431, -0.0005925624282099307, -0.0005554106319323182, -0.0005182588356547058, -0.0004811070393770933, -0.0004439552139956504, -0.00040680341771803796, -0.0003696516214404255, -0.0003324997960589826, -0.00029534799978137016, -0.0002581962035037577, -0.00022104440722614527, -0.0001838925963966176, -0.00014674078556708992, -0.00010958898928947747, -7.24371857359074e-05, -3.5285382182337344e-05, 1.8664213712327182e-06, 3.901810850948095e-05, 7.616991206305102e-05, 0.00011332171561662108, 0.00015047352644614875, 0.0001876253227237612, 0.00022477711900137365, 0.00026192894438281655, 0.000299080740660429, 0.00033623253693804145, 0.0003733843332156539, 0.00041053612949326634, 0.00044768795487470925, 0.0004848397511523217, 0.0005219915765337646, 0.000559143372811377, 0.0005962951690889895, 0.0006334469653666019, 0.0006705987616442144, 0.0007077505579218268, 0.0007449023541994393, 0.0007820541504770517, 0.0008192060049623251, 0.0008563578012399375, 0.00089350959751755, 0.0009306613937951624, 0.0009678131900727749, 0.0010049650445580482, 0.0010421167826279998, 0.0010792686371132731, 0.0011164203751832247, 0.001153572229668498, 0.0011907239677384496, 0.001227875822223723]}, "gradients/linearlayers.3.0.weight": {"_type": "histogram", "values": [2.0, 1.0, 1.0, 2.0, 2.0, 3.0, 5.0, 6.0, 8.0, 15.0, 24.0, 34.0, 47.0, 52.0, 69.0, 77.0, 98.0, 134.0, 185.0, 245.0, 309.0, 414.0, 563.0, 739.0, 944.0, 1251.0, 1479.0, 1955.0, 2286.0, 2500.0, 32309.0, 3048.0, 2861.0, 2539.0, 2208.0, 1815.0, 1467.0, 1228.0, 957.0, 801.0, 621.0, 468.0, 366.0, 292.0, 246.0, 175.0, 152.0, 112.0, 90.0, 67.0, 62.0, 50.0, 40.0, 27.0, 21.0, 18.0, 17.0, 7.0, 7.0, 3.0, 5.0, 2.0, 2.0, 3.0], "bins": [-0.001938488450832665, -0.0018758407095447183, -0.0018131928518414497, -0.001750545110553503, -0.0016878973692655563, -0.0016252495115622878, -0.001562601770274341, -0.0014999540289863944, -0.0014373061712831259, -0.0013746584299951792, -0.0013120106887072325, -0.0012493629474192858, -0.0011867150897160172, -0.0011240673484280705, -0.0010614196071401238, -0.0009987717494368553, -0.0009361240081489086, -0.000873476208653301, -0.0008108284673653543, -0.0007481806678697467, -0.0006855329265818, -0.0006228851270861924, -0.0005602373275905848, -0.000497589586302638, -0.00043494178680703044, -0.0003722940164152533, -0.0003096462460234761, -0.0002469984465278685, -0.00018435067613609135, -0.00012170289846835658, -5.905512080062181e-05, 3.5926568671129644e-06, 6.624055095016956e-05, 0.00012888832134194672, 0.0001915361062856391, 0.0002541838912293315, 0.00031683166162110865, 0.0003794794320128858, 0.0004421272315084934, 0.0005047749727964401, 0.0005674227722920477, 0.0006300705717876554, 0.0006927183130756021, 0.0007553661125712097, 0.0008180139120668173, 0.000880661653354764, 0.0009433094528503716, 0.0010059572523459792, 0.001068604993633926, 0.0011312527349218726, 0.0011939005926251411, 0.0012565483339130878, 0.0013191960752010345, 0.001381843932904303, 0.0014444916741922498, 0.0015071394154801965, 0.001569787273183465, 0.0016324350144714117, 0.0016950827557593584, 0.001757730497047305, 0.0018203783547505736, 0.0018830260960385203, 0.001945673837326467, 0.0020083216950297356, 0.0020709694363176823]}, "gradients/linearlayers.2.0.bias": {"_type": "histogram", "values": [2.0, 1.0, 1.0, 0.0, 0.0, 2.0, 2.0, 4.0, 2.0, 5.0, 4.0, 4.0, 3.0, 1.0, 3.0, 4.0, 4.0, 6.0, 2.0, 3.0, 5.0, 2.0, 2.0, 2.0, 3.0, 1.0, 3.0, 2.0, 71.0, 3.0, 2.0, 5.0, 3.0, 3.0, 4.0, 4.0, 5.0, 5.0, 5.0, 3.0, 3.0, 5.0, 6.0, 8.0, 6.0, 5.0, 2.0, 4.0, 4.0, 3.0, 3.0, 0.0, 4.0, 5.0, 2.0, 0.0, 3.0, 2.0, 2.0, 0.0, 1.0, 1.0, 0.0, 1.0], "bins": [-0.002765997312963009, -0.0026703868061304092, -0.0025747762992978096, -0.0024791655596345663, -0.0023835550528019667, -0.002287944545969367, -0.0021923338063061237, -0.002096723299473524, -0.0020011127926409245, -0.0019055022858083248, -0.0018098916625604033, -0.0017142810393124819, -0.0016186705324798822, -0.0015230600256472826, -0.0014274494023993611, -0.0013318387791514397, -0.00123622827231884, -0.0011406177654862404, -0.001045007142238319, -0.0009493965771980584, -0.0008537860121577978, -0.0007581754471175373, -0.0006625648820772767, -0.0005669543170370162, -0.0004713437519967556, -0.00037573318695649505, -0.0002801226219162345, -0.00018451205687597394, -8.890149183571339e-05, 6.709073204547167e-06, 0.00010231963824480772, 0.00019793020328506827, 0.0002935410011559725, 0.00038915156619623303, 0.0004847621312364936, 0.0005803726962767541, 0.0006759832613170147, 0.0007715938263572752, 0.0008672043913975358, 0.0009628149564377964, 0.001058425521478057, 0.0011540360283106565, 0.001249646651558578, 0.0013452572748064995, 0.0014408677816390991, 0.0015364782884716988, 0.0016320889117196202, 0.0017276995349675417, 0.0018233100418001413, 0.001918920548632741, 0.0020145312882959843, 0.002110141795128584, 0.0022057523019611835, 0.002301362808793783, 0.002396973315626383, 0.002492584055289626, 0.0025881945621222258, 0.0026838050689548254, 0.0027794158086180687, 0.0028750263154506683, 0.002970636822283268, 0.0030662473291158676, 0.0031618578359484673, 0.0032574685756117105, 0.00335307908244431]}, "gradients/linearlayers.2.0.weight": {"_type": "histogram", "values": [2.0, 1.0, 3.0, 2.0, 2.0, 4.0, 2.0, 6.0, 12.0, 23.0, 14.0, 27.0, 31.0, 38.0, 47.0, 80.0, 99.0, 131.0, 157.0, 208.0, 308.0, 453.0, 593.0, 800.0, 1095.0, 1609.0, 2192.0, 2835.0, 34718.0, 4477.0, 3984.0, 3060.0, 2157.0, 1613.0, 1181.0, 849.0, 619.0, 487.0, 394.0, 275.0, 203.0, 156.0, 117.0, 112.0, 72.0, 58.0, 58.0, 35.0, 27.0, 21.0, 26.0, 9.0, 14.0, 10.0, 10.0, 4.0, 3.0, 4.0, 4.0, 0.0, 3.0, 1.0, 0.0, 1.0], "bins": [-0.004880812019109726, -0.004712124355137348, -0.00454343669116497, -0.004374749027192593, -0.004206061363220215, -0.004037373699247837, -0.003868686268106103, -0.003699998604133725, -0.0035313109401613474, -0.0033626232761889696, -0.003193935612216592, -0.003025247948244214, -0.00285656051710248, -0.002687872853130102, -0.0025191851891577244, -0.0023504975251853466, -0.002181809861212969, -0.002013122197240591, -0.0018444345332682133, -0.0016757469857111573, -0.0015070593217387795, -0.0013383716577664018, -0.0011696841102093458, -0.001000996446236968, -0.0008323087822645903, -0.0006636211182922125, -0.0004949335125274956, -0.0003262458776589483, -0.00015755824279040098, 1.1129392078146338e-05, 0.00017981702694669366, 0.000348504661815241, 0.0005171922966837883, 0.0006858799606561661, 0.0008545675664208829, 0.0010232551721855998, 0.0011919428361579776, 0.0013606305001303554, 0.0015293180476874113, 0.001698005711659789, 0.0018666933756321669, 0.0020353810396045446, 0.0022040687035769224, 0.0023727563675493, 0.0025414437986910343, 0.002710131462663412, 0.00287881912663579, 0.0030475067906081676, 0.0032161944545805454, 0.003384882118552923, 0.003553569782525301, 0.0037222574464976788, 0.0038909451104700565, 0.004059632774442434, 0.004228320438414812, 0.00439700810238719, 0.00456569530069828, 0.004734382964670658, 0.004903070628643036, 0.005071758292615414, 0.0052404459565877914, 0.005409133620560169, 0.005577821284532547, 0.005746508948504925, 0.0059151966124773026]}, "gradients/linearlayers.1.0.bias": {"_type": "histogram", "values": [1.0, 0.0, 0.0, 1.0, 1.0, 0.0, 3.0, 2.0, 4.0, 2.0, 3.0, 1.0, 4.0, 7.0, 2.0, 3.0, 3.0, 1.0, 8.0, 3.0, 7.0, 5.0, 2.0, 1.0, 3.0, 1.0, 5.0, 2.0, 78.0, 4.0, 1.0, 1.0, 2.0, 5.0, 2.0, 4.0, 3.0, 5.0, 6.0, 3.0, 4.0, 5.0, 6.0, 6.0, 3.0, 4.0, 3.0, 2.0, 4.0, 4.0, 2.0, 2.0, 2.0, 2.0, 4.0, 3.0, 4.0, 1.0, 4.0, 0.0, 0.0, 0.0, 0.0, 2.0], "bins": [-0.005657051224261522, -0.005460874177515507, -0.005264697130769491, -0.005068520549684763, -0.004872343502938747, -0.004676166456192732, -0.004479989409446716, -0.004283812362700701, -0.004087635315954685, -0.0038914585020393133, -0.0036952816881239414, -0.003499104641377926, -0.0033029275946319103, -0.0031067507807165384, -0.002910573733970523, -0.002714396920055151, -0.0025182198733091354, -0.00232204282656312, -0.002125866012647748, -0.0019296889659017324, -0.0017335120355710387, -0.001537335105240345, -0.0013411580584943295, -0.0011449811281636357, -0.000948804197832942, -0.0007526272675022483, -0.0005564502789638937, -0.0003602733195293695, -0.0001640963600948453, 3.2080599339678884e-05, 0.00022825755877420306, 0.00042443451820872724, 0.0006206110119819641, 0.0008167879423126578, 0.0010129648726433516, 0.001209141919389367, 0.0014053188497200608, 0.0016014957800507545, 0.00179767282679677, 0.001993849640712142, 0.0021900266874581575, 0.002386203734204173, 0.002582380548119545, 0.0027785575948655605, 0.002974734641611576, 0.003170911455526948, 0.0033670885022729635, 0.0035632653161883354, 0.003759442362934351, 0.0039556194096803665, 0.004151796456426382, 0.00434797303751111, 0.004544150084257126, 0.004740327131003141, 0.004936504177749157, 0.0051326812244951725, 0.005328858271241188, 0.005525034852325916, 0.005721211899071932, 0.005917388945817947, 0.006113565992563963, 0.0063097430393099785, 0.006505919620394707, 0.006702096667140722, 0.006898273713886738]}, "gradients/linearlayers.1.0.weight": {"_type": "histogram", "values": [1.0, 0.0, 0.0, 1.0, 2.0, 0.0, 4.0, 4.0, 5.0, 6.0, 8.0, 12.0, 20.0, 24.0, 28.0, 48.0, 72.0, 103.0, 150.0, 219.0, 283.0, 381.0, 509.0, 708.0, 1051.0, 1388.0, 1798.0, 2468.0, 40791.0, 3124.0, 2722.0, 2173.0, 1700.0, 1314.0, 1013.0, 761.0, 603.0, 436.0, 359.0, 287.0, 234.0, 177.0, 141.0, 105.0, 81.0, 53.0, 42.0, 20.0, 22.0, 20.0, 17.0, 10.0, 8.0, 5.0, 7.0, 4.0, 5.0, 1.0, 6.0, 0.0, 0.0, 0.0, 0.0, 2.0], "bins": [-0.009609581902623177, -0.009276351891458035, -0.008943121880292892, -0.00860989186912775, -0.008276660926640034, -0.007943430915474892, -0.00761020090430975, -0.0072769708931446075, -0.0069437408819794655, -0.006610510405153036, -0.006277280393987894, -0.005944050382822752, -0.005610819905996323, -0.005277589894831181, -0.0049443598836660385, -0.004611129406839609, -0.004277899395674467, -0.003944669384509325, -0.0036114391405135393, -0.0032782088965177536, -0.0029449788853526115, -0.002611748641356826, -0.00227851839736104, -0.0019452882697805762, -0.0016120581422001123, -0.0012788280146196485, -0.0009455978288315237, -0.0006123676430433989, -0.00027913751546293497, 5.409264122135937e-05, 0.0003873227979056537, 0.0007205529836937785, 0.0010537831112742424, 0.0013870132388547063, 0.0017202433664351702, 0.002053473610430956, 0.002386703621596098, 0.0027199338655918837, 0.0030531641095876694, 0.0033863941207528114, 0.003719624364748597, 0.004052854608744383, 0.004386084619909525, 0.004719314631074667, 0.005052545107901096, 0.005385775119066238, 0.0057190051302313805, 0.00605223560705781, 0.006385465618222952, 0.006718695629388094, 0.007051926106214523, 0.007385156117379665, 0.0077183861285448074, 0.00805161613970995, 0.008384846150875092, 0.008718077093362808, 0.00905130710452795, 0.009384537115693092, 0.009717767126858234, 0.010050997138023376, 0.010384227149188519, 0.010717458091676235, 0.011050688102841377, 0.01138391811400652, 0.011717148125171661]}, "gradients/linearlayers.0.0.bias": {"_type": "histogram", "values": [1.0, 0.0, 2.0, 0.0, 4.0, 1.0, 4.0, 1.0, 3.0, 1.0, 1.0, 3.0, 4.0, 3.0, 2.0, 2.0, 2.0, 4.0, 5.0, 2.0, 1.0, 5.0, 3.0, 1.0, 3.0, 1.0, 5.0, 1.0, 100.0, 2.0, 2.0, 6.0, 2.0, 2.0, 7.0, 3.0, 4.0, 6.0, 3.0, 5.0, 3.0, 2.0, 3.0, 2.0, 7.0, 2.0, 3.0, 7.0, 3.0, 3.0, 3.0, 2.0, 2.0, 2.0, 2.0, 1.0, 1.0, 0.0, 0.0, 0.0, 0.0, 0.0, 0.0, 1.0], "bins": [-0.01066831685602665, -0.010295026004314423, -0.009921735152602196, -0.009548444300889969, -0.009175152517855167, -0.00880186166614294, -0.008428570814430714, -0.008055279962718487, -0.00768198911100626, -0.007308697793632746, -0.006935406941920519, -0.006562116090208292, -0.006188824772834778, -0.005815533921122551, -0.005442243069410324, -0.00506895175203681, -0.004695660900324583, -0.004322370048612356, -0.003949078731238842, -0.003575787879526615, -0.0032024970278143883, -0.0028292059432715178, -0.0024559148587286472, -0.0020826240070164204, -0.0017093329224735498, -0.0013360419543460011, -0.0009627509280107915, -0.0005894599016755819, -0.00021616893354803324, 0.00015712206368334591, 0.0005304130609147251, 0.0009037040872499347, 0.0012769950553774834, 0.001650286023505032, 0.0020235769916325808, 0.0023968680761754513, 0.002770158927887678, 0.0031434500124305487, 0.003516741096973419, 0.003890031948685646, 0.004263322800397873, 0.004636614117771387, 0.005009904969483614, 0.005383195821195841, 0.005756487138569355, 0.006129777990281582, 0.006503068841993809, 0.006876360159367323, 0.00724965101107955, 0.007622941862791777, 0.00799623318016529, 0.008369524031877518, 0.008742814883589745, 0.009116105735301971, 0.009489396587014198, 0.009862688370049, 0.010235979221761227, 0.010609270073473454, 0.01098256092518568, 0.011355851776897907, 0.011729142628610134, 0.012102434411644936, 0.012475725263357162, 0.01284901611506939, 0.013222306966781616]}, "gradients/linearlayers.0.0.weight": {"_type": "histogram", "values": [1.0, 0.0, 2.0, 0.0, 4.0, 1.0, 8.0, 2.0, 15.0, 10.0, 28.0, 41.0, 42.0, 53.0, 63.0, 101.0, 142.0, 178.0, 212.0, 262.0, 353.0, 427.0, 548.0, 710.0, 876.0, 1205.0, 1567.0, 2052.0, 43512.0, 2934.0, 2389.0, 1767.0, 1307.0, 999.0, 815.0, 608.0, 511.0, 422.0, 317.0, 243.0, 219.0, 132.0, 130.0, 92.0, 56.0, 50.0, 34.0, 31.0, 23.0, 9.0, 10.0, 5.0, 2.0, 6.0, 3.0, 3.0, 3.0, 0.0, 0.0, 0.0, 0.0, 0.0, 0.0, 1.0], "bins": [-0.01702689938247204, -0.016431158408522606, -0.015835419297218323, -0.015239679254591465, -0.014643939211964607, -0.01404819916933775, -0.013452459126710892, -0.012856719084084034, -0.012260979041457176, -0.011665238067507744, -0.011069498024880886, -0.010473757982254028, -0.00987801793962717, -0.009282277897000313, -0.008686537854373455, -0.008090797811746597, -0.0074950577691197395, -0.006899317726492882, -0.006303577683866024, -0.005707837641239166, -0.0051120975986123085, -0.0045163570903241634, -0.003920617047697306, -0.003324877005070448, -0.00272913696244359, -0.0021333969198167324, -0.0015376567607745528, -0.0009419166599400342, -0.0003461765591055155, 0.0002495635417290032, 0.0008453036425635219, 0.0014410438016057014, 0.002036783844232559, 0.002632523886859417, 0.0032282639294862747, 0.003824004204943776, 0.00441974401473999, 0.005015484523028135, 0.005611224565654993, 0.006206964608281851, 0.006802704650908709, 0.007398444693535566, 0.007994185201823711, 0.00858992524445057, 0.009185665287077427, 0.009781405329704285, 0.010377145372331142, 0.010972885414958, 0.011568625457584858, 0.012164365500211716, 0.012760105542838573, 0.013355845585465431, 0.013951585628092289, 0.014547325670719147, 0.015143065713346004, 0.015738805755972862, 0.016334546729922295, 0.016930285841226578, 0.01752602681517601, 0.018121765926480293, 0.018717506900429726, 0.01931324601173401, 0.01990898698568344, 0.020504726096987724, 0.021100467070937157]}, "gradients/embeds.2.bias": {"_type": "histogram", "values": [1.0, 1.0, 0.0, 0.0, 2.0, 1.0, 1.0, 1.0, 3.0, 1.0, 3.0, 3.0, 5.0, 3.0, 1.0, 3.0, 2.0, 2.0, 3.0, 2.0, 1.0, 2.0, 1.0, 5.0, 4.0, 8.0, 2.0, 4.0, 3.0, 104.0, 4.0, 0.0, 2.0, 5.0, 2.0, 3.0, 5.0, 3.0, 3.0, 3.0, 2.0, 3.0, 4.0, 3.0, 2.0, 4.0, 2.0, 1.0, 4.0, 1.0, 3.0, 4.0, 4.0, 1.0, 3.0, 2.0, 1.0, 2.0, 1.0, 0.0, 3.0, 1.0, 2.0, 1.0], "bins": [-0.01486795675009489, -0.014367376454174519, -0.013866795226931572, -0.0133662149310112, -0.012865633703768253, -0.012365053407847881, -0.011864472180604935, -0.011363891884684563, -0.01086331158876419, -0.010362730361521244, -0.009862150065600872, -0.009361568838357925, -0.008860988542437553, -0.008360407315194607, -0.007859827019274235, -0.0073592462576925755, -0.006858665496110916, -0.006358084734529257, -0.0058575039729475975, -0.005356923211365938, -0.004856342449784279, -0.004355762153863907, -0.0038551813922822475, -0.0033546006307005882, -0.002854019869118929, -0.0023534391075372696, -0.001852858462370932, -0.0013522778172045946, -0.0008516970556229353, -0.0003511163522489369, 0.0001494643511250615, 0.0006500450544990599, 0.001150626689195633, 0.0016512074507772923, 0.0021517882123589516, 0.0026523687411099672, 0.0031529495026916265, 0.003653530264273286, 0.0041541107930243015, 0.004654691554605961, 0.00515527231618762, 0.0056558530777692795, 0.006156433839350939, 0.006657014600932598, 0.00715759489685297, 0.0076581756584346294, 0.008158756420016289, 0.008659337647259235, 0.009159917943179607, 0.00966049823909998, 0.010161079466342926, 0.010661659762263298, 0.011162240989506245, 0.011662821285426617, 0.012163402512669563, 0.012663982808589935, 0.013164563104510307, 0.013665144331753254, 0.014165724627673626, 0.014666305854916573, 0.015166886150836945, 0.015667466446757317, 0.016168048605322838, 0.01666862890124321, 0.017169209197163582]}, "gradients/embeds.2.weight": {"_type": "histogram", "values": [1.0, 1.0, 1.0, 0.0, 3.0, 1.0, 3.0, 3.0, 3.0, 5.0, 5.0, 8.0, 12.0, 17.0, 17.0, 23.0, 41.0, 69.0, 98.0, 149.0, 229.0, 326.0, 478.0, 674.0, 957.0, 1419.0, 1927.0, 2868.0, 5034.0, 94604.0, 6186.0, 4308.0, 3018.0, 2200.0, 1706.0, 1256.0, 902.0, 669.0, 469.0, 380.0, 277.0, 206.0, 153.0, 91.0, 75.0, 57.0, 34.0, 20.0, 16.0, 13.0, 13.0, 8.0, 8.0, 4.0, 4.0, 4.0, 2.0, 4.0, 3.0, 2.0, 3.0, 2.0, 2.0, 1.0], "bins": [-0.03216288238763809, -0.031080063432455063, -0.029997244477272034, -0.028914423659443855, -0.027831604704260826, -0.026748785749077797, -0.02566596493124962, -0.02458314597606659, -0.02350032702088356, -0.02241750806570053, -0.021334689110517502, -0.020251868292689323, -0.019169049337506294, -0.018086230382323265, -0.017003409564495087, -0.015920590609312057, -0.014837771654129028, -0.013754952698946, -0.012672132812440395, -0.011589312925934792, -0.010506493970751762, -0.009423675015568733, -0.00834085512906313, -0.007258035708218813, -0.0061752162873744965, -0.00509239686653018, -0.0040095774456858635, -0.002926758024841547, -0.0018439386039972305, -0.000761119183152914, 0.00032170023769140244, 0.001404519658535719, 0.002487335354089737, 0.0035701547749340534, 0.00465297419577837, 0.005735793616622686, 0.006818613037467003, 0.007901431992650032, 0.008984251879155636, 0.01006707176566124, 0.011149890720844269, 0.012232709676027298, 0.013315529562532902, 0.014398349449038506, 0.015481168404221535, 0.016563987359404564, 0.017646808177232742, 0.01872962713241577, 0.0198124460875988, 0.02089526504278183, 0.02197808399796486, 0.023060904815793037, 0.024143723770976067, 0.025226542726159096, 0.026309363543987274, 0.027392182499170303, 0.028475001454353333, 0.02955782040953636, 0.03064063936471939, 0.03172345831990242, 0.03280627727508545, 0.03388909995555878, 0.034971918910741806, 0.036054737865924835, 0.037137556821107864]}, "gradients/embeds.0.bias": {"_type": "histogram", "values": [1.0, 0.0, 0.0, 1.0, 0.0, 0.0, 0.0, 2.0, 3.0, 1.0, 0.0, 2.0, 7.0, 7.0, 1.0, 5.0, 3.0, 4.0, 5.0, 6.0, 6.0, 4.0, 7.0, 6.0, 8.0, 10.0, 8.0, 19.0, 15.0, 11.0, 228.0, 13.0, 14.0, 14.0, 12.0, 11.0, 5.0, 5.0, 7.0, 6.0, 7.0, 2.0, 7.0, 7.0, 3.0, 5.0, 3.0, 4.0, 5.0, 3.0, 4.0, 0.0, 2.0, 0.0, 0.0, 1.0, 0.0, 1.0, 0.0, 0.0, 0.0, 0.0, 0.0, 1.0], "bins": [-0.018590256571769714, -0.017976026982069016, -0.017361799255013466, -0.016747569665312767, -0.016133341938257217, -0.015519112348556519, -0.014904883690178394, -0.01429065503180027, -0.013676426373422146, -0.013062197715044022, -0.012447969056665897, -0.011833740398287773, -0.011219510808587074, -0.01060528215020895, -0.009991053491830826, -0.009376824833452702, -0.008762596175074577, -0.008148367516696453, -0.007534138858318329, -0.006919909734278917, -0.006305681075900793, -0.005691452417522669, -0.005077223293483257, -0.004462994635105133, -0.003848765976727009, -0.0032345373183488846, -0.0026203084271401167, -0.002006079535931349, -0.0013918508775532246, -0.0007776221027597785, -0.00016339332796633244, 0.00045083544682711363, 0.0010650642216205597, 0.0016792929964140058, 0.002293521771207452, 0.0029077506624162197, 0.003521979320794344, 0.004136207979172468, 0.00475043710321188, 0.005364665761590004, 0.005978894419968128, 0.0065931230783462524, 0.007207351736724377, 0.007821580395102501, 0.0084358099848032, 0.009050038643181324, 0.009664267301559448, 0.010278495959937572, 0.010892724618315697, 0.011506953276693821, 0.012121181935071945, 0.01273541059345007, 0.013349639251828194, 0.013963868841528893, 0.014578097499907017, 0.015192326158285141, 0.01580655574798584, 0.01642078347504139, 0.01703501306474209, 0.017649240791797638, 0.018263470381498337, 0.018877698108553886, 0.019491927698254585, 0.020106155425310135, 0.020720385015010834]}, "gradients/embeds.0.weight": {"_type": "histogram", "values": [1.0, 0.0, 0.0, 1.0, 0.0, 1.0, 0.0, 3.0, 3.0, 1.0, 1.0, 5.0, 11.0, 7.0, 4.0, 18.0, 12.0, 12.0, 19.0, 19.0, 30.0, 35.0, 51.0, 57.0, 89.0, 154.0, 329.0, 1263.0, 6201.0, 40587.0, 324697.0, 15480.0, 2784.0, 668.0, 216.0, 116.0, 58.0, 54.0, 55.0, 28.0, 30.0, 16.0, 23.0, 17.0, 11.0, 11.0, 9.0, 5.0, 8.0, 3.0, 5.0, 0.0, 4.0, 0.0, 0.0, 1.0, 0.0, 1.0, 1.0, 0.0, 0.0, 0.0, 0.0, 1.0], "bins": [-0.17014354467391968, -0.16452182829380035, -0.15890012681484222, -0.1532784104347229, -0.14765669405460358, -0.14203499257564545, -0.13641327619552612, -0.1307915598154068, -0.12516984343528748, -0.11954814195632935, -0.11392642557621002, -0.1083047166466713, -0.10268300771713257, -0.09706129133701324, -0.09143958240747452, -0.0858178660273552, -0.08019615709781647, -0.07457444816827774, -0.06895273178815842, -0.06333102285861969, -0.057709310203790665, -0.05208759754896164, -0.04646588861942291, -0.04084417596459389, -0.03522246330976486, -0.029600750654935837, -0.02397903986275196, -0.018357329070568085, -0.01273561641573906, -0.007113904692232609, -0.0014921929687261581, 0.0041295187547802925, 0.009751245379447937, 0.015372957102954388, 0.02099466882646084, 0.026616379618644714, 0.03223809227347374, 0.037859804928302765, 0.04348151385784149, 0.04910322651267052, 0.05472493916749954, 0.06034665182232857, 0.06596836447715759, 0.07159007340669632, 0.07721178233623505, 0.08283349871635437, 0.0884552076458931, 0.09407692402601242, 0.09969863295555115, 0.10532034188508987, 0.1109420582652092, 0.11656376719474792, 0.12218548357486725, 0.12780718505382538, 0.1334289014339447, 0.13905061781406403, 0.14467233419418335, 0.15029403567314148, 0.1559157520532608, 0.16153746843338013, 0.16715916991233826, 0.17278088629245758, 0.1784026026725769, 0.18402430415153503, 0.18964602053165436]}, "num_of_test_examples": 0, "test_loss": 0.004941167235374451, "epoch": 36, "val-auc": 0.8767018274144863, "_wandb": {"runtime": 2930}}