{"epoch": 19, "_timestamp": 1722986834.6208913, "_runtime": 185.03705024719238, "_step": 147, "train loss": 0.2084410935640335, "val loss": 0.563130259513855, "val auc": 0.8297368421052632, "val precision": 0.8202247191011236, "val recall": 0.7684210526315789, "val f1": 0.7934782608695652, "CARDIO Confusion Matrix": {"_type": "image-file", "sha256": "dbb1788f353dc97a45e22c223089030e783a68d69c9093d543908a6cd7b96884", "size": 15677, "path": "media/images/CARDIO Confusion Matrix_69_dbb1788f353dc97a45e2.png", "format": "png", "width": 1000, "height": 700}, "gradients/output.bias": {"_type": "histogram", "values": [0.0, 0.0, 0.0, 0.0, 0.0, 0.0, 0.0, 0.0, 0.0, 0.0, 0.0, 0.0, 0.0, 0.0, 0.0, 0.0, 0.0, 0.0, 0.0, 0.0, 0.0, 0.0, 0.0, 0.0, 0.0, 0.0, 0.0, 0.0, 0.0, 0.0, 0.0, 0.0, 1.0, 0.0, 0.0, 0.0, 0.0, 0.0, 0.0, 0.0, 0.0, 0.0, 0.0, 0.0, 0.0, 0.0, 0.0, 0.0, 0.0, 0.0, 0.0, 0.0, 0.0, 0.0, 0.0, 0.0, 0.0, 0.0, 0.0, 0.0, 0.0, 0.0, 0.0, 0.0], "bins": [0.015845678746700287, 0.015845678746700287, 0.015845678746700287, 0.015845678746700287, 0.015845678746700287, 0.015845678746700287, 0.015845678746700287, 0.015845678746700287, 0.015845678746700287, 0.015845678746700287, 0.015845678746700287, 0.015845678746700287, 0.015845678746700287, 0.015845678746700287, 0.015845678746700287, 0.015845678746700287, 0.015845678746700287, 0.015845678746700287, 0.015845678746700287, 0.015845678746700287, 0.015845678746700287, 0.015845678746700287, 0.015845678746700287, 0.015845678746700287, 0.015845678746700287, 0.015845678746700287, 0.015845678746700287, 0.015845678746700287, 0.015845678746700287, 0.015845678746700287, 0.015845678746700287, 0.015845678746700287, 0.015845678746700287, 0.015845678746700287, 0.015845678746700287, 0.015845678746700287, 0.015845678746700287, 0.015845678746700287, 0.015845678746700287, 0.015845678746700287, 0.015845678746700287, 0.015845678746700287, 0.015845678746700287, 0.015845678746700287, 0.015845678746700287, 0.015845678746700287, 0.015845678746700287, 0.015845678746700287, 0.015845678746700287, 0.015845678746700287, 0.015845678746700287, 0.015845678746700287, 0.015845678746700287, 0.015845678746700287, 0.015845678746700287, 0.015845678746700287, 0.015845678746700287, 0.015845678746700287, 0.015845678746700287, 0.015845678746700287, 0.015845678746700287, 0.015845678746700287, 0.015845678746700287, 0.015845678746700287, 0.015845678746700287]}, "gradients/output.weight": {"_type": "histogram", "values": [1.0, 0.0, 0.0, 0.0, 0.0, 1.0, 1.0, 0.0, 0.0, 0.0, 0.0, 1.0, 0.0, 3.0, 0.0, 0.0, 0.0, 0.0, 0.0, 0.0, 4.0, 0.0, 0.0, 0.0, 0.0, 0.0, 1.0, 0.0, 0.0, 0.0, 0.0, 0.0, 1.0, 0.0, 0.0, 0.0, 0.0, 0.0, 0.0, 0.0, 0.0, 0.0, 0.0, 1.0, 0.0, 0.0, 0.0, 0.0, 0.0, 0.0, 1.0, 0.0, 0.0, 0.0, 0.0, 0.0, 0.0, 0.0, 0.0, 0.0, 0.0, 0.0, 0.0, 1.0], "bins": [-0.07832483947277069, -0.07454347610473633, -0.07076212018728256, -0.0669807568192482, -0.06319939345121384, -0.05941803380846977, -0.05563667044043541, -0.051855310797691345, -0.04807394742965698, -0.04429258778691292, -0.040511228144168854, -0.03672986477613449, -0.03294850513339043, -0.029167143628001213, -0.025385782122612, -0.021604420617222786, -0.017823059111833572, -0.014041697606444359, -0.010260336101055145, -0.006478975526988506, -0.0026976140215992928, 0.0010837472509592772, 0.004865108523517847, 0.008646469563245773, 0.012427831068634987, 0.0162091925740242, 0.019990554079413414, 0.023771915584802628, 0.027553275227546692, 0.031334638595581055, 0.03511599823832512, 0.03889736160635948, 0.042678721249103546, 0.04646008089184761, 0.05024144425988197, 0.05402280390262604, 0.0578041672706604, 0.061585526913404465, 0.06536688655614853, 0.06914824992418289, 0.07292961329221725, 0.07671096920967102, 0.08049233257770538, 0.08427369594573975, 0.08805505931377411, 0.09183641523122787, 0.09561777859926224, 0.0993991419672966, 0.10318049788475037, 0.10696186125278473, 0.11074322462081909, 0.11452458798885345, 0.11830594390630722, 0.12208730727434158, 0.12586866319179535, 0.1296500265598297, 0.13343138992786407, 0.13721275329589844, 0.1409941166639328, 0.14477548003196716, 0.14855684340000153, 0.1523381918668747, 0.15611955523490906, 0.15990091860294342, 0.16368228197097778]}, "gradients/linearlayers.3.0.bias": {"_type": "histogram", "values": [1.0, 0.0, 0.0, 0.0, 1.0, 0.0, 0.0, 0.0, 1.0, 0.0, 0.0, 0.0, 0.0, 0.0, 0.0, 0.0, 0.0, 1.0, 0.0, 0.0, 0.0, 0.0, 0.0, 0.0, 0.0, 0.0, 0.0, 0.0, 0.0, 0.0, 0.0, 0.0, 4.0, 0.0, 1.0, 0.0, 0.0, 0.0, 1.0, 0.0, 0.0, 1.0, 0.0, 0.0, 1.0, 0.0, 0.0, 0.0, 0.0, 0.0, 1.0, 0.0, 0.0, 0.0, 1.0, 1.0, 0.0, 0.0, 0.0, 0.0, 0.0, 0.0, 0.0, 1.0], "bins": [-0.002839695895090699, -0.002751820022240281, -0.002663944149389863, -0.0025760680437088013, -0.002488192170858383, -0.002400316298007965, -0.002312440425157547, -0.002224564552307129, -0.002136688679456711, -0.002048812573775649, -0.001960936700925231, -0.0018730608280748129, -0.0017851849552243948, -0.0016973089659586549, -0.0016094330931082368, -0.0015215571038424969, -0.0014336812309920788, -0.0013458053581416607, -0.0012579293688759208, -0.0011700534960255027, -0.0010821775067597628, -0.0009943016339093447, -0.0009064257610589266, -0.0008185498300008476, -0.0007306738989427686, -0.0006427979678846896, -0.0005549220368266106, -0.0004670461639761925, -0.00037917023291811347, -0.00029129430186003447, -0.00020341839990578592, -0.00011554248339962214, -2.766679972410202e-05, 6.0209116782061756e-05, 0.00014808503328822553, 0.0002359609497943893, 0.0003238368663005531, 0.0004117127973586321, 0.0004995886702090502, 0.0005874646012671292, 0.0006753405323252082, 0.0007632164633832872, 0.0008510923944413662, 0.0009389682672917843, 0.0010268441401422024, 0.0011147201294079423, 0.0012025960022583604, 0.0012904719915241003, 0.0013783478643745184, 0.0014662237372249365, 0.0015540997264906764, 0.0016419755993410945, 0.0017298515886068344, 0.0018177274614572525, 0.0019056033343076706, 0.0019934792071580887, 0.0020813550800085068, 0.0021692311856895685, 0.0022571070585399866, 0.0023449829313904047, 0.002432858804240823, 0.002520734677091241, 0.0026086107827723026, 0.0026964866556227207, 0.002784362528473139]}, "gradients/linearlayers.3.0.weight": {"_type": "histogram", "values": [1.0, 1.0, 0.0, 1.0, 1.0, 0.0, 0.0, 0.0, 1.0, 1.0, 0.0, 1.0, 0.0, 2.0, 1.0, 2.0, 4.0, 4.0, 4.0, 8.0, 8.0, 4.0, 15.0, 14.0, 7.0, 7.0, 11.0, 14.0, 8.0, 228.0, 33.0, 13.0, 17.0, 13.0, 10.0, 13.0, 9.0, 12.0, 3.0, 5.0, 7.0, 3.0, 5.0, 3.0, 2.0, 4.0, 0.0, 2.0, 0.0, 2.0, 1.0, 0.0, 1.0, 1.0, 1.0, 1.0, 1.0, 0.0, 0.0, 0.0, 0.0, 0.0, 1.0, 1.0], "bins": [-0.022114627063274384, -0.02137714810669422, -0.02063966728746891, -0.019902188330888748, -0.019164707511663437, -0.018427228555083275, -0.017689749598503113, -0.0169522687792778, -0.01621478982269764, -0.015477309934794903, -0.014739830046892166, -0.014002351090312004, -0.013264871202409267, -0.01252739131450653, -0.011789912357926369, -0.011052432470023632, -0.010314952582120895, -0.009577472694218159, -0.008839992806315422, -0.00810251384973526, -0.007365033961832523, -0.006627554073929787, -0.005890074651688337, -0.005152595229446888, -0.004415115341544151, -0.0036776356864720583, -0.0029401560313999653, -0.0022026763763278723, -0.0014651967212557793, -0.0007277170661836863, 9.762588888406754e-06, 0.0007472422439604998, 0.001484723761677742, 0.002222203416749835, 0.002959683071821928, 0.003697162726894021, 0.004434642381966114, 0.005172122269868851, 0.0059096016921103, 0.006647081114351749, 0.007384561002254486, 0.008122040890157223, 0.00885952077805996, 0.009596999734640121, 0.010334479622542858, 0.011071959510445595, 0.011809438467025757, 0.012546918354928493, 0.01328439824283123, 0.014021878130733967, 0.014759358018636703, 0.015496836975216866, 0.016234315931797028, 0.01697179675102234, 0.0177092757076025, 0.018446756526827812, 0.019184235483407974, 0.019921714439988136, 0.020659195259213448, 0.02139667421579361, 0.02213415503501892, 0.022871633991599083, 0.023609112948179245, 0.024346593767404556, 0.02508407272398472]}, "gradients/linearlayers.2.0.bias": {"_type": "histogram", "values": [1.0, 0.0, 0.0, 0.0, 0.0, 1.0, 0.0, 0.0, 0.0, 1.0, 0.0, 0.0, 1.0, 2.0, 2.0, 1.0, 1.0, 0.0, 0.0, 0.0, 0.0, 0.0, 0.0, 0.0, 0.0, 0.0, 0.0, 1.0, 0.0, 0.0, 1.0, 2.0, 8.0, 0.0, 1.0, 0.0, 0.0, 0.0, 0.0, 1.0, 0.0, 0.0, 0.0, 0.0, 1.0, 0.0, 0.0, 0.0, 1.0, 0.0, 1.0, 1.0, 0.0, 0.0, 0.0, 0.0, 0.0, 1.0, 0.0, 0.0, 0.0, 0.0, 1.0, 2.0], "bins": [-0.0024516775738447905, -0.0023753673303872347, -0.002299057086929679, -0.0022227466106414795, -0.0021464363671839237, -0.002070126123726368, -0.001993815880268812, -0.0019175055203959346, -0.001841195160523057, -0.0017648849170655012, -0.0016885746736079454, -0.0016122643137350678, -0.001535954070277512, -0.0014596437104046345, -0.0013833334669470787, -0.001307023107074201, -0.0012307128636166453, -0.0011544026201590896, -0.001078092260286212, -0.0010017820168286562, -0.0009254716569557786, -0.0008491614134982228, -0.0007728511118330061, -0.0006965408101677895, -0.0006202305085025728, -0.0005439202068373561, -0.0004676099051721394, -0.0003912996326107532, -0.0003149893309455365, -0.0002386790292803198, -0.00016236874216701835, -8.605844777775928e-05, -9.748153388500214e-06, 6.656214100075886e-05, 0.00014287243539001793, 0.00021918272250331938, 0.00029549302416853607, 0.00037180332583375275, 0.000448113598395139, 0.0005244239000603557, 0.0006007342017255723, 0.000677044503390789, 0.0007533548050560057, 0.0008296651067212224, 0.0009059753501787782, 0.0009822857100516558, 0.0010585959535092115, 0.0011349063133820891, 0.001211216556839645, 0.0012875268002972007, 0.0013638371601700783, 0.001440147403627634, 0.0015164577635005116, 0.0015927680069580674, 0.001669078366830945, 0.0017453886102885008, 0.0018216988537460566, 0.0018980092136189342, 0.0019743195734918118, 0.0020506298169493675, 0.0021269400604069233, 0.002203250303864479, 0.0022795607801526785, 0.0023558710236102343, 0.00243218126706779]}, "gradients/linearlayers.2.0.weight": {"_type": "histogram", "values": [1.0, 0.0, 0.0, 1.0, 0.0, 1.0, 0.0, 1.0, 0.0, 0.0, 2.0, 0.0, 1.0, 3.0, 6.0, 3.0, 5.0, 4.0, 2.0, 6.0, 4.0, 10.0, 13.0, 22.0, 17.0, 23.0, 32.0, 43.0, 56.0, 52.0, 91.0, 153.0, 1086.0, 100.0, 83.0, 70.0, 25.0, 12.0, 22.0, 11.0, 10.0, 9.0, 11.0, 13.0, 8.0, 4.0, 1.0, 6.0, 5.0, 3.0, 3.0, 4.0, 2.0, 0.0, 1.0, 0.0, 1.0, 0.0, 0.0, 0.0, 2.0, 1.0, 1.0, 2.0], "bins": [-0.022548045963048935, -0.021850263699889183, -0.02115248329937458, -0.02045470103621483, -0.019756920635700226, -0.019059138372540474, -0.018361356109380722, -0.01766357570886612, -0.016965793445706367, -0.016268011182546616, -0.015570230782032013, -0.014872448518872261, -0.014174667187035084, -0.013476885855197906, -0.012779103592038155, -0.012081322260200977, -0.0113835409283638, -0.010685759596526623, -0.009987978264689445, -0.009290196001529694, -0.008592414669692516, -0.007894633337855339, -0.0071968515403568745, -0.00649906974285841, -0.005801288411021233, -0.005103507079184055, -0.004405725281685591, -0.00370794371701777, -0.003010162152349949, -0.002312380587682128, -0.001614599023014307, -0.0009168174583464861, -0.00021903589367866516, 0.00047874567098915577, 0.0011765272356569767, 0.0018743088003247976, 0.0025720903649926186, 0.0032698719296604395, 0.00396765349432826, 0.004665435291826725, 0.005363216623663902, 0.0060609979555010796, 0.006758779752999544, 0.007456561550498009, 0.008154342882335186, 0.008852124214172363, 0.009549906477332115, 0.010247687809169292, 0.01094546914100647, 0.011643250472843647, 0.012341031804680824, 0.013038814067840576, 0.013736595399677753, 0.01443437673151493, 0.015132158994674683, 0.015829939395189285, 0.016527721658349037, 0.01722550392150879, 0.01792328432202339, 0.018621066585183144, 0.019318848848342896, 0.020016629248857498, 0.02071441151201725, 0.021412191912531853, 0.022109974175691605]}, "gradients/linearlayers.1.0.bias": {"_type": "histogram", "values": [2.0, 1.0, 1.0, 0.0, 1.0, 0.0, 1.0, 0.0, 0.0, 0.0, 0.0, 0.0, 0.0, 1.0, 0.0, 2.0, 2.0, 1.0, 0.0, 1.0, 0.0, 0.0, 1.0, 0.0, 2.0, 0.0, 0.0, 2.0, 0.0, 1.0, 16.0, 0.0, 2.0, 3.0, 0.0, 1.0, 0.0, 1.0, 2.0, 0.0, 1.0, 1.0, 1.0, 1.0, 1.0, 1.0, 0.0, 1.0, 3.0, 1.0, 3.0, 0.0, 2.0, 1.0, 0.0, 1.0, 0.0, 0.0, 0.0, 0.0, 1.0, 0.0, 0.0, 1.0], "bins": [-0.0021972940303385258, -0.0021255991887301207, -0.0020539043471217155, -0.0019822095055133104, -0.0019105146639049053, -0.0018388197058811784, -0.0017671248642727733, -0.0016954300226643682, -0.001623735181055963, -0.001552040339447558, -0.0014803454978391528, -0.0014086506562307477, -0.0013369556982070208, -0.0012652608565986156, -0.0011935660149902105, -0.0011218711733818054, -0.0010501763317734003, -0.0009784814901649952, -0.0009067866485565901, -0.000835091748740524, -0.0007633969071321189, -0.0006917020655237138, -0.0006200071657076478, -0.0005483123240992427, -0.0004766174824908376, -0.00040492264088243246, -0.0003332277701701969, -0.0002615328994579613, -0.0001898380578495562, -0.00011814320168923587, -4.6448345528915524e-05, 2.5246510631404817e-05, 9.694159962236881e-05, 0.00016863645578268915, 0.0002403313119430095, 0.00031202618265524507, 0.0003837210242636502, 0.0004554158658720553, 0.0005271107656881213, 0.0005988056072965264, 0.0006705004489049315, 0.0007421952905133367, 0.0008138901321217418, 0.0008855850319378078, 0.0009572798735462129, 0.001028974773362279, 0.001100669614970684, 0.0011723644565790892, 0.0012440592981874943, 0.0013157541397958994, 0.0013874489814043045, 0.0014591438230127096, 0.0015308386646211147, 0.0016025336226448417, 0.0016742284642532468, 0.001745923305861652, 0.001817618147470057, 0.0018893129890784621, 0.001961007947102189, 0.002032702788710594, 0.0021043976303189993, 0.0021760924719274044, 0.0022477873135358095, 0.0023194821551442146, 0.0023911769967526197]}, "gradients/linearlayers.1.0.weight": {"_type": "histogram", "values": [3.0, 0.0, 5.0, 0.0, 7.0, 4.0, 4.0, 2.0, 5.0, 9.0, 9.0, 10.0, 9.0, 15.0, 14.0, 13.0, 24.0, 25.0, 23.0, 26.0, 39.0, 48.0, 58.0, 58.0, 74.0, 88.0, 128.0, 210.0, 300.0, 600.0, 4342.0, 442.0, 314.0, 218.0, 166.0, 156.0, 131.0, 96.0, 89.0, 70.0, 54.0, 51.0, 45.0, 33.0, 37.0, 26.0, 19.0, 21.0, 16.0, 11.0, 10.0, 8.0, 7.0, 5.0, 3.0, 4.0, 0.0, 2.0, 1.0, 1.0, 1.0, 2.0, 0.0, 1.0], "bins": [-0.012497174553573132, -0.012088383547961712, -0.011679592542350292, -0.011270800605416298, -0.010862009599804878, -0.010453218594193459, -0.010044427588582039, -0.00963563658297062, -0.0092268455773592, -0.008818053640425205, -0.008409262634813786, -0.008000471629202366, -0.007591680623590946, -0.007182889152318239, -0.0067740981467068195, -0.0063653066754341125, -0.005956515669822693, -0.005547724664211273, -0.005138933192938566, -0.0047301421873271465, -0.0043213507160544395, -0.00391255971044302, -0.0035037687048316, -0.003094977466389537, -0.0026861862279474735, -0.00227739498950541, -0.0018686038674786687, -0.0014598127454519272, -0.0010510215070098639, -0.0006422303267754614, -0.00023343914654105902, 0.0001753520336933434, 0.0005841422826051712, 0.0009929335210472345, 0.001401724643073976, 0.0018105157651007175, 0.002219307003542781, 0.002628098241984844, 0.003036889247596264, 0.0034456804860383272, 0.0038544717244803905, 0.00426326273009181, 0.004672054201364517, 0.005080845206975937, 0.005489636212587357, 0.0058984276838600636, 0.006307218689471483, 0.00671601016074419, 0.00712480116635561, 0.00753359217196703, 0.00794238317757845, 0.008351175114512444, 0.008759966120123863, 0.009168757125735283, 0.009577548131346703, 0.009986339136958122, 0.010395130142569542, 0.010803922079503536, 0.011212713085114956, 0.011621504090726376, 0.012030295096337795, 0.012439086101949215, 0.01284787803888321, 0.013256669044494629, 0.013665460050106049]}, "gradients/linearlayers.0.0.bias": {"_type": "histogram", "values": [1.0, 0.0, 0.0, 0.0, 0.0, 0.0, 0.0, 1.0, 0.0, 1.0, 1.0, 0.0, 0.0, 0.0, 3.0, 2.0, 1.0, 3.0, 5.0, 3.0, 2.0, 3.0, 0.0, 2.0, 1.0, 1.0, 5.0, 3.0, 1.0, 5.0, 1.0, 4.0, 34.0, 4.0, 3.0, 1.0, 1.0, 4.0, 3.0, 2.0, 3.0, 3.0, 3.0, 1.0, 1.0, 3.0, 2.0, 0.0, 2.0, 1.0, 1.0, 1.0, 2.0, 0.0, 1.0, 0.0, 2.0, 0.0, 0.0, 0.0, 0.0, 0.0, 0.0, 1.0], "bins": [-0.0031704637221992016, -0.0030718150082975626, -0.0029731665272265673, -0.0028745178133249283, -0.0027758690994232893, -0.002677220618352294, -0.002578571904450655, -0.002479923190549016, -0.0023812747094780207, -0.0022826259955763817, -0.0021839772816747427, -0.0020853288006037474, -0.0019866800867021084, -0.0018880314892157912, -0.001789382891729474, -0.001690734177827835, -0.001592085580341518, -0.0014934369828552008, -0.0013947882689535618, -0.0012961396714672446, -0.0011974910739809275, -0.0010988423600792885, -0.0010001937625929713, -0.0009015451651066542, -0.0008028965094126761, -0.000704247853718698, -0.0006055992562323809, -0.0005069506005384028, -0.0004083019739482552, -0.00030965334735810757, -0.00021100470621604472, -0.0001123560723499395, -1.3707438483834267e-05, 8.494119538227096e-05, 0.0001835898292483762, 0.00028223847039043903, 0.00038088709698058665, 0.00047953572357073426, 0.0005781843792647123, 0.0006768329767510295, 0.0007754816324450076, 0.0008741302881389856, 0.0009727788856253028, 0.00107142748311162, 0.001170076197013259, 0.001268724794499576, 0.0013673733919858932, 0.0014660221058875322, 0.0015646707033738494, 0.0016633193008601665, 0.0017619680147618055, 0.0018606166122481227, 0.00195926520973444, 0.002057913923636079, 0.002156562404707074, 0.002255211118608713, 0.002353859832510352, 0.0024525083135813475, 0.0025511570274829865, 0.0026498057413846254, 0.0027484542224556208, 0.0028471029363572598, 0.0029457516502588987, 0.003044400131329894, 0.003143048845231533]}, "gradients/linearlayers.0.0.weight": {"_type": "histogram", "values": [1.0, 1.0, 0.0, 1.0, 0.0, 1.0, 1.0, 3.0, 2.0, 4.0, 2.0, 7.0, 3.0, 5.0, 11.0, 17.0, 16.0, 20.0, 33.0, 56.0, 66.0, 65.0, 101.0, 144.0, 168.0, 261.0, 308.0, 422.0, 570.0, 912.0, 1332.0, 2478.0, 17542.0, 3099.0, 1603.0, 994.0, 701.0, 475.0, 323.0, 230.0, 176.0, 151.0, 102.0, 91.0, 51.0, 50.0, 43.0, 32.0, 17.0, 16.0, 20.0, 7.0, 6.0, 7.0, 4.0, 5.0, 4.0, 2.0, 2.0, 1.0, 0.0, 0.0, 1.0, 2.0], "bins": [-0.013188730925321579, -0.012785196304321289, -0.012381661683321, -0.011978127993643284, -0.011574593372642994, -0.011171058751642704, -0.010767524130642414, -0.010363989509642124, -0.009960455819964409, -0.009556921198964119, -0.009153386577963829, -0.008749851956963539, -0.00834631733596325, -0.00794278271496296, -0.007539248559623957, -0.007135714404284954, -0.006732179783284664, -0.006328645162284374, -0.005925111006945372, -0.005521576385945082, -0.005118042230606079, -0.004714507609605789, -0.004310972988605499, -0.003907438833266497, -0.0035039042122662067, -0.0031003698240965605, -0.002696835435926914, -0.0022933008149266243, -0.001889766426756978, -0.0014862320385873318, -0.0010826975340023637, -0.0006791630876250565, -0.00027562957257032394, 0.00012790487380698323, 0.0005314393201842904, 0.0009349737665615976, 0.0013385082129389048, 0.001742042601108551, 0.002145577222108841, 0.002549111610278487, 0.0029526459984481335, 0.0033561803866177797, 0.003759714774787426, 0.004163249395787716, 0.004566784016788006, 0.0049703181721270084, 0.005373852793127298, 0.005777386948466301, 0.006180921569466591, 0.006584456190466881, 0.006987990345805883, 0.007391524966806173, 0.007795059122145176, 0.008198593743145466, 0.008602128364145756, 0.009005662985146046, 0.009409196674823761, 0.009812731295824051, 0.01021626591682434, 0.01061980053782463, 0.01102333515882492, 0.01142686977982521, 0.011830403469502926, 0.012233938090503216, 0.012637472711503506]}, "gradients/embeds.2.bias": {"_type": "histogram", "values": [1.0, 0.0, 1.0, 2.0, 1.0, 2.0, 1.0, 3.0, 1.0, 1.0, 1.0, 2.0, 1.0, 4.0, 3.0, 4.0, 1.0, 3.0, 3.0, 0.0, 5.0, 3.0, 10.0, 4.0, 9.0, 8.0, 8.0, 6.0, 7.0, 8.0, 8.0, 34.0, 7.0, 10.0, 10.0, 6.0, 6.0, 9.0, 7.0, 5.0, 2.0, 6.0, 3.0, 4.0, 4.0, 4.0, 4.0, 3.0, 3.0, 5.0, 1.0, 2.0, 2.0, 2.0, 2.0, 1.0, 0.0, 1.0, 0.0, 1.0, 0.0, 0.0, 0.0, 1.0], "bins": [-0.0036292430013418198, -0.0035138828679919243, -0.003398522734642029, -0.0032831623684614897, -0.003167802235111594, -0.0030524421017616987, -0.0029370819684118032, -0.0028217218350619078, -0.0027063614688813686, -0.002591001335531473, -0.0024756412021815777, -0.002360281068831682, -0.0022449209354817867, -0.0021295608021318913, -0.002014200435951352, -0.0018988403026014566, -0.0017834801692515612, -0.0016681200359016657, -0.0015527597861364484, -0.001437399652786553, -0.0013220394030213356, -0.0012066792696714401, -0.0010913191363215446, -0.0009759589447639883, -0.0008605987532064319, -0.0007452385616488755, -0.0006298783700913191, -0.0005145182367414236, -0.0003991580451838672, -0.0002837978536263108, -0.0001684376911725849, -5.307751416694373e-05, 6.228266283869743e-05, 0.0001776428398443386, 0.00029300301684997976, 0.0004083631793037057, 0.0005237233708612621, 0.0006390835624188185, 0.000754443695768714, 0.0008698038873262703, 0.0009851640788838267, 0.0011005242122337222, 0.0012158844619989395, 0.001331244595348835, 0.0014466047286987305, 0.0015619649784639478, 0.0016773251118138433, 0.0017926853615790606, 0.001908045494928956, 0.0020234056282788515, 0.002138765761628747, 0.002254126127809286, 0.0023694862611591816, 0.002484846394509077, 0.0026002065278589725, 0.002715566661208868, 0.0028309267945587635, 0.0029462871607393026, 0.003061647294089198, 0.0031770074274390936, 0.003292367560788989, 0.0034077276941388845, 0.0035230880603194237, 0.003638448193669319, 0.0037538083270192146]}, "gradients/embeds.2.weight": {"_type": "histogram", "values": [2.0, 1.0, 0.0, 1.0, 2.0, 4.0, 3.0, 7.0, 8.0, 14.0, 16.0, 21.0, 33.0, 38.0, 50.0, 80.0, 118.0, 135.0, 182.0, 226.0, 313.0, 453.0, 546.0, 771.0, 1147.0, 1770.0, 2759.0, 4872.0, 9496.0, 25714.0, 55782.0, 11499.0, 5557.0, 3186.0, 1994.0, 1234.0, 892.0, 608.0, 438.0, 307.0, 239.0, 157.0, 121.0, 83.0, 59.0, 36.0, 26.0, 19.0, 19.0, 10.0, 2.0, 8.0, 3.0, 4.0, 3.0, 2.0, 1.0, 0.0, 0.0, 0.0, 0.0, 0.0, 0.0, 1.0], "bins": [-0.01128176786005497, -0.010907198302447796, -0.010532627813518047, -0.010158058255910873, -0.0097834886983037, -0.009408919140696526, -0.009034348651766777, -0.008659779094159603, -0.00828520953655243, -0.00791063904762268, -0.007536069490015507, -0.007161499932408333, -0.006786929909139872, -0.006412360351532698, -0.0060377903282642365, -0.0056632207706570625, -0.005288650747388601, -0.00491408072412014, -0.004539511166512966, -0.004164941143244505, -0.003790371585637331, -0.0034158015623688698, -0.003041231771931052, -0.0026666619814932346, -0.002292092191055417, -0.0019175224006175995, -0.001542952610179782, -0.0011683827033266425, -0.0007938129128888249, -0.0004192430933471769, -4.467327380552888e-05, 0.00032989654573611915, 0.0007044663652777672, 0.0010790361557155848, 0.0014536059461534023, 0.0018281758530065417, 0.0022027455270290375, 0.0025773155502974987, 0.0029518853407353163, 0.003326455131173134, 0.0037010249216109514, 0.004075594712048769, 0.00445016473531723, 0.004824734292924404, 0.005199304316192865, 0.005573873873800039, 0.0059484438970685005, 0.0063230134546756744, 0.006697583477944136, 0.007072153501212597, 0.007446723058819771, 0.007821292616426945, 0.008195863105356693, 0.008570432662963867, 0.008945002220571041, 0.009319571778178215, 0.009694142267107964, 0.010068711824715137, 0.010443281382322311, 0.01081785187125206, 0.011192421428859234, 0.011566990986466408, 0.011941560544073582, 0.01231613103300333, 0.012690700590610504]}, "gradients/embeds.0.bias": {"_type": "histogram", "values": [1.0, 0.0, 0.0, 0.0, 0.0, 0.0, 0.0, 0.0, 0.0, 0.0, 0.0, 0.0, 1.0, 2.0, 2.0, 1.0, 1.0, 3.0, 3.0, 0.0, 0.0, 1.0, 5.0, 3.0, 9.0, 4.0, 9.0, 12.0, 12.0, 13.0, 17.0, 17.0, 18.0, 22.0, 28.0, 22.0, 57.0, 35.0, 32.0, 31.0, 32.0, 30.0, 17.0, 14.0, 15.0, 7.0, 6.0, 7.0, 3.0, 5.0, 4.0, 2.0, 3.0, 0.0, 2.0, 1.0, 0.0, 0.0, 0.0, 0.0, 2.0, 0.0, 0.0, 1.0], "bins": [-0.009444430470466614, -0.009188458323478699, -0.008932486176490784, -0.008676513098180294, -0.008420540951192379, -0.008164568804204464, -0.007908596657216549, -0.007652624044567347, -0.007396651431918144, -0.007140679284930229, -0.006884707137942314, -0.006628734525293112, -0.006372762378305197, -0.006116789765655994, -0.005860817618668079, -0.005604845006018877, -0.005348872859030962, -0.005092900712043047, -0.004836928099393845, -0.0045809559524059296, -0.004324983339756727, -0.004069011192768812, -0.0038130388129502535, -0.003557066433131695, -0.003301094053313136, -0.0030451216734945774, -0.0027891492936760187, -0.00253317691385746, -0.002277204766869545, -0.0020212323870509863, -0.0017652600072324276, -0.001509287627413869, -0.0012533157132565975, -0.0009973433334380388, -0.000741371011827141, -0.0004853986611124128, -0.00022942631039768457, 2.6546040317043662e-05, 0.0002825183910317719, 0.0005384907126426697, 0.0007944630924612284, 0.001050435472279787, 0.0013064078520983458, 0.0015623801155015826, 0.0018183524953201413, 0.002074324758723378, 0.002330297138541937, 0.0025862695183604956, 0.0028422418981790543, 0.003098214277997613, 0.0033541866578161716, 0.0036101590376347303, 0.003866131417453289, 0.004122103564441204, 0.004378076177090406, 0.0046340483240783215, 0.004890020936727524, 0.005145993083715439, 0.005401965230703354, 0.005657937843352556, 0.005913909990340471, 0.006169882602989674, 0.006425854749977589, 0.006681827362626791, 0.006937799509614706]}, "gradients/embeds.0.weight": {"_type": "histogram", "values": [1.0, 0.0, 0.0, 0.0, 0.0, 0.0, 0.0, 1.0, 0.0, 0.0, 0.0, 2.0, 2.0, 2.0, 2.0, 3.0, 3.0, 4.0, 4.0, 4.0, 2.0, 5.0, 9.0, 14.0, 18.0, 19.0, 34.0, 26.0, 47.0, 69.0, 89.0, 273.0, 1496.0, 22999.0, 320925.0, 43766.0, 2578.0, 394.0, 168.0, 87.0, 41.0, 37.0, 28.0, 13.0, 10.0, 11.0, 7.0, 6.0, 3.0, 1.0, 3.0, 1.0, 2.0, 3.0, 0.0, 0.0, 2.0, 0.0, 1.0, 0.0, 0.0, 0.0, 0.0, 1.0], "bins": [-0.10766464471817017, -0.10455341637134552, -0.10144219547510147, -0.09833096712827682, -0.09521973878145218, -0.09210851788520813, -0.08899728953838348, -0.08588606119155884, -0.08277484029531479, -0.07966361194849014, -0.0765523836016655, -0.07344116270542145, -0.0703299343585968, -0.06721870601177216, -0.0641074851155281, -0.06099625676870346, -0.05788503214716911, -0.054773807525634766, -0.05166257917881012, -0.04855135455727577, -0.045440129935741425, -0.04232890158891678, -0.03921767696738243, -0.036106452345848083, -0.03299522399902344, -0.02988399937748909, -0.026772774755954742, -0.023661548271775246, -0.02055032178759575, -0.0174390971660614, -0.014327870681881905, -0.011216645129024982, -0.00810541957616806, -0.004994194023311138, -0.0018829680047929287, 0.001228257780894637, 0.004339483566582203, 0.007450709119439125, 0.010561935603618622, 0.013673161156475544, 0.016784386709332466, 0.019895613193511963, 0.02300683781504631, 0.026118064299225807, 0.029229290783405304, 0.03234051540493965, 0.035451740026474, 0.038562968373298645, 0.04167419299483299, 0.04478541761636734, 0.047896645963191986, 0.051007870584726334, 0.05411909520626068, 0.05723032355308533, 0.060341548174619675, 0.06345277279615402, 0.06656400114297867, 0.06967522203922272, 0.07278645038604736, 0.07589767873287201, 0.07900889962911606, 0.0821201279759407, 0.08523135632276535, 0.0883425772190094, 0.09145380556583405]}, "total_best_ep": 8, "total_best_ep_tloss": 0.5526842474937439, "total_best_ep_vloss": 0.5532926917076111, "total_best_ep_AUC": 0.8077631578947368, "total_best_ep_precision": 0.7819905213270142, "total_best_ep_recall": 0.868421052631579, "total_best_ep_f1": 0.8229426433915212, "_wandb": {"runtime": 184}}