{"epoch": 19, "_timestamp": 1722985228.573039, "_runtime": 832.8379580974579, "_step": 151, "train loss": 0.06569371372461319, "val loss": 0.6914273500442505, "val auc": 0.8896137307508546, "val precision": 0.7561942517343905, "val recall": 0.8384615384615385, "val f1": 0.795205836373111, "CYP2C19 Confusion Matrix": {"_type": "image-file", "sha256": "b0786841d7903e6f6347a34096a80757db1f159b578cffa239dcd22d6e724bdb", "size": 18463, "path": "media/images/CYP2C19 Confusion Matrix_136_b0786841d7903e6f6347.png", "format": "png", "width": 1000, "height": 700}, "gradients/output.bias": {"_type": "histogram", "values": [0.0, 0.0, 0.0, 0.0, 0.0, 0.0, 0.0, 0.0, 0.0, 0.0, 0.0, 0.0, 0.0, 0.0, 0.0, 0.0, 0.0, 0.0, 0.0, 0.0, 0.0, 0.0, 0.0, 0.0, 0.0, 0.0, 0.0, 0.0, 0.0, 0.0, 0.0, 0.0, 1.0, 0.0, 0.0, 0.0, 0.0, 0.0, 0.0, 0.0, 0.0, 0.0, 0.0, 0.0, 0.0, 0.0, 0.0, 0.0, 0.0, 0.0, 0.0, 0.0, 0.0, 0.0, 0.0, 0.0, 0.0, 0.0, 0.0, 0.0, 0.0, 0.0, 0.0, 0.0], "bins": [0.03723821043968201, 0.03723821043968201, 0.03723821043968201, 0.03723821043968201, 0.03723821043968201, 0.03723821043968201, 0.03723821043968201, 0.03723821043968201, 0.03723821043968201, 0.03723821043968201, 0.03723821043968201, 0.03723821043968201, 0.03723821043968201, 0.03723821043968201, 0.03723821043968201, 0.03723821043968201, 0.03723821043968201, 0.03723821043968201, 0.03723821043968201, 0.03723821043968201, 0.03723821043968201, 0.03723821043968201, 0.03723821043968201, 0.03723821043968201, 0.03723821043968201, 0.03723821043968201, 0.03723821043968201, 0.03723821043968201, 0.03723821043968201, 0.03723821043968201, 0.03723821043968201, 0.03723821043968201, 0.03723821043968201, 0.03723821043968201, 0.03723821043968201, 0.03723821043968201, 0.03723821043968201, 0.03723821043968201, 0.03723821043968201, 0.03723821043968201, 0.03723821043968201, 0.03723821043968201, 0.03723821043968201, 0.03723821043968201, 0.03723821043968201, 0.03723821043968201, 0.03723821043968201, 0.03723821043968201, 0.03723821043968201, 0.03723821043968201, 0.03723821043968201, 0.03723821043968201, 0.03723821043968201, 0.03723821043968201, 0.03723821043968201, 0.03723821043968201, 0.03723821043968201, 0.03723821043968201, 0.03723821043968201, 0.03723821043968201, 0.03723821043968201, 0.03723821043968201, 0.03723821043968201, 0.03723821043968201, 0.03723821043968201]}, "gradients/output.weight": {"_type": "histogram", "values": [4.0, 0.0, 1.0, 0.0, 0.0, 0.0, 0.0, 0.0, 1.0, 0.0, 0.0, 0.0, 0.0, 1.0, 0.0, 3.0, 0.0, 2.0, 0.0, 1.0, 0.0, 0.0, 0.0, 0.0, 0.0, 1.0, 0.0, 0.0, 0.0, 0.0, 1.0, 0.0, 0.0, 0.0, 0.0, 0.0, 0.0, 0.0, 0.0, 0.0, 0.0, 0.0, 0.0, 0.0, 0.0, 0.0, 0.0, 0.0, 0.0, 0.0, 0.0, 0.0, 0.0, 0.0, 0.0, 0.0, 0.0, 0.0, 0.0, 0.0, 0.0, 0.0, 0.0, 1.0], "bins": [-2.4350088612123955e-09, 0.0072501725517213345, 0.014500346966087818, 0.021750522777438164, 0.029000697657465935, 0.036250870674848557, 0.04350104555487633, 0.0507512204349041, 0.05800139531493187, 0.06525157392024994, 0.07250174880027771, 0.07975192368030548, 0.08700209856033325, 0.09425227344036102, 0.1015024483203888, 0.10875262320041656, 0.11600279808044434, 0.1232529729604721, 0.13050314784049988, 0.13775332272052765, 0.14500349760055542, 0.1522536724805832, 0.15950384736061096, 0.16675402224063873, 0.1740041971206665, 0.18125437200069427, 0.18850454688072205, 0.19575472176074982, 0.2030048966407776, 0.21025507152080536, 0.21750524640083313, 0.2247554212808609, 0.23200559616088867, 0.23925577104091644, 0.2465059459209442, 0.2537561058998108, 0.26100629568099976, 0.2682564854621887, 0.2755066454410553, 0.2827568054199219, 0.29000699520111084, 0.2972571849822998, 0.3045073449611664, 0.31175750494003296, 0.3190076947212219, 0.3262578845024109, 0.33350804448127747, 0.34075820446014404, 0.348008394241333, 0.355258584022522, 0.36250874400138855, 0.3697589039802551, 0.3770090937614441, 0.38425928354263306, 0.39150944352149963, 0.3987596035003662, 0.4060097932815552, 0.41325998306274414, 0.4205101430416107, 0.4277603030204773, 0.43501049280166626, 0.4422606825828552, 0.4495108425617218, 0.4567610025405884, 0.46401119232177734]}, "gradients/linearlayers.3.0.bias": {"_type": "histogram", "values": [1.0, 0.0, 0.0, 0.0, 2.0, 0.0, 0.0, 0.0, 0.0, 0.0, 0.0, 0.0, 0.0, 0.0, 1.0, 0.0, 0.0, 0.0, 0.0, 0.0, 0.0, 0.0, 4.0, 0.0, 1.0, 0.0, 0.0, 0.0, 0.0, 0.0, 0.0, 0.0, 0.0, 1.0, 0.0, 0.0, 0.0, 0.0, 0.0, 0.0, 0.0, 0.0, 0.0, 0.0, 0.0, 0.0, 0.0, 0.0, 1.0, 0.0, 0.0, 1.0, 1.0, 0.0, 0.0, 1.0, 0.0, 0.0, 0.0, 1.0, 0.0, 0.0, 0.0, 1.0], "bins": [-0.006091787479817867, -0.005814889911562204, -0.0055379923433065414, -0.0052610947750508785, -0.004984197206795216, -0.004707299172878265, -0.0044304016046226025, -0.0041535040363669395, -0.0038766064681112766, -0.0035997088998556137, -0.003322811331599951, -0.0030459135305136442, -0.0027690159622579813, -0.0024921183940023184, -0.002215220592916012, -0.001938323024660349, -0.001661425456404686, -0.001384527888149023, -0.0011076302034780383, -0.0008307325770147145, -0.0005538349505513906, -0.0002769373240880668, -3.969762474298477e-08, 0.00027685792883858085, 0.0005537555553019047, 0.0008306531817652285, 0.0011075508082285523, 0.001384448492899537, 0.0016613460611552, 0.001938243629410863, 0.0022151414304971695, 0.0024920389987528324, 0.0027689356356859207, 0.0030458332039415836, 0.0033227307721972466, 0.003599628573283553, 0.003876526141539216, 0.004153423942625523, 0.0044303215108811855, 0.0047072190791368484, 0.004984116647392511, 0.005261014215648174, 0.005537911783903837, 0.0058148093521595, 0.00609170738607645, 0.006368604954332113, 0.006645502522587776, 0.006922400090843439, 0.007199297659099102, 0.007476195227354765, 0.007753092795610428, 0.008029990829527378, 0.008306887932121754, 0.008583785966038704, 0.00886068306863308, 0.00913758110255003, 0.00941447913646698, 0.009691376239061356, 0.009968274272978306, 0.010245171375572681, 0.010522069409489632, 0.010798966512084007, 0.011075864546000957, 0.011352761648595333, 0.011629659682512283]}, "gradients/linearlayers.3.0.weight": {"_type": "histogram", "values": [2.0, 2.0, 1.0, 0.0, 5.0, 6.0, 3.0, 3.0, 4.0, 3.0, 2.0, 1.0, 3.0, 5.0, 6.0, 8.0, 6.0, 7.0, 13.0, 10.0, 6.0, 233.0, 15.0, 9.0, 13.0, 14.0, 12.0, 8.0, 4.0, 8.0, 6.0, 4.0, 6.0, 4.0, 5.0, 5.0, 4.0, 0.0, 3.0, 1.0, 4.0, 4.0, 3.0, 4.0, 4.0, 4.0, 4.0, 4.0, 4.0, 4.0, 4.0, 2.0, 3.0, 4.0, 1.0, 1.0, 1.0, 3.0, 0.0, 1.0, 0.0, 1.0, 1.0, 1.0], "bins": [-0.04563030228018761, -0.043495792895555496, -0.041361287236213684, -0.039226777851581573, -0.03709226846694946, -0.03495776280760765, -0.03282325342297554, -0.03068874590098858, -0.028554238379001617, -0.026419730857014656, -0.024285223335027695, -0.022150713950395584, -0.020016206428408623, -0.01788169890642166, -0.01574718952178955, -0.01361268199980259, -0.011478174477815628, -0.009343666955828667, -0.007209158502519131, -0.005074650514870882, -0.0029401425272226334, -0.0008056345395743847, 0.001328873448073864, 0.0034633814357221127, 0.005597889423370361, 0.00773239741101861, 0.009866905398666859, 0.012001413851976395, 0.014135921373963356, 0.016270428895950317, 0.018404938280582428, 0.02053944580256939, 0.02267395704984665, 0.02480846457183361, 0.026942972093820572, 0.029077481478452682, 0.031211989000439644, 0.033346496522426605, 0.035481005907058716, 0.03761551156640053, 0.03975002095103264, 0.04188453033566475, 0.04401903599500656, 0.04615354537963867, 0.04828805476427078, 0.050422560423612595, 0.052557069808244705, 0.05469157546758652, 0.05682608485221863, 0.05896059423685074, 0.06109509989619255, 0.06322960555553436, 0.06536411494016647, 0.06749862432479858, 0.0696331337094307, 0.0717676430940628, 0.07390214502811432, 0.07603665441274643, 0.07817116379737854, 0.08030567318201065, 0.08244018256664276, 0.08457469195127487, 0.08670919388532639, 0.0888437032699585, 0.0909782126545906]}, "gradients/linearlayers.2.0.bias": {"_type": "histogram", "values": [1.0, 0.0, 0.0, 0.0, 0.0, 0.0, 0.0, 0.0, 0.0, 0.0, 0.0, 1.0, 0.0, 0.0, 0.0, 0.0, 0.0, 1.0, 0.0, 1.0, 0.0, 1.0, 0.0, 0.0, 0.0, 0.0, 0.0, 1.0, 0.0, 0.0, 1.0, 0.0, 1.0, 0.0, 1.0, 2.0, 8.0, 0.0, 0.0, 0.0, 0.0, 1.0, 0.0, 0.0, 1.0, 1.0, 0.0, 2.0, 1.0, 1.0, 1.0, 1.0, 0.0, 0.0, 0.0, 0.0, 1.0, 0.0, 0.0, 0.0, 1.0, 1.0, 0.0, 1.0], "bins": [-0.015390446409583092, -0.014972460456192493, -0.014554474502801895, -0.014136487618088722, -0.013718501664698124, -0.013300515711307526, -0.012882529757916927, -0.012464542873203754, -0.012046556919813156, -0.011628570966422558, -0.01121058501303196, -0.010792599059641361, -0.010374612174928188, -0.00995662622153759, -0.009538640268146992, -0.009120654314756393, -0.00870266743004322, -0.008284681476652622, -0.007866695523262024, -0.007448709569871426, -0.00703072315081954, -0.006612737197428942, -0.006194750778377056, -0.005776764824986458, -0.0053587788715958595, -0.004940792452543974, -0.004522806499153376, -0.00410482008010149, -0.0036868341267108917, -0.0032688479404896498, -0.002850861754268408, -0.002432875568047166, -0.002014889381825924, -0.001596903195604682, -0.00117891700938344, -0.0007609309395775199, -0.00034294475335627794, 7.504140376113355e-05, 0.000493027560878545, 0.0009110136888921261, 0.001328999875113368, 0.00174698606133461, 0.002164972247555852, 0.002582958433777094, 0.003000944387167692, 0.003418930573388934, 0.003836916759610176, 0.004254903178662062, 0.00467288913205266, 0.005090875085443258, 0.005508861504495144, 0.005926847457885742, 0.006344833876937628, 0.006762819830328226, 0.007180806249380112, 0.00759879220277071, 0.008016778156161308, 0.008434764109551907, 0.00885275099426508, 0.009270736947655678, 0.009688722901046276, 0.010106708854436874, 0.010524695739150047, 0.010942681692540646, 0.011360667645931244]}, "gradients/linearlayers.2.0.weight": {"_type": "histogram", "values": [1.0, 0.0, 0.0, 0.0, 0.0, 0.0, 0.0, 1.0, 0.0, 1.0, 1.0, 2.0, 1.0, 1.0, 1.0, 0.0, 1.0, 1.0, 4.0, 4.0, 4.0, 3.0, 2.0, 3.0, 9.0, 10.0, 5.0, 7.0, 9.0, 14.0, 9.0, 13.0, 23.0, 25.0, 38.0, 75.0, 162.0, 1206.0, 85.0, 68.0, 45.0, 31.0, 34.0, 28.0, 22.0, 16.0, 18.0, 10.0, 8.0, 12.0, 6.0, 2.0, 6.0, 5.0, 4.0, 3.0, 2.0, 3.0, 1.0, 0.0, 0.0, 2.0, 0.0, 1.0], "bins": [-0.15215875208377838, -0.1480509340763092, -0.14394311606884003, -0.13983531296253204, -0.13572749495506287, -0.1316196769475937, -0.1275118589401245, -0.12340404838323593, -0.11929623037576675, -0.11518841236829758, -0.111080601811409, -0.10697278380393982, -0.10286496579647064, -0.09875715523958206, -0.09464933723211288, -0.0905415266752243, -0.08643370866775513, -0.08232589066028595, -0.07821808010339737, -0.07411026209592819, -0.07000245153903961, -0.06589463353157043, -0.06178681552410126, -0.05767900124192238, -0.0535711869597435, -0.04946337267756462, -0.04535555839538574, -0.041247740387916565, -0.037139926105737686, -0.03303211182355881, -0.02892429567873478, -0.02481647953391075, -0.020708665251731873, -0.016600850969552994, -0.012493034824728966, -0.008385219611227512, -0.004277404397726059, -0.00016958918422460556, 0.003938226029276848, 0.008046041242778301, 0.012153856456279755, 0.016261670738458633, 0.02036948688328266, 0.02447730302810669, 0.028585117310285568, 0.03269293159246445, 0.036800749599933624, 0.0409085638821125, 0.04501637816429138, 0.04912419244647026, 0.05323200672864914, 0.05733982473611832, 0.061447639018297195, 0.06555545330047607, 0.06966327130794525, 0.07377108186483383, 0.07787889987230301, 0.08198671787977219, 0.08609452843666077, 0.09020234644412994, 0.09431016445159912, 0.0984179750084877, 0.10252579301595688, 0.10663360357284546, 0.11074142158031464]}, "gradients/linearlayers.1.0.bias": {"_type": "histogram", "values": [1.0, 0.0, 0.0, 0.0, 0.0, 0.0, 1.0, 0.0, 1.0, 0.0, 1.0, 1.0, 0.0, 0.0, 2.0, 0.0, 2.0, 0.0, 1.0, 3.0, 0.0, 0.0, 0.0, 0.0, 2.0, 0.0, 0.0, 0.0, 1.0, 0.0, 1.0, 30.0, 0.0, 1.0, 4.0, 0.0, 0.0, 1.0, 1.0, 1.0, 2.0, 1.0, 0.0, 1.0, 0.0, 0.0, 1.0, 0.0, 0.0, 1.0, 0.0, 1.0, 0.0, 1.0, 0.0, 0.0, 0.0, 0.0, 0.0, 0.0, 0.0, 0.0, 0.0, 1.0], "bins": [-0.019623270258307457, -0.018991338089108467, -0.018359405919909477, -0.017727471888065338, -0.01709553971886635, -0.01646360754966736, -0.01583167538046837, -0.015199742279946804, -0.014567810110747814, -0.013935877941548824, -0.01330394484102726, -0.01267201267182827, -0.01204008050262928, -0.011408147402107716, -0.010776215232908726, -0.010144282132387161, -0.009512349963188171, -0.008880417793989182, -0.008248484693467617, -0.007616552524268627, -0.00698461988940835, -0.006352687254548073, -0.005720755085349083, -0.005088822450488806, -0.004456889815628529, -0.0038249571807682514, -0.003193024778738618, -0.0025610923767089844, -0.0019291597418487072, -0.0012972272234037519, -0.0006652947049587965, -3.336218651384115e-05, 0.0005985721945762634, 0.0012305047130212188, 0.0018624372314661741, 0.0024943696334958076, 0.003126302268356085, 0.003758234903216362, 0.004390167072415352, 0.005022099707275629, 0.005654032342135906, 0.006285964976996183, 0.006917897611856461, 0.0075498297810554504, 0.00818176195025444, 0.008813695050776005, 0.009445627219974995, 0.01007756032049656, 0.010709492489695549, 0.011341424658894539, 0.011973357759416103, 0.012605289928615093, 0.013237223029136658, 0.013869155198335648, 0.014501087367534637, 0.015133020468056202, 0.015764951705932617, 0.016396885737776756, 0.017028817906975746, 0.017660750076174736, 0.018292682245373726, 0.018924614414572716, 0.019556548446416855, 0.020188480615615845, 0.020820412784814835]}, "gradients/linearlayers.1.0.weight": {"_type": "histogram", "values": [1.0, 0.0, 0.0, 0.0, 0.0, 0.0, 1.0, 1.0, 2.0, 1.0, 0.0, 2.0, 4.0, 0.0, 7.0, 7.0, 6.0, 9.0, 13.0, 15.0, 27.0, 22.0, 44.0, 49.0, 60.0, 72.0, 92.0, 110.0, 152.0, 302.0, 356.0, 5892.0, 358.0, 174.0, 110.0, 75.0, 50.0, 37.0, 38.0, 15.0, 22.0, 10.0, 16.0, 9.0, 7.0, 4.0, 3.0, 4.0, 4.0, 1.0, 0.0, 3.0, 1.0, 1.0, 0.0, 2.0, 0.0, 0.0, 0.0, 0.0, 0.0, 0.0, 0.0, 1.0], "bins": [-0.1814975142478943, -0.17566055059432983, -0.16982360184192657, -0.16398663818836212, -0.15814968943595886, -0.1523127257823944, -0.14647576212882996, -0.1406388133764267, -0.13480184972286224, -0.1289648860692978, -0.12312793731689453, -0.11729097366333008, -0.11145401746034622, -0.10561706125736237, -0.09978009760379791, -0.09394314140081406, -0.0881061851978302, -0.08226922899484634, -0.07643227279186249, -0.07059530913829803, -0.06475835293531418, -0.05892139673233032, -0.05308443680405617, -0.04724747687578201, -0.04141052067279816, -0.0355735644698143, -0.029736604541540146, -0.02389964647591114, -0.018062688410282135, -0.01222573034465313, -0.006388772279024124, -0.0005518142133951187, 0.005285158753395081, 0.011122116819024086, 0.01695907488465309, 0.022796032950282097, 0.028632991015911102, 0.03446994721889496, 0.04030690714716911, 0.04614386707544327, 0.051980823278427124, 0.05781777948141098, 0.06365473568439484, 0.06949169933795929, 0.07532865554094315, 0.081165611743927, 0.08700257539749146, 0.09283953160047531, 0.09867648780345917, 0.10451344400644302, 0.11035040020942688, 0.11618736386299133, 0.12202432006597519, 0.12786127626895905, 0.1336982399225235, 0.13953518867492676, 0.1453721523284912, 0.15120911598205566, 0.15704606473445892, 0.16288302838802338, 0.16871997714042664, 0.1745569407939911, 0.18039390444755554, 0.1862308531999588, 0.19206781685352325]}, "gradients/linearlayers.0.0.bias": {"_type": "histogram", "values": [1.0, 1.0, 0.0, 0.0, 1.0, 0.0, 1.0, 0.0, 0.0, 0.0, 1.0, 0.0, 1.0, 5.0, 1.0, 4.0, 1.0, 2.0, 0.0, 0.0, 1.0, 0.0, 2.0, 2.0, 3.0, 2.0, 0.0, 4.0, 2.0, 0.0, 3.0, 46.0, 1.0, 0.0, 1.0, 1.0, 2.0, 2.0, 0.0, 1.0, 4.0, 4.0, 1.0, 1.0, 3.0, 2.0, 1.0, 1.0, 0.0, 5.0, 1.0, 2.0, 1.0, 1.0, 2.0, 0.0, 2.0, 1.0, 1.0, 1.0, 0.0, 0.0, 1.0, 1.0], "bins": [-0.019420292228460312, -0.018798982724547386, -0.01817767322063446, -0.017556363716721535, -0.01693505421280861, -0.016313744708895683, -0.015692435204982758, -0.015071124769747257, -0.014449815265834332, -0.013828505761921406, -0.01320719625800848, -0.012585886754095554, -0.011964576318860054, -0.011343266814947128, -0.010721957311034203, -0.010100647807121277, -0.009479338303208351, -0.008858028799295425, -0.0082367192953825, -0.007615409325808287, -0.006994099821895361, -0.006372790317982435, -0.005751480348408222, -0.0051301708444952965, -0.004508861340582371, -0.003887551836669445, -0.0032662420999258757, -0.0026449323631823063, -0.0020236228592693806, -0.001402313238941133, -0.0007810036186128855, -0.00015969399828463793, 0.0004616137593984604, 0.001082923379726708, 0.0017042330000549555, 0.002325542736798525, 0.0029468522407114506, 0.0035681617446243763, 0.004189471714198589, 0.004810781218111515, 0.005432090722024441, 0.0060534002259373665, 0.006674709729850292, 0.007296019699424505, 0.007917329668998718, 0.008538639172911644, 0.00915994867682457, 0.009781258180737495, 0.010402567684650421, 0.011023877188563347, 0.011645186692476273, 0.012266496196389198, 0.012887805700302124, 0.013509116135537624, 0.01413042563945055, 0.014751735143363476, 0.015373044647276402, 0.015994355082511902, 0.016615664586424828, 0.017236974090337753, 0.01785828359425068, 0.018479593098163605, 0.01910090260207653, 0.019722212105989456, 0.020343521609902382]}, "gradients/linearlayers.0.0.weight": {"_type": "histogram", "values": [1.0, 1.0, 2.0, 2.0, 4.0, 2.0, 4.0, 2.0, 7.0, 3.0, 7.0, 6.0, 10.0, 14.0, 21.0, 30.0, 34.0, 39.0, 55.0, 57.0, 70.0, 98.0, 119.0, 148.0, 216.0, 251.0, 281.0, 433.0, 644.0, 1284.0, 2341.0, 19777.0, 2151.0, 1258.0, 776.0, 530.0, 389.0, 321.0, 263.0, 224.0, 182.0, 142.0, 101.0, 99.0, 73.0, 53.0, 41.0, 45.0, 31.0, 26.0, 19.0, 19.0, 12.0, 9.0, 13.0, 6.0, 5.0, 4.0, 3.0, 4.0, 3.0, 1.0, 1.0, 1.0], "bins": [-0.09655356407165527, -0.09346897155046463, -0.09038437902927399, -0.08729978650808334, -0.0842151939868927, -0.08113060146570206, -0.07804601639509201, -0.07496142387390137, -0.07187683135271072, -0.06879223883152008, -0.06570764631032944, -0.0626230537891388, -0.05953846126794815, -0.05645386874675751, -0.05336927995085716, -0.05028468742966652, -0.047200094908475876, -0.04411550238728523, -0.04103090986609459, -0.037946321070194244, -0.0348617285490036, -0.03177713602781296, -0.028692543506622314, -0.02560795284807682, -0.022523360326886177, -0.019438767805695534, -0.01635417714715004, -0.013269584625959396, -0.010184993036091328, -0.007100401446223259, -0.004015809390693903, -0.0009312175679951906, 0.0021533742547035217, 0.00523796584457159, 0.008322557434439659, 0.011407149955630302, 0.014491741545498371, 0.01757633313536644, 0.020660925656557083, 0.023745516315102577, 0.02683010883629322, 0.029914701357483864, 0.03299929201602936, 0.03608388453722, 0.039168477058410645, 0.04225306957960129, 0.04533765837550163, 0.048422250896692276, 0.05150684341788292, 0.05459143593907356, 0.057676028460264206, 0.06076061725616455, 0.0638452097773552, 0.06692980229854584, 0.07001439481973648, 0.07309898734092712, 0.07618357986211777, 0.07926817238330841, 0.08235276490449905, 0.0854373499751091, 0.08852194249629974, 0.09160653501749039, 0.09469112753868103, 0.09777572005987167, 0.10086031258106232]}, "gradients/embeds.2.bias": {"_type": "histogram", "values": [1.0, 0.0, 1.0, 0.0, 2.0, 0.0, 1.0, 2.0, 6.0, 3.0, 1.0, 2.0, 4.0, 3.0, 6.0, 2.0, 6.0, 7.0, 3.0, 2.0, 3.0, 4.0, 2.0, 3.0, 6.0, 3.0, 6.0, 2.0, 3.0, 4.0, 2.0, 63.0, 1.0, 3.0, 4.0, 2.0, 9.0, 5.0, 4.0, 8.0, 7.0, 6.0, 6.0, 5.0, 9.0, 3.0, 4.0, 3.0, 1.0, 4.0, 3.0, 1.0, 1.0, 1.0, 3.0, 3.0, 1.0, 2.0, 2.0, 0.0, 0.0, 1.0, 0.0, 1.0], "bins": [-0.030890580266714096, -0.029911043122410774, -0.028931505978107452, -0.02795197069644928, -0.026972433552145958, -0.025992896407842636, -0.025013361126184464, -0.02403382398188114, -0.02305428683757782, -0.022074749693274498, -0.021095212548971176, -0.020115677267313004, -0.01913614012300968, -0.01815660297870636, -0.017177067697048187, -0.016197530552744865, -0.015217993408441544, -0.014238456264138222, -0.013258920051157475, -0.012279383838176727, -0.011299846693873405, -0.010320309549570084, -0.009340773336589336, -0.00836123712360859, -0.007381699979305267, -0.006402163300663233, -0.005422626622021198, -0.004443089943379164, -0.003463553264737129, -0.0024840165860950947, -0.0015044799074530602, -0.0005249432288110256, 0.00045458972454071045, 0.001434126403182745, 0.0024136630818247795, 0.003393199760466814, 0.004372736439108849, 0.005352273117750883, 0.006331809796392918, 0.007311346475034952, 0.008290883153676987, 0.009270420297980309, 0.010249956510961056, 0.011229492723941803, 0.012209029868245125, 0.013188567012548447, 0.014168103225529194, 0.015147639438509941, 0.016127176582813263, 0.017106713727116585, 0.018086250871419907, 0.01906578615307808, 0.0200453232973814, 0.021024860441684723, 0.022004395723342896, 0.022983932867646217, 0.02396347001194954, 0.02494300715625286, 0.025922544300556183, 0.026902079582214355, 0.027881616726517677, 0.028861153870821, 0.029840689152479172, 0.030820226296782494, 0.031799763441085815]}, "gradients/embeds.2.weight": {"_type": "histogram", "values": [1.0, 0.0, 2.0, 0.0, 6.0, 1.0, 5.0, 5.0, 16.0, 10.0, 18.0, 32.0, 32.0, 42.0, 55.0, 71.0, 94.0, 114.0, 171.0, 240.0, 281.0, 428.0, 519.0, 732.0, 873.0, 1193.0, 1439.0, 1884.0, 2896.0, 4937.0, 9268.0, 66294.0, 18096.0, 7454.0, 4222.0, 2629.0, 1851.0, 1336.0, 960.0, 684.0, 527.0, 430.0, 304.0, 245.0, 159.0, 125.0, 82.0, 73.0, 50.0, 37.0, 38.0, 24.0, 19.0, 19.0, 13.0, 14.0, 5.0, 4.0, 5.0, 3.0, 2.0, 0.0, 2.0, 1.0], "bins": [-0.07997725903987885, -0.07745769619941711, -0.07493814080953598, -0.07241858541965485, -0.06989902257919312, -0.06737945973873138, -0.06485990434885025, -0.06234034523367882, -0.059820786118507385, -0.05730122700333595, -0.05478166788816452, -0.05226210877299309, -0.049742549657821655, -0.04722299054265022, -0.04470343142747879, -0.04218387231230736, -0.039664313197135925, -0.03714475408196449, -0.03462519496679306, -0.03210563585162163, -0.029586076736450195, -0.027066517621278763, -0.02454695850610733, -0.022027399390935898, -0.019507840275764465, -0.016988281160593033, -0.0144687220454216, -0.011949162930250168, -0.009429603815078735, -0.006910044699907303, -0.00439048558473587, -0.0018709264695644379, 0.0006486251950263977, 0.00316818431019783, 0.005687743425369263, 0.008207302540540695, 0.010726861655712128, 0.01324642077088356, 0.015765979886054993, 0.018285539001226425, 0.020805098116397858, 0.02332465723156929, 0.025844216346740723, 0.028363775461912155, 0.030883334577083588, 0.03340289369225502, 0.03592245280742645, 0.038442011922597885, 0.04096157103776932, 0.04348113015294075, 0.04600068926811218, 0.048520248383283615, 0.05103980749845505, 0.05355936661362648, 0.05607892572879791, 0.058598484843969345, 0.06111804395914078, 0.06363759934902191, 0.06615716218948364, 0.06867672502994537, 0.07119628041982651, 0.07371583580970764, 0.07623539865016937, 0.0787549614906311, 0.08127451688051224]}, "gradients/embeds.0.bias": {"_type": "histogram", "values": [1.0, 0.0, 0.0, 0.0, 2.0, 0.0, 0.0, 1.0, 2.0, 3.0, 3.0, 3.0, 3.0, 8.0, 1.0, 9.0, 9.0, 6.0, 8.0, 6.0, 8.0, 12.0, 11.0, 11.0, 18.0, 19.0, 17.0, 14.0, 9.0, 18.0, 21.0, 29.0, 45.0, 27.0, 23.0, 23.0, 22.0, 13.0, 18.0, 20.0, 16.0, 7.0, 12.0, 6.0, 3.0, 3.0, 4.0, 2.0, 1.0, 1.0, 3.0, 1.0, 1.0, 1.0, 2.0, 2.0, 1.0, 1.0, 0.0, 0.0, 0.0, 0.0, 1.0, 1.0], "bins": [-0.05168319493532181, -0.050074540078639984, -0.04846588894724846, -0.046857237815856934, -0.04524858295917511, -0.043639928102493286, -0.04203127697110176, -0.040422625839710236, -0.03881397098302841, -0.03720531612634659, -0.03559666499495506, -0.03398801386356354, -0.032379359006881714, -0.03077070601284504, -0.029162053018808365, -0.02755340002477169, -0.025944747030735016, -0.02433609403669834, -0.022727441042661667, -0.021118788048624992, -0.019510135054588318, -0.017901482060551643, -0.01629282906651497, -0.014684176072478294, -0.01307552307844162, -0.011466870084404945, -0.009858217090368271, -0.008249564096331596, -0.006640911102294922, -0.005032258108258247, -0.003423605114221573, -0.0018149521201848984, -0.00020629540085792542, 0.001402357593178749, 0.0030110105872154236, 0.004619663581252098, 0.006228316575288773, 0.007836969569325447, 0.009445622563362122, 0.011054275557398796, 0.01266292855143547, 0.014271581545472145, 0.01588023453950882, 0.017488887533545494, 0.01909754052758217, 0.020706193521618843, 0.022314846515655518, 0.023923499509692192, 0.025532152503728867, 0.02714080549776554, 0.028749458491802216, 0.03035811148583889, 0.031966764479875565, 0.03357541561126709, 0.035184070467948914, 0.03679272532463074, 0.03840137645602226, 0.04001002758741379, 0.04161868244409561, 0.043227337300777435, 0.04483598843216896, 0.046444639563560486, 0.04805329442024231, 0.04966194927692413, 0.05127060040831566]}, "gradients/embeds.0.weight": {"_type": "histogram", "values": [1.0, 0.0, 0.0, 0.0, 0.0, 1.0, 1.0, 0.0, 0.0, 3.0, 1.0, 6.0, 4.0, 3.0, 6.0, 5.0, 14.0, 14.0, 13.0, 13.0, 20.0, 18.0, 17.0, 31.0, 32.0, 42.0, 64.0, 85.0, 131.0, 232.0, 472.0, 3467.0, 112752.0, 269393.0, 5053.0, 611.0, 226.0, 152.0, 78.0, 76.0, 56.0, 31.0, 18.0, 20.0, 11.0, 5.0, 7.0, 3.0, 4.0, 8.0, 2.0, 2.0, 2.0, 0.0, 0.0, 4.0, 2.0, 1.0, 0.0, 1.0, 1.0, 0.0, 0.0, 1.0], "bins": [-0.6600837707519531, -0.640123188495636, -0.6201626658439636, -0.6002020835876465, -0.5802415609359741, -0.560280978679657, -0.5403203964233398, -0.5203598737716675, -0.5003992915153503, -0.4804387390613556, -0.46047818660736084, -0.4405176341533661, -0.42055708169937134, -0.4005965292453766, -0.38063594698905945, -0.3606753945350647, -0.34071484208106995, -0.3207542896270752, -0.30079373717308044, -0.2808331549167633, -0.26087260246276855, -0.2409120500087738, -0.22095149755477905, -0.2009909301996231, -0.18103037774562836, -0.1610698252916336, -0.14110925793647766, -0.12114870548248291, -0.10118814557790756, -0.08122758567333221, -0.061267029494047165, -0.041306473314762115, -0.021345913410186768, -0.001385355368256569, 0.01857520267367363, 0.03853575885295868, 0.05849631875753403, 0.07845687866210938, 0.09841743111610413, 0.11837799102067947, 0.13833855092525482, 0.15829910337924957, 0.17825967073440552, 0.19822022318840027, 0.21818077564239502, 0.23814134299755096, 0.2581019103527069, 0.27806246280670166, 0.2980230152606964, 0.31798356771469116, 0.3379441201686859, 0.35790470242500305, 0.3778652548789978, 0.39782580733299255, 0.4177863597869873, 0.43774691224098206, 0.4577074646949768, 0.47766804695129395, 0.4976285994052887, 0.5175891518592834, 0.5375497341156006, 0.557510256767273, 0.5774708390235901, 0.5974313616752625, 0.6173919439315796]}, "total_best_ep": 17, "total_best_ep_tloss": 0.11368807405233383, "total_best_ep_vloss": 0.6824974417686462, "total_best_ep_AUC": 0.8909827630563416, "total_best_ep_precision": 0.7504816955684007, "total_best_ep_recall": 0.856043956043956, "total_best_ep_f1": 0.7997946611909651, "_wandb": {"runtime": 832}}