{"num_of_examples": 10320, "train_loss": 0.17566513121128083, "_timestamp": 1716353193.2545345, "_runtime": 3171.9765124320984, "_step": 5147, "gradients/output.bias": {"_type": "histogram", "values": [1.0, 0.0, 0.0, 0.0, 0.0, 0.0, 0.0, 0.0, 0.0, 0.0, 0.0, 0.0, 0.0, 0.0, 0.0, 0.0, 0.0, 0.0, 0.0, 0.0, 0.0, 0.0, 0.0, 0.0, 0.0, 0.0, 0.0, 0.0, 0.0, 0.0, 0.0, 0.0, 0.0, 0.0, 0.0, 0.0, 0.0, 0.0, 0.0, 0.0, 0.0, 0.0, 0.0, 0.0, 0.0, 0.0, 0.0, 0.0, 0.0, 0.0, 0.0, 0.0, 0.0, 0.0, 0.0, 0.0, 0.0, 0.0, 0.0, 0.0, 0.0, 0.0, 0.0, 1.0], "bins": [-2.0418470739969052e-05, -1.9780411093961447e-05, -1.914234962896444e-05, -1.8504289982956834e-05, -1.7866228517959826e-05, -1.722816887195222e-05, -1.6590107406955212e-05, -1.5952047760947607e-05, -1.5313988114940003e-05, -1.4675926649942994e-05, -1.4037866094440687e-05, -1.339980553893838e-05, -1.2761745892930776e-05, -1.212368533742847e-05, -1.1485624781926163e-05, -1.0847564226423856e-05, -1.020950367092155e-05, -9.571443115419243e-06, -8.933382559916936e-06, -8.29532200441463e-06, -7.657261448912323e-06, -7.019201348157367e-06, -6.381141247402411e-06, -5.743080691900104e-06, -5.105020136397798e-06, -4.466959580895491e-06, -3.828899025393184e-06, -3.1908389246382285e-06, -2.552778369135922e-06, -1.914717813633615e-06, -1.276657485504984e-06, -6.38597043689515e-07, -5.384208634495735e-10, 6.375220209520194e-07, 1.2755824627674883e-06, 1.9136427908961195e-06, 2.5517033463984262e-06, 3.189763901900733e-06, 3.827824002655689e-06, 4.465884558157995e-06, 5.103945113660302e-06, 5.742005669162609e-06, 6.380066224664915e-06, 7.018126325419871e-06, 7.656186426174827e-06, 8.294246981677134e-06, 8.93230753717944e-06, 9.570368092681747e-06, 1.0208428648184054e-05, 1.084648920368636e-05, 1.1484549759188667e-05, 1.2122610314690974e-05, 1.276067087019328e-05, 1.3398730516200885e-05, 1.4036791071703192e-05, 1.4674851627205499e-05, 1.5312911273213103e-05, 1.5950972738210112e-05, 1.6589032384217717e-05, 1.7227093849214725e-05, 1.786515349522233e-05, 1.850321496021934e-05, 1.9141274606226943e-05, 1.9779336071223952e-05, 2.0417395717231557e-05]}, "gradients/output.weight": {"_type": "histogram", "values": [2.0, 2.0, 0.0, 0.0, 0.0, 0.0, 4.0, 0.0, 5.0, 5.0, 2.0, 1.0, 9.0, 13.0, 8.0, 10.0, 5.0, 10.0, 11.0, 1.0, 5.0, 4.0, 1.0, 0.0, 2.0, 0.0, 1.0, 0.0, 9.0, 31.0, 34.0, 145.0, 17.0, 34.0, 31.0, 9.0, 0.0, 1.0, 0.0, 2.0, 0.0, 1.0, 4.0, 5.0, 1.0, 11.0, 10.0, 5.0, 10.0, 8.0, 13.0, 9.0, 1.0, 2.0, 5.0, 5.0, 0.0, 4.0, 0.0, 0.0, 0.0, 0.0, 2.0, 2.0], "bins": [-4.148784501012415e-05, -4.019131665700115e-05, -3.889478466589935e-05, -3.759825631277636e-05, -3.6301724321674556e-05, -3.500519596855156e-05, -3.370866761542857e-05, -3.2412135624326766e-05, -3.111560727120377e-05, -2.9819077099091373e-05, -2.8522546926978976e-05, -2.722601857385598e-05, -2.5929488401743583e-05, -2.4632958229631186e-05, -2.333642987650819e-05, -2.2039899704395793e-05, -2.0743369532283396e-05, -1.9446839360170998e-05, -1.81503091880586e-05, -1.6853780834935606e-05, -1.5557250662823208e-05, -1.426072049071081e-05, -1.2964191228093114e-05, -1.1667661965475418e-05, -1.037113179336302e-05, -9.074601621250622e-06, -7.778072358632926e-06, -6.481542641267879e-06, -5.185012923902832e-06, -3.888483206537785e-06, -2.591953489172738e-06, -1.295423771807691e-06, 1.1095835361629725e-09, 1.29763930090121e-06, 2.594169018266257e-06, 3.890698735631304e-06, 5.187228452996351e-06, 6.483758170361398e-06, 7.780287887726445e-06, 9.07681715034414e-06, 1.0373347322456539e-05, 1.1669877494568937e-05, 1.2966406757186633e-05, 1.4262936019804329e-05, 1.5559466191916727e-05, 1.6855996364029124e-05, 1.815252471715212e-05, 1.9449054889264517e-05, 2.0745585061376914e-05, 2.2042115233489312e-05, 2.333864540560171e-05, 2.4635173758724704e-05, 2.5931703930837102e-05, 2.72282341029495e-05, 2.8524762456072494e-05, 2.9821292628184892e-05, 3.111782280029729e-05, 3.2414351153420284e-05, 3.3710883144522086e-05, 3.500741149764508e-05, 3.630394348874688e-05, 3.7600471841869876e-05, 3.889700019499287e-05, 4.019353218609467e-05, 4.1490060539217666e-05]}, "gradients/linearlayers.4.0.bias": {"_type": "histogram", "values": [2.0, 1.0, 0.0, 0.0, 0.0, 0.0, 4.0, 4.0, 2.0, 7.0, 2.0, 2.0, 1.0, 3.0, 4.0, 4.0, 8.0, 4.0, 5.0, 6.0, 7.0, 6.0, 4.0, 6.0, 2.0, 4.0, 2.0, 2.0, 0.0, 2.0, 2.0, 6.0, 3.0, 11.0, 3.0, 65.0, 0.0, 1.0, 0.0, 2.0, 1.0, 2.0, 1.0, 3.0, 3.0, 1.0, 2.0, 9.0, 2.0, 2.0, 5.0, 5.0, 5.0, 4.0, 2.0, 4.0, 1.0, 4.0, 3.0, 4.0, 2.0, 1.0, 1.0, 2.0], "bins": [-3.990383447671775e-06, -3.879137693729717e-06, -3.76789193978766e-06, -3.6566461858456023e-06, -3.545400431903545e-06, -3.4341546779614873e-06, -3.32290892401943e-06, -3.2116631700773723e-06, -3.100417416135315e-06, -2.9891716621932574e-06, -2.8779259082512e-06, -2.7666801543091424e-06, -2.655434400367085e-06, -2.5441886464250274e-06, -2.43294289248297e-06, -2.3216971385409124e-06, -2.210451384598855e-06, -2.099205403283122e-06, -1.9879596493410645e-06, -1.8767140090858447e-06, -1.7654682551437872e-06, -1.6542225012017298e-06, -1.5429767472596723e-06, -1.4317309933176148e-06, -1.3204851256887196e-06, -1.209239371746662e-06, -1.0979936178046046e-06, -9.86747863862547e-07, -8.755021099204896e-07, -7.642563559784321e-07, -6.530106020363746e-07, -5.417648480943171e-07, -4.3051909415225964e-07, -3.1927334021020215e-07, -2.0802757205728994e-07, -9.67818110098051e-08, 1.4463950037679751e-08, 1.2570970397973724e-07, 2.3695547213264945e-07, 3.4820124028556165e-07, 4.5944699422761914e-07, 5.706927481696766e-07, 6.819385021117341e-07, 7.931842560537916e-07, 9.04430066839268e-07, 1.0156758207813255e-06, 1.126921574723383e-06, 1.2381673286654404e-06, 1.349413082607498e-06, 1.4606588365495554e-06, 1.571904590491613e-06, 1.6831503444336704e-06, 1.7943960983757279e-06, 1.9056418523177854e-06, 2.0168877199466806e-06, 2.128133473888738e-06, 2.2393792278307956e-06, 2.350624981772853e-06, 2.4618707357149106e-06, 2.573116489656968e-06, 2.6843622435990255e-06, 2.795607997541083e-06, 2.9068537514831405e-06, 3.018099505425198e-06, 3.1293452593672555e-06]}, "gradients/linearlayers.4.0.weight": {"_type": "histogram", "values": [2.0, 1.0, 0.0, 0.0, 1.0, 1.0, 7.0, 6.0, 5.0, 10.0, 14.0, 5.0, 19.0, 29.0, 53.0, 31.0, 62.0, 90.0, 119.0, 128.0, 214.0, 231.0, 265.0, 374.0, 463.0, 576.0, 710.0, 913.0, 1080.0, 1325.0, 1599.0, 1921.0, 2157.0, 2698.0, 4631.0, 34443.0, 1988.0, 1641.0, 1397.0, 1219.0, 1073.0, 855.0, 687.0, 545.0, 437.0, 380.0, 268.0, 229.0, 176.0, 124.0, 102.0, 72.0, 45.0, 37.0, 23.0, 15.0, 10.0, 9.0, 8.0, 5.0, 4.0, 1.0, 1.0, 2.0], "bins": [-6.585041319340235e-06, -6.399232461262727e-06, -6.213423148437869e-06, -6.027614290360361e-06, -5.841805432282854e-06, -5.6559961194579955e-06, -5.470187261380488e-06, -5.284378403302981e-06, -5.098569090478122e-06, -4.912760232400615e-06, -4.726951374323107e-06, -4.5411425162456e-06, -4.3553332034207415e-06, -4.169524345343234e-06, -3.9837154872657266e-06, -3.7979064018145436e-06, -3.6120973163633607e-06, -3.426288230912178e-06, -3.2404793728346704e-06, -3.0546702873834874e-06, -2.86886142930598e-06, -2.683052343854797e-06, -2.497243258403614e-06, -2.3114344003261067e-06, -2.1256253148749238e-06, -1.939816229423741e-06, -1.7540073713462334e-06, -1.5681982858950505e-06, -1.3823893141307053e-06, -1.1965803423663601e-06, -1.0107712569151772e-06, -8.24962285150832e-07, -6.391537681338377e-07, -4.533447679477831e-07, -2.675357677617285e-07, -8.172676757567388e-08, 1.0408223261038074e-07, 2.8989123279643536e-07, 4.7570023298249e-07, 6.61509261590254e-07, 8.473182333545992e-07, 1.0331272051189444e-06, 1.2189361768832896e-06, 1.4047452623344725e-06, 1.5905542340988177e-06, 1.7763632058631629e-06, 1.9621722913143458e-06, 2.1479811493918533e-06, 2.333790234843036e-06, 2.519599320294219e-06, 2.7054081783717265e-06, 2.8912172638229094e-06, 3.077026121900417e-06, 3.2628352073516e-06, 3.4486442928027827e-06, 3.63445315088029e-06, 3.8202624637051485e-06, 4.006071321782656e-06, 4.1918801798601635e-06, 4.377689037937671e-06, 4.563498350762529e-06, 4.749307208840037e-06, 4.935116066917544e-06, 5.120925379742403e-06, 5.30673423781991e-06]}, "gradients/linearlayers.3.0.bias": {"_type": "histogram", "values": [2.0, 1.0, 2.0, 0.0, 4.0, 1.0, 5.0, 4.0, 1.0, 1.0, 5.0, 8.0, 5.0, 4.0, 2.0, 3.0, 2.0, 9.0, 5.0, 3.0, 2.0, 2.0, 5.0, 4.0, 3.0, 3.0, 0.0, 3.0, 2.0, 4.0, 1.0, 4.0, 71.0, 2.0, 1.0, 1.0, 0.0, 2.0, 3.0, 4.0, 3.0, 1.0, 4.0, 4.0, 3.0, 2.0, 4.0, 3.0, 4.0, 3.0, 4.0, 2.0, 4.0, 4.0, 4.0, 6.0, 3.0, 3.0, 4.0, 2.0, 3.0, 0.0, 1.0, 1.0], "bins": [-1.0470055713085458e-05, -1.0152185495826416e-05, -9.834315278567374e-06, -9.516445061308332e-06, -9.19857484404929e-06, -8.88070553628495e-06, -8.562835319025908e-06, -8.244965101766866e-06, -7.927094884507824e-06, -7.609224667248782e-06, -7.29135444998974e-06, -6.973484687478049e-06, -6.655614470219007e-06, -6.337744252959965e-06, -6.019874490448274e-06, -5.702004273189232e-06, -5.38413405593019e-06, -5.066263838671148e-06, -4.748393621412106e-06, -4.430523858900415e-06, -4.112653641641373e-06, -3.794783424382331e-06, -3.4769134344969643e-06, -3.159043444611598e-06, -2.841173227352556e-06, -2.523303010093514e-06, -2.2054330202081474e-06, -1.8875629166359431e-06, -1.5696928130637389e-06, -1.2518227094915346e-06, -9.339526059193304e-07, -6.160825023471261e-07, -2.982123987749219e-07, 1.965770479728235e-08, 3.375278083694866e-07, 6.553979119416908e-07, 9.73268015513895e-07, 1.2911381190860993e-06, 1.6090082226583036e-06, 1.92687821254367e-06, 2.244748429802712e-06, 2.562618647061754e-06, 2.8804886369471205e-06, 3.198358626832487e-06, 3.516228844091529e-06, 3.834099061350571e-06, 4.151968823862262e-06, 4.469839041121304e-06, 4.787709258380346e-06, 5.105579475639388e-06, 5.42344969289843e-06, 5.741319455410121e-06, 6.059189672669163e-06, 6.377059889928205e-06, 6.694929652439896e-06, 7.012799869698938e-06, 7.33067008695798e-06, 7.648540304217022e-06, 7.966410521476064e-06, 8.284280738735106e-06, 8.602150046499446e-06, 8.920020263758488e-06, 9.23789048101753e-06, 9.555760698276572e-06, 9.873630915535614e-06]}, "gradients/linearlayers.3.0.weight": {"_type": "histogram", "values": [2.0, 1.0, 2.0, 0.0, 4.0, 1.0, 5.0, 4.0, 1.0, 3.0, 8.0, 13.0, 15.0, 13.0, 18.0, 24.0, 30.0, 40.0, 59.0, 73.0, 103.0, 125.0, 178.0, 259.0, 335.0, 496.0, 659.0, 1002.0, 1339.0, 1881.0, 2785.0, 3570.0, 38224.0, 3403.0, 3109.0, 2321.0, 1556.0, 1107.0, 841.0, 558.0, 351.0, 276.0, 200.0, 152.0, 91.0, 67.0, 55.0, 42.0, 34.0, 24.0, 21.0, 10.0, 11.0, 6.0, 5.0, 7.0, 3.0, 3.0, 4.0, 2.0, 3.0, 0.0, 1.0, 1.0], "bins": [-2.3520902686868794e-05, -2.2807173081673682e-05, -2.2093445295467973e-05, -2.137971569027286e-05, -2.0665986085077748e-05, -1.995225829887204e-05, -1.9238528693676926e-05, -1.8524799088481814e-05, -1.7811071302276105e-05, -1.7097341697080992e-05, -1.638361209188588e-05, -1.5669882486690767e-05, -1.4956154700485058e-05, -1.4242425095289946e-05, -1.3528696399589535e-05, -1.2814966794394422e-05, -1.2101238098694012e-05, -1.13875094029936e-05, -1.0673779797798488e-05, -9.960051102098078e-06, -9.246321496902965e-06, -8.532592801202554e-06, -7.818864105502144e-06, -7.105134955054382e-06, -6.39140580460662e-06, -5.677676654158859e-06, -4.963947503711097e-06, -4.250218808010686e-06, -3.5364896575629245e-06, -2.822760507115163e-06, -2.1090315840410767e-06, -1.3953025472801528e-06, -6.815735105192289e-07, 3.215552624169504e-08, 7.45884563002619e-07, 1.4596135997635429e-06, 2.173342636524467e-06, 2.8870717869722284e-06, 3.6008007100463146e-06, 4.314529633120401e-06, 5.0282587835681625e-06, 5.741987934015924e-06, 6.455717084463686e-06, 7.1694457801640965e-06, 7.883174475864507e-06, 8.59690408105962e-06, 9.31063277676003e-06, 1.0024362381955143e-05, 1.0738091077655554e-05, 1.1451819773355965e-05, 1.2165549378551077e-05, 1.2879278074251488e-05, 1.35930076794466e-05, 1.4306736375147011e-05, 1.5020465070847422e-05, 1.5734194676042534e-05, 1.6447924281237647e-05, 1.7161652067443356e-05, 1.787538167263847e-05, 1.858911127783358e-05, 1.930283906403929e-05, 2.0016568669234402e-05, 2.0730298274429515e-05, 2.1444026060635224e-05, 2.2157755665830337e-05]}, "gradients/linearlayers.2.0.bias": {"_type": "histogram", "values": [1.0, 0.0, 0.0, 1.0, 1.0, 2.0, 4.0, 3.0, 2.0, 3.0, 2.0, 3.0, 5.0, 3.0, 6.0, 2.0, 1.0, 5.0, 4.0, 5.0, 3.0, 3.0, 3.0, 4.0, 2.0, 4.0, 1.0, 2.0, 1.0, 1.0, 1.0, 1.0, 2.0, 5.0, 88.0, 1.0, 2.0, 4.0, 0.0, 3.0, 5.0, 1.0, 4.0, 3.0, 3.0, 5.0, 4.0, 1.0, 5.0, 1.0, 8.0, 6.0, 3.0, 3.0, 2.0, 2.0, 1.0, 4.0, 3.0, 1.0, 1.0, 1.0, 0.0, 5.0], "bins": [-2.6707150027505122e-05, -2.5924409783328883e-05, -2.514166772016324e-05, -2.4358927475987002e-05, -2.3576187231810763e-05, -2.279344516864512e-05, -2.2010704924468882e-05, -2.122796286130324e-05, -2.0445222617127e-05, -1.9662482372950763e-05, -1.887974030978512e-05, -1.809700006560888e-05, -1.731425800244324e-05, -1.6531517758267e-05, -1.574877751409076e-05, -1.4966036360419821e-05, -1.418329520674888e-05, -1.340055405307794e-05, -1.2617812899407e-05, -1.183507265523076e-05, -1.105233150155982e-05, -1.026959034788888e-05, -9.48685010371264e-06, -8.7041089500417e-06, -7.92136779637076e-06, -7.138626642699819e-06, -6.355885943776229e-06, -5.57314524485264e-06, -4.790404091181699e-06, -4.007662937510759e-06, -3.224922238587169e-06, -2.442181312289904e-06, -1.6594403859926388e-06, -8.766994596953737e-07, -9.395853339810856e-08, 6.887823928991565e-07, 1.4715233191964217e-06, 2.2542642454936868e-06, 3.037005171790952e-06, 3.8197458707145415e-06, 4.602487024385482e-06, 5.385228178056423e-06, 6.167968876980012e-06, 6.950709575903602e-06, 7.733450729574542e-06, 8.516191883245483e-06, 9.298932127421722e-06, 1.0081673281092662e-05, 1.0864414434763603e-05, 1.1647155588434543e-05, 1.2429896742105484e-05, 1.3212636986281723e-05, 1.3995378139952663e-05, 1.4778119293623604e-05, 1.5560859537799843e-05, 1.6343601600965485e-05, 1.7126341845141724e-05, 1.7909082089317963e-05, 1.8691824152483605e-05, 1.9474564396659844e-05, 2.0257306459825486e-05, 2.1040046704001725e-05, 2.1822786948177963e-05, 2.2605529011343606e-05, 2.3388269255519845e-05]}, "gradients/linearlayers.2.0.weight": {"_type": "histogram", "values": [2.0, 0.0, 0.0, 2.0, 3.0, 5.0, 7.0, 8.0, 11.0, 12.0, 16.0, 16.0, 29.0, 26.0, 44.0, 47.0, 68.0, 90.0, 118.0, 157.0, 170.0, 219.0, 240.0, 315.0, 379.0, 522.0, 661.0, 802.0, 1074.0, 1353.0, 1652.0, 2018.0, 2191.0, 2893.0, 37763.0, 2717.0, 2219.0, 1804.0, 1320.0, 1035.0, 804.0, 583.0, 435.0, 399.0, 289.0, 218.0, 159.0, 132.0, 110.0, 97.0, 75.0, 62.0, 40.0, 30.0, 22.0, 14.0, 7.0, 14.0, 12.0, 4.0, 9.0, 3.0, 1.0, 9.0], "bins": [-4.116428681300022e-05, -3.9959082641871646e-05, -3.875387483276427e-05, -3.75486706616357e-05, -3.6343466490507126e-05, -3.513825868139975e-05, -3.393305451027118e-05, -3.2727850339142606e-05, -3.152264253003523e-05, -3.0317438358906657e-05, -2.9112234187778085e-05, -2.790702819766011e-05, -2.6701822207542136e-05, -2.5496618036413565e-05, -2.429141204629559e-05, -2.308620787516702e-05, -2.1881001885049045e-05, -2.067579589493107e-05, -1.94705917238025e-05, -1.8265385733684525e-05, -1.7060181562555954e-05, -1.585497557243798e-05, -1.4649769582320005e-05, -1.3444564501696732e-05, -1.2239359421073459e-05, -1.1034154340450186e-05, -9.828949259826913e-06, -8.623743269708939e-06, -7.418538189085666e-06, -6.213333108462393e-06, -5.00812757309177e-06, -3.8029222650948213e-06, -2.597716957097873e-06, -1.3925116491009248e-06, -1.873063411039766e-07, 1.0178989668929717e-06, 2.22310427488992e-06, 3.428309582886868e-06, 4.633514890883816e-06, 5.83872042625444e-06, 7.043925506877713e-06, 8.249130587500986e-06, 9.454335668124259e-06, 1.0659541658242233e-05, 1.1864746738865506e-05, 1.3069951819488779e-05, 1.4275157809606753e-05, 1.5480361980735324e-05, 1.66855679708533e-05, 1.7890773960971273e-05, 1.9095978132099845e-05, 2.030118412221782e-05, 2.150638829334639e-05, 2.2711594283464365e-05, 2.391680027358234e-05, 2.512200444471091e-05, 2.6327210434828885e-05, 2.753241642494686e-05, 2.873762059607543e-05, 2.9942826586193405e-05, 3.114803257631138e-05, 3.235323674743995e-05, 3.355844091856852e-05, 3.47636487276759e-05, 3.596885289880447e-05]}, "gradients/linearlayers.1.0.bias": {"_type": "histogram", "values": [1.0, 1.0, 0.0, 0.0, 2.0, 0.0, 0.0, 1.0, 4.0, 4.0, 3.0, 2.0, 7.0, 3.0, 6.0, 4.0, 4.0, 4.0, 4.0, 3.0, 3.0, 11.0, 4.0, 4.0, 5.0, 2.0, 2.0, 5.0, 1.0, 10.0, 71.0, 2.0, 3.0, 0.0, 3.0, 1.0, 3.0, 4.0, 5.0, 7.0, 6.0, 3.0, 10.0, 7.0, 6.0, 2.0, 6.0, 3.0, 4.0, 1.0, 4.0, 2.0, 2.0, 0.0, 0.0, 0.0, 0.0, 0.0, 0.0, 0.0, 0.0, 0.0, 0.0, 1.0], "bins": [-5.479561514221132e-05, -5.297440293361433e-05, -5.115319072501734e-05, -4.933197851642035e-05, -4.751076630782336e-05, -4.568955409922637e-05, -4.386834552860819e-05, -4.20471333200112e-05, -4.022592111141421e-05, -3.840470890281722e-05, -3.658349669422023e-05, -3.476228448562324e-05, -3.294107227702625e-05, -3.111986006842926e-05, -2.9298649678821675e-05, -2.7477437470224686e-05, -2.5656225261627696e-05, -2.3835013053030707e-05, -2.2013800844433717e-05, -2.019259045482613e-05, -1.8371378246229142e-05, -1.6550166037632152e-05, -1.4728953829035163e-05, -1.2907742529932875e-05, -1.1086530321335886e-05, -9.265318112738896e-06, -7.444106813636608e-06, -5.622894605039619e-06, -3.8016828511899803e-06, -1.9804710973403417e-06, -1.592591161170276e-07, 1.6619527514194488e-06, 3.483164618955925e-06, 5.304376372805564e-06, 7.125588126655202e-06, 8.946800335252192e-06, 1.076801163435448e-05, 1.2589223842951469e-05, 1.4410436051548459e-05, 1.6231648260145448e-05, 1.8052858649753034e-05, 1.9874070858350024e-05, 2.1695283066947013e-05, 2.3516495275544003e-05, 2.5337707484140992e-05, 2.715891969273798e-05, 2.8980130082345568e-05, 3.080134410993196e-05, 3.262255631852895e-05, 3.444376488914713e-05, 3.626497709774412e-05, 3.808618930634111e-05, 3.99074015149381e-05, 4.172861372353509e-05, 4.354982593213208e-05, 4.537103814072907e-05, 4.719225034932606e-05, 4.901346255792305e-05, 5.083467476652004e-05, 5.265588333713822e-05, 5.447709554573521e-05, 5.62983077543322e-05, 5.811951996292919e-05, 5.994073217152618e-05, 6.176194438012317e-05]}, "gradients/linearlayers.1.0.weight": {"_type": "histogram", "values": [1.0, 1.0, 0.0, 0.0, 2.0, 0.0, 0.0, 2.0, 6.0, 5.0, 6.0, 6.0, 10.0, 11.0, 26.0, 19.0, 37.0, 58.0, 73.0, 114.0, 156.0, 244.0, 337.0, 453.0, 642.0, 939.0, 1414.0, 2029.0, 3140.0, 5235.0, 40567.0, 3162.0, 2215.0, 1527.0, 999.0, 671.0, 473.0, 308.0, 220.0, 148.0, 88.0, 47.0, 42.0, 30.0, 18.0, 14.0, 17.0, 3.0, 6.0, 1.0, 5.0, 4.0, 2.0, 0.0, 1.0, 1.0, 0.0, 0.0, 0.0, 0.0, 0.0, 0.0, 0.0, 1.0], "bins": [-0.00011575316602829844, -0.00011190662189619616, -0.00010806007776409388, -0.0001042135336319916, -0.00010036698949988931, -9.652043809182942e-05, -9.267389395972714e-05, -8.882734982762486e-05, -8.498080569552258e-05, -8.11342615634203e-05, -7.728771743131801e-05, -7.344117329921573e-05, -6.959462189115584e-05, -6.574807775905356e-05, -6.190153362695128e-05, -5.8054989494848996e-05, -5.4208445362746716e-05, -5.0361901230644435e-05, -4.6515357098542154e-05, -4.2668809328461066e-05, -3.8822265196358785e-05, -3.4975721064256504e-05, -3.1129173294175416e-05, -2.7282629162073135e-05, -2.3436085029970855e-05, -1.9589540897868574e-05, -1.574299494677689e-05, -1.1896449905179907e-05, -8.049904863582924e-06, -4.203359821985941e-06, -3.5681478038895875e-07, 3.489730261208024e-06, 7.336289854720235e-06, 1.1182834896317217e-05, 1.50293799379142e-05, 1.8875925889005885e-05, 2.2722470021108165e-05, 2.6569014153210446e-05, 3.041556010430213e-05, 3.4262106055393815e-05, 3.8108650187496096e-05, 4.195519431959838e-05, 4.580173845170066e-05, 4.9648286221781746e-05, 5.3494830353884026e-05, 5.734137448598631e-05, 6.11879222560674e-05, 6.503446638816968e-05, 6.888101052027196e-05, 7.272755465237424e-05, 7.657409878447652e-05, 8.04206429165788e-05, 8.426718704868108e-05, 8.811373845674098e-05, 9.196028258884326e-05, 9.580682672094554e-05, 9.965337085304782e-05, 0.0001034999149851501, 0.00010734645911725238, 0.00011119300324935466, 0.00011503955465741456, 0.00011888609878951684, 0.00012273264292161912, 0.00012657917977776378, 0.00013042573118582368]}, "gradients/linearlayers.0.0.bias": {"_type": "histogram", "values": [1.0, 0.0, 0.0, 0.0, 0.0, 2.0, 2.0, 1.0, 0.0, 2.0, 1.0, 3.0, 0.0, 2.0, 1.0, 2.0, 3.0, 4.0, 5.0, 3.0, 2.0, 4.0, 6.0, 3.0, 6.0, 5.0, 6.0, 6.0, 3.0, 3.0, 3.0, 8.0, 96.0, 4.0, 4.0, 4.0, 6.0, 2.0, 1.0, 4.0, 4.0, 3.0, 2.0, 5.0, 4.0, 5.0, 1.0, 5.0, 0.0, 2.0, 3.0, 1.0, 3.0, 1.0, 1.0, 0.0, 1.0, 3.0, 0.0, 2.0, 1.0, 0.0, 0.0, 1.0], "bins": [-0.00010434876458020881, -0.00010115117765963078, -9.795359073905274e-05, -9.475600381847471e-05, -9.155841689789668e-05, -8.836082997731864e-05, -8.5163235780783e-05, -8.196564886020496e-05, -7.876806193962693e-05, -7.55704750190489e-05, -7.237288809847087e-05, -6.917530117789283e-05, -6.59777142573148e-05, -6.278012733673677e-05, -5.958253677817993e-05, -5.6384949857601896e-05, -5.318736293702386e-05, -4.998977601644583e-05, -4.67921890958678e-05, -4.359459853731096e-05, -4.0397011616732925e-05, -3.719942469615489e-05, -3.400183777557686e-05, -3.080425085499883e-05, -2.760666211543139e-05, -2.4409075194853358e-05, -2.121148645528592e-05, -1.801389953470789e-05, -1.4816311704635154e-05, -1.161872387456242e-05, -8.421136953984387e-06, -5.223549123911653e-06, -2.025961293838918e-06, 1.1716263088601409e-06, 4.3692139115592e-06, 7.5668012868845835e-06, 1.0764389116957318e-05, 1.3961976947030053e-05, 1.7159563867608085e-05, 2.035715260717552e-05, 2.3554739527753554e-05, 2.6752326448331587e-05, 2.9949915187899023e-05, 3.3147502108477056e-05, 3.634508902905509e-05, 3.954267594963312e-05, 4.274026650818996e-05, 4.5937853428767994e-05, 4.913544034934603e-05, 5.233302726992406e-05, 5.553061419050209e-05, 5.872820474905893e-05, 6.192579166963696e-05, 6.5123378590215e-05, 6.832096551079303e-05, 7.151855243137106e-05, 7.47161393519491e-05, 7.791372627252713e-05, 8.111131319310516e-05, 8.430890738964081e-05, 8.750649431021884e-05, 9.070408123079687e-05, 9.39016681513749e-05, 9.709925507195294e-05, 0.00010029684199253097]}, "gradients/linearlayers.0.0.weight": {"_type": "histogram", "values": [1.0, 0.0, 0.0, 2.0, 0.0, 2.0, 6.0, 1.0, 6.0, 8.0, 8.0, 17.0, 14.0, 19.0, 30.0, 37.0, 38.0, 55.0, 67.0, 84.0, 102.0, 124.0, 165.0, 220.0, 300.0, 391.0, 501.0, 737.0, 1023.0, 1430.0, 2114.0, 3270.0, 45018.0, 2941.0, 1823.0, 1251.0, 910.0, 635.0, 496.0, 385.0, 283.0, 230.0, 170.0, 118.0, 110.0, 79.0, 64.0, 47.0, 59.0, 27.0, 30.0, 19.0, 18.0, 11.0, 14.0, 6.0, 3.0, 10.0, 1.0, 2.0, 2.0, 1.0, 0.0, 1.0], "bins": [-0.00017625901091378182, -0.00017085051513276994, -0.00016544201935175806, -0.00016003352357074618, -0.0001546250277897343, -0.00014921653200872242, -0.00014380803622771055, -0.00013839954044669867, -0.00013299103011377156, -0.00012758253433275968, -0.0001221740385517478, -0.00011676555004669353, -0.00011135704698972404, -0.00010594855120871216, -0.00010054005542770028, -9.51315596466884e-05, -8.972306386567652e-05, -8.431456808466464e-05, -7.890607230365276e-05, -7.349757652264088e-05, -6.8089080741629e-05, -6.268057768465951e-05, -5.727208190364763e-05, -5.186358612263575e-05, -4.645509034162387e-05, -4.104659456061199e-05, -3.5638098779600114e-05, -3.0229599360609427e-05, -2.4821103579597548e-05, -1.9412607798585668e-05, -1.4004110198584385e-05, -8.595613508077804e-06, -3.1871022656559944e-06, 2.221394424850587e-06, 7.629891115357168e-06, 1.303838780586375e-05, 1.844688449637033e-05, 2.385538027738221e-05, 2.9263877877383493e-05, 3.4672375477384776e-05, 4.0080871258396655e-05, 4.5489367039408535e-05, 5.0897862820420414e-05, 5.63063622394111e-05, 6.171486165840179e-05, 6.712335743941367e-05, 7.253185322042555e-05, 7.794034900143743e-05, 8.33488447824493e-05, 8.875734056346118e-05, 9.416583634447306e-05, 9.957433212548494e-05, 0.00010498282790649682, 0.00011039133096346632, 0.0001157998267444782, 0.00012120832252549008, 0.00012661682558245957, 0.00013202532136347145, 0.00013743381714448333, 0.0001428423129254952, 0.0001482508087065071, 0.00015365930448751897, 0.00015906780026853085, 0.00016447629604954273, 0.0001698847918305546]}, "gradients/embeds.2.bias": {"_type": "histogram", "values": [1.0, 1.0, 0.0, 0.0, 0.0, 0.0, 1.0, 1.0, 1.0, 1.0, 1.0, 4.0, 1.0, 1.0, 2.0, 1.0, 3.0, 2.0, 3.0, 3.0, 5.0, 2.0, 5.0, 4.0, 4.0, 2.0, 4.0, 3.0, 3.0, 7.0, 4.0, 6.0, 14.0, 85.0, 10.0, 2.0, 1.0, 3.0, 8.0, 4.0, 5.0, 2.0, 4.0, 4.0, 3.0, 8.0, 5.0, 5.0, 3.0, 0.0, 2.0, 3.0, 3.0, 0.0, 3.0, 0.0, 0.0, 0.0, 0.0, 1.0, 0.0, 0.0, 1.0, 1.0], "bins": [-0.00014883720723446459, -0.00014437272329814732, -0.00013990823936183006, -0.00013544374087359756, -0.0001309792569372803, -0.00012651477300096303, -0.00012205028178868815, -0.00011758579785237089, -0.00011312130664009601, -0.00010865682270377874, -0.00010419233876746148, -9.97278475551866e-05, -9.526336361886933e-05, -9.079887240659446e-05, -8.633438847027719e-05, -8.186989725800231e-05, -7.740541332168505e-05, -7.294092938536778e-05, -6.84764381730929e-05, -6.401195423677564e-05, -5.954746302450076e-05, -5.508297908818349e-05, -5.061849151388742e-05, -4.615400393959135e-05, -4.1689516365295276e-05, -3.7225028790999204e-05, -3.276054121670313e-05, -2.8296055461396463e-05, -2.383156788710039e-05, -1.936708031280432e-05, -1.4902593648002949e-05, -1.0438106983201578e-05, -5.973619408905506e-06, -1.509132289356785e-06, 2.9553548301919363e-06, 7.419841949740658e-06, 1.1884329069289379e-05, 1.634881664358545e-05, 2.081330239889212e-05, 2.527778997318819e-05, 2.9742277547484264e-05, 3.4206765121780336e-05, 3.867125269607641e-05, 4.313574027037248e-05, 4.7600224206689745e-05, 5.206471178098582e-05, 5.652919935528189e-05, 6.099368692957796e-05, 6.545817450387403e-05, 6.99226584401913e-05, 7.438714965246618e-05, 7.885163358878344e-05, 8.331612480105832e-05, 8.778060873737559e-05, 9.224509994965047e-05, 9.670958388596773e-05, 0.000101174067822285, 0.00010563855903455988, 0.00011010304297087714, 0.00011456753418315202, 0.00011903201811946929, 0.00012349650205578655, 0.00012796100054401904, 0.0001324254844803363, 0.00013688996841665357]}, "gradients/embeds.2.weight": {"_type": "histogram", "values": [2.0, 0.0, 0.0, 0.0, 0.0, 1.0, 3.0, 3.0, 1.0, 2.0, 2.0, 8.0, 9.0, 10.0, 13.0, 18.0, 21.0, 29.0, 40.0, 64.0, 74.0, 92.0, 169.0, 186.0, 285.0, 404.0, 580.0, 818.0, 1243.0, 1812.0, 2663.0, 4084.0, 9334.0, 92540.0, 5743.0, 3811.0, 2415.0, 1607.0, 981.0, 675.0, 402.0, 296.0, 183.0, 130.0, 87.0, 77.0, 38.0, 33.0, 20.0, 13.0, 16.0, 10.0, 7.0, 4.0, 3.0, 3.0, 1.0, 2.0, 2.0, 1.0, 0.0, 0.0, 1.0, 1.0], "bins": [-0.0002943334402516484, -0.0002854928025044501, -0.0002766521938610822, -0.00026781155611388385, -0.0002589709183666855, -0.0002501303097233176, -0.00024128967197611928, -0.00023244903422892094, -0.00022360841103363782, -0.0002147677878383547, -0.00020592715009115636, -0.00019708652689587325, -0.00018824590370059013, -0.0001794052659533918, -0.00017056464275810868, -0.00016172400501091033, -0.00015288338181562722, -0.0001440427586203441, -0.00013520212087314576, -0.00012636149767786264, -0.00011752086720662192, -0.00010868023673538119, -9.983961354009807e-05, -9.099898306885734e-05, -8.215835259761661e-05, -7.331772212637588e-05, -6.447709165513515e-05, -5.563646845985204e-05, -4.679583798861131e-05, -3.795520751737058e-05, -2.911458068410866e-05, -2.0273952031857334e-05, -1.1433294275775552e-05, -2.5926656235242262e-06, 6.247963028727099e-06, 1.5088591680978425e-05, 2.392922033322975e-05, 3.276985080447048e-05, 4.16104776377324e-05, 5.0451104470994323e-05, 5.929173494223505e-05, 6.813236541347578e-05, 7.697299588471651e-05, 8.581361907999963e-05, 9.465424955124035e-05, 0.00010349488002248108, 0.0001123355032177642, 0.00012117613368900493, 0.00013001676416024566, 0.00013885738735552877, 0.00014769802510272712, 0.00015653864829801023, 0.00016537928604520857, 0.0001742199092404917, 0.0001830605324357748, 0.00019190117018297315, 0.00020074179337825626, 0.00020958241657353938, 0.00021842305432073772, 0.00022726367751602083, 0.00023610430071130395, 0.0002449449384585023, 0.00025378557620570064, 0.0002626261848490685, 0.00027146682259626687]}, "gradients/embeds.0.bias": {"_type": "histogram", "values": [1.0, 1.0, 1.0, 1.0, 1.0, 0.0, 4.0, 0.0, 1.0, 1.0, 3.0, 4.0, 3.0, 5.0, 2.0, 5.0, 3.0, 7.0, 4.0, 8.0, 7.0, 6.0, 7.0, 7.0, 3.0, 7.0, 8.0, 17.0, 9.0, 11.0, 23.0, 46.0, 143.0, 20.0, 8.0, 14.0, 10.0, 8.0, 11.0, 12.0, 11.0, 5.0, 8.0, 6.0, 7.0, 8.0, 9.0, 1.0, 3.0, 6.0, 2.0, 0.0, 2.0, 3.0, 2.0, 0.0, 1.0, 2.0, 0.0, 2.0, 1.0, 0.0, 0.0, 1.0], "bins": [-0.00013491444406099617, -0.00013071981084067374, -0.00012652517762035131, -0.00012233054440002888, -0.00011813591845566407, -0.00011394128523534164, -0.00010974665929097682, -0.00010555202607065439, -0.00010135739285033196, -9.716275963000953e-05, -9.29681264096871e-05, -8.877350046532229e-05, -8.457886724499986e-05, -8.038423402467743e-05, -7.618960808031261e-05, -7.199497485999018e-05, -6.780034163966775e-05, -6.360570841934532e-05, -5.9411078837001696e-05, -5.521644925465807e-05, -5.102181603433564e-05, -4.682718281401321e-05, -4.263255323166959e-05, -3.843792364932597e-05, -3.424329042900354e-05, -3.004865902767051e-05, -2.5854027626337484e-05, -2.1659396225004457e-05, -1.746476482367143e-05, -1.3270133422338404e-05, -9.075502021005377e-06, -4.880870619672351e-06, -6.86239218339324e-07, 3.5083921829937026e-06, 7.70302358432673e-06, 1.1897654985659756e-05, 1.6092286386992782e-05, 2.028691778832581e-05, 2.4481549189658836e-05, 2.8676180590991862e-05, 3.287081199232489e-05, 3.706544521264732e-05, 4.126007479499094e-05, 4.5454704377334565e-05, 4.9649337597656995e-05, 5.3843970817979425e-05, 5.803860040032305e-05, 6.223322998266667e-05, 6.64278632029891e-05, 7.062249642331153e-05, 7.481712964363396e-05, 7.901175558799878e-05, 8.320638880832121e-05, 8.740102202864364e-05, 9.159564797300845e-05, 9.579028119333088e-05, 9.998491441365331e-05, 0.00010417954763397574, 0.00010837418085429817, 0.00011256880679866299, 0.00011676344001898542, 0.00012095807323930785, 0.00012515269918367267, 0.0001293473324039951, 0.00013354196562431753]}, "gradients/embeds.0.weight": {"_type": "histogram", "values": [2.0, 1.0, 3.0, 1.0, 2.0, 1.0, 4.0, 4.0, 2.0, 0.0, 7.0, 6.0, 6.0, 10.0, 6.0, 8.0, 9.0, 15.0, 16.0, 22.0, 27.0, 21.0, 32.0, 45.0, 52.0, 78.0, 126.0, 233.0, 628.0, 2436.0, 10724.0, 63622.0, 290460.0, 18593.0, 4044.0, 1068.0, 331.0, 149.0, 102.0, 66.0, 45.0, 35.0, 31.0, 27.0, 20.0, 25.0, 15.0, 7.0, 7.0, 10.0, 3.0, 4.0, 3.0, 7.0, 1.0, 0.0, 3.0, 3.0, 3.0, 1.0, 2.0, 0.0, 0.0, 2.0], "bins": [-0.0012697814963757992, -0.0012303180992603302, -0.0011908545857295394, -0.0011513911886140704, -0.0011119277914986014, -0.0010724643943831325, -0.0010330008808523417, -0.0009935374837368727, -0.0009540740866214037, -0.0009146106312982738, -0.0008751471759751439, -0.0008356837788596749, -0.000796220323536545, -0.0007567569264210761, -0.0007172934710979462, -0.0006778300739824772, -0.0006383666186593473, -0.0005989031633362174, -0.0005594397662207484, -0.0005199763108976185, -0.00048051291378214955, -0.00044104945845901966, -0.0004015860322397202, -0.0003621226060204208, -0.00032265917980112135, -0.0002831957535818219, -0.00024373232736252248, -0.00020426888659130782, -0.00016480546037200838, -0.00012534203415270895, -8.58786006574519e-05, -4.6415170800173655e-05, -6.9517409428954124e-06, 3.251168891438283e-05, 7.197511877166107e-05, 0.00011143855226691812, 0.00015090197848621756, 0.000190365404705517, 0.00022982884547673166, 0.0002692922716960311, 0.00030875569791533053, 0.00034821912413462996, 0.0003876825503539294, 0.00042714597657322884, 0.00046660943189635873, 0.0005060728290118277, 0.0005455362843349576, 0.0005849996814504266, 0.0006244631367735565, 0.0006639265920966864, 0.0007033899892121553, 0.0007428534445352852, 0.0007823168416507542, 0.0008217802969738841, 0.0008612436940893531, 0.000900707149412483, 0.0009401706047356129, 0.0009796340018510818, 0.0010190973989665508, 0.0010585609124973416, 0.0010980243096128106, 0.0011374877067282796, 0.0011769511038437486, 0.0012164146173745394, 0.0012558780144900084]}, "num_of_test_examples": 0, "test_loss": 0.0037632721662521364, "epoch": 38, "val-auc": 0.9113780533353253, "_wandb": {"runtime": 3171}}