{"epoch": 19, "_timestamp": 1722986819.5528588, "_runtime": 169.96901774406433, "_step": 149, "train loss": 0.09248967468738556, "val loss": 0.9489871263504028, "val auc": 0.8737919926369075, "val precision": 0.7214611872146118, "val recall": 0.9634146341463414, "val f1": 0.825065274151436, "RESP Confusion Matrix": {"_type": "image-file", "sha256": "064d1c62d6dfc57098ef45ec0b0e770d65d6596093c6106b60f1b287670034b3", "size": 14951, "path": "media/images/RESP Confusion Matrix_106_064d1c62d6dfc57098ef.png", "format": "png", "width": 1000, "height": 700}, "gradients/output.bias": {"_type": "histogram", "values": [0.0, 0.0, 0.0, 0.0, 0.0, 0.0, 0.0, 0.0, 0.0, 0.0, 0.0, 0.0, 0.0, 0.0, 0.0, 0.0, 0.0, 0.0, 0.0, 0.0, 0.0, 0.0, 0.0, 0.0, 0.0, 0.0, 0.0, 0.0, 0.0, 0.0, 0.0, 0.0, 1.0, 0.0, 0.0, 0.0, 0.0, 0.0, 0.0, 0.0, 0.0, 0.0, 0.0, 0.0, 0.0, 0.0, 0.0, 0.0, 0.0, 0.0, 0.0, 0.0, 0.0, 0.0, 0.0, 0.0, 0.0, 0.0, 0.0, 0.0, 0.0, 0.0, 0.0, 0.0], "bins": [0.031778447329998016, 0.031778447329998016, 0.031778447329998016, 0.031778447329998016, 0.031778447329998016, 0.031778447329998016, 0.031778447329998016, 0.031778447329998016, 0.031778447329998016, 0.031778447329998016, 0.031778447329998016, 0.031778447329998016, 0.031778447329998016, 0.031778447329998016, 0.031778447329998016, 0.031778447329998016, 0.031778447329998016, 0.031778447329998016, 0.031778447329998016, 0.031778447329998016, 0.031778447329998016, 0.031778447329998016, 0.031778447329998016, 0.031778447329998016, 0.031778447329998016, 0.031778447329998016, 0.031778447329998016, 0.031778447329998016, 0.031778447329998016, 0.031778447329998016, 0.031778447329998016, 0.031778447329998016, 0.031778447329998016, 0.031778447329998016, 0.031778447329998016, 0.031778447329998016, 0.031778447329998016, 0.031778447329998016, 0.031778447329998016, 0.031778447329998016, 0.031778447329998016, 0.031778447329998016, 0.031778447329998016, 0.031778447329998016, 0.031778447329998016, 0.031778447329998016, 0.031778447329998016, 0.031778447329998016, 0.031778447329998016, 0.031778447329998016, 0.031778447329998016, 0.031778447329998016, 0.031778447329998016, 0.031778447329998016, 0.031778447329998016, 0.031778447329998016, 0.031778447329998016, 0.031778447329998016, 0.031778447329998016, 0.031778447329998016, 0.031778447329998016, 0.031778447329998016, 0.031778447329998016, 0.031778447329998016, 0.031778447329998016]}, "gradients/output.weight": {"_type": "histogram", "values": [1.0, 0.0, 0.0, 0.0, 2.0, 1.0, 0.0, 0.0, 2.0, 0.0, 0.0, 0.0, 6.0, 0.0, 0.0, 1.0, 0.0, 0.0, 0.0, 0.0, 0.0, 0.0, 1.0, 0.0, 0.0, 0.0, 0.0, 0.0, 0.0, 0.0, 0.0, 0.0, 0.0, 1.0, 0.0, 0.0, 0.0, 0.0, 0.0, 0.0, 0.0, 0.0, 0.0, 0.0, 0.0, 0.0, 0.0, 0.0, 0.0, 0.0, 0.0, 0.0, 0.0, 0.0, 0.0, 0.0, 0.0, 0.0, 0.0, 0.0, 0.0, 0.0, 0.0, 1.0], "bins": [-0.08175450563430786, -0.07543148845434189, -0.06910847127437592, -0.06278545409440994, -0.05646243691444397, -0.050139423459768295, -0.04381640627980232, -0.03749338909983635, -0.031170371919870377, -0.024847354739904404, -0.01852433755993843, -0.012201322242617607, -0.005878305062651634, 0.0004447116516530514, 0.006767728365957737, 0.013090744614601135, 0.019413761794567108, 0.02573677897453308, 0.032059796154499054, 0.03838281333446503, 0.044705830514431, 0.051028843969106674, 0.05735186114907265, 0.06367488205432892, 0.0699978917837143, 0.07632090896368027, 0.08264392614364624, 0.08896694332361221, 0.09528996050357819, 0.10161297768354416, 0.10793599486351013, 0.1142590120434761, 0.12058202922344208, 0.12690503895282745, 0.13322806358337402, 0.1395510733127594, 0.14587409794330597, 0.15219710767269135, 0.15852013230323792, 0.1648431420326233, 0.17116616666316986, 0.17748917639255524, 0.1838122010231018, 0.19013521075248718, 0.19645823538303375, 0.20278124511241913, 0.2091042697429657, 0.21542727947235107, 0.22175028920173645, 0.22807331383228302, 0.2343963235616684, 0.24071934819221497, 0.24704235792160034, 0.2533653676509857, 0.2596884071826935, 0.26601141691207886, 0.27233442664146423, 0.2786574363708496, 0.2849804759025574, 0.29130348563194275, 0.2976264953613281, 0.3039495050907135, 0.31027254462242126, 0.31659555435180664, 0.322918564081192]}, "gradients/linearlayers.4.0.bias": {"_type": "histogram", "values": [1.0, 0.0, 0.0, 0.0, 0.0, 1.0, 0.0, 0.0, 0.0, 0.0, 0.0, 0.0, 0.0, 1.0, 0.0, 0.0, 0.0, 0.0, 0.0, 0.0, 0.0, 0.0, 0.0, 0.0, 0.0, 0.0, 0.0, 0.0, 0.0, 0.0, 0.0, 0.0, 1.0, 1.0, 5.0, 0.0, 0.0, 0.0, 0.0, 1.0, 0.0, 0.0, 0.0, 0.0, 0.0, 0.0, 0.0, 0.0, 0.0, 0.0, 0.0, 0.0, 0.0, 0.0, 1.0, 0.0, 1.0, 0.0, 0.0, 1.0, 1.0, 0.0, 0.0, 1.0], "bins": [-0.006767743732780218, -0.006570195779204369, -0.006372647825628519, -0.0061750998720526695, -0.005977551452815533, -0.005780003499239683, -0.005582455545663834, -0.005384907592087984, -0.0051873596385121346, -0.004989811684936285, -0.0047922637313604355, -0.004594715777784586, -0.004397167824208736, -0.0041996194049716, -0.00400207145139575, -0.0038045234978199005, -0.003606975544244051, -0.0034094275906682014, -0.003211879637092352, -0.0030143314506858587, -0.002816783497110009, -0.0026192355435341597, -0.0024216873571276665, -0.002224139403551817, -0.0020265914499759674, -0.0018290434964001179, -0.0016314954264089465, -0.0014339473564177752, -0.0012363994028419256, -0.001038851449266076, -0.0008413033792749047, -0.0006437553674913943, -0.00044620782136917114, -0.0002486598095856607, -5.111179780215025e-05, 0.0001464362139813602, 0.00034398422576487064, 0.0005415322375483811, 0.0007390802493318915, 0.000936628261115402, 0.0011341762728989124, 0.001331724226474762, 0.0015292722964659333, 0.0017268203664571047, 0.0019243683200329542, 0.0021219162736088037, 0.002319464460015297, 0.0025170124135911465, 0.002714560367166996, 0.0029121083207428455, 0.003109656274318695, 0.0033072044607251883, 0.003504752414301038, 0.0037023003678768873, 0.0038998485542833805, 0.00409739650785923, 0.00429494446143508, 0.004492492415010929, 0.004690040368586779, 0.004887588322162628, 0.005085136741399765, 0.0052826846949756145, 0.005480232648551464, 0.005677780602127314, 0.005875328555703163]}, "gradients/linearlayers.4.0.weight": {"_type": "histogram", "values": [2.0, 0.0, 0.0, 0.0, 0.0, 1.0, 0.0, 0.0, 3.0, 0.0, 0.0, 1.0, 1.0, 1.0, 1.0, 0.0, 0.0, 1.0, 0.0, 3.0, 0.0, 0.0, 0.0, 3.0, 2.0, 6.0, 8.0, 3.0, 4.0, 8.0, 12.0, 8.0, 343.0, 31.0, 6.0, 9.0, 9.0, 5.0, 5.0, 7.0, 2.0, 3.0, 1.0, 1.0, 0.0, 1.0, 1.0, 1.0, 0.0, 3.0, 4.0, 0.0, 1.0, 1.0, 1.0, 0.0, 3.0, 2.0, 0.0, 0.0, 0.0, 1.0, 0.0, 3.0], "bins": [-0.05940907821059227, -0.057608604431152344, -0.05580813065171242, -0.05400765314698219, -0.05220717936754227, -0.05040670558810234, -0.048606231808662415, -0.04680575802922249, -0.04500528424978256, -0.04320480674505234, -0.04140433296561241, -0.039603859186172485, -0.03780338540673256, -0.03600291162729263, -0.03420243412256241, -0.03240196034312248, -0.030601486563682556, -0.02880101278424263, -0.027000537142157555, -0.02520006336271763, -0.023399587720632553, -0.021599113941192627, -0.0197986401617527, -0.017998164519667625, -0.0161976907402277, -0.014397216029465199, -0.012596741318702698, -0.010796267539262772, -0.00899579282850027, -0.00719531811773777, -0.005394843872636557, -0.0035943693947046995, -0.0017938986420631409, 6.57583586871624e-06, 0.0018070503138005733, 0.0036075247917324305, 0.005407999269664288, 0.007208473980426788, 0.009008947759866714, 0.010809422470629215, 0.012609897181391716, 0.014410371892154217, 0.016210846602916718, 0.018011320382356644, 0.01981179416179657, 0.021612269803881645, 0.02341274358332157, 0.025213219225406647, 0.027013693004846573, 0.0288141667842865, 0.030614642426371574, 0.03241511806845665, 0.034215591847896576, 0.0360160656273365, 0.03781653940677643, 0.039617013186216354, 0.04141748696565628, 0.043217964470386505, 0.04501843824982643, 0.04681891202926636, 0.048619385808706284, 0.05041985958814621, 0.052220337092876434, 0.05402081087231636, 0.05582128465175629]}, "gradients/linearlayers.3.0.bias": {"_type": "histogram", "values": [1.0, 0.0, 0.0, 0.0, 0.0, 0.0, 0.0, 0.0, 2.0, 0.0, 0.0, 0.0, 0.0, 0.0, 0.0, 0.0, 0.0, 0.0, 0.0, 0.0, 0.0, 0.0, 0.0, 0.0, 0.0, 0.0, 0.0, 1.0, 0.0, 0.0, 0.0, 0.0, 0.0, 0.0, 1.0, 16.0, 2.0, 0.0, 1.0, 0.0, 0.0, 1.0, 1.0, 0.0, 0.0, 1.0, 0.0, 1.0, 1.0, 1.0, 0.0, 0.0, 0.0, 0.0, 0.0, 0.0, 0.0, 0.0, 0.0, 0.0, 0.0, 1.0, 0.0, 1.0], "bins": [-0.0051395767368376255, -0.004996427334845066, -0.004853277467191219, -0.00471012806519866, -0.0045669786632061005, -0.004423828795552254, -0.004280679393559694, -0.004137529991567135, -0.003994380123913288, -0.0038512307219207287, -0.0037080810870975256, -0.0035649314522743225, -0.003421782050281763, -0.00327863241545856, -0.003135482780635357, -0.0029923333786427975, -0.0028491837438195944, -0.0027060341089963913, -0.002562884707003832, -0.0024197350721806288, -0.0022765854373574257, -0.0021334360353648663, -0.001990286400541663, -0.00184713676571846, -0.0017039872473105788, -0.0015608377289026976, -0.0014176880940794945, -0.0012745385756716132, -0.001131389057263732, -0.0009882394224405289, -0.0008450899040326476, -0.0007019403274171054, -0.0005587907508015633, -0.0004156411741860211, -0.0002724916266743094, -0.00012934206461068243, 1.3807497452944517e-05, 0.00015695705951657146, 0.0003001066215801984, 0.0004432561690919101, 0.0005864057457074523, 0.0007295553223229945, 0.0008727048989385366, 0.001015854417346418, 0.0011590039357542992, 0.0013021535705775023, 0.0014453030889853835, 0.0015884527238085866, 0.0017316022422164679, 0.0018747517606243491, 0.0020179012790322304, 0.0021610509138554335, 0.0023042005486786366, 0.002447349950671196, 0.002590499585494399, 0.002733649220317602, 0.0028767986223101616, 0.0030199482571333647, 0.0031630978919565678, 0.003306247526779771, 0.0034493969287723303, 0.0035925465635955334, 0.0037356961984187365, 0.003878845600411296, 0.004021995235234499]}, "gradients/linearlayers.3.0.weight": {"_type": "histogram", "values": [1.0, 0.0, 1.0, 1.0, 0.0, 0.0, 1.0, 0.0, 3.0, 0.0, 3.0, 2.0, 1.0, 1.0, 3.0, 2.0, 2.0, 3.0, 3.0, 3.0, 4.0, 5.0, 5.0, 1.0, 3.0, 8.0, 0.0, 5.0, 7.0, 8.0, 12.0, 16.0, 9.0, 19.0, 55.0, 1495.0, 106.0, 62.0, 42.0, 22.0, 25.0, 22.0, 19.0, 11.0, 7.0, 10.0, 5.0, 6.0, 6.0, 4.0, 3.0, 1.0, 1.0, 2.0, 2.0, 2.0, 0.0, 1.0, 2.0, 1.0, 2.0, 0.0, 1.0, 1.0], "bins": [-0.05605939030647278, -0.054491497576236725, -0.05292360857129097, -0.051355719566345215, -0.04978782683610916, -0.04821993410587311, -0.04665204510092735, -0.0450841560959816, -0.043516263365745544, -0.04194837063550949, -0.040380481630563736, -0.03881259262561798, -0.03724469989538193, -0.035676807165145874, -0.03410891816020012, -0.032541029155254364, -0.03097313642501831, -0.029405245557427406, -0.027837354689836502, -0.026269463822245598, -0.024701572954654694, -0.02313368208706379, -0.021565791219472885, -0.01999790035188198, -0.018430009484291077, -0.016862118616700172, -0.015294227749109268, -0.013726336881518364, -0.01215844601392746, -0.010590555146336555, -0.009022664278745651, -0.007454773411154747, -0.005886878818273544, -0.00431898795068264, -0.002751097083091736, -0.0011832062155008316, 0.00038468465209007263, 0.0019525755196809769, 0.003520466387271881, 0.005088357254862785, 0.00665624812245369, 0.008224138990044594, 0.009792029857635498, 0.011359920725226402, 0.012927811592817307, 0.01449570246040821, 0.016063593327999115, 0.01763148419559002, 0.019199375063180923, 0.020767265930771828, 0.022335156798362732, 0.023903047665953636, 0.02547093853354454, 0.027038829401135445, 0.02860672026872635, 0.030174611136317253, 0.03174250200390816, 0.03331039100885391, 0.034878283739089966, 0.03644617646932602, 0.038014065474271774, 0.03958195447921753, 0.04114984720945358, 0.042717739939689636, 0.04428562894463539]}, "gradients/linearlayers.2.0.bias": {"_type": "histogram", "values": [1.0, 0.0, 1.0, 1.0, 0.0, 0.0, 1.0, 0.0, 0.0, 0.0, 0.0, 0.0, 0.0, 0.0, 2.0, 1.0, 0.0, 0.0, 0.0, 1.0, 0.0, 0.0, 1.0, 2.0, 2.0, 1.0, 1.0, 0.0, 1.0, 1.0, 1.0, 0.0, 3.0, 1.0, 22.0, 2.0, 0.0, 1.0, 1.0, 3.0, 0.0, 0.0, 0.0, 1.0, 3.0, 2.0, 0.0, 0.0, 1.0, 0.0, 0.0, 0.0, 0.0, 0.0, 0.0, 0.0, 1.0, 1.0, 0.0, 1.0, 0.0, 1.0, 1.0, 1.0], "bins": [-0.0036187844816595316, -0.0035126174334436655, -0.0034064503852277994, -0.0033002833370119333, -0.0031941162887960672, -0.003087949240580201, -0.002981782192364335, -0.002875615144148469, -0.002769448095932603, -0.002663281047716737, -0.0025571139995008707, -0.0024509469512850046, -0.0023447799030691385, -0.0022386128548532724, -0.0021324458066374063, -0.0020262787584215403, -0.0019201115937903523, -0.0018139445455744863, -0.0017077774973586202, -0.001601610449142754, -0.001495443400926888, -0.001389276352711022, -0.0012831093044951558, -0.0011769422562792897, -0.0010707750916481018, -0.0009646081016398966, -0.0008584410534240305, -0.0007522740052081645, -0.0006461068987846375, -0.0005399398505687714, -0.0004337728023529053, -0.0003276057541370392, -0.0002214387059211731, -0.00011527165042934939, -9.10459493752569e-06, 9.706246055429801e-05, 0.00020322951604612172, 0.0003093965642619878, 0.00041556364158168435, 0.0005217306897975504, 0.0006278977380134165, 0.0007340647862292826, 0.0008402318344451487, 0.0009463988826610148, 0.0010525659890845418, 0.0011587330373004079, 0.001264900085516274, 0.00137106713373214, 0.0014772341819480062, 0.0015834012301638722, 0.0016895682783797383, 0.0017957353265956044, 0.0019019023748114705, 0.0020080695394426584, 0.0021142365876585245, 0.0022204036358743906, 0.0023265706840902567, 0.0024327377323061228, 0.002538904780521989, 0.002645071828737855, 0.002751238876953721, 0.002857405925169587, 0.0029635729733854532, 0.0030697400216013193, 0.0031759070698171854]}, "gradients/linearlayers.2.0.weight": {"_type": "histogram", "values": [1.0, 1.0, 1.0, 1.0, 1.0, 3.0, 3.0, 4.0, 4.0, 4.0, 8.0, 5.0, 7.0, 8.0, 11.0, 14.0, 12.0, 13.0, 15.0, 12.0, 23.0, 28.0, 20.0, 34.0, 39.0, 37.0, 58.0, 76.0, 78.0, 101.0, 118.0, 180.0, 261.0, 733.0, 5155.0, 239.0, 155.0, 152.0, 78.0, 59.0, 70.0, 61.0, 56.0, 41.0, 25.0, 27.0, 11.0, 16.0, 18.0, 12.0, 15.0, 16.0, 17.0, 10.0, 14.0, 6.0, 7.0, 6.0, 2.0, 4.0, 2.0, 0.0, 3.0, 1.0], "bins": [-0.027016574516892433, -0.026224184781312943, -0.025431793183088303, -0.024639403447508812, -0.023847011849284172, -0.02305462211370468, -0.02226223051548004, -0.02146984077990055, -0.02067745104432106, -0.01988505944609642, -0.01909266971051693, -0.01830027811229229, -0.0175078883767128, -0.01671549677848816, -0.01592310704290867, -0.015130716376006603, -0.014338325709104538, -0.013545935042202473, -0.012753544375300407, -0.011961153708398342, -0.011168763041496277, -0.010376373305916786, -0.009583982639014721, -0.008791591972112656, -0.00799920130521059, -0.007206810638308525, -0.00641441997140646, -0.005622029770165682, -0.0048296391032636166, -0.004037248436361551, -0.0032448580022901297, -0.002452467568218708, -0.001660078763961792, -0.0008676882134750485, -7.529766298830509e-05, 0.0007170928874984384, 0.0015094834379851818, 0.002301874104887247, 0.0030942645389586687, 0.0038866549730300903, 0.004679045639932156, 0.005471436306834221, 0.006263826973736286, 0.007056217174977064, 0.007848607376217842, 0.008640998043119907, 0.009433388710021973, 0.010225779376924038, 0.011018170043826103, 0.011810560710728168, 0.012602951377630234, 0.013395342044532299, 0.014187732711434364, 0.014980122447013855, 0.015772514045238495, 0.016564903780817986, 0.017357293516397476, 0.018149685114622116, 0.018942074850201607, 0.019734466448426247, 0.020526856184005737, 0.021319247782230377, 0.022111637517809868, 0.022904029116034508, 0.023696418851614]}, "gradients/linearlayers.1.0.bias": {"_type": "histogram", "values": [1.0, 0.0, 1.0, 0.0, 0.0, 0.0, 1.0, 0.0, 3.0, 1.0, 0.0, 0.0, 2.0, 0.0, 0.0, 3.0, 1.0, 3.0, 0.0, 0.0, 2.0, 2.0, 2.0, 0.0, 0.0, 1.0, 1.0, 3.0, 0.0, 3.0, 3.0, 5.0, 2.0, 2.0, 41.0, 4.0, 3.0, 1.0, 0.0, 4.0, 4.0, 3.0, 1.0, 2.0, 2.0, 1.0, 1.0, 0.0, 2.0, 1.0, 2.0, 2.0, 2.0, 2.0, 1.0, 2.0, 0.0, 0.0, 0.0, 1.0, 1.0, 0.0, 1.0, 2.0], "bins": [-0.0034370911307632923, -0.0033376156352460384, -0.0032381401397287846, -0.0031386646442115307, -0.003039189148694277, -0.002939713653177023, -0.002840238157659769, -0.002740762662142515, -0.0026412871666252613, -0.002541811903938651, -0.002442336408421397, -0.0023428609129041433, -0.0022433854173868895, -0.0021439099218696356, -0.0020444344263523817, -0.0019449589308351278, -0.001845483435317874, -0.00174600793980062, -0.0016465324442833662, -0.0015470569487661123, -0.0014475814532488585, -0.0013481060741469264, -0.0012486305786296725, -0.0011491550831124187, -0.0010496795875951648, -0.0009502040920779109, -0.000850728596560657, -0.0007512531592510641, -0.0006517776637338102, -0.0005523021682165563, -0.0004528267018031329, -0.00035335123538970947, -0.0002538757398724556, -0.00015440025890711695, -5.49247779417783e-05, 4.4550703023560345e-05, 0.000144026183988899, 0.00024350166495423764, 0.0003429771459195763, 0.0004424526123329997, 0.0005419281078502536, 0.0006414036033675075, 0.0007408790988847613, 0.0008403545361943543, 0.0009398300317116082, 0.0010393054690212011, 0.001138780964538455, 0.0012382564600557089, 0.0013377319555729628, 0.0014372074510902166, 0.0015366829466074705, 0.0016361584421247244, 0.0017356339376419783, 0.0018351093167439103, 0.0019345848122611642, 0.00203406042419374, 0.00213353568688035, 0.002233011182397604, 0.002332486677914858, 0.0024319621734321117, 0.0025314376689493656, 0.0026309131644666195, 0.0027303886599838734, 0.0028298641555011272, 0.002929339651018381]}, "gradients/linearlayers.1.0.weight": {"_type": "histogram", "values": [1.0, 1.0, 1.0, 2.0, 0.0, 3.0, 2.0, 3.0, 5.0, 5.0, 5.0, 5.0, 11.0, 16.0, 12.0, 21.0, 24.0, 32.0, 49.0, 44.0, 53.0, 62.0, 89.0, 114.0, 105.0, 143.0, 183.0, 216.0, 237.0, 307.0, 410.0, 541.0, 947.0, 1920.0, 21234.0, 1951.0, 987.0, 701.0, 483.0, 386.0, 302.0, 212.0, 173.0, 158.0, 132.0, 103.0, 79.0, 63.0, 49.0, 26.0, 37.0, 39.0, 23.0, 16.0, 14.0, 5.0, 3.0, 4.0, 4.0, 5.0, 2.0, 1.0, 4.0, 3.0], "bins": [-0.02129315584897995, -0.020677099004387856, -0.02006104215979576, -0.019444983452558517, -0.018828926607966423, -0.01821286976337433, -0.017596811056137085, -0.01698075421154499, -0.016364697366952896, -0.0157486405223608, -0.015132582746446133, -0.014516524970531464, -0.01390046812593937, -0.013284411281347275, -0.012668353505432606, -0.012052295729517937, -0.011436238884925842, -0.010820182040333748, -0.010204124264419079, -0.00958806648850441, -0.008972009643912315, -0.008355952799320221, -0.007739895023405552, -0.00712383771315217, -0.0065077804028987885, -0.005891723092645407, -0.005275665782392025, -0.004659608472138643, -0.0040435511618852615, -0.00342749385163188, -0.002811436541378498, -0.0021953792311251163, -0.0015793237835168839, -0.0009632664732635021, -0.0003472091630101204, 0.00026884814724326134, 0.0008849054574966431, 0.0015009627677500248, 0.0021170200780034065, 0.0027330773882567883, 0.00334913469851017, 0.003965192008763552, 0.0045812493190169334, 0.005197306629270315, 0.005813363939523697, 0.006429421249777079, 0.00704547856003046, 0.007661535870283842, 0.008277593180537224, 0.008893650025129318, 0.009509707801043987, 0.010125765576958656, 0.01074182242155075, 0.011357879266142845, 0.011973937042057514, 0.012589994817972183, 0.013206051662564278, 0.013822108507156372, 0.014438166283071041, 0.01505422405898571, 0.015670280903577805, 0.0162863377481699, 0.016902394592761993, 0.017518453299999237, 0.01813451014459133]}, "gradients/linearlayers.0.0.bias": {"_type": "histogram", "values": [1.0, 1.0, 1.0, 1.0, 0.0, 2.0, 0.0, 2.0, 1.0, 1.0, 1.0, 1.0, 3.0, 4.0, 4.0, 1.0, 4.0, 4.0, 4.0, 4.0, 5.0, 4.0, 7.0, 3.0, 3.0, 7.0, 3.0, 7.0, 4.0, 8.0, 12.0, 61.0, 9.0, 5.0, 4.0, 7.0, 3.0, 5.0, 5.0, 3.0, 5.0, 5.0, 4.0, 9.0, 2.0, 3.0, 5.0, 2.0, 1.0, 2.0, 3.0, 0.0, 0.0, 2.0, 4.0, 1.0, 0.0, 0.0, 0.0, 1.0, 0.0, 0.0, 0.0, 2.0], "bins": [-0.0032659340649843216, -0.003161677625030279, -0.0030574211850762367, -0.002953164977952838, -0.0028489085379987955, -0.002744652098044753, -0.0026403958909213543, -0.002536139450967312, -0.0024318830110132694, -0.002327626571059227, -0.0022233701311051846, -0.0021191139239817858, -0.0020148574840277433, -0.001910601044073701, -0.0018063447205349803, -0.0017020883969962597, -0.0015978319570422173, -0.0014935755170881748, -0.0013893191935494542, -0.0012850628700107336, -0.0011808064300566912, -0.0010765499901026487, -0.0009722936665639281, -0.0008680372848175466, -0.0007637809030711651, -0.0006595245213247836, -0.000555268139578402, -0.0004510117578320205, -0.000346755376085639, -0.00024249899433925748, -0.00013824261259287596, -3.3986230846494436e-05, 7.026991806924343e-05, 0.00017452629981562495, 0.0002787826815620065, 0.000383039063308388, 0.0004872954450547695, 0.000591551826801151, 0.0006958082085475326, 0.0008000645902939141, 0.0009043209720402956, 0.001008577411994338, 0.0011128337355330586, 0.0012170900590717793, 0.0013213464990258217, 0.0014256029389798641, 0.0015298592625185847, 0.0016341155860573053, 0.0017383720260113478, 0.0018426284659653902, 0.0019468847895041108, 0.0020511411130428314, 0.002155397552996874, 0.0022596539929509163, 0.0023639104329049587, 0.0024681666400283575, 0.0025724230799824, 0.0026766795199364424, 0.002780935727059841, 0.0028851921670138836, 0.002989448606967926, 0.0030937050469219685, 0.003197961486876011, 0.0033022176939994097, 0.003406474133953452]}, "gradients/linearlayers.0.0.weight": {"_type": "histogram", "values": [3.0, 2.0, 4.0, 8.0, 6.0, 7.0, 10.0, 5.0, 24.0, 17.0, 18.0, 39.0, 47.0, 66.0, 79.0, 99.0, 136.0, 165.0, 236.0, 316.0, 413.0, 529.0, 707.0, 935.0, 1267.0, 1694.0, 2271.0, 3244.0, 5017.0, 12027.0, 78814.0, 8002.0, 4190.0, 2848.0, 2018.0, 1517.0, 1102.0, 806.0, 604.0, 430.0, 333.0, 251.0, 173.0, 141.0, 116.0, 73.0, 64.0, 44.0, 32.0, 25.0, 19.0, 28.0, 12.0, 4.0, 13.0, 3.0, 6.0, 0.0, 1.0, 4.0, 6.0, 0.0, 0.0, 2.0], "bins": [-0.012637035921216011, -0.012220795266330242, -0.011804554611444473, -0.01138831302523613, -0.010972072370350361, -0.010555831715464592, -0.010139590129256248, -0.00972334947437048, -0.00930710881948471, -0.008890868164598942, -0.008474627509713173, -0.00805838592350483, -0.0076421452686190605, -0.007225904613733292, -0.006809663493186235, -0.006393422372639179, -0.00597718171775341, -0.0055609410628676414, -0.005144699942320585, -0.004728458821773529, -0.00431221816688776, -0.0038959772791713476, -0.003479736391454935, -0.0030634955037385225, -0.00264725461602211, -0.0022310137283056974, -0.001814772840589285, -0.0013985319528728724, -0.0009822910651564598, -0.0005660501774400473, -0.00014980928972363472, 0.0002664315979927778, 0.0006826724857091904, 0.001098913373425603, 0.0015151542611420155, 0.001931395148858428, 0.0023476360365748405, 0.002763876924291253, 0.0031801178120076656, 0.003596358699724078, 0.004012599587440491, 0.00442884024232626, 0.004845081362873316, 0.005261322483420372, 0.005677563138306141, 0.00609380379319191, 0.006510044913738966, 0.006926286034286022, 0.007342526689171791, 0.00775876734405756, 0.008175007998943329, 0.008591249585151672, 0.009007490240037441, 0.00942373089492321, 0.009839972481131554, 0.010256213136017323, 0.010672453790903091, 0.01108869444578886, 0.01150493510067463, 0.011921176686882973, 0.012337417341768742, 0.01275365799665451, 0.013169899582862854, 0.013586140237748623, 0.014002380892634392]}, "gradients/embeds.2.bias": {"_type": "histogram", "values": [1.0, 0.0, 1.0, 1.0, 2.0, 0.0, 2.0, 2.0, 3.0, 5.0, 5.0, 5.0, 2.0, 5.0, 7.0, 10.0, 5.0, 10.0, 8.0, 6.0, 11.0, 10.0, 12.0, 8.0, 14.0, 22.0, 22.0, 25.0, 94.0, 24.0, 22.0, 18.0, 9.0, 21.0, 13.0, 16.0, 10.0, 14.0, 10.0, 8.0, 10.0, 7.0, 8.0, 5.0, 3.0, 0.0, 2.0, 6.0, 0.0, 1.0, 1.0, 2.0, 0.0, 1.0, 1.0, 1.0, 0.0, 0.0, 0.0, 0.0, 0.0, 0.0, 0.0, 1.0], "bins": [-0.003983801230788231, -0.003845131490379572, -0.0037064619828015566, -0.0035677922423928976, -0.0034291227348148823, -0.0032904529944062233, -0.003151783486828208, -0.003013113746419549, -0.0028744442388415337, -0.0027357744984328747, -0.0025971047580242157, -0.0024584352504462004, -0.0023197655100375414, -0.002181096002459526, -0.002042426262050867, -0.00190375663805753, -0.0017650870140641928, -0.0016264173900708556, -0.0014877477660775185, -0.0013490781420841813, -0.0012104085180908442, -0.0010717387776821852, -0.000933069153688848, -0.0007943995296955109, -0.0006557299057021737, -0.0005170602817088366, -0.00037839062861166894, -0.00023972099006641656, -0.00010105135152116418, 3.7618287024088204e-05, 0.0001762879255693406, 0.0003149575786665082, 0.00045362720265984535, 0.0005922968266531825, 0.0007309664506465197, 0.0008696361328475177, 0.001008305698633194, 0.001146975439041853, 0.00128564506303519, 0.0014243146870285273, 0.0015629843110218644, 0.0017016539350152016, 0.0018403235590085387, 0.001978993183001876, 0.002117662923410535, 0.00225633243098855, 0.002395002171397209, 0.0025336716789752245, 0.0026723414193838835, 0.0028110111597925425, 0.002949680667370558, 0.0030883504077792168, 0.003227019915357232, 0.003365689655765891, 0.0035043591633439064, 0.0036430289037525654, 0.0037816986441612244, 0.003920368384569883, 0.004059037659317255, 0.004197707399725914, 0.004336377140134573, 0.004475046880543232, 0.004613716155290604, 0.004752385895699263, 0.004891055636107922]}, "gradients/embeds.2.weight": {"_type": "histogram", "values": [2.0, 4.0, 2.0, 1.0, 7.0, 7.0, 8.0, 21.0, 32.0, 35.0, 52.0, 100.0, 116.0, 166.0, 245.0, 348.0, 459.0, 576.0, 861.0, 1112.0, 1514.0, 2044.0, 2620.0, 3717.0, 5097.0, 7401.0, 11515.0, 20866.0, 55596.0, 289942.0, 58415.0, 22989.0, 12891.0, 8034.0, 5258.0, 3597.0, 2522.0, 1710.0, 1192.0, 887.0, 643.0, 430.0, 309.0, 269.0, 167.0, 124.0, 104.0, 77.0, 51.0, 41.0, 27.0, 24.0, 15.0, 13.0, 7.0, 10.0, 3.0, 5.0, 1.0, 0.0, 2.0, 1.0, 2.0, 2.0], "bins": [-0.0082763796672225, -0.007996125146746635, -0.007715870626270771, -0.007435615640133619, -0.007155361119657755, -0.0068751065991818905, -0.006594851613044739, -0.006314597092568874, -0.00603434257209301, -0.0057540880516171455, -0.005473833531141281, -0.005193578545004129, -0.004913324024528265, -0.004633069504052401, -0.004352814517915249, -0.0040725599974393845, -0.00379230547696352, -0.0035120509564876556, -0.0032317962031811476, -0.0029515414498746395, -0.002671286929398775, -0.0023910324089229107, -0.0021107776556164026, -0.0018305230187252164, -0.0015502683818340302, -0.001270013744942844, -0.0009897591080516577, -0.0007095044711604714, -0.0004292498342692852, -0.00014899519737809896, 0.00013125943951308727, 0.0004115140764042735, 0.0006917687132954597, 0.000972023350186646, 0.0012522779870778322, 0.0015325326239690185, 0.0018127872608602047, 0.002093041781336069, 0.002373296534642577, 0.0026535512879490852, 0.0029338058084249496, 0.003214060328900814, 0.003494315082207322, 0.00377456983551383, 0.004054824355989695, 0.004335078876465559, 0.004615333862602711, 0.004895588383078575, 0.0051758429035544395, 0.005456097424030304, 0.005736351944506168, 0.00601660693064332, 0.0062968614511191845, 0.006577115971595049, 0.006857370957732201, 0.007137625478208065, 0.0074178799986839294, 0.007698134519159794, 0.007978389039635658, 0.008258643560111523, 0.008538898080587387, 0.008819153532385826, 0.00909940805286169, 0.009379662573337555, 0.00965991709381342]}, "gradients/embeds.0.bias": {"_type": "histogram", "values": [1.0, 0.0, 0.0, 1.0, 0.0, 1.0, 0.0, 1.0, 0.0, 1.0, 0.0, 0.0, 8.0, 2.0, 3.0, 6.0, 3.0, 9.0, 16.0, 17.0, 15.0, 19.0, 20.0, 35.0, 34.0, 31.0, 35.0, 43.0, 56.0, 63.0, 74.0, 93.0, 56.0, 49.0, 44.0, 48.0, 30.0, 25.0, 29.0, 28.0, 28.0, 19.0, 16.0, 14.0, 9.0, 8.0, 3.0, 6.0, 7.0, 3.0, 3.0, 5.0, 3.0, 1.0, 0.0, 1.0, 1.0, 0.0, 0.0, 0.0, 0.0, 0.0, 0.0, 1.0], "bins": [-0.005228959955275059, -0.0050610508769750595, -0.00489314179867506, -0.004725232720375061, -0.004557323642075062, -0.0043894145637750626, -0.004221505485475063, -0.004053596407175064, -0.003885687328875065, -0.0037177782505750656, -0.0035498691722750664, -0.003381960093975067, -0.003214051015675068, -0.0030461419373750687, -0.0028782328590750694, -0.00271032378077507, -0.002542414702475071, -0.0023745056241750717, -0.0022065965458750725, -0.0020386874675750732, -0.001870778389275074, -0.0017028693109750748, -0.0015349602326750755, -0.0013670511543750763, -0.001199142076075077, -0.0010312329977750778, -0.0008633239194750786, -0.0006954148411750793, -0.0005275057628750801, -0.00035959668457508087, -0.00019168760627508163, -2.3778527975082397e-05, 0.00014413008466362953, 0.00031203916296362877, 0.000479948241263628, 0.0006478573195636272, 0.0008157663978636265, 0.0009836754761636257, 0.001151584554463625, 0.0013194936327636242, 0.0014874027110636234, 0.0016553117893636227, 0.001823220867663622, 0.001991129945963621, 0.0021590390242636204, 0.0023269481025636196, 0.002494857180863619, 0.002662766259163618, 0.0028306753374636173, 0.0029985844157636166, 0.003166493494063616, 0.003334402572363615, 0.0035023116506636143, 0.0036702207289636135, 0.0038381298072636127, 0.004006038885563612, 0.004173947963863611, 0.0043418570421636105, 0.00450976612046361, 0.004677675198763609, 0.004845584277063608, 0.005013493355363607, 0.005181402433663607, 0.005349311511963606, 0.005517220590263605]}, "gradients/embeds.0.weight": {"_type": "histogram", "values": [1.0, 0.0, 0.0, 1.0, 0.0, 0.0, 0.0, 0.0, 1.0, 1.0, 2.0, 1.0, 1.0, 7.0, 1.0, 7.0, 8.0, 11.0, 11.0, 22.0, 34.0, 29.0, 49.0, 62.0, 71.0, 114.0, 145.0, 238.0, 483.0, 1497.0, 17714.0, 576519.0, 180668.0, 6676.0, 897.0, 395.0, 211.0, 137.0, 106.0, 68.0, 57.0, 42.0, 35.0, 22.0, 16.0, 14.0, 12.0, 7.0, 13.0, 7.0, 5.0, 3.0, 3.0, 2.0, 2.0, 0.0, 1.0, 1.0, 1.0, 0.0, 0.0, 0.0, 0.0, 1.0], "bins": [-0.06330934166908264, -0.061320699751377106, -0.05933206155896187, -0.05734341964125633, -0.055354781448841095, -0.05336613953113556, -0.05137749761343002, -0.049388859421014786, -0.04740021750330925, -0.045411575585603714, -0.04342293739318848, -0.04143429547548294, -0.039445653557777405, -0.03745701536536217, -0.03546837344765663, -0.033479735255241394, -0.03149109333753586, -0.02950245328247547, -0.027513813227415085, -0.02552517130970955, -0.023536531254649162, -0.021547891199588776, -0.01955924928188324, -0.017570609226822853, -0.015581969171762466, -0.01359332911670208, -0.011604688130319118, -0.009616047143936157, -0.007627407088875771, -0.005638766568154097, -0.0036501260474324226, -0.0016614855267107487, 0.00032714754343032837, 0.0023157880641520023, 0.004304428584873676, 0.00629306910559535, 0.008281709626317024, 0.010270349681377411, 0.012258990667760372, 0.014247631654143333, 0.01623627170920372, 0.018224911764264107, 0.020213551819324493, 0.02220219373703003, 0.024190833792090416, 0.026179473847150803, 0.02816811576485634, 0.030156755819916725, 0.03214539587497711, 0.03413403779268265, 0.036122675985097885, 0.03811131790280342, 0.04009995609521866, 0.042088598012924194, 0.04407723993062973, 0.04606587812304497, 0.048054520040750504, 0.05004316195845604, 0.05203180015087128, 0.05402044206857681, 0.05600908398628235, 0.057997722178697586, 0.05998636409640312, 0.06197500228881836, 0.0639636442065239]}, "total_best_ep": 13, "total_best_ep_tloss": 0.10201660543680191, "total_best_ep_vloss": 0.4412631392478943, "total_best_ep_AUC": 0.8800046019328117, "total_best_ep_precision": 0.8554216867469879, "total_best_ep_recall": 0.8658536585365854, "total_best_ep_f1": 0.8606060606060606, "_wandb": {"runtime": 169}}