{"num_of_examples": 1440, "train_loss": 0.17455424964427949, "_timestamp": 1716369655.025328, "_runtime": 415.4290659427643, "_step": 734, "num_of_test_examples": 0, "test_loss": 0.004126577377319336, "epoch": 34, "val-auc": 0.916883963494133, "gradients/output.bias": {"_type": "histogram", "values": [1.0, 0.0, 0.0, 0.0, 0.0, 0.0, 0.0, 0.0, 0.0, 0.0, 0.0, 0.0, 0.0, 0.0, 0.0, 0.0, 0.0, 0.0, 0.0, 0.0, 0.0, 0.0, 0.0, 0.0, 0.0, 0.0, 0.0, 0.0, 0.0, 0.0, 0.0, 0.0, 0.0, 0.0, 0.0, 0.0, 0.0, 0.0, 0.0, 0.0, 0.0, 0.0, 0.0, 0.0, 0.0, 0.0, 0.0, 0.0, 0.0, 0.0, 0.0, 0.0, 0.0, 0.0, 0.0, 0.0, 0.0, 0.0, 0.0, 0.0, 0.0, 0.0, 0.0, 1.0], "bins": [-0.0010433763964101672, -0.0010107709094882011, -0.0009781653061509132, -0.0009455598192289472, -0.0009129542740993202, -0.0008803487871773541, -0.0008477432420477271, -0.0008151376969181001, -0.0007825321517884731, -0.000749926664866507, -0.0007173211197368801, -0.0006847155746072531, -0.000652110087685287, -0.00061950454255566, -0.000586898997426033, -0.0005542935105040669, -0.00052168796537444, -0.000489082420244813, -0.00045647690421901643, -0.0004238713881932199, -0.0003912658430635929, -0.0003586603270377964, -0.00032605481101199985, -0.00029344926588237286, -0.0002608437498565763, -0.00022823821927886456, -0.0001956326887011528, -0.00016302717267535627, -0.0001304216420976445, -9.781611151993275e-05, -6.52105882181786e-05, -3.2605061278445646e-05, 4.656612873077393e-10, 3.260599260102026e-05, 6.521151954075322e-05, 9.781704284250736e-05, 0.00013042257342021912, 0.00016302810399793088, 0.00019563362002372742, 0.00022823915060143918, 0.00026084468117915094, 0.00029345019720494747, 0.00032605574233457446, 0.000358661258360371, 0.0003912667743861675, 0.0004238723195157945, 0.00045647783554159105, 0.0004890833515673876, 0.0005216888966970146, 0.0005542944418266416, 0.0005868999287486076, 0.0006195054738782346, 0.0006521110190078616, 0.0006847165059298277, 0.0007173220510594547, 0.0007499275961890817, 0.0007825330831110477, 0.0008151386282406747, 0.0008477441733703017, 0.0008803497184999287, 0.0009129552054218948, 0.0009455607505515218, 0.0009781662374734879, 0.0010107718408107758, 0.0010433773277327418]}, "gradients/output.weight": {"_type": "histogram", "values": [1.0, 0.0, 0.0, 0.0, 0.0, 0.0, 1.0, 2.0, 2.0, 2.0, 2.0, 2.0, 3.0, 3.0, 3.0, 9.0, 5.0, 6.0, 8.0, 4.0, 5.0, 2.0, 7.0, 11.0, 6.0, 4.0, 4.0, 5.0, 17.0, 19.0, 26.0, 19.0, 175.0, 26.0, 19.0, 17.0, 5.0, 4.0, 4.0, 6.0, 11.0, 7.0, 2.0, 5.0, 4.0, 8.0, 6.0, 5.0, 9.0, 3.0, 3.0, 3.0, 2.0, 2.0, 2.0, 2.0, 2.0, 1.0, 0.0, 0.0, 0.0, 0.0, 0.0, 1.0], "bins": [-0.0029903508257120848, -0.002896902384236455, -0.002803453942760825, -0.0027100055012851954, -0.0026165570598095655, -0.0025231086183339357, -0.002429660176858306, -0.002336211735382676, -0.0022427632939070463, -0.0021493148524314165, -0.0020558664109557867, -0.001962417969480157, -0.001868969528004527, -0.0017755210865288973, -0.0016820726450532675, -0.0015886242035776377, -0.0014951757621020079, -0.001401727320626378, -0.0013082788791507483, -0.0012148304376751184, -0.0011213819961994886, -0.0010279335547238588, -0.000934485113248229, -0.0008410366717725992, -0.0007475882302969694, -0.0006541397888213396, -0.0005606913473457098, -0.00046724290587008, -0.0003737944643944502, -0.0002803460229188204, -0.00018689758144319057, -9.344913996756077e-05, -4.656612873077393e-10, 9.34479758143425e-05, 0.0001868964172899723, 0.0002803448587656021, 0.0003737933002412319, 0.0004672417417168617, 0.0005606901831924915, 0.0006541386246681213, 0.0007475870661437511, 0.000841035507619381, 0.0009344839490950108, 0.0010279323905706406, 0.0011213808320462704, 0.0012148292735219002, 0.00130827771499753, 0.0014017261564731598, 0.0014951745979487896, 0.0015886230394244194, 0.0016820714809000492, 0.001775519922375679, 0.0018689683638513088, 0.0019624168053269386, 0.0020558652468025684, 0.0021493136882781982, 0.002242762129753828, 0.002336210571229458, 0.0024296590127050877, 0.0025231074541807175, 0.0026165558956563473, 0.002710004337131977, 0.002803452778607607, 0.0028969012200832367, 0.0029903496615588665]}, "gradients/linearlayers.4.0.bias": {"_type": "histogram", "values": [2.0, 0.0, 2.0, 2.0, 0.0, 1.0, 1.0, 3.0, 2.0, 0.0, 2.0, 0.0, 2.0, 0.0, 4.0, 1.0, 3.0, 2.0, 2.0, 2.0, 1.0, 1.0, 6.0, 6.0, 4.0, 5.0, 8.0, 6.0, 2.0, 4.0, 0.0, 0.0, 2.0, 89.0, 2.0, 2.0, 4.0, 3.0, 3.0, 4.0, 6.0, 4.0, 9.0, 3.0, 7.0, 4.0, 6.0, 4.0, 3.0, 4.0, 3.0, 3.0, 3.0, 2.0, 2.0, 1.0, 4.0, 0.0, 2.0, 1.0, 0.0, 0.0, 1.0, 1.0], "bins": [-0.00014019658556208014, -0.00013605007552541792, -0.0001319035654887557, -0.0001277570700040087, -0.0001236105599673465, -0.00011946404993068427, -0.00011531754716997966, -0.00011117104440927505, -0.00010702453437261283, -0.00010287802433595061, -9.8731521575246e-05, -9.45850188145414e-05, -9.043850877787918e-05, -8.629199874121696e-05, -8.214549598051235e-05, -7.799899321980774e-05, -7.385248318314552e-05, -6.97059731464833e-05, -6.55594703857787e-05, -6.141296762507409e-05, -5.726645758841187e-05, -5.3119951189728454e-05, -4.897344479104504e-05, -4.4826938392361626e-05, -4.068043199367821e-05, -3.65339255949948e-05, -3.2387419196311384e-05, -2.824091279762797e-05, -2.4094406398944557e-05, -1.9947900000261143e-05, -1.580139360157773e-05, -1.1654887202894315e-05, -7.50839535612613e-06, -3.3618889574427158e-06, 7.846174412406981e-07, 4.931123839924112e-06, 9.077630238607526e-06, 1.322413663729094e-05, 1.7370643035974354e-05, 2.1517149434657767e-05, 2.566365583334118e-05, 2.9810162232024595e-05, 3.395666863070801e-05, 3.810317502939142e-05, 4.224968142807484e-05, 4.639618782675825e-05, 5.0542694225441664e-05, 5.468920062412508e-05, 5.883570702280849e-05, 6.298221705947071e-05, 6.712871982017532e-05, 7.127522258087993e-05, 7.542173261754215e-05, 7.956824265420437e-05, 8.371474541490898e-05, 8.786124817561358e-05, 9.20077582122758e-05, 9.615426824893802e-05, 0.00010030077100964263, 0.00010444727377034724, 0.00010859378380700946, 0.00011274029384367168, 0.00011688679660437629, 0.00012103329936508089, 0.00012517980940174311]}, "gradients/linearlayers.4.0.weight": {"_type": "histogram", "values": [2.0, 0.0, 4.0, 2.0, 2.0, 3.0, 4.0, 7.0, 9.0, 12.0, 15.0, 21.0, 26.0, 26.0, 34.0, 46.0, 60.0, 58.0, 78.0, 86.0, 117.0, 158.0, 155.0, 212.0, 269.0, 366.0, 523.0, 641.0, 897.0, 1172.0, 1532.0, 2125.0, 2687.0, 38846.0, 3474.0, 3093.0, 2406.0, 1721.0, 1265.0, 886.0, 626.0, 452.0, 360.0, 247.0, 187.0, 165.0, 108.0, 78.0, 62.0, 62.0, 48.0, 24.0, 18.0, 17.0, 14.0, 9.0, 6.0, 5.0, 3.0, 1.0, 1.0, 0.0, 2.0, 1.0], "bins": [-0.000385770748835057, -0.00037435791455209255, -0.0003629450802691281, -0.0003515322459861636, -0.00034011941170319915, -0.0003287065483164042, -0.00031729371403343976, -0.0003058808797504753, -0.0002944680454675108, -0.00028305521118454635, -0.0002716423769015819, -0.0002602295426186174, -0.0002488166792318225, -0.00023740385950077325, -0.00022599101066589355, -0.0002145781763829291, -0.00020316534209996462, -0.00019175250781700015, -0.00018033967353403568, -0.00016892682469915599, -0.00015751399041619152, -0.00014610115613322705, -0.00013468830729834735, -0.00012327547301538289, -0.00011186263873241842, -0.00010044980444945395, -8.903696289053187e-05, -7.762412133160979e-05, -6.621128704864532e-05, -5.479844912770204e-05, -4.338561120675877e-05, -3.197277328581549e-05, -2.0559935364872217e-05, -9.147097443928942e-06, 2.265740477014333e-06, 1.3678578397957608e-05, 2.5091416318900883e-05, 3.650425423984416e-05, 4.791709216078743e-05, 5.932993008173071e-05, 7.074276800267398e-05, 8.215560228563845e-05, 9.356844384456053e-05, 0.00010498128540348262, 0.00011639411968644708, 0.00012780695396941155, 0.00013921980280429125, 0.00015063263708725572, 0.00016204547137022018, 0.00017345830565318465, 0.00018487113993614912, 0.00019628398877102882, 0.00020769682305399328, 0.00021910965733695775, 0.00023052250617183745, 0.00024193534045480192, 0.0002533481747377664, 0.00026476100902073085, 0.0002761738433036953, 0.0002875866775866598, 0.0002989995409734547, 0.0003104123752564192, 0.00032182520953938365, 0.0003332380438223481, 0.0003446508781053126]}, "gradients/linearlayers.3.0.bias": {"_type": "histogram", "values": [1.0, 0.0, 0.0, 1.0, 0.0, 1.0, 0.0, 2.0, 1.0, 0.0, 1.0, 2.0, 6.0, 2.0, 4.0, 2.0, 7.0, 4.0, 5.0, 4.0, 6.0, 6.0, 5.0, 2.0, 4.0, 4.0, 3.0, 1.0, 1.0, 5.0, 3.0, 4.0, 1.0, 0.0, 88.0, 1.0, 2.0, 1.0, 2.0, 1.0, 4.0, 2.0, 3.0, 3.0, 1.0, 3.0, 5.0, 3.0, 4.0, 6.0, 6.0, 4.0, 2.0, 6.0, 4.0, 2.0, 3.0, 0.0, 4.0, 2.0, 3.0, 1.0, 1.0, 1.0], "bins": [-0.00023176618560682982, -0.00022512646683026105, -0.00021848673350177705, -0.00021184701472520828, -0.0002052072959486395, -0.0001985675626201555, -0.00019192784384358674, -0.00018528812506701797, -0.00017864839173853397, -0.0001720086729619652, -0.00016536895418539643, -0.00015872923540882766, -0.00015208950208034366, -0.0001454497833037749, -0.00013881006452720612, -0.00013217033119872212, -0.00012553061242215335, -0.00011889088636962697, -0.0001122511675930582, -0.00010561144154053181, -9.897172276396304e-05, -9.233199671143666e-05, -8.569227065891027e-05, -7.90525518823415e-05, -7.241282582981512e-05, -6.577309977728873e-05, -5.9133381000719965e-05, -5.249365494819358e-05, -4.5853932533646e-05, -3.9214210119098425e-05, -3.257448406657204e-05, -2.5934761652024463e-05, -1.9295024685561657e-05, -1.2655301361519378e-05, -6.015578037477098e-06, 6.241452865651809e-07, 7.26386861060746e-06, 1.390359193464974e-05, 2.054331525869202e-05, 2.7183039492229e-05, 3.382276190677658e-05, 4.0462484321324155e-05, 4.710220673587173e-05, 5.374193278839812e-05, 6.0381655202945694e-05, 6.702137761749327e-05, 7.366110367001966e-05, 8.030082244658843e-05, 8.694054849911481e-05, 9.35802745516412e-05, 0.00010021999332820997, 0.00010685971938073635, 0.00011349943815730512, 0.0001201391642098315, 0.0001267788902623579, 0.00013341860903892666, 0.00014005834236741066, 0.00014669806114397943, 0.0001533377799205482, 0.00015997749869711697, 0.00016661723202560097, 0.00017325695080216974, 0.0001798966695787385, 0.0001865364029072225, 0.00019317612168379128]}, "gradients/linearlayers.3.0.weight": {"_type": "histogram", "values": [4.0, 0.0, 3.0, 4.0, 3.0, 7.0, 5.0, 9.0, 7.0, 12.0, 10.0, 16.0, 29.0, 36.0, 43.0, 49.0, 71.0, 73.0, 91.0, 109.0, 114.0, 173.0, 223.0, 219.0, 305.0, 373.0, 482.0, 583.0, 786.0, 1110.0, 1398.0, 1808.0, 2191.0, 2602.0, 39553.0, 2275.0, 2215.0, 1822.0, 1516.0, 1147.0, 861.0, 674.0, 500.0, 391.0, 283.0, 261.0, 193.0, 157.0, 149.0, 118.0, 103.0, 65.0, 59.0, 56.0, 43.0, 28.0, 29.0, 16.0, 27.0, 16.0, 12.0, 10.0, 5.0, 4.0], "bins": [-0.0006036798004060984, -0.0005863294936716557, -0.0005689791869372129, -0.0005516288802027702, -0.0005342785734683275, -0.0005169282085262239, -0.0004995779017917812, -0.0004822275950573385, -0.00046487728832289577, -0.00044752698158845305, -0.00043017667485401034, -0.0004128263390157372, -0.00039547603228129447, -0.00037812572554685175, -0.0003607753897085786, -0.0003434250829741359, -0.00032607477623969316, -0.00030872446950525045, -0.00029137416277080774, -0.0002740238269325346, -0.00025667352019809186, -0.00023932321346364915, -0.00022197289217729121, -0.00020462257089093328, -0.00018727226415649056, -0.00016992195742204785, -0.00015257163613568991, -0.00013522131484933197, -0.00011787100811488926, -0.00010052069410448894, -8.317038009408861e-05, -6.582006608368829e-05, -4.846981028094888e-05, -3.111949627054855e-05, -1.3769182260148227e-05, 3.581131750252098e-06, 2.0931445760652423e-05, 3.828175977105275e-05, 5.563207378145307e-05, 7.29823877918534e-05, 9.033270180225372e-05, 0.00010768301581265405, 0.00012503332982305437, 0.0001423836511094123, 0.00015973395784385502, 0.00017708426457829773, 0.00019443458586465567, 0.0002117849071510136, 0.00022913521388545632, 0.00024648552061989903, 0.00026383582735434175, 0.0002811861631926149, 0.0002985364699270576, 0.00031588677666150033, 0.0003332371124997735, 0.0003505874192342162, 0.0003679377259686589, 0.00038528803270310163, 0.00040263833943754435, 0.0004199886752758175, 0.0004373389820102602, 0.00045468928874470294, 0.0004720396245829761, 0.0004893899313174188, 0.0005067402380518615]}, "gradients/linearlayers.2.0.bias": {"_type": "histogram", "values": [1.0, 0.0, 0.0, 0.0, 0.0, 0.0, 0.0, 1.0, 0.0, 0.0, 4.0, 0.0, 1.0, 2.0, 1.0, 5.0, 1.0, 6.0, 6.0, 3.0, 4.0, 5.0, 4.0, 8.0, 4.0, 8.0, 3.0, 5.0, 2.0, 2.0, 3.0, 0.0, 89.0, 2.0, 2.0, 4.0, 5.0, 3.0, 3.0, 1.0, 6.0, 6.0, 5.0, 4.0, 12.0, 2.0, 5.0, 2.0, 4.0, 3.0, 1.0, 5.0, 4.0, 2.0, 0.0, 2.0, 1.0, 1.0, 2.0, 0.0, 0.0, 0.0, 0.0, 1.0], "bins": [-0.00044084672117605805, -0.00042721061618067324, -0.0004135745402891189, -0.0003999384352937341, -0.00038630233029834926, -0.0003726662544067949, -0.0003590301494114101, -0.0003453940444160253, -0.00033175793942064047, -0.0003181218635290861, -0.0003044857585337013, -0.0002908496535383165, -0.00027721357764676213, -0.0002635774726513773, -0.0002499413676559925, -0.00023630527721252292, -0.00022266918676905334, -0.00020903309632558376, -0.00019539699133019894, -0.00018176090088672936, -0.00016812479589134455, -0.00015448870544787496, -0.00014085261500440538, -0.00012721651000902057, -0.00011358041956555098, -9.994432184612378e-05, -8.630822412669659e-05, -7.2672133683227e-05, -5.9036035963799804e-05, -4.5399938244372606e-05, -3.1763844162924215e-05, -1.812774826248642e-05, -4.491623258218169e-06, 9.144472642219625e-06, 2.278056854265742e-05, 3.641666262410581e-05, 5.005276034353301e-05, 6.368885806296021e-05, 7.732494850642979e-05, 9.096104622585699e-05, 0.00010459714394528419, 0.00011823324166471139, 0.00013186933938413858, 0.00014550542982760817, 0.00015914152027107775, 0.00017277762526646256, 0.00018641371570993215, 0.00020004982070531696, 0.00021368591114878654, 0.00022732200159225613, 0.00024095810658764094, 0.0002545941970311105, 0.00026823030202649534, 0.0002818663779180497, 0.0002955024829134345, 0.0003091385879088193, 0.00032277469290420413, 0.0003364107687957585, 0.0003500468737911433, 0.0003636829787865281, 0.00037731905467808247, 0.0003909551596734673, 0.0004045912646688521, 0.00041822734056040645, 0.00043186344555579126]}, "gradients/linearlayers.2.0.weight": {"_type": "histogram", "values": [1.0, 0.0, 0.0, 0.0, 0.0, 0.0, 1.0, 1.0, 0.0, 0.0, 4.0, 2.0, 3.0, 5.0, 7.0, 11.0, 7.0, 16.0, 28.0, 41.0, 47.0, 71.0, 126.0, 199.0, 264.0, 382.0, 556.0, 818.0, 1250.0, 1759.0, 2740.0, 4341.0, 40999.0, 3679.0, 2376.0, 1625.0, 1166.0, 907.0, 595.0, 432.0, 303.0, 218.0, 171.0, 120.0, 92.0, 51.0, 37.0, 26.0, 16.0, 7.0, 11.0, 7.0, 8.0, 2.0, 1.0, 1.0, 1.0, 2.0, 2.0, 0.0, 0.0, 0.0, 0.0, 1.0], "bins": [-0.001523536746390164, -0.0014763460494577885, -0.0014291552361100912, -0.0013819645391777158, -0.0013347737258300185, -0.001287583028897643, -0.0012403922155499458, -0.0011932015186175704, -0.001146010821685195, -0.0010988200083374977, -0.0010516293114051223, -0.001004438498057425, -0.0009572478011250496, -0.0009100570459850132, -0.0008628662908449769, -0.0008156755357049406, -0.0007684847805649042, -0.0007212940254248679, -0.0006741032702848315, -0.0006269125151447952, -0.0005797217600047588, -0.0005325310630723834, -0.00048534030793234706, -0.0004381495527923107, -0.00039095879765227437, -0.000343768042512238, -0.0002965772873722017, -0.0002493865613359958, -0.00020219580619595945, -0.0001550050510559231, -0.00010781431046780199, -6.062356260372326e-05, -1.34326983243227e-05, 3.375804953975603e-05, 8.094879740383476e-05, 0.00012813953799195588, 0.00017533029313199222, 0.00022252104827202857, 0.00026971177430823445, 0.0003169025294482708, 0.00036409328458830714, 0.0004112840397283435, 0.00045847479486837983, 0.0005056655500084162, 0.0005528562469407916, 0.000600047002080828, 0.0006472377572208643, 0.0006944285123609006, 0.000741619267500937, 0.0007888100226409733, 0.0008360007777810097, 0.000883191532921046, 0.0009303822880610824, 0.0009775729849934578, 0.001024763798341155, 0.0010719544952735305, 0.001119145192205906, 0.0011663360055536032, 0.0012135267024859786, 0.0012607175158336759, 0.0013079082127660513, 0.0013550990261137486, 0.001402289723046124, 0.0014494805363938212, 0.0014966712333261967]}, "gradients/linearlayers.1.0.bias": {"_type": "histogram", "values": [1.0, 0.0, 0.0, 0.0, 0.0, 0.0, 0.0, 2.0, 2.0, 1.0, 1.0, 1.0, 5.0, 3.0, 1.0, 2.0, 4.0, 2.0, 4.0, 4.0, 4.0, 4.0, 1.0, 4.0, 4.0, 3.0, 1.0, 5.0, 5.0, 5.0, 0.0, 5.0, 1.0, 2.0, 82.0, 3.0, 7.0, 7.0, 2.0, 9.0, 4.0, 9.0, 2.0, 3.0, 4.0, 3.0, 2.0, 6.0, 3.0, 4.0, 8.0, 1.0, 2.0, 2.0, 4.0, 1.0, 3.0, 0.0, 2.0, 1.0, 1.0, 1.0, 2.0, 1.0], "bins": [-0.000651276670396328, -0.0006325577851384878, -0.0006138388998806477, -0.0005951200146228075, -0.0005764011293649673, -0.0005576822441071272, -0.000538963358849287, -0.0005202444735914469, -0.0005015255883336067, -0.00048280670307576656, -0.0004640878178179264, -0.00044536893256008625, -0.0004266500473022461, -0.00040793116204440594, -0.0003892122767865658, -0.0003704933915287256, -0.00035177450627088547, -0.0003330556210130453, -0.00031433673575520515, -0.000295617850497365, -0.00027689896523952484, -0.0002581800799816847, -0.00023946119472384453, -0.00022074230946600437, -0.00020202342420816422, -0.00018330453895032406, -0.0001645856536924839, -0.00014586676843464375, -0.0001271478831768036, -0.00010842899791896343, -8.971011266112328e-05, -7.099122740328312e-05, -5.227228393778205e-05, -3.355339867994189e-05, -1.4834513422101736e-05, 3.8843718357384205e-06, 2.2603257093578577e-05, 4.1322142351418734e-05, 6.004102760925889e-05, 7.875991286709905e-05, 9.74787981249392e-05, 0.00011619768338277936, 0.00013491656864061952, 0.00015363545389845967, 0.00017235433915629983, 0.00019107322441413999, 0.00020979210967198014, 0.0002285109949298203, 0.00024722988018766046, 0.0002659487654455006, 0.00028466765070334077, 0.0003033865359611809, 0.0003221054212190211, 0.00034082430647686124, 0.0003595431917347014, 0.00037826207699254155, 0.0003969809622503817, 0.00041569984750822186, 0.000434418732766062, 0.0004531376180239022, 0.00047185650328174233, 0.0004905753885395825, 0.0005092942737974226, 0.0005280131590552628, 0.000546732044313103]}, "gradients/linearlayers.1.0.weight": {"_type": "histogram", "values": [1.0, 0.0, 0.0, 0.0, 0.0, 0.0, 0.0, 2.0, 2.0, 4.0, 3.0, 6.0, 5.0, 3.0, 4.0, 14.0, 24.0, 23.0, 37.0, 62.0, 53.0, 67.0, 87.0, 114.0, 148.0, 221.0, 250.0, 353.0, 542.0, 772.0, 1101.0, 1503.0, 2056.0, 3205.0, 40256.0, 5564.0, 2823.0, 1910.0, 1286.0, 875.0, 608.0, 401.0, 270.0, 217.0, 162.0, 126.0, 91.0, 62.0, 57.0, 39.0, 34.0, 24.0, 21.0, 17.0, 13.0, 6.0, 4.0, 0.0, 2.0, 1.0, 2.0, 1.0, 1.0, 1.0], "bins": [-0.0022114678286015987, -0.002147720195353031, -0.0020839725621044636, -0.0020202246960252523, -0.0019564770627766848, -0.0018927294295281172, -0.0018289816798642278, -0.0017652339302003384, -0.0017014862969517708, -0.0016377386637032032, -0.0015739909140393138, -0.0015102431643754244, -0.0014464955311268568, -0.0013827478978782892, -0.0013190001482143998, -0.0012552523985505104, -0.0011915047653019428, -0.0011277571320533752, -0.0010640093823894858, -0.0010002616327255964, -0.0009365139994770288, -0.0008727663080208004, -0.0008090186165645719, -0.0007452709251083434, -0.0006815232336521149, -0.0006177755421958864, -0.0005540278507396579, -0.0004902801592834294, -0.0004265324678272009, -0.0003627847763709724, -0.0002990370849147439, -0.0002352893934585154, -0.00017154158558696508, -0.00010779389413073659, -4.4046202674508095e-05, 1.97014887817204e-05, 8.34491802379489e-05, 0.0001471968716941774, 0.00021094456315040588, 0.0002746922546066344, 0.0003384399460628629, 0.00040218763751909137, 0.00046593532897531986, 0.0005296830204315484, 0.0005934307118877769, 0.0006571784033440053, 0.0007209260948002338, 0.0007846737862564623, 0.0008484214777126908, 0.0009121691691689193, 0.0009759168606251478, 0.0010396644938737154, 0.0011034122435376048, 0.0011671599932014942, 0.0012309076264500618, 0.0012946552596986294, 0.0013584030093625188, 0.0014221507590264082, 0.0014858983922749758, 0.0015496460255235434, 0.0016133937751874328, 0.0016771415248513222, 0.0017408891580998898, 0.0018046367913484573, 0.0018683845410123467]}, "gradients/linearlayers.0.0.bias": {"_type": "histogram", "values": [2.0, 0.0, 3.0, 0.0, 0.0, 0.0, 2.0, 2.0, 4.0, 3.0, 3.0, 3.0, 4.0, 2.0, 2.0, 2.0, 2.0, 3.0, 2.0, 6.0, 6.0, 3.0, 1.0, 3.0, 4.0, 1.0, 3.0, 6.0, 5.0, 3.0, 3.0, 61.0, 8.0, 5.0, 4.0, 5.0, 12.0, 3.0, 7.0, 6.0, 8.0, 4.0, 4.0, 2.0, 6.0, 6.0, 5.0, 2.0, 4.0, 4.0, 1.0, 2.0, 1.0, 3.0, 2.0, 1.0, 2.0, 1.0, 0.0, 2.0, 0.0, 1.0, 0.0, 1.0], "bins": [-0.000775913882534951, -0.0007511266740038991, -0.0007263394654728472, -0.0007015522569417953, -0.0006767650484107435, -0.0006519778398796916, -0.0006271906313486397, -0.0006024034228175879, -0.000577616214286536, -0.0005528290057554841, -0.0005280417972244322, -0.0005032545886933804, -0.0004784673801623285, -0.0004536801716312766, -0.00042889296310022473, -0.00040410575456917286, -0.000379318546038121, -0.0003545313375070691, -0.00032974412897601724, -0.00030495692044496536, -0.0002801697119139135, -0.0002553825033828616, -0.00023059529485180974, -0.00020580808632075787, -0.000181020877789706, -0.00015623366925865412, -0.00013144646072760224, -0.00010665925219655037, -8.18720436654985e-05, -5.708483513444662e-05, -3.229762660339475e-05, -7.510418072342873e-06, 1.7276848666369915e-05, 4.206405719742179e-05, 6.685126572847366e-05, 9.163847425952554e-05, 0.00011642568279057741, 0.00014121289132162929, 0.00016600009985268116, 0.00019078730838373303, 0.0002155745169147849, 0.00024036172544583678, 0.00026514893397688866, 0.00028993614250794053, 0.0003147233510389924, 0.0003395105595700443, 0.00036429776810109615, 0.00038908497663214803, 0.0004138721851631999, 0.0004386593936942518, 0.00046344660222530365, 0.0004882338107563555, 0.0005130210192874074, 0.0005378082278184593, 0.0005625954363495111, 0.000587382644880563, 0.0006121698534116149, 0.0006369570619426668, 0.0006617442704737186, 0.0006865314790047705, 0.0007113186875358224, 0.0007361058960668743, 0.0007608931045979261, 0.000785680313128978, 0.0008104675216600299]}, "gradients/linearlayers.0.0.weight": {"_type": "histogram", "values": [2.0, 1.0, 2.0, 0.0, 0.0, 0.0, 2.0, 2.0, 7.0, 5.0, 8.0, 3.0, 9.0, 20.0, 22.0, 28.0, 38.0, 57.0, 68.0, 109.0, 156.0, 178.0, 227.0, 314.0, 431.0, 587.0, 816.0, 1150.0, 1513.0, 2410.0, 5099.0, 39365.0, 4563.0, 2700.0, 1764.0, 1136.0, 814.0, 512.0, 391.0, 298.0, 185.0, 160.0, 90.0, 82.0, 55.0, 43.0, 29.0, 24.0, 18.0, 12.0, 6.0, 7.0, 4.0, 2.0, 3.0, 2.0, 2.0, 1.0, 0.0, 2.0, 1.0, 0.0, 0.0, 1.0], "bins": [-0.0025951212737709284, -0.0025120896752923727, -0.002429058076813817, -0.0023460264783352613, -0.0022629948798567057, -0.00217996328137815, -0.0020969316828995943, -0.0020139000844210386, -0.0019308683695271611, -0.0018478367710486054, -0.0017648051725700498, -0.001681773574091494, -0.0015987418591976166, -0.001515710260719061, -0.0014326786622405052, -0.0013496470637619495, -0.0012666154652833939, -0.0011835838668048382, -0.0011005522683262825, -0.0010175206698477268, -0.0009344890131615102, -0.0008514574146829545, -0.000768425757996738, -0.0006853941595181823, -0.0006023625610396266, -0.0005193309625610709, -0.0004362993349786848, -0.00035326770739629865, -0.00027023610891774297, -0.00018720449588727206, -0.00010417288285680115, -2.1141269826330245e-05, 6.189057603478432e-05, 0.00014492218906525522, 0.00022795380209572613, 0.00031098542967811227, 0.00039401702815666795, 0.0004770486266352236, 0.0005600802833214402, 0.0006431118817999959, 0.0007261434802785516, 0.0008091750787571073, 0.0008922066772356629, 0.0009752383339218795, 0.0010582699906080961, 0.0011413015890866518, 0.0012243331875652075, 0.0013073647860437632, 0.0013903963845223188, 0.0014734279830008745, 0.0015564595814794302, 0.0016394911799579859, 0.0017225227784365416, 0.001805554493330419, 0.0018885860918089747, 0.0019716175738722086, 0.002054649405181408, 0.0021376810036599636, 0.0022207126021385193, 0.002303744200617075, 0.0023867757990956306, 0.0024698073975741863, 0.002552838996052742, 0.0026358705945312977, 0.0027189021930098534]}, "gradients/embeds.2.bias": {"_type": "histogram", "values": [1.0, 0.0, 0.0, 0.0, 0.0, 0.0, 1.0, 1.0, 1.0, 0.0, 0.0, 0.0, 0.0, 2.0, 0.0, 1.0, 0.0, 4.0, 5.0, 1.0, 1.0, 4.0, 7.0, 4.0, 5.0, 4.0, 2.0, 1.0, 3.0, 3.0, 4.0, 1.0, 4.0, 4.0, 7.0, 12.0, 50.0, 8.0, 12.0, 8.0, 9.0, 12.0, 4.0, 3.0, 6.0, 6.0, 6.0, 2.0, 9.0, 4.0, 2.0, 3.0, 9.0, 3.0, 2.0, 2.0, 4.0, 1.0, 3.0, 1.0, 1.0, 0.0, 1.0, 2.0], "bins": [-0.0013771943049505353, -0.001339481445029378, -0.0013017685851082206, -0.0012640557251870632, -0.0012263428652659059, -0.0011886300053447485, -0.0011509171454235911, -0.0011132042855024338, -0.0010754913091659546, -0.0010377784492447972, -0.0010000655893236399, -0.0009623527876101434, -0.0009246398694813251, -0.0008869270095601678, -0.0008492141496390104, -0.0008115012897178531, -0.0007737884297966957, -0.0007360755698755383, -0.000698362709954381, -0.0006606498500332236, -0.0006229369901120663, -0.000585224071983248, -0.0005475112120620906, -0.0005097983521409333, -0.0004720854922197759, -0.00043437263229861856, -0.0003966597723774612, -0.0003589468833524734, -0.000321234023431316, -0.00028352116351015866, -0.00024580827448517084, -0.00020809541456401348, -0.0001703824382275343, -0.00013266957830637693, -9.495670383330435e-05, -5.724383663618937e-05, -1.9530969439074397e-05, 1.8181897758040577e-05, 5.589476495515555e-05, 9.360763215227053e-05, 0.0001313204993493855, 0.00016903335927054286, 0.00020674623374361545, 0.00024445910821668804, 0.0002821719681378454, 0.00031988482805900276, 0.0003575977170839906, 0.00039531057700514793, 0.0004330234369263053, 0.00047073629684746265, 0.00050844915676862, 0.0005461620166897774, 0.0005838748766109347, 0.000621587794739753, 0.0006593006546609104, 0.0006970135145820677, 0.0007347263745032251, 0.0007724392344243824, 0.0008101520943455398, 0.0008478649542666972, 0.0008855778723955154, 0.0009232907323166728, 0.0009610035922378302, 0.0009987164521589875, 0.0010364293120801449]}, "gradients/embeds.2.weight": {"_type": "histogram", "values": [1.0, 0.0, 0.0, 0.0, 2.0, 3.0, 2.0, 3.0, 4.0, 3.0, 9.0, 6.0, 13.0, 11.0, 11.0, 14.0, 26.0, 31.0, 29.0, 48.0, 74.0, 104.0, 106.0, 163.0, 201.0, 225.0, 425.0, 440.0, 610.0, 827.0, 1102.0, 1415.0, 1913.0, 2583.0, 4061.0, 9033.0, 76521.0, 11577.0, 5997.0, 3680.0, 2576.0, 1816.0, 1384.0, 1019.0, 781.0, 575.0, 411.0, 331.0, 241.0, 172.0, 138.0, 102.0, 67.0, 57.0, 35.0, 33.0, 18.0, 15.0, 9.0, 10.0, 5.0, 1.0, 1.0, 2.0], "bins": [-0.002786917146295309, -0.0027103363536298275, -0.002633755560964346, -0.0025571747682988644, -0.002480593975633383, -0.0024040131829679012, -0.0023274323903024197, -0.002250851597636938, -0.0021742708049714565, -0.002097690012305975, -0.0020211092196404934, -0.0019445284269750118, -0.0018679476343095303, -0.0017913668416440487, -0.0017147860489785671, -0.0016382052563130856, -0.001561624463647604, -0.0014850436709821224, -0.0014084628783166409, -0.0013318820856511593, -0.0012553012929856777, -0.0011787205003201962, -0.0011021397076547146, -0.001025558914989233, -0.0009489781223237514, -0.0008723973296582699, -0.0007958165369927883, -0.0007192357443273067, -0.0006426549516618252, -0.0005660741589963436, -0.000489493366330862, -0.0004129125736653805, -0.0003363317809998989, -0.00025975098833441734, -0.00018317019566893578, -0.00010658940300345421, -3.000861033797264e-05, 4.6572182327508926e-05, 0.0001231529749929905, 0.00019973376765847206, 0.00027631456032395363, 0.0003528953529894352, 0.00042947614565491676, 0.0005060569383203983, 0.0005826377309858799, 0.0006592185236513615, 0.000735799316316843, 0.0008123801089823246, 0.0008889609016478062, 0.0009655416943132877, 0.0010421224869787693, 0.0011187032796442509, 0.0011952840723097324, 0.001271864864975214, 0.0013484456576406956, 0.0014250264503061771, 0.0015016072429716587, 0.0015781880356371403, 0.0016547688283026218, 0.0017313496209681034, 0.001807930413633585, 0.0018845112062990665, 0.001961091998964548, 0.0020376727916300297, 0.0021142535842955112]}, "gradients/embeds.0.bias": {"_type": "histogram", "values": [1.0, 0.0, 1.0, 0.0, 2.0, 2.0, 2.0, 3.0, 4.0, 1.0, 2.0, 6.0, 3.0, 5.0, 10.0, 10.0, 7.0, 7.0, 8.0, 12.0, 9.0, 18.0, 17.0, 23.0, 12.0, 21.0, 28.0, 78.0, 21.0, 24.0, 16.0, 12.0, 13.0, 7.0, 12.0, 7.0, 10.0, 15.0, 15.0, 7.0, 6.0, 11.0, 9.0, 5.0, 4.0, 7.0, 1.0, 1.0, 0.0, 2.0, 2.0, 3.0, 1.0, 1.0, 1.0, 1.0, 2.0, 1.0, 0.0, 0.0, 0.0, 2.0, 0.0, 1.0], "bins": [-0.0009482766035944223, -0.0009140954934991896, -0.0008799143834039569, -0.0008457333315163851, -0.0008115522214211524, -0.0007773711113259196, -0.0007431900012306869, -0.0007090088911354542, -0.0006748278392478824, -0.0006406467291526496, -0.0006064656190574169, -0.0005722845089621842, -0.0005381033988669515, -0.0005039222887717187, -0.00046974120778031647, -0.0004355601267889142, -0.0004013790166936815, -0.00036719790659844875, -0.0003330168256070465, -0.00029883571551181376, -0.0002646546345204115, -0.00023047352442517877, -0.00019629241432994604, -0.00016211131878662854, -0.00012793022324331105, -9.374912769999355e-05, -5.956802488071844e-05, -2.5386925699422136e-05, 8.794173481874168e-06, 4.297527266317047e-05, 7.715637184446678e-05, 0.00011133747466374189, 0.00014551857020705938, 0.00017969966575037688, 0.00021388076129369438, 0.0002480618713889271, 0.00028224295238032937, 0.0003164240624755621, 0.0003506051725707948, 0.0003847862535621971, 0.0004189673636574298, 0.00045314847375266254, 0.0004873295547440648, 0.0005215106648392975, 0.0005556917749345303, 0.000589872885029763, 0.0006240539369173348, 0.0006582350470125675, 0.0006924161571078002, 0.000726597267203033, 0.0007607783772982657, 0.0007949594291858375, 0.0008291405392810702, 0.000863321649376303, 0.0008975027594715357, 0.0009316838695667684, 0.0009658649796620011, 0.001000046031549573, 0.0010342271998524666, 0.0010684082517400384, 0.0011025893036276102, 0.0011367704719305038, 0.0011709515238180757, 0.0012051326921209693, 0.001239313744008541]}, "gradients/embeds.0.weight": {"_type": "histogram", "values": [1.0, 0.0, 1.0, 0.0, 2.0, 2.0, 3.0, 2.0, 4.0, 2.0, 2.0, 5.0, 6.0, 7.0, 12.0, 18.0, 12.0, 17.0, 16.0, 35.0, 32.0, 49.0, 74.0, 128.0, 233.0, 691.0, 6576.0, 277174.0, 102962.0, 3960.0, 574.0, 200.0, 93.0, 63.0, 56.0, 31.0, 26.0, 30.0, 18.0, 18.0, 6.0, 12.0, 13.0, 10.0, 4.0, 10.0, 3.0, 3.0, 0.0, 3.0, 3.0, 3.0, 2.0, 1.0, 0.0, 2.0, 2.0, 0.0, 1.0, 0.0, 0.0, 2.0, 0.0, 1.0], "bins": [-0.013013672083616257, -0.01254743430763483, -0.01208119560033083, -0.011614957824349403, -0.011148720048367977, -0.010682481341063976, -0.01021624356508255, -0.009750005789101124, -0.009283768013119698, -0.008817529305815697, -0.00835129152983427, -0.007885053753852844, -0.007418815046548843, -0.006952577270567417, -0.006486339028924704, -0.006020101252943277, -0.005553863011300564, -0.00508762476965785, -0.004621386993676424, -0.0041551487520337105, -0.0036889107432216406, -0.0032226727344095707, -0.002756434492766857, -0.0022901964839547873, -0.0018239584751427174, -0.0013577204663306475, -0.0008914823411032557, -0.00042524427408352494, 4.0993792936205864e-05, 0.0005072318599559367, 0.0009734699269756675, 0.0014397080522030592, 0.001905946061015129, 0.002372184069827199, 0.002838422078639269, 0.0033046603202819824, 0.0037708983290940523, 0.004237136337906122, 0.004703374579548836, 0.005169612355530262, 0.0056358505971729755, 0.006102088838815689, 0.006568326614797115, 0.007034564856439829, 0.007500803098082542, 0.007967040874063969, 0.008433278650045395, 0.008899517357349396, 0.009365755133330822, 0.009831992909312248, 0.010298231616616249, 0.010764469392597675, 0.011230707168579102, 0.011696945875883102, 0.012163183651864529, 0.012629421427845955, 0.013095660135149956, 0.013561897911131382, 0.014028135687112808, 0.014494373463094234, 0.014960612170398235, 0.015426849946379662, 0.015893088653683662, 0.016359325498342514, 0.016825564205646515]}, "_wandb": {"runtime": 415}}