{"num_of_examples": 1440, "train_loss": 0.17671667337417601, "_timestamp": 1716361336.4532297, "_runtime": 548.4843797683716, "_step": 1007, "num_of_test_examples": 0, "test_loss": 0.005640478134155274, "epoch": 47, "val-auc": 0.8284481027906043, "gradients/output.bias": {"_type": "histogram", "values": [1.0, 0.0, 0.0, 0.0, 0.0, 0.0, 0.0, 0.0, 0.0, 0.0, 0.0, 0.0, 0.0, 0.0, 0.0, 0.0, 0.0, 0.0, 0.0, 0.0, 0.0, 0.0, 0.0, 0.0, 0.0, 0.0, 0.0, 0.0, 0.0, 0.0, 0.0, 0.0, 0.0, 0.0, 0.0, 0.0, 0.0, 0.0, 0.0, 0.0, 0.0, 0.0, 0.0, 0.0, 0.0, 0.0, 0.0, 0.0, 0.0, 0.0, 0.0, 0.0, 0.0, 0.0, 0.0, 0.0, 0.0, 0.0, 0.0, 0.0, 0.0, 0.0, 0.0, 1.0], "bins": [-0.0002487502642907202, -0.00024097677669487894, -0.00023320330365095288, -0.0002254298160551116, -0.0002176563284592703, -0.00020988285541534424, -0.00020210936781950295, -0.00019433588022366166, -0.00018656239262782037, -0.0001787889195838943, -0.00017101543198805302, -0.00016324194439221174, -0.00015546847134828568, -0.0001476949837524444, -0.0001399214961566031, -0.00013214802311267704, -0.00012437453551683575, -0.00011660105519695207, -0.00010882756760111079, -0.00010105408728122711, -9.328059968538582e-05, -8.550711936550215e-05, -7.773363904561847e-05, -6.996015144977719e-05, -6.218667112989351e-05, -5.441318717203103e-05, -4.663970321416855e-05, -3.8866222894284874e-05, -3.109273893642239e-05, -2.331925497855991e-05, -1.5545772839686833e-05, -7.772289791319054e-06, 1.1932570487260818e-09, 7.774676305416506e-06, 1.5548159353784285e-05, 2.3321641492657363e-05, 3.1095125450519845e-05, 3.8868609408382326e-05, 4.6642089728266e-05, 5.441557368612848e-05, 6.218905764399096e-05, 6.996253796387464e-05, 7.773602555971593e-05, 8.55095058795996e-05, 9.328298619948328e-05, 0.00010105647379532456, 0.00010882995411520824, 0.00011660344171104953, 0.0001243769220309332, 0.0001321504096267745, 0.00013992388267070055, 0.00014769737026654184, 0.00015547085786238313, 0.0001632443309063092, 0.00017101781850215048, 0.00017879130609799176, 0.00018656477914191782, 0.0001943382667377591, 0.0002021117543336004, 0.0002098852419294417, 0.00021765871497336775, 0.00022543220256920904, 0.00023320569016505033, 0.0002409791632089764, 0.0002487526508048177]}, "gradients/output.weight": {"_type": "histogram", "values": [1.0, 0.0, 0.0, 0.0, 0.0, 3.0, 4.0, 4.0, 4.0, 2.0, 6.0, 7.0, 4.0, 14.0, 13.0, 6.0, 17.0, 17.0, 14.0, 17.0, 9.0, 9.0, 4.0, 4.0, 2.0, 1.0, 3.0, 1.0, 0.0, 0.0, 1.0, 175.0, 3.0, 1.0, 0.0, 0.0, 1.0, 3.0, 1.0, 2.0, 4.0, 4.0, 9.0, 9.0, 17.0, 14.0, 17.0, 17.0, 6.0, 13.0, 14.0, 4.0, 7.0, 6.0, 2.0, 4.0, 4.0, 4.0, 3.0, 0.0, 0.0, 0.0, 0.0, 1.0], "bins": [-0.0011828915448859334, -0.001145926071330905, -0.0011089607141911983, -0.0010719953570514917, -0.0010350298834964633, -0.0009980644099414349, -0.0009610990528017282, -0.0009241336374543607, -0.0008871682221069932, -0.0008502028067596257, -0.0008132373914122581, -0.0007762719760648906, -0.0007393065607175231, -0.0007023411453701556, -0.000665375730022788, -0.0006284103146754205, -0.000591444899328053, -0.0005544794839806855, -0.000517514068633318, -0.0004805486532859504, -0.0004435832379385829, -0.00040661782259121537, -0.00036965240724384785, -0.0003326869918964803, -0.0002957215765491128, -0.00025875616120174527, -0.00022179074585437775, -0.00018482533050701022, -0.0001478599151596427, -0.00011089449981227517, -7.392908446490765e-05, -3.696366911754012e-05, 1.6298145055770874e-09, 3.69670451618731e-05, 7.393246050924063e-05, 0.00011089787585660815, 0.00014786329120397568, 0.0001848287065513432, 0.00022179412189871073, 0.00025875953724607825, 0.0002957249525934458, 0.0003326903679408133, 0.00036965578328818083, 0.00040662119863554835, 0.0004435866139829159, 0.0004805520293302834, 0.0005175174446776509, 0.0005544828600250185, 0.000591448275372386, 0.0006284136907197535, 0.000665379106067121, 0.0007023445214144886, 0.0007393099367618561, 0.0007762753521092236, 0.0008132407674565911, 0.0008502061828039587, 0.0008871715981513262, 0.0009241370134986937, 0.0009611024288460612, 0.0009980679024010897, 0.0010350332595407963, 0.0010719986166805029, 0.0011089640902355313, 0.0011459295637905598, 0.0011828949209302664]}, "gradients/linearlayers.4.0.bias": {"_type": "histogram", "values": [1.0, 0.0, 0.0, 1.0, 2.0, 0.0, 3.0, 3.0, 1.0, 2.0, 0.0, 2.0, 3.0, 2.0, 1.0, 3.0, 4.0, 5.0, 2.0, 2.0, 6.0, 3.0, 6.0, 5.0, 5.0, 3.0, 5.0, 5.0, 6.0, 5.0, 2.0, 4.0, 5.0, 2.0, 8.0, 9.0, 93.0, 0.0, 2.0, 4.0, 5.0, 5.0, 4.0, 7.0, 2.0, 1.0, 3.0, 4.0, 3.0, 1.0, 2.0, 0.0, 1.0, 0.0, 0.0, 0.0, 0.0, 0.0, 0.0, 1.0, 1.0, 0.0, 0.0, 1.0], "bins": [-3.903129982063547e-05, -3.796836608671583e-05, -3.690542871481739e-05, -3.5842494980897754e-05, -3.477955760899931e-05, -3.3716623875079677e-05, -3.2653686503181234e-05, -3.15907527692616e-05, -3.0527815397363156e-05, -2.946488166344352e-05, -2.8401946110534482e-05, -2.7339010557625443e-05, -2.6276075004716404e-05, -2.5213139451807365e-05, -2.4150203898898326e-05, -2.3087268345989287e-05, -2.2024332793080248e-05, -2.096139724017121e-05, -1.989846168726217e-05, -1.883552613435313e-05, -1.7772590581444092e-05, -1.6709655028535053e-05, -1.5646719475626014e-05, -1.4583784832211677e-05, -1.3520849279302638e-05, -1.2457913726393599e-05, -1.139497817348456e-05, -1.0332042620575521e-05, -9.269107977161184e-06, -8.206172424252145e-06, -7.143236871343106e-06, -6.080301318434067e-06, -5.017365765525028e-06, -3.954430212615989e-06, -2.8914948870806256e-06, -1.8285594478584244e-06, -7.656240086362232e-07, 2.973114305859781e-07, 1.3602468698081793e-06, 2.423182195343543e-06, 3.486117748252582e-06, 4.549053301161621e-06, 5.61198885407066e-06, 6.674923952232348e-06, 7.737859050394036e-06, 8.800794603303075e-06, 9.863730156212114e-06, 1.0926665709121153e-05, 1.1989601262030192e-05, 1.305253681493923e-05, 1.411547236784827e-05, 1.5178407920757309e-05, 1.6241343473666348e-05, 1.7304279026575387e-05, 1.8367214579484425e-05, 1.9430150132393464e-05, 2.04930838663131e-05, 2.155601941922214e-05, 2.2618954972131178e-05, 2.3681890525040217e-05, 2.4744826077949256e-05, 2.5807761630858295e-05, 2.6870697183767334e-05, 2.7933632736676373e-05, 2.899656828958541e-05]}, "gradients/linearlayers.4.0.weight": {"_type": "histogram", "values": [1.0, 0.0, 1.0, 0.0, 1.0, 0.0, 0.0, 1.0, 3.0, 3.0, 3.0, 4.0, 10.0, 13.0, 19.0, 21.0, 40.0, 38.0, 67.0, 90.0, 119.0, 171.0, 193.0, 269.0, 330.0, 408.0, 470.0, 567.0, 747.0, 880.0, 1084.0, 1270.0, 1469.0, 1682.0, 1854.0, 1900.0, 1722.0, 38514.0, 1987.0, 1535.0, 1245.0, 1157.0, 992.0, 882.0, 758.0, 606.0, 481.0, 401.0, 317.0, 264.0, 206.0, 181.0, 142.0, 110.0, 75.0, 63.0, 39.0, 38.0, 29.0, 21.0, 15.0, 15.0, 6.0, 7.0], "bins": [-0.00012886236072517931, -0.00012541830074042082, -0.00012197423347970471, -0.00011853017349494621, -0.0001150861062342301, -0.0001116420462494716, -0.0001081979789887555, -0.000104753919003997, -0.00010130985174328089, -9.786579175852239e-05, -9.442172449780628e-05, -9.097766451304778e-05, -8.753359725233167e-05, -8.408953726757318e-05, -8.064547000685707e-05, -7.720141002209857e-05, -7.375734276138246e-05, -7.031328277662396e-05, -6.686922279186547e-05, -6.342515553114936e-05, -5.9981091908412054e-05, -5.653702828567475e-05, -5.309296466293745e-05, -4.9648901040200144e-05, -4.620484105544165e-05, -4.2760777432704344e-05, -3.931671380996704e-05, -3.587265018722974e-05, -3.2428586564492434e-05, -2.898452294175513e-05, -2.5540459319017828e-05, -2.2096395696280524e-05, -1.865233207354322e-05, -1.5208268450805917e-05, -1.1764204828068614e-05, -8.320142114826012e-06, -4.876078492088709e-06, -1.432015096725081e-06, 2.012048298638547e-06, 5.456111466628499e-06, 8.900175089365803e-06, 1.2344238712103106e-05, 1.578830233484041e-05, 1.9232365957577713e-05, 2.2676427761325613e-05, 2.6120491384062916e-05, 2.956455500680022e-05, 3.300861862953752e-05, 3.6452682252274826e-05, 3.989674587501213e-05, 4.334080949774943e-05, 4.6784873120486736e-05, 5.022893674322404e-05, 5.367300036596134e-05, 5.7117063988698646e-05, 6.056112761143595e-05, 6.400518759619445e-05, 6.744925485691056e-05, 7.089331484166905e-05, 7.433738210238516e-05, 7.778144208714366e-05, 8.122550934785977e-05, 8.466956933261827e-05, 8.811363659333438e-05, 9.155769657809287e-05]}, "gradients/linearlayers.3.0.bias": {"_type": "histogram", "values": [1.0, 0.0, 0.0, 0.0, 0.0, 0.0, 0.0, 0.0, 0.0, 0.0, 0.0, 0.0, 0.0, 0.0, 1.0, 0.0, 1.0, 0.0, 0.0, 0.0, 0.0, 0.0, 0.0, 0.0, 0.0, 0.0, 0.0, 0.0, 0.0, 0.0, 1.0, 0.0, 0.0, 0.0, 1.0, 0.0, 1.0, 2.0, 6.0, 2.0, 4.0, 6.0, 4.0, 12.0, 5.0, 5.0, 10.0, 6.0, 7.0, 6.0, 5.0, 12.0, 89.0, 12.0, 16.0, 12.0, 7.0, 10.0, 3.0, 3.0, 1.0, 1.0, 1.0, 3.0], "bins": [-0.0001486678229412064, -0.0001458543847547844, -0.00014304094656836241, -0.00014022752293385565, -0.00013741408474743366, -0.00013460064656101167, -0.00013178720837458968, -0.0001289737701881677, -0.0001261603320017457, -0.00012334690836723894, -0.00012053347018081695, -0.00011772003199439496, -0.00011490659380797297, -0.00011209316289750859, -0.0001092797247110866, -0.00010646629380062222, -0.00010365285561420023, -0.00010083941742777824, -9.802598651731387e-05, -9.521254833089188e-05, -9.23991174204275e-05, -8.958567923400551e-05, -8.677224104758352e-05, -8.395881013711914e-05, -8.114537195069715e-05, -7.833193376427516e-05, -7.551850285381079e-05, -7.27050646673888e-05, -6.98916264809668e-05, -6.707819557050243e-05, -6.426475738408044e-05, -6.145132647361606e-05, -5.863789192517288e-05, -5.58244573767297e-05, -5.3011019190307707e-05, -5.019758464186452e-05, -4.738415009342134e-05, -4.457071554497816e-05, -4.175728099653497e-05, -3.894384281011298e-05, -3.61304082616698e-05, -3.3316973713226616e-05, -3.050353734579403e-05, -2.7690100978361443e-05, -2.487666642991826e-05, -2.2063231881475076e-05, -1.924979551404249e-05, -1.6436359146609902e-05, -1.3622924598166719e-05, -1.0809489140228834e-05, -7.996053682290949e-06, -5.182618224353064e-06, -2.3691827664151788e-06, 4.442526915227063e-07, 3.2576881494605914e-06, 6.0711236073984765e-06, 8.884559065336362e-06, 1.1697994523274247e-05, 1.4511429981212132e-05, 1.732486634864472e-05, 2.0138300897087902e-05, 2.2951735445531085e-05, 2.5765171812963672e-05, 2.857860818039626e-05, 3.139204272883944e-05]}, "gradients/linearlayers.3.0.weight": {"_type": "histogram", "values": [1.0, 0.0, 0.0, 0.0, 0.0, 2.0, 0.0, 0.0, 1.0, 1.0, 2.0, 1.0, 3.0, 1.0, 1.0, 2.0, 2.0, 2.0, 0.0, 8.0, 5.0, 7.0, 4.0, 7.0, 2.0, 5.0, 8.0, 9.0, 12.0, 9.0, 12.0, 16.0, 18.0, 16.0, 34.0, 33.0, 49.0, 84.0, 125.0, 182.0, 286.0, 493.0, 799.0, 1186.0, 1860.0, 2628.0, 3672.0, 5153.0, 41216.0, 2482.0, 1667.0, 1200.0, 838.0, 557.0, 356.0, 193.0, 122.0, 82.0, 36.0, 24.0, 14.0, 4.0, 3.0, 1.0], "bins": [-0.0004670507332775742, -0.0004573554324451834, -0.0004476601316127926, -0.00043796480167657137, -0.0004282695008441806, -0.0004185742000117898, -0.000408878899179399, -0.00039918359834700823, -0.00038948829751461744, -0.0003797929675783962, -0.0003700976667460054, -0.00036040236591361463, -0.00035070706508122385, -0.00034101176424883306, -0.0003313164343126118, -0.00032162113348022103, -0.00031192583264783025, -0.00030223053181543946, -0.0002925352309830487, -0.00028283990104682744, -0.00027314460021443665, -0.00026344929938204587, -0.0002537539985496551, -0.00024405868316534907, -0.00023436338233295828, -0.0002246680815005675, -0.00021497276611626148, -0.0002052774652838707, -0.0001955821644514799, -0.0001858868490671739, -0.0001761915482347831, -0.0001664962328504771, -0.00015680091746617109, -0.0001471056166337803, -0.0001374103012494743, -0.0001277150004170835, -0.0001180196923087351, -0.0001083243842003867, -9.862908336799592e-05, -8.893377525964752e-05, -7.923846715129912e-05, -6.954315904295072e-05, -5.984785457258113e-05, -5.0152550102211535e-05, -4.0457241993863136e-05, -3.0761933885514736e-05, -2.1066629415145144e-05, -1.1371323125786148e-05, -1.6760168364271522e-06, 8.019289452931844e-06, 1.771459574229084e-05, 2.7409902031649835e-05, 3.710520832100883e-05, 4.680051642935723e-05, 5.649582089972682e-05, 6.619112537009642e-05, 7.588643347844481e-05, 8.558174158679321e-05, 9.527704969514161e-05, 0.0001049723505275324, 0.0001146676586358808, 0.0001243629667442292, 0.00013405826757661998, 0.000143753582960926, 0.00015344888379331678]}, "gradients/linearlayers.2.0.bias": {"_type": "histogram", "values": [1.0, 1.0, 0.0, 0.0, 0.0, 0.0, 0.0, 0.0, 0.0, 0.0, 0.0, 0.0, 0.0, 0.0, 0.0, 1.0, 1.0, 2.0, 2.0, 1.0, 2.0, 2.0, 2.0, 2.0, 4.0, 3.0, 6.0, 1.0, 1.0, 8.0, 5.0, 7.0, 7.0, 7.0, 5.0, 7.0, 15.0, 9.0, 7.0, 94.0, 6.0, 8.0, 6.0, 3.0, 9.0, 2.0, 6.0, 0.0, 1.0, 1.0, 2.0, 0.0, 1.0, 4.0, 2.0, 0.0, 0.0, 1.0, 0.0, 0.0, 0.0, 0.0, 0.0, 1.0], "bins": [-0.00011077731323894113, -0.0001079566718544811, -0.00010513603047002107, -0.00010231538908556104, -9.9494747701101e-05, -9.667410631664097e-05, -9.385346493218094e-05, -9.103282354772091e-05, -8.821218216326088e-05, -8.539154805475846e-05, -8.257090667029843e-05, -7.97502652858384e-05, -7.692962390137836e-05, -7.410898251691833e-05, -7.12883411324583e-05, -6.846769974799827e-05, -6.564705836353824e-05, -6.28264169790782e-05, -6.000577559461817e-05, -5.718513421015814e-05, -5.436449282569811e-05, -5.154385507921688e-05, -4.872321369475685e-05, -4.590257231029682e-05, -4.308193092583679e-05, -4.0261289541376755e-05, -3.744064815691672e-05, -3.462000677245669e-05, -3.1799369025975466e-05, -2.897872582252603e-05, -2.6158086257055402e-05, -2.333744487259537e-05, -2.0516803488135338e-05, -1.7696162103675306e-05, -1.4875521628709976e-05, -1.2054881153744645e-05, -9.234239769284613e-06, -6.413598839571932e-06, -3.5929579098592512e-06, -7.723169801465701e-07, 2.048323949566111e-06, 4.868964879278792e-06, 7.689605808991473e-06, 1.0510246283956803e-05, 1.3330887668416835e-05, 1.6151529052876867e-05, 1.8972168618347496e-05, 2.1792810002807528e-05, 2.461345138726756e-05, 2.7434092771727592e-05, 3.0254734156187624e-05, 3.3075375540647656e-05, 3.589601692510769e-05, 3.871665467158891e-05, 4.1537296056048945e-05, 4.4357937440508977e-05, 4.717857882496901e-05, 4.999922020942904e-05, 5.281986159388907e-05, 5.5640502978349105e-05, 5.846114072483033e-05, 6.128178210929036e-05, 6.41024234937504e-05, 6.692306487821043e-05, 6.974370626267046e-05]}, "gradients/linearlayers.2.0.weight": {"_type": "histogram", "values": [1.0, 2.0, 0.0, 1.0, 2.0, 1.0, 4.0, 2.0, 5.0, 6.0, 12.0, 4.0, 6.0, 21.0, 19.0, 15.0, 24.0, 29.0, 41.0, 59.0, 69.0, 97.0, 120.0, 161.0, 234.0, 302.0, 348.0, 454.0, 613.0, 757.0, 892.0, 1171.0, 1432.0, 1778.0, 2309.0, 2817.0, 39607.0, 4097.0, 1999.0, 1423.0, 1137.0, 773.0, 598.0, 459.0, 397.0, 283.0, 243.0, 180.0, 122.0, 102.0, 84.0, 69.0, 50.0, 30.0, 23.0, 18.0, 13.0, 7.0, 4.0, 3.0, 2.0, 2.0, 2.0, 1.0], "bins": [-0.00034391958615742624, -0.0003346161392983049, -0.0003253126924391836, -0.0003160092164762318, -0.0003067057696171105, -0.00029740232275798917, -0.00028809887589886785, -0.0002787954290397465, -0.0002694919821806252, -0.0002601885062176734, -0.0002508850593585521, -0.00024158161249943078, -0.00023227816564030945, -0.0002229747042292729, -0.00021367125737015158, -0.00020436779595911503, -0.0001950643490999937, -0.00018576090224087238, -0.00017645744082983583, -0.0001671539939707145, -0.00015785053255967796, -0.00014854708570055664, -0.0001392436388414353, -0.00012994017743039876, -0.00012063673057127744, -0.0001113332764361985, -0.00010202982230111957, -9.272637544199824e-05, -8.34229213069193e-05, -7.411946717184037e-05, -6.481602031271905e-05, -5.551256617764011e-05, -4.6209112042561173e-05, -3.690565790748224e-05, -2.7602207410382107e-05, -1.8298755094292574e-05, -8.99530277820304e-06, 3.081495378864929e-07, 9.611601853976026e-06, 1.891505417006556e-05, 2.8218506486155093e-05, 3.752196062123403e-05, 4.682541111833416e-05, 5.612886161543429e-05, 6.543231575051323e-05, 7.473576988559216e-05, 8.403921674471349e-05, 9.334267087979242e-05, 0.00010264612501487136, 0.0001119495791499503, 0.00012125303328502923, 0.00013055648014415056, 0.0001398599415551871, 0.00014916338841430843, 0.00015846683527342975, 0.0001677702966844663, 0.00017707374354358763, 0.00018637719040270895, 0.0001956806518137455, 0.00020498409867286682, 0.00021428754553198814, 0.0002235910069430247, 0.00023289445380214602, 0.00024219791521318257, 0.0002515013620723039]}, "gradients/linearlayers.1.0.bias": {"_type": "histogram", "values": [1.0, 0.0, 0.0, 1.0, 1.0, 0.0, 0.0, 0.0, 0.0, 0.0, 0.0, 0.0, 0.0, 0.0, 0.0, 0.0, 0.0, 0.0, 1.0, 0.0, 0.0, 0.0, 1.0, 2.0, 1.0, 10.0, 6.0, 11.0, 20.0, 22.0, 22.0, 97.0, 14.0, 14.0, 17.0, 5.0, 5.0, 0.0, 0.0, 0.0, 0.0, 0.0, 2.0, 0.0, 0.0, 1.0, 0.0, 0.0, 0.0, 0.0, 0.0, 0.0, 0.0, 0.0, 0.0, 0.0, 0.0, 0.0, 0.0, 1.0, 0.0, 0.0, 0.0, 1.0], "bins": [-0.0002874280035030097, -0.0002783359959721565, -0.0002692439593374729, -0.0002601519227027893, -0.00025105991517193615, -0.00024196789308916777, -0.0002328758710063994, -0.000223783848923631, -0.00021469182684086263, -0.00020559980475809425, -0.00019650778267532587, -0.0001874157605925575, -0.0001783237385097891, -0.00016923171642702073, -0.00016013969434425235, -0.00015104767226148397, -0.0001419556501787156, -0.0001328636280959472, -0.00012377160601317883, -0.00011467958393041044, -0.00010558756184764206, -9.649553976487368e-05, -8.74035176821053e-05, -7.831149559933692e-05, -6.921947351656854e-05, -6.012745143380016e-05, -5.103542935103178e-05, -4.19434072682634e-05, -3.285138518549502e-05, -2.375936310272664e-05, -1.4667341019958258e-05, -5.575318937189877e-06, 3.516674041748047e-06, 1.2608696124516428e-05, 2.1700718207284808e-05, 3.079274029005319e-05, 3.988476237282157e-05, 4.897678445558995e-05, 5.806880653835833e-05, 6.716082862112671e-05, 7.625285070389509e-05, 8.534487278666347e-05, 9.443689486943185e-05, 0.00010352891695220023, 0.00011262093903496861, 0.000121712961117737, 0.00013080498320050538, 0.00013989700528327376, 0.00014898902736604214, 0.00015808104944881052, 0.0001671730715315789, 0.00017626509361434728, 0.00018535711569711566, 0.00019444913777988404, 0.00020354115986265242, 0.0002126331819454208, 0.00022172520402818918, 0.00023081722611095756, 0.00023990924819372594, 0.0002490012557245791, 0.0002580932923592627, 0.0002671853289939463, 0.00027627733652479947, 0.0002853693440556526, 0.00029446138069033623]}, "gradients/linearlayers.1.0.weight": {"_type": "histogram", "values": [1.0, 0.0, 0.0, 0.0, 1.0, 1.0, 1.0, 0.0, 0.0, 1.0, 1.0, 2.0, 0.0, 2.0, 1.0, 2.0, 6.0, 3.0, 11.0, 8.0, 11.0, 14.0, 10.0, 13.0, 16.0, 25.0, 33.0, 53.0, 64.0, 86.0, 96.0, 181.0, 267.0, 416.0, 667.0, 1066.0, 1627.0, 2605.0, 4598.0, 42806.0, 4592.0, 2439.0, 1329.0, 875.0, 504.0, 345.0, 225.0, 162.0, 99.0, 91.0, 43.0, 38.0, 29.0, 18.0, 15.0, 14.0, 7.0, 5.0, 2.0, 3.0, 2.0, 0.0, 3.0, 1.0], "bins": [-0.0009693624451756477, -0.0009449525969102979, -0.0009205428068526089, -0.000896132958587259, -0.0008717231103219092, -0.0008473133202642202, -0.0008229034719988704, -0.0007984936237335205, -0.0007740837754681706, -0.0007496739854104817, -0.0007252641371451318, -0.000700854288879782, -0.000676444498822093, -0.0006520346505567431, -0.0006276248022913933, -0.0006032150122337043, -0.0005788051639683545, -0.0005543953157030046, -0.0005299855256453156, -0.0005055756773799658, -0.0004811658291146159, -0.0004567560099530965, -0.0004323461907915771, -0.00040793634252622724, -0.00038352652336470783, -0.0003591167042031884, -0.00033470685593783855, -0.00031029703677631915, -0.00028588721761479974, -0.0002614773693494499, -0.00023706755018793046, -0.00021265771647449583, -0.0001882478827610612, -0.00016383804904762655, -0.00013942821533419192, -0.00011501839617267251, -9.060856245923787e-05, -6.619872874580324e-05, -4.1788902308326215e-05, -1.7379072232870385e-05, 7.0307578425854445e-06, 3.1440587918041274e-05, 5.5850417993497103e-05, 8.026024443097413e-05, 0.00010467007814440876, 0.0001290799118578434, 0.0001534897310193628, 0.00017789956473279744, 0.00020230939844623208, 0.00022671923215966672, 0.00025112906587310135, 0.00027553888503462076, 0.0002999487332999706, 0.00032435855246149004, 0.00034876837162300944, 0.0003731782198883593, 0.0003975880390498787, 0.0004219978582113981, 0.000446407706476748, 0.0004708175256382674, 0.0004952273447997868, 0.0005196371930651367, 0.0005440470413304865, 0.0005684568313881755, 0.0005928666796535254]}, "gradients/linearlayers.0.0.bias": {"_type": "histogram", "values": [1.0, 0.0, 0.0, 0.0, 0.0, 0.0, 0.0, 0.0, 0.0, 0.0, 0.0, 0.0, 0.0, 0.0, 0.0, 0.0, 0.0, 0.0, 0.0, 0.0, 0.0, 0.0, 1.0, 0.0, 0.0, 3.0, 0.0, 3.0, 0.0, 0.0, 0.0, 0.0, 1.0, 3.0, 3.0, 6.0, 5.0, 10.0, 10.0, 24.0, 21.0, 28.0, 82.0, 19.0, 11.0, 6.0, 3.0, 5.0, 4.0, 2.0, 0.0, 1.0, 1.0, 1.0, 0.0, 0.0, 0.0, 0.0, 0.0, 1.0, 0.0, 0.0, 0.0, 1.0], "bins": [-0.0006213022861629725, -0.000606529472861439, -0.0005917566013522446, -0.0005769837880507112, -0.0005622109165415168, -0.0005474381032399833, -0.000532665231730789, -0.0005178924184292555, -0.0005031195469200611, -0.0004883467336185277, -0.0004735738621093333, -0.00045880101970396936, -0.00044402817729860544, -0.0004292553348932415, -0.0004144824924878776, -0.0003997096500825137, -0.00038493680767714977, -0.0003701639943756163, -0.0003553911519702524, -0.0003406183095648885, -0.00032584546715952456, -0.00031107262475416064, -0.0002962997823487967, -0.0002815269399434328, -0.0002667540975380689, -0.000251981255132705, -0.00023720841272734106, -0.00022243557032197714, -0.00020766272791661322, -0.0001928898855112493, -0.0001781170431058854, -0.00016334420070052147, -0.00014857135829515755, -0.00013379851588979363, -0.00011902567348442972, -0.0001042528310790658, -8.947998867370188e-05, -7.470715354429558e-05, -5.993431113893166e-05, -4.5161468733567744e-05, -3.0388626328203827e-05, -1.561578392283991e-05, -8.42943336465396e-07, 1.392989815940382e-05, 2.8702739655273035e-05, 4.347558206063695e-05, 5.824842082802206e-05, 7.302126323338598e-05, 8.77941056387499e-05, 0.00010256694804411381, 0.00011733979044947773, 0.00013211263285484165, 0.00014688547526020557, 0.00016165831766556948, 0.0001764311600709334, 0.00019120400247629732, 0.000205976830329746, 0.00022074967273510993, 0.00023552251514047384, 0.00025029535754583776, 0.0002650681999512017, 0.0002798410423565656, 0.0002946138847619295, 0.00030938672716729343, 0.00032415956957265735]}, "gradients/linearlayers.0.0.weight": {"_type": "histogram", "values": [1.0, 0.0, 1.0, 0.0, 0.0, 0.0, 2.0, 1.0, 1.0, 0.0, 3.0, 1.0, 2.0, 1.0, 0.0, 1.0, 3.0, 3.0, 4.0, 4.0, 2.0, 1.0, 3.0, 5.0, 2.0, 7.0, 2.0, 7.0, 11.0, 11.0, 28.0, 31.0, 60.0, 57.0, 118.0, 149.0, 252.0, 332.0, 471.0, 686.0, 1041.0, 1672.0, 2513.0, 3989.0, 36093.0, 9679.0, 3356.0, 1866.0, 1101.0, 652.0, 473.0, 287.0, 183.0, 131.0, 75.0, 50.0, 40.0, 24.0, 19.0, 15.0, 3.0, 4.0, 3.0, 4.0], "bins": [-0.0016619873931631446, -0.0016250439221039414, -0.0015881004510447383, -0.0015511568635702133, -0.0015142133925110102, -0.001477269921451807, -0.0014403264503926039, -0.0014033829793334007, -0.0013664395082741976, -0.0013294959207996726, -0.0012925524497404695, -0.0012556089786812663, -0.0012186655076220632, -0.00118172203656286, -0.001144778449088335, -0.0011078349780291319, -0.0010708915069699287, -0.0010339480359107256, -0.0009970045648515224, -0.0009600610355846584, -0.0009231175063177943, -0.0008861740352585912, -0.000849230564199388, -0.000812287034932524, -0.0007753435638733208, -0.0007384000928141177, -0.0007014565635472536, -0.0006645130924880505, -0.0006275696214288473, -0.0005906260921619833, -0.0005536826211027801, -0.000516739091835916, -0.0004797957371920347, -0.0004428522370290011, -0.0004059087368659675, -0.00036896526580676436, -0.00033202176564373076, -0.00029507826548069715, -0.000258134794421494, -0.0002211912942584604, -0.0001842477940954268, -0.0001473042939323932, -0.00011036080832127482, -7.341731543419883e-05, -3.6473822547122836e-05, 4.696703399531543e-07, 3.7413163227029145e-05, 7.435665611410514e-05, 0.00011130014900118113, 0.00014824364916421473, 0.0001851871347753331, 0.00022213062038645148, 0.0002590741205494851, 0.0002960176207125187, 0.00033296109177172184, 0.00036990459193475544, 0.00040684809209778905, 0.00044379159226082265, 0.00048073509242385626, 0.0005176785634830594, 0.0005546220345422626, 0.0005915655638091266, 0.0006285090348683298, 0.0006654525641351938, 0.000702396035194397]}, "gradients/embeds.2.bias": {"_type": "histogram", "values": [1.0, 1.0, 0.0, 0.0, 1.0, 0.0, 0.0, 1.0, 1.0, 0.0, 0.0, 1.0, 0.0, 0.0, 2.0, 1.0, 0.0, 2.0, 0.0, 0.0, 1.0, 1.0, 2.0, 6.0, 1.0, 2.0, 6.0, 6.0, 11.0, 13.0, 16.0, 31.0, 23.0, 59.0, 12.0, 11.0, 8.0, 9.0, 5.0, 6.0, 0.0, 2.0, 0.0, 1.0, 1.0, 0.0, 1.0, 1.0, 1.0, 1.0, 0.0, 0.0, 1.0, 1.0, 1.0, 1.0, 1.0, 1.0, 0.0, 0.0, 1.0, 0.0, 0.0, 1.0], "bins": [-0.0007726982585154474, -0.0007492934819310904, -0.0007258887053467333, -0.0007024839287623763, -0.0006790790939703584, -0.0006556743173860013, -0.0006322695408016443, -0.0006088647642172873, -0.0005854599876329303, -0.0005620552110485733, -0.0005386504344642162, -0.0005152456578798592, -0.0004918408812955022, -0.0004684360756073147, -0.0004450312699191272, -0.0004216264933347702, -0.0003982217167504132, -0.00037481694016605616, -0.00035141216358169913, -0.00032800735789351165, -0.00030460258130915463, -0.0002811978047247976, -0.0002577929990366101, -0.0002343882224522531, -0.00021098344586789608, -0.00018757866928353906, -0.0001641738781472668, -0.00014076908701099455, -0.00011736431042663753, -9.395952656632289e-05, -7.055474270600826e-05, -4.714995884569362e-05, -2.3745116777718067e-05, -3.4033291740342975e-07, 2.3064450942911208e-05, 4.6469234803225845e-05, 6.987401866354048e-05, 9.327880252385512e-05, 0.00011668358638416976, 0.000140088377520442, 0.00016349315410479903, 0.00018689793068915606, 0.0002103027218254283, 0.00023370751296170056, 0.0002571122895460576, 0.0002805170661304146, 0.0003039218718186021, 0.0003273266484029591, 0.00035073142498731613, 0.00037413620157167315, 0.0003975409781560302, 0.00042094578384421766, 0.0004443505604285747, 0.0004677553370129317, 0.0004911601427011192, 0.0005145649192854762, 0.0005379696958698332, 0.0005613744724541903, 0.0005847792490385473, 0.0006081840256229043, 0.0006315888604149222, 0.0006549936369992793, 0.0006783984135836363, 0.0007018031901679933, 0.0007252079667523503]}, "gradients/embeds.2.weight": {"_type": "histogram", "values": [1.0, 2.0, 0.0, 1.0, 0.0, 2.0, 4.0, 1.0, 3.0, 5.0, 9.0, 14.0, 11.0, 10.0, 15.0, 24.0, 30.0, 39.0, 44.0, 83.0, 87.0, 130.0, 202.0, 269.0, 337.0, 459.0, 647.0, 837.0, 1156.0, 1626.0, 2292.0, 3364.0, 4860.0, 7505.0, 14383.0, 68336.0, 8283.0, 5155.0, 3336.0, 2199.0, 1566.0, 1053.0, 697.0, 589.0, 384.0, 280.0, 218.0, 143.0, 105.0, 63.0, 56.0, 38.0, 39.0, 17.0, 19.0, 12.0, 7.0, 3.0, 6.0, 5.0, 7.0, 0.0, 0.0, 4.0], "bins": [-0.0016074887244030833, -0.0015618165489286184, -0.0015161444898694754, -0.0014704723143950105, -0.0014248001389205456, -0.0013791280798614025, -0.0013334559043869376, -0.0012877837289124727, -0.0012421116698533297, -0.0011964394943788648, -0.0011507673189043999, -0.001105095143429935, -0.001059423084370792, -0.001013750908896327, -0.000968078791629523, -0.0009224066161550581, -0.0008767344988882542, -0.0008310623816214502, -0.0007853902061469853, -0.0007397180888801813, -0.0006940459134057164, -0.0006483737961389124, -0.0006027016788721085, -0.0005570295033976436, -0.0005113573861308396, -0.00046568523976020515, -0.0004200130933895707, -0.00037434097612276673, -0.0003286688297521323, -0.00028299668338149786, -0.00023732455156277865, -0.00019165241974405944, -0.00014598038978874683, -0.00010030825069407001, -5.463611159939319e-05, -8.963972504716367e-06, 3.6708166589960456e-05, 8.238030568463728e-05, 0.0001280524447793141, 0.0001737245765980333, 0.00021939672296866775, 0.0002650688693393022, 0.0003107410157099366, 0.0003564131329767406, 0.00040208527934737504, 0.00044775742571800947, 0.0004934295429848135, 0.0005391017184592783, 0.0005847738357260823, 0.0006304459529928863, 0.0006761181284673512, 0.0007217902457341552, 0.0007674624212086201, 0.000813134538475424, 0.000858806655742228, 0.0009044788312166929, 0.0009501509484834969, 0.0009958230657503009, 0.0010414952412247658, 0.0010871674166992307, 0.0011328394757583737, 0.0011785116512328386, 0.0012241838267073035, 0.0012698558857664466, 0.0013155280612409115]}, "gradients/embeds.0.bias": {"_type": "histogram", "values": [2.0, 0.0, 0.0, 1.0, 0.0, 2.0, 0.0, 2.0, 2.0, 1.0, 4.0, 4.0, 2.0, 5.0, 5.0, 2.0, 3.0, 2.0, 7.0, 2.0, 2.0, 13.0, 10.0, 12.0, 11.0, 16.0, 25.0, 17.0, 27.0, 26.0, 99.0, 37.0, 30.0, 21.0, 15.0, 22.0, 18.0, 13.0, 7.0, 4.0, 9.0, 5.0, 3.0, 1.0, 2.0, 4.0, 3.0, 1.0, 0.0, 2.0, 1.0, 3.0, 1.0, 2.0, 0.0, 0.0, 1.0, 1.0, 0.0, 1.0, 0.0, 0.0, 0.0, 1.0], "bins": [-0.0008513017673976719, -0.0008237334550358355, -0.0007961651426739991, -0.0007685968303121626, -0.0007410285179503262, -0.0007134602055884898, -0.0006858918932266533, -0.0006583235808648169, -0.0006307552102953196, -0.0006031868979334831, -0.0005756185855716467, -0.0005480502732098103, -0.0005204819608479738, -0.0004929136484861374, -0.00046534533612430096, -0.0004377770237624645, -0.0004102087114006281, -0.00038264039903879166, -0.0003550720866769552, -0.0003275037743151188, -0.00029993546195328236, -0.00027236712048761547, -0.00024479880812577903, -0.0002172304957639426, -0.00018966218340210617, -0.00016209387104026973, -0.0001345255586784333, -0.00010695723176468164, -7.93889194028452e-05, -5.182060340302996e-05, -2.4252287403214723e-05, 3.3160285966005176e-06, 3.088434459641576e-05, 5.8452660596231e-05, 8.602097659604624e-05, 0.00011358929623384029, 0.00014115760859567672, 0.00016872592095751315, 0.00019629424787126482, 0.00022386256023310125, 0.0002514308725949377, 0.0002789991849567741, 0.00030656749731861055, 0.000334135809680447, 0.00036170415114611387, 0.0003892724635079503, 0.00041684077586978674, 0.00044440908823162317, 0.0004719774005934596, 0.000499545712955296, 0.0005271140253171325, 0.0005546823376789689, 0.0005822506500408053, 0.0006098189624026418, 0.0006373872747644782, 0.0006649555871263146, 0.0006925238994881511, 0.0007200922700576484, 0.0007476605824194849, 0.0007752288947813213, 0.0008027972071431577, 0.0008303655195049942, 0.0008579338318668306, 0.000885502144228667, 0.0009130704565905035]}, "gradients/embeds.0.weight": {"_type": "histogram", "values": [2.0, 0.0, 0.0, 1.0, 2.0, 0.0, 0.0, 2.0, 3.0, 3.0, 2.0, 3.0, 5.0, 4.0, 9.0, 6.0, 6.0, 5.0, 14.0, 9.0, 11.0, 23.0, 24.0, 58.0, 48.0, 115.0, 220.0, 810.0, 4064.0, 28005.0, 279281.0, 68911.0, 9298.0, 1583.0, 357.0, 123.0, 61.0, 36.0, 24.0, 17.0, 17.0, 9.0, 8.0, 5.0, 4.0, 4.0, 5.0, 2.0, 0.0, 1.0, 3.0, 3.0, 4.0, 2.0, 0.0, 0.0, 0.0, 1.0, 1.0, 0.0, 1.0, 0.0, 0.0, 1.0], "bins": [-0.01042528823018074, -0.010085861198604107, -0.009746434167027473, -0.00940700713545084, -0.009067580103874207, -0.008728154003620148, -0.008388726972043514, -0.00804929994046688, -0.007709872908890247, -0.007370445877313614, -0.0070310188457369804, -0.006691592279821634, -0.006352165248245001, -0.006012738216668367, -0.005673311650753021, -0.005333884619176388, -0.004994457587599754, -0.004655030556023121, -0.004315603524446487, -0.003976176958531141, -0.003636749926954508, -0.0032973228953778744, -0.0029578960966318846, -0.0026184692978858948, -0.0022790422663092613, -0.0019396153511479497, -0.001600188435986638, -0.0012607615208253264, -0.0009213346056640148, -0.0005819076905027032, -0.00024248077534139156, 9.694613981992006e-05, 0.0004363730549812317, 0.0007757999701425433, 0.001115226885303855, 0.0014546538004651666, 0.0017940807156264782, 0.0021335077472031116, 0.0024729345459491014, 0.0028123613446950912, 0.0031517883762717247, 0.003491215407848358, 0.003830642206594348, 0.004170069005340338, 0.004509496036916971, 0.004848923068493605, 0.005188349634408951, 0.005527776665985584, 0.005867203697562218, 0.006206630729138851, 0.006546057760715485, 0.006885484326630831, 0.007224911358207464, 0.007564338389784098, 0.007903764955699444, 0.008243191987276077, 0.00858261901885271, 0.008922046050429344, 0.009261473082005978, 0.009600900113582611, 0.00994032621383667, 0.010279753245413303, 0.010619180276989937, 0.01095860730856657, 0.011298034340143204]}, "_wandb": {"runtime": 548}}