{"epoch": 4, "_timestamp": 1722984233.3572702, "_runtime": 246.84098029136658, "_step": 33, "train loss": 0.3053266406059265, "val loss": 0.30851420760154724, "val auc": 0.936193268156936, "val precision": 0.8616852146263911, "val recall": 0.7591036414565826, "val f1": 0.8071481757259866, "CYP1A2 Confusion Matrix": {"_type": "image-file", "sha256": "ffc0b12bd6c8ae6112ef3a5ae906fafea9b450bddbfed0a4060546dedf407c71", "size": 15767, "path": "media/images/CYP1A2 Confusion Matrix_31_ffc0b12bd6c8ae6112ef.png", "format": "png", "width": 1000, "height": 700}, "gradients/output.bias": {"_type": "histogram", "values": [1.0], "bins": [-0.003559664823114872, -0.003559664823114872]}, "gradients/output.weight": {"_type": "histogram", "values": [1.0, 0.0, 0.0, 0.0, 0.0, 1.0, 0.0, 0.0, 0.0, 0.0, 0.0, 0.0, 1.0, 0.0, 0.0, 0.0, 0.0, 0.0, 0.0, 1.0, 0.0, 0.0, 1.0, 0.0, 0.0, 0.0, 0.0, 1.0, 0.0, 0.0, 0.0, 1.0, 0.0, 2.0, 0.0, 0.0, 0.0, 0.0, 0.0, 0.0, 1.0, 1.0, 0.0, 0.0, 0.0, 0.0, 0.0, 0.0, 1.0, 0.0, 0.0, 0.0, 1.0, 0.0, 1.0, 1.0, 0.0, 0.0, 0.0, 0.0, 0.0, 0.0, 0.0, 1.0], "bins": [-0.05785933881998062, -0.05610482022166252, -0.05435030162334442, -0.05259577929973602, -0.05084126070141792, -0.04908674210309982, -0.047332219779491425, -0.045577701181173325, -0.043823182582855225, -0.042068663984537125, -0.040314145386219025, -0.038559623062610626, -0.036805104464292526, -0.035050585865974426, -0.03329606354236603, -0.03154154494404793, -0.029787026345729828, -0.028032507747411728, -0.02627798728644848, -0.02452346682548523, -0.02276894822716713, -0.02101442962884903, -0.01925990916788578, -0.01750538870692253, -0.01575087010860443, -0.013996350578963757, -0.012241831049323082, -0.010487311519682407, -0.008732791990041733, -0.006978272460401058, -0.005223752930760384, -0.003469233401119709, -0.001714710146188736, 3.980938345193863e-05, 0.0017943289130926132, 0.003548848442733288, 0.005303367972373962, 0.007057887502014637, 0.008812407031655312, 0.010566926561295986, 0.01232144609093666, 0.014075965620577335, 0.01583048515021801, 0.01758500561118126, 0.01933952420949936, 0.02109404280781746, 0.02284856326878071, 0.024603083729743958, 0.026357602328062057, 0.028112120926380157, 0.029866641387343407, 0.031621161848306656, 0.033375680446624756, 0.035130199044942856, 0.036884717643260956, 0.038639239966869354, 0.040393758565187454, 0.042148277163505554, 0.04390279948711395, 0.04565731808543205, 0.04741183668375015, 0.04916635528206825, 0.05092087388038635, 0.05267539620399475, 0.05442991480231285]}, "gradients/linearlayers.2.0.bias": {"_type": "histogram", "values": [1.0, 0.0, 0.0, 0.0, 0.0, 0.0, 1.0, 0.0, 0.0, 0.0, 0.0, 0.0, 1.0, 0.0, 0.0, 0.0, 0.0, 0.0, 0.0, 0.0, 0.0, 0.0, 0.0, 0.0, 1.0, 0.0, 0.0, 1.0, 0.0, 0.0, 0.0, 0.0, 0.0, 0.0, 1.0, 0.0, 0.0, 1.0, 0.0, 0.0, 2.0, 0.0, 0.0, 0.0, 0.0, 0.0, 0.0, 0.0, 1.0, 2.0, 0.0, 1.0, 0.0, 0.0, 0.0, 0.0, 0.0, 0.0, 1.0, 1.0, 0.0, 0.0, 0.0, 1.0], "bins": [-0.0027041775174438953, -0.002645619446411729, -0.002587061608210206, -0.0025285035371780396, -0.0024699456989765167, -0.0024113876279443502, -0.0023528297897428274, -0.002294271718710661, -0.002235713880509138, -0.0021771558094769716, -0.002118597738444805, -0.0020600399002432823, -0.002001481829211116, -0.0019429238745942712, -0.0018843659199774265, -0.0018258079653605819, -0.0017672500107437372, -0.0017086920561268926, -0.001650134101510048, -0.0015915761468932033, -0.0015330181922763586, -0.0014744601212441921, -0.0014159021666273475, -0.0013573442120105028, -0.0012987862573936582, -0.0012402283027768135, -0.0011816703481599689, -0.0011231123935431242, -0.0010645543225109577, -0.001005996367894113, -0.0009474384132772684, -0.0008888804586604238, -0.0008303225040435791, -0.0007717645494267344, -0.0007132065948098898, -0.0006546485819853842, -0.0005960906273685396, -0.0005375326727516949, -0.0004789746890310198, -0.0004204167053103447, -0.00036185875069350004, -0.0003033007960766554, -0.0002447428123559803, -0.0001861848431872204, -0.0001276268740184605, -6.906890484970063e-05, -1.0510935680940747e-05, 4.8047033487819135e-05, 0.00010660500265657902, 0.0001651629718253389, 0.00022372094099409878, 0.0002822789247147739, 0.00034083687933161855, 0.0003993948339484632, 0.0004579528176691383, 0.0005165108013898134, 0.0005750687560066581, 0.0006336267106235027, 0.0006921846652403474, 0.000750742678064853, 0.0008093006326816976, 0.0008678585872985423, 0.0009264166001230478, 0.0009849745547398925, 0.0010435325093567371]}, "gradients/linearlayers.2.0.weight": {"_type": "histogram", "values": [1.0, 0.0, 0.0, 1.0, 0.0, 0.0, 1.0, 0.0, 0.0, 2.0, 1.0, 1.0, 1.0, 4.0, 5.0, 2.0, 1.0, 4.0, 5.0, 7.0, 8.0, 4.0, 10.0, 9.0, 6.0, 8.0, 4.0, 14.0, 11.0, 12.0, 21.0, 27.0, 29.0, 100.0, 95.0, 20.0, 21.0, 12.0, 9.0, 9.0, 11.0, 5.0, 4.0, 3.0, 1.0, 3.0, 3.0, 1.0, 1.0, 0.0, 2.0, 3.0, 4.0, 0.0, 1.0, 1.0, 2.0, 0.0, 0.0, 1.0, 0.0, 0.0, 0.0, 1.0], "bins": [-0.015973854809999466, -0.01550369244068861, -0.01503352914005518, -0.014563366770744324, -0.014093203470110893, -0.013623041100800037, -0.013152877800166607, -0.012682715430855751, -0.01221255213022232, -0.011742389760911465, -0.011272226460278034, -0.010802064090967178, -0.010331900790333748, -0.009861738421022892, -0.009391575120389462, -0.008921412751078606, -0.008451249450445175, -0.00798108708113432, -0.007510924246162176, -0.007040761411190033, -0.00657059857621789, -0.006100435741245747, -0.0056302729062736034, -0.00516011007130146, -0.004689947701990604, -0.004219784867018461, -0.0037496217992156744, -0.0032794589642435312, -0.0028092963621020317, -0.0023391335271298885, -0.0018689706921577454, -0.0013988078571856022, -0.000928645022213459, -0.0004584822163451463, 1.1680589523166418e-05, 0.00048184339539147913, 0.0009520062012597919, 0.001422169036231935, 0.0018923317547887564, 0.0023624945897608995, 0.0028326574247330427, 0.003302820259705186, 0.003772983094677329, 0.004243145696818829, 0.004713308531790972, 0.005183471366763115, 0.005653634201735258, 0.006123797036707401, 0.0065939598716795444, 0.007064122706651688, 0.007534285541623831, 0.008004448376595974, 0.00847461074590683, 0.00894477404654026, 0.009414936415851116, 0.009885099716484547, 0.010355262085795403, 0.010825425386428833, 0.011295587755739689, 0.01176575105637312, 0.012235913425683975, 0.012706076726317406, 0.013176239095628262, 0.013646402396261692, 0.014116564765572548]}, "gradients/linearlayers.1.0.bias": {"_type": "histogram", "values": [1.0, 0.0, 1.0, 0.0, 0.0, 1.0, 0.0, 0.0, 0.0, 0.0, 2.0, 1.0, 1.0, 0.0, 0.0, 0.0, 1.0, 1.0, 0.0, 0.0, 1.0, 1.0, 2.0, 0.0, 2.0, 1.0, 2.0, 1.0, 1.0, 1.0, 2.0, 1.0, 0.0, 2.0, 0.0, 1.0, 0.0, 1.0, 0.0, 1.0, 0.0, 0.0, 0.0, 0.0, 0.0, 0.0, 1.0, 0.0, 0.0, 1.0, 0.0, 0.0, 0.0, 0.0, 0.0, 0.0, 0.0, 0.0, 0.0, 0.0, 0.0, 0.0, 0.0, 1.0], "bins": [-0.0015791580080986023, -0.0015203648945316672, -0.0014615717809647322, -0.001402778667397797, -0.001343985553830862, -0.0012851925566792488, -0.0012263994431123137, -0.0011676063295453787, -0.0011088132159784436, -0.0010500201024115086, -0.0009912269888445735, -0.0009324339334852993, -0.0008736408199183643, -0.0008148477063514292, -0.0007560546509921551, -0.00069726153742522, -0.000638468423858285, -0.0005796753102913499, -0.0005208821967244148, -0.0004620891413651407, -0.0004032960277982056, -0.00034450291423127055, -0.00028570982976816595, -0.0002269167307531461, -0.00016812363173812628, -0.00010933053272310644, -5.053743370808661e-05, 8.255665306933224e-06, 6.704876432195306e-05, 0.0001258418633369729, 0.00018463496235199273, 0.00024342806136701256, 0.0003022211603820324, 0.00036101427394896746, 0.00041980735841207206, 0.00047860044287517667, 0.0005373935564421117, 0.0005961866700090468, 0.0006549797253683209, 0.000713772838935256, 0.0007725659525021911, 0.0008313590660691261, 0.0008901521796360612, 0.0009489452349953353, 0.0010077382903546095, 0.0010665314039215446, 0.0011253245174884796, 0.0011841176310554147, 0.0012429107446223497, 0.0013017038581892848, 0.0013604969717562199, 0.001419290085323155, 0.00147808319889009, 0.0015368761960417032, 0.0015956693096086383, 0.0016544624231755733, 0.0017132555367425084, 0.0017720486503094435, 0.0018308417638763785, 0.0018896348774433136, 0.0019484278745949268, 0.0020072211045771837, 0.002066014101728797, 0.002124807331711054, 0.002183600328862667]}, "gradients/linearlayers.1.0.weight": {"_type": "histogram", "values": [1.0, 0.0, 3.0, 0.0, 0.0, 2.0, 1.0, 0.0, 1.0, 1.0, 0.0, 4.0, 2.0, 2.0, 2.0, 3.0, 14.0, 8.0, 14.0, 10.0, 10.0, 19.0, 27.0, 38.0, 42.0, 43.0, 60.0, 75.0, 174.0, 735.0, 339.0, 127.0, 62.0, 56.0, 36.0, 25.0, 20.0, 13.0, 16.0, 6.0, 10.0, 5.0, 9.0, 7.0, 6.0, 5.0, 1.0, 2.0, 0.0, 0.0, 2.0, 0.0, 5.0, 1.0, 1.0, 0.0, 0.0, 0.0, 0.0, 0.0, 0.0, 0.0, 1.0, 2.0], "bins": [-0.012053322046995163, -0.01164876576513052, -0.011244209483265877, -0.010839653201401234, -0.01043509691953659, -0.010030540637671947, -0.009625984355807304, -0.009221428073942661, -0.008816871792078018, -0.008412315510213375, -0.008007759228348732, -0.007603203412145376, -0.007198647130280733, -0.00679409084841609, -0.006389534566551447, -0.005984978284686804, -0.005580422002822161, -0.005175865720957518, -0.0047713094390928745, -0.004366753157228231, -0.003962196875363588, -0.003557640826329589, -0.003153084544464946, -0.0027485282626003027, -0.0023439719807356596, -0.0019394156988710165, -0.0015348594170063734, -0.0011303032515570521, -0.000725746969692409, -0.0003211907169315964, 8.336553582921624e-05, 0.0004879217885900289, 0.0008924780413508415, 0.0012970343232154846, 0.0017015906050801277, 0.002106146886944771, 0.002510703168809414, 0.0029152592178434134, 0.0033198154997080564, 0.0037243717815726995, 0.004128928296267986, 0.004533484112471342, 0.004938040394335985, 0.005342596676200628, 0.005747152958065271, 0.0061517092399299145, 0.006556265521794558, 0.006960821803659201, 0.007365378085523844, 0.007769934367388487, 0.008174490183591843, 0.008579046465456486, 0.008983602747321129, 0.009388159029185772, 0.009792715311050415, 0.010197271592915058, 0.010601827874779701, 0.011006384156644344, 0.011410940438508987, 0.01181549672037363, 0.012220053002238274, 0.012624609284102917, 0.01302916556596756, 0.013433721847832203, 0.013838278129696846]}, "gradients/linearlayers.0.0.bias": {"_type": "histogram", "values": [1.0, 0.0, 0.0, 0.0, 0.0, 0.0, 0.0, 0.0, 0.0, 0.0, 0.0, 0.0, 0.0, 0.0, 1.0, 0.0, 0.0, 0.0, 0.0, 0.0, 2.0, 1.0, 0.0, 0.0, 1.0, 2.0, 1.0, 1.0, 0.0, 1.0, 2.0, 0.0, 3.0, 1.0, 2.0, 4.0, 2.0, 4.0, 4.0, 7.0, 6.0, 2.0, 4.0, 3.0, 1.0, 2.0, 0.0, 0.0, 1.0, 1.0, 0.0, 1.0, 1.0, 0.0, 1.0, 0.0, 0.0, 0.0, 0.0, 0.0, 0.0, 0.0, 0.0, 1.0], "bins": [-0.0026174448430538177, -0.002551408251747489, -0.00248537166044116, -0.0024193350691348314, -0.0023532984778285027, -0.0022872621193528175, -0.0022212255280464888, -0.00215518893674016, -0.002089152345433831, -0.0020231157541275024, -0.0019570791628211737, -0.0018910426879301667, -0.001825006096623838, -0.0017589695053175092, -0.0016929330304265022, -0.0016268964391201735, -0.0015608598478138447, -0.001494823256507516, -0.0014287866652011871, -0.0013627501903101802, -0.0012967135990038514, -0.0012306770076975226, -0.0011646405328065157, -0.001098603941500187, -0.0010325673501938581, -0.0009665307588875294, -0.0009004942257888615, -0.0008344576926901937, -0.0007684211013838649, -0.0007023845100775361, -0.0006363479769788682, -0.0005703114438802004, -0.0005042749689891934, -0.0004382384067866951, -0.0003722018445841968, -0.0003061652823816985, -0.00024012872017920017, -0.00017409215797670186, -0.00010805559577420354, -4.201903357170522e-05, 2.4017528630793095e-05, 9.005409083329141e-05, 0.00015609065303578973, 0.00022212721523828804, 0.00028816377744078636, 0.0003542003396432847, 0.000420236901845783, 0.0004862734640482813, 0.0005523100262507796, 0.0006183466175571084, 0.0006843831506557763, 0.0007504196837544441, 0.0008164562750607729, 0.0008824928663671017, 0.0009485293994657695, 0.0010145659325644374, 0.0010806025238707662, 0.001146639115177095, 0.0012126755900681019, 0.0012787121813744307, 0.0013447487726807594, 0.0014107853639870882, 0.001476821955293417, 0.001542858430184424, 0.0016088950214907527]}, "gradients/linearlayers.0.0.weight": {"_type": "histogram", "values": [1.0, 0.0, 0.0, 0.0, 0.0, 0.0, 1.0, 0.0, 0.0, 3.0, 0.0, 1.0, 2.0, 0.0, 2.0, 3.0, 1.0, 2.0, 7.0, 11.0, 8.0, 6.0, 15.0, 28.0, 28.0, 34.0, 55.0, 73.0, 105.0, 173.0, 221.0, 317.0, 551.0, 2171.0, 3132.0, 506.0, 265.0, 170.0, 88.0, 68.0, 50.0, 35.0, 16.0, 11.0, 6.0, 4.0, 0.0, 3.0, 2.0, 4.0, 5.0, 3.0, 2.0, 1.0, 1.0, 0.0, 0.0, 0.0, 0.0, 0.0, 0.0, 0.0, 0.0, 1.0], "bins": [-0.012356026098132133, -0.01199295837432146, -0.011629890650510788, -0.01126682385802269, -0.010903756134212017, -0.010540688410401344, -0.010177620686590672, -0.009814552962779999, -0.0094514861702919, -0.009088418446481228, -0.008725350722670555, -0.008362282998859882, -0.00799921527504921, -0.007636148016899824, -0.007273080293089151, -0.006910013034939766, -0.006546945311129093, -0.00618387758731842, -0.005820810329169035, -0.005457742605358362, -0.005094675347208977, -0.004731607623398304, -0.004368539899587631, -0.004005472641438246, -0.003642404917627573, -0.003279337426647544, -0.002916269935667515, -0.002553202211856842, -0.002190134720876813, -0.0018270672298967838, -0.001463999622501433, -0.001100932015106082, -0.0007378645241260529, -0.00037479697493836284, -1.1729425750672817e-05, 0.0003513381234370172, 0.0007144056726247072, 0.0010774731636047363, 0.0014405407710000873, 0.0018036083783954382, 0.0021666758693754673, 0.0025297433603554964, 0.0028928108513355255, 0.0032558785751461983, 0.0036189460661262274, 0.0039820135571062565, 0.004345081280916929, 0.004708148539066315, 0.0050712162628769875, 0.00543428398668766, 0.005797351244837046, 0.006160418968647718, 0.006523486226797104, 0.006886553950607777, 0.007249621674418449, 0.007612688932567835, 0.007975757122039795, 0.008338823914527893, 0.008701891638338566, 0.009064959362149239, 0.009428027085959911, 0.009791094809770584, 0.010154161602258682, 0.010517229326069355, 0.010880297049880028]}, "gradients/embeds.2.bias": {"_type": "histogram", "values": [1.0, 0.0, 0.0, 1.0, 0.0, 0.0, 0.0, 0.0, 1.0, 0.0, 0.0, 0.0, 1.0, 0.0, 0.0, 2.0, 0.0, 1.0, 0.0, 1.0, 0.0, 1.0, 1.0, 2.0, 0.0, 3.0, 4.0, 1.0, 0.0, 4.0, 3.0, 3.0, 4.0, 7.0, 7.0, 6.0, 9.0, 14.0, 14.0, 6.0, 4.0, 1.0, 4.0, 1.0, 3.0, 1.0, 4.0, 2.0, 2.0, 2.0, 1.0, 1.0, 0.0, 0.0, 1.0, 1.0, 0.0, 1.0, 0.0, 0.0, 0.0, 0.0, 0.0, 2.0], "bins": [-0.0021655671298503876, -0.002108462154865265, -0.002051357179880142, -0.0019942522048950195, -0.001937147113494575, -0.0018800421385094523, -0.0018229371635243297, -0.001765832188539207, -0.0017087272135540843, -0.0016516222385689616, -0.0015945171471685171, -0.0015374121721833944, -0.0014803071971982718, -0.001423202222213149, -0.0013660972472280264, -0.0013089922722429037, -0.001251887297257781, -0.0011947822058573365, -0.0011376772308722138, -0.0010805722558870912, -0.0010234672809019685, -0.0009663622477091849, -0.0009092572727240622, -0.0008521522977389395, -0.0007950472645461559, -0.0007379422895610332, -0.0006808373145759106, -0.0006237323395907879, -0.0005666273063980043, -0.0005095223314128816, -0.0004524173273239285, -0.0003953123523388058, -0.00033820734824985266, -0.0002811023441608995, -0.00022399736917577684, -0.0001668923650868237, -0.00010978737554978579, -5.268238237476908e-05, 4.422610800247639e-06, 6.152760761324316e-05, 0.00011863259715028107, 0.00017573758668731898, 0.0002328425762243569, 0.00028994758031331003, 0.00034705258440226316, 0.00040415755938738585, 0.000461262563476339, 0.0005183675675652921, 0.0005754725425504148, 0.0006325775175355375, 0.0006896825507283211, 0.0007467875257134438, 0.0008038925006985664, 0.00086099753389135, 0.0009181025088764727, 0.0009752074838615954, 0.001032312517054379, 0.0010894174920395017, 0.0011465224670246243, 0.001203627442009747, 0.0012607324169948697, 0.0013178375083953142, 0.001374942483380437, 0.0014320474583655596, 0.0014891524333506823]}, "gradients/embeds.2.weight": {"_type": "histogram", "values": [1.0, 1.0, 0.0, 0.0, 1.0, 0.0, 0.0, 1.0, 1.0, 4.0, 2.0, 5.0, 7.0, 8.0, 15.0, 17.0, 19.0, 34.0, 37.0, 52.0, 56.0, 87.0, 146.0, 162.0, 199.0, 288.0, 401.0, 571.0, 856.0, 1422.0, 2492.0, 6523.0, 12478.0, 2803.0, 1419.0, 801.0, 601.0, 354.0, 245.0, 167.0, 119.0, 85.0, 66.0, 48.0, 46.0, 24.0, 24.0, 18.0, 18.0, 8.0, 8.0, 7.0, 7.0, 2.0, 3.0, 3.0, 0.0, 3.0, 1.0, 0.0, 1.0, 0.0, 0.0, 1.0], "bins": [-0.0067202067002654076, -0.006511449348181486, -0.006302691530436277, -0.006093934178352356, -0.005885176360607147, -0.005676419008523226, -0.005467661190778017, -0.005258903838694096, -0.005050146020948887, -0.0048413886688649654, -0.004632630851119757, -0.004423873499035835, -0.0042151156812906265, -0.004006358329206705, -0.00379760074429214, -0.003588843159377575, -0.00338008557446301, -0.0031713279895484447, -0.0029625704046338797, -0.0027538128197193146, -0.0025450552348047495, -0.0023362976498901844, -0.0021275400649756193, -0.001918782596476376, -0.001710025011561811, -0.0015012674266472459, -0.0012925098417326808, -0.0010837522568181157, -0.0008749947301112115, -0.0006662371451966465, -0.0004574795893859118, -0.0002487220335751772, -3.9964448660612106e-05, 0.00016879312170203775, 0.0003775506920646876, 0.0005863082478754222, 0.0007950658327899873, 0.0010038233594968915, 0.0012125809444114566, 0.0014213385293260217, 0.0016300961142405868, 0.0018388536991551518, 0.002047611167654395, 0.00225636875256896, 0.0024651263374835253, 0.0026738839223980904, 0.0028826415073126554, 0.0030913990922272205, 0.0033001566771417856, 0.0035089142620563507, 0.003717671846970916, 0.003926429431885481, 0.004135186783969402, 0.004343944601714611, 0.0045527019537985325, 0.004761459771543741, 0.004970217123627663, 0.005178974941372871, 0.005387732293456793, 0.005596490111202002, 0.005805247463285923, 0.006014005281031132, 0.006222762633115053, 0.006431520450860262, 0.006640277802944183]}, "gradients/embeds.0.bias": {"_type": "histogram", "values": [1.0, 0.0, 1.0, 0.0, 0.0, 0.0, 2.0, 1.0, 1.0, 1.0, 1.0, 1.0, 0.0, 0.0, 2.0, 2.0, 3.0, 2.0, 2.0, 6.0, 5.0, 5.0, 7.0, 9.0, 1.0, 6.0, 10.0, 9.0, 8.0, 4.0, 9.0, 6.0, 9.0, 11.0, 16.0, 12.0, 16.0, 11.0, 8.0, 4.0, 10.0, 10.0, 3.0, 4.0, 9.0, 5.0, 3.0, 2.0, 1.0, 1.0, 3.0, 6.0, 0.0, 2.0, 0.0, 0.0, 0.0, 1.0, 1.0, 1.0, 0.0, 0.0, 1.0, 1.0], "bins": [-0.0020028993021696806, -0.0019475757144391537, -0.0018922522431239486, -0.0018369286553934216, -0.0017816051840782166, -0.0017262815963476896, -0.0016709580086171627, -0.0016156345373019576, -0.0015603109495714307, -0.0015049873618409038, -0.0014496638905256987, -0.0013943403027951717, -0.0013390167150646448, -0.0012836932437494397, -0.0012283696560189128, -0.0011730461847037077, -0.0011177225969731808, -0.0010623990092426538, -0.0010070755379274487, -0.0009517519501969218, -0.0008964284206740558, -0.0008411048911511898, -0.0007857813034206629, -0.0007304577738977969, -0.0006751342443749309, -0.0006198107148520648, -0.0005644871853291988, -0.0005091635975986719, -0.0004538400680758059, -0.0003985165385529399, -0.0003431929799262434, -0.00028786942129954696, -0.00023254600819200277, -0.00017722246411722153, -0.0001218989200424403, -6.657537596765906e-05, -1.1251831892877817e-05, 4.407171218190342e-05, 9.939525625668466e-05, 0.0001547188003314659, 0.00021004234440624714, 0.00026536587392911315, 0.0003206894325558096, 0.0003760129911825061, 0.0004313365207053721, 0.0004866600502282381, 0.000541983637958765, 0.000597307167481631, 0.000652630697004497, 0.0007079542265273631, 0.0007632777560502291, 0.000818601343780756, 0.000873924873303622, 0.000929248402826488, 0.000984571990557015, 0.00103989546187222, 0.001095219049602747, 0.0011505426373332739, 0.001205866108648479, 0.001261189696379006, 0.001316513167694211, 0.001371836755424738, 0.0014271603431552649, 0.00148248381447047, 0.0015378074022009969]}, "gradients/embeds.0.weight": {"_type": "histogram", "values": [1.0, 0.0, 1.0, 1.0, 0.0, 0.0, 3.0, 2.0, 1.0, 1.0, 1.0, 1.0, 1.0, 4.0, 4.0, 1.0, 2.0, 6.0, 6.0, 3.0, 6.0, 12.0, 20.0, 12.0, 19.0, 24.0, 25.0, 47.0, 88.0, 166.0, 431.0, 1017.0, 2658.0, 6800.0, 19854.0, 70551.0, 64926.0, 18979.0, 6641.0, 2516.0, 987.0, 387.0, 183.0, 85.0, 39.0, 23.0, 23.0, 8.0, 7.0, 7.0, 6.0, 6.0, 3.0, 2.0, 3.0, 1.0, 3.0, 1.0, 0.0, 0.0, 0.0, 1.0, 1.0, 1.0], "bins": [-0.024547459557652473, -0.023865127936005592, -0.02318279631435871, -0.02250046469271183, -0.02181813307106495, -0.021135801449418068, -0.020453469827771187, -0.019771138206124306, -0.019088806584477425, -0.018406474962830544, -0.017724143341183662, -0.01704181171953678, -0.0163594800978899, -0.01567714847624302, -0.014994815923273563, -0.014312484301626682, -0.013630152679979801, -0.01294782105833292, -0.012265489436686039, -0.011583157815039158, -0.010900826193392277, -0.010218494571745396, -0.009536162950098515, -0.008853831328451633, -0.008171498775482178, -0.007489167619496584, -0.006806835997849703, -0.006124504376202822, -0.005442172288894653, -0.004759840667247772, -0.004077509045600891, -0.00339517742395401, -0.002712845802307129, -0.002030514180660248, -0.0013481824425980449, -0.0006658507627435029, 1.648091711103916e-05, 0.0006988125969655812, 0.0013811442768201232, 0.002063476014882326, 0.0027458076365292072, 0.0034281392581760883, 0.0041104708798229694, 0.0047928025014698505, 0.005475134588778019, 0.0061574662104249, 0.006839797832071781, 0.007522129453718662, 0.008204461075365543, 0.008886792697012424, 0.009569124318659306, 0.010251455940306187, 0.010933787561953068, 0.011616119183599949, 0.01229845080524683, 0.012980782426893711, 0.013663114979863167, 0.014345446601510048, 0.015027778223156929, 0.01571010984480381, 0.01639244146645069, 0.017074773088097572, 0.017757104709744453, 0.018439436331391335, 0.019121767953038216]}, "_wandb": {"runtime": 249}}