{"epoch": 19, "_timestamp": 1722985285.3573022, "_runtime": 889.6202981472015, "_step": 154, "train loss": 0.12784689664840698, "val loss": 0.3435840308666229, "val auc": 0.9281985232847133, "val precision": 0.7808219178082192, "val recall": 0.7960893854748603, "val f1": 0.7883817427385892, "CYP3A4 Confusion Matrix": {"_type": "image-file", "sha256": "c148d9340f905eaff44d917b412f04eb29ef72b4a30c76df522789e34bff9596", "size": 17256, "path": "media/images/CYP3A4 Confusion Matrix_132_c148d9340f905eaff44d.png", "format": "png", "width": 1000, "height": 700}, "gradients/output.bias": {"_type": "histogram", "values": [0.0, 0.0, 0.0, 0.0, 0.0, 0.0, 0.0, 0.0, 0.0, 0.0, 0.0, 0.0, 0.0, 0.0, 0.0, 0.0, 0.0, 0.0, 0.0, 0.0, 0.0, 0.0, 0.0, 0.0, 0.0, 0.0, 0.0, 0.0, 0.0, 0.0, 0.0, 0.0, 1.0, 0.0, 0.0, 0.0, 0.0, 0.0, 0.0, 0.0, 0.0, 0.0, 0.0, 0.0, 0.0, 0.0, 0.0, 0.0, 0.0, 0.0, 0.0, 0.0, 0.0, 0.0, 0.0, 0.0, 0.0, 0.0, 0.0, 0.0, 0.0, 0.0, 0.0, 0.0], "bins": [-0.05047203600406647, -0.05047203600406647, -0.05047203600406647, -0.05047203600406647, -0.05047203600406647, -0.05047203600406647, -0.05047203600406647, -0.05047203600406647, -0.05047203600406647, -0.05047203600406647, -0.05047203600406647, -0.05047203600406647, -0.05047203600406647, -0.05047203600406647, -0.05047203600406647, -0.05047203600406647, -0.05047203600406647, -0.05047203600406647, -0.05047203600406647, -0.05047203600406647, -0.05047203600406647, -0.05047203600406647, -0.05047203600406647, -0.05047203600406647, -0.05047203600406647, -0.05047203600406647, -0.05047203600406647, -0.05047203600406647, -0.05047203600406647, -0.05047203600406647, -0.05047203600406647, -0.05047203600406647, -0.05047203600406647, -0.05047203600406647, -0.05047203600406647, -0.05047203600406647, -0.05047203600406647, -0.05047203600406647, -0.05047203600406647, -0.05047203600406647, -0.05047203600406647, -0.05047203600406647, -0.05047203600406647, -0.05047203600406647, -0.05047203600406647, -0.05047203600406647, -0.05047203600406647, -0.05047203600406647, -0.05047203600406647, -0.05047203600406647, -0.05047203600406647, -0.05047203600406647, -0.05047203600406647, -0.05047203600406647, -0.05047203600406647, -0.05047203600406647, -0.05047203600406647, -0.05047203600406647, -0.05047203600406647, -0.05047203600406647, -0.05047203600406647, -0.05047203600406647, -0.05047203600406647, -0.05047203600406647, -0.05047203600406647]}, "gradients/output.weight": {"_type": "histogram", "values": [1.0, 0.0, 0.0, 0.0, 1.0, 0.0, 0.0, 1.0, 0.0, 0.0, 0.0, 0.0, 0.0, 0.0, 0.0, 1.0, 0.0, 0.0, 0.0, 0.0, 0.0, 1.0, 0.0, 0.0, 0.0, 2.0, 1.0, 0.0, 0.0, 1.0, 0.0, 0.0, 0.0, 0.0, 1.0, 0.0, 0.0, 2.0, 0.0, 0.0, 0.0, 1.0, 0.0, 0.0, 0.0, 0.0, 0.0, 0.0, 0.0, 0.0, 1.0, 0.0, 0.0, 1.0, 0.0, 0.0, 0.0, 0.0, 0.0, 0.0, 0.0, 0.0, 0.0, 1.0], "bins": [-0.08031054586172104, -0.07824042439460754, -0.07617030292749405, -0.07410018146038055, -0.07203005999326706, -0.06995993852615356, -0.06788980960845947, -0.06581968814134598, -0.06374956667423248, -0.06167944520711899, -0.05960932374000549, -0.057539202272892, -0.0554690808057785, -0.05339895933866501, -0.051328834146261215, -0.04925871267914772, -0.047188591212034225, -0.04511846974492073, -0.043048348277807236, -0.04097822308540344, -0.03890810161828995, -0.03683798015117645, -0.03476785868406296, -0.03269773721694946, -0.03062761388719082, -0.028557492420077324, -0.02648736909031868, -0.024417247623205185, -0.02234712615609169, -0.020277002826333046, -0.01820688135921955, -0.016136758029460907, -0.014066636562347412, -0.011996514163911343, -0.009926391765475273, -0.007856270298361778, -0.005786147899925709, -0.003716025734320283, -0.001645903568714857, 0.00042421859689056873, 0.0024943407624959946, 0.004564463160932064, 0.006634585093706846, 0.008704707026481628, 0.010774829424917698, 0.012844951823353767, 0.014915073290467262, 0.016985196620225906, 0.0190553180873394, 0.021125439554452896, 0.02319556288421154, 0.025265684351325035, 0.02733580768108368, 0.029405929148197174, 0.03147605061531067, 0.033546172082424164, 0.03561629354953766, 0.03768641874194145, 0.03975654020905495, 0.04182666167616844, 0.04389678314328194, 0.04596690461039543, 0.048037029802799225, 0.05010715126991272, 0.052177272737026215]}, "gradients/linearlayers.3.0.bias": {"_type": "histogram", "values": [1.0, 0.0, 1.0, 1.0, 1.0, 0.0, 1.0, 1.0, 0.0, 0.0, 0.0, 0.0, 1.0, 0.0, 0.0, 0.0, 0.0, 0.0, 0.0, 0.0, 0.0, 0.0, 1.0, 0.0, 0.0, 1.0, 0.0, 0.0, 0.0, 0.0, 0.0, 0.0, 1.0, 0.0, 0.0, 0.0, 0.0, 0.0, 0.0, 0.0, 0.0, 0.0, 1.0, 0.0, 0.0, 0.0, 0.0, 0.0, 0.0, 0.0, 0.0, 0.0, 1.0, 0.0, 0.0, 1.0, 0.0, 1.0, 0.0, 0.0, 0.0, 0.0, 1.0, 1.0], "bins": [-0.01565912365913391, -0.015214324928820133, -0.01476952526718378, -0.014324726536870003, -0.01387992687523365, -0.013435128144919872, -0.01299032848328352, -0.012545529752969742, -0.01210073009133339, -0.011655931361019611, -0.011211131699383259, -0.010766332969069481, -0.010321533307433128, -0.00987673457711935, -0.009431934915482998, -0.00898713618516922, -0.008542336523532867, -0.00809753779321909, -0.007652738597244024, -0.007207939401268959, -0.006763140205293894, -0.006318341009318829, -0.005873541813343763, -0.005428742617368698, -0.00498394388705492, -0.004539144691079855, -0.00409434549510479, -0.003649546066299081, -0.0032047471031546593, -0.002759947907179594, -0.002315148711204529, -0.0018703495152294636, -0.0014255503192543983, -0.0009807511232793331, -0.0005359519855119288, -9.115281864069402e-05, 0.00035364634823054075, 0.000798445544205606, 0.0012432446237653494, 0.0016880438197404146, 0.00213284301571548, 0.002577642211690545, 0.0030224414076656103, 0.0034672406036406755, 0.003912039566785097, 0.004356838762760162, 0.004801637958735228, 0.005246437154710293, 0.005691236350685358, 0.006136035546660423, 0.0065808347426354885, 0.007025633938610554, 0.007470433134585619, 0.007915232330560684, 0.008360031060874462, 0.008804830722510815, 0.009249629452824593, 0.009694429114460945, 0.010139227844774723, 0.010584027506411076, 0.011028826236724854, 0.011473625898361206, 0.011918424628674984, 0.012363224290311337, 0.012808023020625114]}, "gradients/linearlayers.3.0.weight": {"_type": "histogram", "values": [1.0, 0.0, 1.0, 0.0, 0.0, 0.0, 0.0, 2.0, 1.0, 1.0, 3.0, 1.0, 1.0, 1.0, 1.0, 2.0, 4.0, 4.0, 4.0, 4.0, 3.0, 2.0, 6.0, 3.0, 7.0, 7.0, 6.0, 12.0, 19.0, 29.0, 25.0, 32.0, 31.0, 21.0, 29.0, 30.0, 28.0, 24.0, 25.0, 28.0, 20.0, 14.0, 15.0, 12.0, 6.0, 4.0, 4.0, 3.0, 7.0, 3.0, 5.0, 5.0, 3.0, 4.0, 1.0, 1.0, 3.0, 2.0, 0.0, 1.0, 0.0, 0.0, 0.0, 1.0], "bins": [-0.02826923504471779, -0.02746414951980114, -0.02665906399488449, -0.025853976607322693, -0.025048891082406044, -0.024243805557489395, -0.023438720032572746, -0.022633634507656097, -0.0218285471200943, -0.02102346159517765, -0.020218376070261, -0.019413290545344353, -0.018608205020427704, -0.017803119495511055, -0.016998032107949257, -0.016192946583032608, -0.01538786105811596, -0.01458277553319931, -0.013777689076960087, -0.012972603552043438, -0.012167517095804214, -0.011362431570887566, -0.010557346045970917, -0.009752259589731693, -0.008947174064815044, -0.008142088539898396, -0.007337002083659172, -0.006531916558742523, -0.005726830568164587, -0.004921744577586651, -0.004116659052670002, -0.003311573062092066, -0.0025064870715141296, -0.0017014011973515153, -0.000896315323188901, -9.12294490262866e-05, 0.0007138564251363277, 0.001518942299298942, 0.0023240281734615564, 0.003129113931208849, 0.003934199921786785, 0.004739285912364721, 0.0055443719029426575, 0.006349457427859306, 0.0071545434184372425, 0.007959629409015179, 0.008764714933931828, 0.009569801390171051, 0.0103748869150877, 0.011179972440004349, 0.011985058896243572, 0.012790144421160221, 0.013595230877399445, 0.014400316402316093, 0.015205401927232742, 0.01601048745214939, 0.01681557297706604, 0.017620660364627838, 0.018425745889544487, 0.019230831414461136, 0.020035916939377785, 0.020841002464294434, 0.02164608985185623, 0.02245117537677288, 0.02325626090168953]}, "gradients/linearlayers.2.0.bias": {"_type": "histogram", "values": [1.0, 0.0, 1.0, 0.0, 1.0, 0.0, 0.0, 0.0, 0.0, 0.0, 0.0, 0.0, 1.0, 1.0, 0.0, 1.0, 0.0, 1.0, 0.0, 0.0, 0.0, 1.0, 0.0, 0.0, 2.0, 1.0, 1.0, 0.0, 0.0, 0.0, 0.0, 0.0, 0.0, 0.0, 1.0, 3.0, 2.0, 0.0, 0.0, 1.0, 1.0, 0.0, 0.0, 1.0, 1.0, 0.0, 0.0, 1.0, 0.0, 0.0, 0.0, 0.0, 1.0, 1.0, 1.0, 1.0, 1.0, 1.0, 0.0, 1.0, 1.0, 0.0, 0.0, 1.0], "bins": [-0.02608362026512623, -0.02536335401237011, -0.02464308589696884, -0.023922819644212723, -0.023202553391456604, -0.022482287138700485, -0.021762020885944366, -0.0210417527705431, -0.02032148651778698, -0.01960122026503086, -0.018880952149629593, -0.018160685896873474, -0.017440419644117355, -0.016720153391361237, -0.015999887138605118, -0.01527961902320385, -0.014559352770447731, -0.013839086517691612, -0.013118819333612919, -0.012398552149534225, -0.011678285896778107, -0.010958019644021988, -0.010237752459943295, -0.009517485275864601, -0.008797219023108482, -0.008076952770352364, -0.00735668558627367, -0.006636418867856264, -0.005916152149438858, -0.005195885431021452, -0.004475618712604046, -0.00375535199418664, -0.0030350834131240845, -0.0023148166947066784, -0.0015945499762892723, -0.0008742832578718662, -0.00015401653945446014, 0.0005662501789629459, 0.001286516897380352, 0.002006783615797758, 0.002727050334215164, 0.0034473170526325703, 0.004167583771049976, 0.004887850489467382, 0.0056081172078847885, 0.006328383926302195, 0.007048650644719601, 0.007768917363137007, 0.008489184081554413, 0.009209450334310532, 0.009929717518389225, 0.010649984702467918, 0.011370250955224037, 0.012090517207980156, 0.01281078439205885, 0.013531051576137543, 0.014251317828893661, 0.01497158408164978, 0.0156918503344059, 0.016412118449807167, 0.017132384702563286, 0.017852650955319405, 0.018572919070720673, 0.01929318532347679, 0.02001345157623291]}, "gradients/linearlayers.2.0.weight": {"_type": "histogram", "values": [1.0, 1.0, 1.0, 1.0, 1.0, 0.0, 0.0, 1.0, 5.0, 5.0, 4.0, 4.0, 3.0, 4.0, 6.0, 10.0, 14.0, 12.0, 18.0, 18.0, 27.0, 16.0, 31.0, 27.0, 42.0, 54.0, 48.0, 56.0, 77.0, 85.0, 67.0, 131.0, 237.0, 246.0, 138.0, 101.0, 75.0, 58.0, 53.0, 48.0, 61.0, 35.0, 30.0, 29.0, 26.0, 22.0, 23.0, 6.0, 13.0, 16.0, 17.0, 12.0, 7.0, 3.0, 2.0, 2.0, 4.0, 4.0, 5.0, 2.0, 1.0, 1.0, 0.0, 1.0], "bins": [-0.0330132320523262, -0.03201431781053543, -0.03101539984345436, -0.03001648373901844, -0.02901756763458252, -0.0280186515301466, -0.027019735425710678, -0.026020819321274757, -0.025021903216838837, -0.024022987112402916, -0.023024071007966995, -0.022025154903531075, -0.021026238799095154, -0.020027322694659233, -0.019028406590223312, -0.01802949048578739, -0.01703057438135147, -0.01603165827691555, -0.01503274217247963, -0.014033826068043709, -0.013034909963607788, -0.012035993859171867, -0.011037077754735947, -0.010038161650300026, -0.009039245545864105, -0.008040329441428185, -0.007041413336992264, -0.006042497232556343, -0.005043581128120422, -0.004044665023684502, -0.003045748919248581, -0.0020468328148126602, -0.0010479167103767395, -4.900060594081879e-05, 0.0009499154984951019, 0.0019488316029310226, 0.0029477477073669434, 0.003946663811802864, 0.004945579916238785, 0.0059444960206747055, 0.006943412125110626, 0.007942328229546547, 0.008941244333982468, 0.009940160438418388, 0.010939076542854309, 0.01193799264729023, 0.01293690875172615, 0.013935824856162071, 0.014934740960597992, 0.015933657065033913, 0.016932573169469833, 0.017931489273905754, 0.018930405378341675, 0.019929321482777596, 0.020928237587213516, 0.021927153691649437, 0.022926069796085358, 0.02392498590052128, 0.0249239020049572, 0.02592281810939312, 0.02692173421382904, 0.02792065031826496, 0.028919566422700882, 0.029918482527136803, 0.030917398631572723]}, "gradients/linearlayers.1.0.bias": {"_type": "histogram", "values": [1.0, 0.0, 0.0, 0.0, 1.0, 0.0, 0.0, 1.0, 1.0, 0.0, 1.0, 0.0, 0.0, 0.0, 2.0, 3.0, 1.0, 2.0, 1.0, 3.0, 2.0, 2.0, 1.0, 0.0, 1.0, 1.0, 1.0, 0.0, 2.0, 1.0, 0.0, 1.0, 2.0, 3.0, 1.0, 1.0, 0.0, 2.0, 4.0, 0.0, 0.0, 2.0, 0.0, 2.0, 2.0, 3.0, 1.0, 1.0, 1.0, 5.0, 0.0, 0.0, 1.0, 2.0, 0.0, 0.0, 1.0, 0.0, 0.0, 0.0, 0.0, 0.0, 0.0, 1.0], "bins": [-0.032762713730335236, -0.03177187591791153, -0.030781039968132973, -0.029790204018354416, -0.02879936806857586, -0.027808530256152153, -0.026817694306373596, -0.02582685835659504, -0.024836022406816483, -0.023845184594392776, -0.02285434864461422, -0.021863512694835663, -0.020872674882411957, -0.0198818389326334, -0.018891002982854843, -0.017900165170431137, -0.01690932922065258, -0.015918493270874023, -0.014927656389772892, -0.01393681950867176, -0.012945983558893204, -0.011955146677792072, -0.01096430979669094, -0.009973473846912384, -0.008982636965811253, -0.007991800084710121, -0.007000964134931564, -0.006010127253830433, -0.005019290838390589, -0.004028454422950745, -0.003037617774680257, -0.002046781126409769, -0.001055944710969925, -6.510817911475897e-05, 0.000925728352740407, 0.001916564884595573, 0.002907401416450739, 0.003898237831890583, 0.0048890747129917145, 0.005879911128431559, 0.006870747543871403, 0.007861584424972534, 0.008852420374751091, 0.009843257255852222, 0.010834094136953354, 0.01182493008673191, 0.012815766967833042, 0.013806602917611599, 0.01479743979871273, 0.015788275748491287, 0.016779113560914993, 0.01776994951069355, 0.018760785460472107, 0.019751623272895813, 0.02074245922267437, 0.021733295172452927, 0.022724132984876633, 0.02371496893465519, 0.024705804884433746, 0.025696640834212303, 0.02668747864663601, 0.027678314596414566, 0.028669150546193123, 0.02965998835861683, 0.030650824308395386]}, "gradients/linearlayers.1.0.weight": {"_type": "histogram", "values": [2.0, 0.0, 0.0, 0.0, 1.0, 4.0, 3.0, 4.0, 1.0, 2.0, 2.0, 4.0, 6.0, 9.0, 19.0, 11.0, 20.0, 30.0, 37.0, 51.0, 65.0, 80.0, 90.0, 134.0, 146.0, 177.0, 234.0, 258.0, 298.0, 371.0, 493.0, 633.0, 928.0, 910.0, 625.0, 503.0, 360.0, 298.0, 256.0, 225.0, 154.0, 160.0, 123.0, 107.0, 78.0, 61.0, 51.0, 37.0, 41.0, 15.0, 16.0, 14.0, 10.0, 8.0, 4.0, 7.0, 5.0, 3.0, 2.0, 2.0, 2.0, 0.0, 1.0, 1.0], "bins": [-0.04272092878818512, -0.04142594709992409, -0.040130965411663055, -0.03883598372340202, -0.03754100203514099, -0.03624601662158966, -0.03495103493332863, -0.033656053245067596, -0.032361071556806564, -0.031066089868545532, -0.0297711081802845, -0.02847612462937832, -0.027181142941117287, -0.025886161252856255, -0.024591177701950073, -0.02329619601368904, -0.02200121432542801, -0.020706232637166977, -0.019411250948905945, -0.018116267397999763, -0.01682128570973873, -0.0155263040214777, -0.014231321401894093, -0.012936338782310486, -0.011641357094049454, -0.010346375405788422, -0.009051392786204815, -0.0077564106322824955, -0.006461428478360176, -0.005166446324437857, -0.0038714641705155373, -0.002576482016593218, -0.0012814998626708984, 1.3482291251420975e-05, 0.0013084644451737404, 0.00260344659909606, 0.003898428753018379, 0.005193410906940699, 0.006488393060863018, 0.0077833752147853374, 0.009078357368707657, 0.010373339056968689, 0.011668321676552296, 0.012963304296135902, 0.014258285984396935, 0.015553267672657967, 0.016848251223564148, 0.01814323291182518, 0.019438214600086212, 0.020733196288347244, 0.022028177976608276, 0.023323161527514458, 0.02461814321577549, 0.025913124904036522, 0.027208108454942703, 0.028503090143203735, 0.029798071831464767, 0.0310930535197258, 0.03238803520798683, 0.033683016896247864, 0.034978002309799194, 0.036272983998060226, 0.03756796568632126, 0.03886294737458229, 0.04015792906284332]}, "gradients/linearlayers.0.0.bias": {"_type": "histogram", "values": [1.0, 0.0, 1.0, 0.0, 0.0, 2.0, 1.0, 2.0, 2.0, 1.0, 3.0, 5.0, 2.0, 1.0, 2.0, 1.0, 6.0, 2.0, 7.0, 8.0, 3.0, 5.0, 7.0, 6.0, 6.0, 4.0, 2.0, 2.0, 5.0, 2.0, 1.0, 2.0, 1.0, 4.0, 1.0, 1.0, 7.0, 0.0, 4.0, 1.0, 1.0, 2.0, 4.0, 2.0, 1.0, 2.0, 2.0, 0.0, 0.0, 0.0, 0.0, 0.0, 0.0, 0.0, 0.0, 0.0, 0.0, 0.0, 0.0, 0.0, 0.0, 1.0, 0.0, 2.0], "bins": [-0.03791464865207672, -0.0365559346973896, -0.035197220742702484, -0.033838510513305664, -0.032479796558618546, -0.031121082603931427, -0.02976236864924431, -0.02840365655720234, -0.02704494260251522, -0.025686228647828102, -0.024327516555786133, -0.022968802601099014, -0.021610088646411896, -0.020251376554369926, -0.018892662599682808, -0.01753395050764084, -0.01617523655295372, -0.014816523529589176, -0.013457810506224632, -0.012099096551537514, -0.01074038352817297, -0.009381670504808426, -0.008022956550121307, -0.0066642435267567635, -0.0053055305033922195, -0.003946817480027676, -0.0025881039910018444, -0.0012293907348066568, 0.00012932252138853073, 0.0014880357775837183, 0.002846749033778906, 0.004205462522804737, 0.005564175546169281, 0.006922888569533825, 0.008281601592898369, 0.009640315547585487, 0.010999028570950031, 0.012357741594314575, 0.013716455549001694, 0.015075168572366238, 0.01643388159573078, 0.0177925955504179, 0.01915130764245987, 0.020510021597146988, 0.021868735551834106, 0.023227447643876076, 0.024586161598563194, 0.025944873690605164, 0.027303587645292282, 0.0286623015999794, 0.03002101369202137, 0.03137972578406334, 0.03273843973875046, 0.034097153693437576, 0.035455867648124695, 0.03681458160281181, 0.03817329555749893, 0.03953200578689575, 0.04089071974158287, 0.04224943369626999, 0.04360814765095711, 0.044966861605644226, 0.046325571835041046, 0.047684285789728165, 0.04904299974441528]}, "gradients/linearlayers.0.0.weight": {"_type": "histogram", "values": [2.0, 0.0, 2.0, 4.0, 7.0, 10.0, 17.0, 16.0, 24.0, 17.0, 15.0, 21.0, 26.0, 33.0, 46.0, 75.0, 109.0, 140.0, 228.0, 287.0, 373.0, 457.0, 656.0, 965.0, 1297.0, 1939.0, 2829.0, 4827.0, 5945.0, 3769.0, 2525.0, 1669.0, 1204.0, 861.0, 626.0, 442.0, 307.0, 214.0, 224.0, 161.0, 115.0, 90.0, 58.0, 31.0, 25.0, 18.0, 18.0, 8.0, 7.0, 8.0, 8.0, 0.0, 5.0, 1.0, 2.0, 2.0, 0.0, 0.0, 0.0, 0.0, 0.0, 1.0, 0.0, 2.0], "bins": [-0.05593108385801315, -0.05394720658659935, -0.05196332931518555, -0.049979452043771744, -0.04799557477235794, -0.046011701226234436, -0.04402782395482063, -0.04204394668340683, -0.04006006941199303, -0.038076192140579224, -0.03609231486916542, -0.03410843759775162, -0.03212456405162811, -0.03014068491756916, -0.028156809508800507, -0.026172932237386703, -0.0241890549659729, -0.022205177694559097, -0.020221300423145294, -0.01823742501437664, -0.016253547742962837, -0.014269670471549034, -0.012285794131457806, -0.010301917791366577, -0.008318040519952774, -0.006334163714200258, -0.0043502869084477425, -0.0023664101026952267, -0.0003825332969427109, 0.001601343508809805, 0.0035852203145623207, 0.0055690971203148365, 0.007552981376647949, 0.009536858648061752, 0.01152073498815298, 0.01350461132824421, 0.015488488599658012, 0.017472365871071815, 0.01945624127984047, 0.021440118551254272, 0.023423995822668076, 0.02540787309408188, 0.027391750365495682, 0.029375625774264336, 0.03135950118303299, 0.03334337845444679, 0.035327255725860596, 0.0373111329972744, 0.0392950102686882, 0.041278887540102005, 0.04326276481151581, 0.04524664208292961, 0.047230519354343414, 0.04921439290046692, 0.05119827017188072, 0.053182147443294525, 0.05516602471470833, 0.05714990198612213, 0.059133779257535934, 0.06111765652894974, 0.06310153007507324, 0.06508541107177734, 0.06706928461790085, 0.06905316561460495, 0.07103703916072845]}, "gradients/embeds.2.bias": {"_type": "histogram", "values": [1.0, 2.0, 0.0, 0.0, 2.0, 1.0, 0.0, 0.0, 1.0, 0.0, 0.0, 1.0, 3.0, 2.0, 6.0, 1.0, 3.0, 2.0, 3.0, 7.0, 7.0, 4.0, 11.0, 7.0, 9.0, 10.0, 11.0, 8.0, 10.0, 9.0, 14.0, 10.0, 5.0, 8.0, 6.0, 8.0, 11.0, 6.0, 9.0, 8.0, 4.0, 8.0, 7.0, 8.0, 3.0, 3.0, 6.0, 2.0, 1.0, 1.0, 1.0, 0.0, 0.0, 0.0, 1.0, 1.0, 1.0, 1.0, 0.0, 0.0, 0.0, 0.0, 1.0, 1.0], "bins": [-0.04785747453570366, -0.04628219082951546, -0.044706910848617554, -0.04313162714242935, -0.04155634716153145, -0.039981063455343246, -0.03840578347444534, -0.03683049976825714, -0.03525521606206894, -0.033679936081171036, -0.032104652374982834, -0.03052937239408493, -0.02895408868789673, -0.027378806844353676, -0.025803525000810623, -0.02422824315726757, -0.022652961313724518, -0.021077679470181465, -0.019502397626638412, -0.01792711578309536, -0.016351833939552307, -0.01477655116468668, -0.013201268389821053, -0.011625986546278, -0.010050704702734947, -0.008475422859191895, -0.0069001405499875546, -0.005324858240783215, -0.003749576397240162, -0.0021742943208664656, -0.0005990122444927692, 0.0009762698318809271, 0.0025515519082546234, 0.004126833751797676, 0.005702116061002016, 0.007277398370206356, 0.008852680213749409, 0.010427962057292461, 0.012003244832158089, 0.013578526675701141, 0.015153808519244194, 0.016729090362787247, 0.0183043722063303, 0.019879654049873352, 0.021454937756061554, 0.023030219599604607, 0.02460550144314766, 0.026180783286690712, 0.027756065130233765, 0.029331346973776817, 0.03090662881731987, 0.03248191252350807, 0.034057192504405975, 0.03563247621059418, 0.03720775619149208, 0.03878303989768028, 0.040358319878578186, 0.04193360358476639, 0.04350888729095459, 0.04508416727185249, 0.046659450978040695, 0.0482347309589386, 0.0498100146651268, 0.051385294646024704, 0.052960578352212906]}, "gradients/embeds.2.weight": {"_type": "histogram", "values": [1.0, 1.0, 1.0, 4.0, 5.0, 3.0, 1.0, 5.0, 11.0, 15.0, 15.0, 17.0, 23.0, 25.0, 37.0, 53.0, 72.0, 95.0, 140.0, 182.0, 232.0, 351.0, 422.0, 634.0, 1013.0, 1430.0, 2113.0, 3140.0, 4759.0, 7422.0, 12042.0, 24261.0, 30427.0, 16086.0, 8997.0, 5598.0, 3687.0, 2395.0, 1554.0, 1124.0, 727.0, 487.0, 392.0, 297.0, 178.0, 142.0, 123.0, 76.0, 71.0, 48.0, 40.0, 25.0, 13.0, 10.0, 10.0, 7.0, 12.0, 7.0, 5.0, 3.0, 2.0, 2.0, 0.0, 2.0], "bins": [-0.0616881400346756, -0.0597732774913311, -0.0578584186732769, -0.055943556129932404, -0.054028693586587906, -0.05211383476853371, -0.05019897222518921, -0.04828410968184471, -0.04636925086379051, -0.044454388320446014, -0.04253952577710152, -0.04062466695904732, -0.03870980441570282, -0.03679494187235832, -0.03488008305430412, -0.032965220510959625, -0.031050359830260277, -0.02913549914956093, -0.02722063660621643, -0.025305775925517082, -0.023390915244817734, -0.021476052701473236, -0.019561192020773888, -0.01764633134007454, -0.01573146879673004, -0.013816608116030693, -0.011901747435331345, -0.009986885823309422, -0.008072024211287498, -0.00615716353058815, -0.004242301918566227, -0.002327440772205591, -0.00041257962584495544, 0.0015022816369310021, 0.0034171428997069597, 0.005332004278898239, 0.007246865425258875, 0.00916172657161951, 0.011076588183641434, 0.012991448864340782, 0.014906310476362705, 0.01682117208838463, 0.018736032769083977, 0.020650893449783325, 0.022565755993127823, 0.02448061667382717, 0.02639547735452652, 0.028310339897871017, 0.030225200578570366, 0.032140061259269714, 0.03405492380261421, 0.03596978262066841, 0.03788464516401291, 0.03979950770735741, 0.041714366525411606, 0.043629229068756104, 0.0455440916121006, 0.0474589504301548, 0.0493738129734993, 0.051288675516843796, 0.053203534334897995, 0.05511839687824249, 0.05703325942158699, 0.05894811823964119, 0.06086298078298569]}, "gradients/embeds.0.bias": {"_type": "histogram", "values": [1.0, 0.0, 0.0, 0.0, 1.0, 2.0, 1.0, 0.0, 2.0, 2.0, 1.0, 1.0, 1.0, 1.0, 4.0, 2.0, 4.0, 7.0, 8.0, 8.0, 12.0, 14.0, 11.0, 10.0, 9.0, 10.0, 9.0, 19.0, 13.0, 20.0, 23.0, 19.0, 25.0, 26.0, 30.0, 27.0, 16.0, 17.0, 22.0, 12.0, 10.0, 20.0, 14.0, 9.0, 12.0, 5.0, 9.0, 2.0, 10.0, 7.0, 3.0, 5.0, 4.0, 0.0, 2.0, 1.0, 2.0, 1.0, 1.0, 1.0, 2.0, 1.0, 0.0, 1.0], "bins": [-0.04934003949165344, -0.04785716161131859, -0.046374280005693436, -0.04489140212535858, -0.04340852424502373, -0.041925642639398575, -0.04044276475906372, -0.03895988687872887, -0.03747700899839401, -0.03599412739276886, -0.034511249512434006, -0.03302837163209915, -0.031545490026474, -0.030062612146139145, -0.02857973240315914, -0.027096854522824287, -0.025613974779844284, -0.02413109503686428, -0.022648217156529427, -0.021165337413549423, -0.01968245953321457, -0.018199579790234566, -0.016716700047254562, -0.015233821235597134, -0.013750942423939705, -0.012268063612282276, -0.010785184800624847, -0.009302305057644844, -0.007819426245987415, -0.006336547434329987, -0.0048536681570112705, -0.003370789112523198, -0.0018879100680351257, -0.00040503102354705334, 0.001077848020941019, 0.0025607270654290915, 0.004043606109917164, 0.005526484921574593, 0.007009364198893309, 0.008492243476212025, 0.009975122287869453, 0.011458001099526882, 0.012940879911184311, 0.014423759654164314, 0.015906639397144318, 0.017389517277479172, 0.018872397020459175, 0.02035527490079403, 0.021838154643774033, 0.023321034386754036, 0.02480391226708889, 0.026286792010068893, 0.027769669890403748, 0.02925254963338375, 0.030735429376363754, 0.03221830725669861, 0.03370118886232376, 0.035184066742658615, 0.03666694462299347, 0.03814982250332832, 0.039632704108953476, 0.04111558198928833, 0.042598459869623184, 0.04408134147524834, 0.04556421935558319]}, "gradients/embeds.0.weight": {"_type": "histogram", "values": [1.0, 0.0, 0.0, 1.0, 0.0, 3.0, 1.0, 0.0, 2.0, 2.0, 3.0, 4.0, 0.0, 5.0, 6.0, 3.0, 2.0, 8.0, 18.0, 8.0, 21.0, 28.0, 25.0, 36.0, 33.0, 35.0, 57.0, 88.0, 128.0, 192.0, 426.0, 1498.0, 20107.0, 337855.0, 29555.0, 1887.0, 396.0, 216.0, 151.0, 96.0, 73.0, 42.0, 47.0, 25.0, 23.0, 20.0, 18.0, 7.0, 14.0, 9.0, 7.0, 7.0, 8.0, 2.0, 2.0, 3.0, 3.0, 3.0, 1.0, 0.0, 1.0, 3.0, 0.0, 1.0], "bins": [-0.5285552740097046, -0.512803852558136, -0.497052401304245, -0.4813009798526764, -0.4655495285987854, -0.4497981071472168, -0.4340466856956482, -0.4182952344417572, -0.4025438129901886, -0.38679239153862, -0.371040940284729, -0.3552895188331604, -0.3395380973815918, -0.3237866461277008, -0.3080352246761322, -0.2922837734222412, -0.2765323519706726, -0.260780930519104, -0.245029479265213, -0.2292780578136444, -0.2135266214609146, -0.19777518510818481, -0.1820237636566162, -0.1662723273038864, -0.15052089095115662, -0.13476945459842682, -0.11901802569627762, -0.10326659679412842, -0.08751516044139862, -0.07176372408866882, -0.05601229518651962, -0.040260862559080124, -0.024509429931640625, -0.008757997304201126, 0.006993435323238373, 0.02274486795067787, 0.03849630057811737, 0.05424773320555687, 0.06999916583299637, 0.08575059473514557, 0.10150203108787537, 0.11725346744060516, 0.13300490379333496, 0.14875632524490356, 0.16450776159763336, 0.18025919795036316, 0.19601061940193176, 0.21176205575466156, 0.22751349210739136, 0.24326492846012115, 0.25901636481285095, 0.27476778626441956, 0.29051923751831055, 0.30627065896987915, 0.32202208042144775, 0.33777353167533875, 0.35352495312690735, 0.36927637457847595, 0.38502782583236694, 0.40077924728393555, 0.41653066873550415, 0.43228211998939514, 0.44803354144096375, 0.46378499269485474, 0.47953641414642334]}, "total_best_ep": 16, "total_best_ep_tloss": 0.16683390736579895, "total_best_ep_vloss": 0.32236433029174805, "total_best_ep_AUC": 0.9309329464020463, "total_best_ep_precision": 0.7836734693877551, "total_best_ep_recall": 0.8044692737430168, "total_best_ep_f1": 0.7939352170916609, "_wandb": {"runtime": 889}}