{"epoch": 19, "_timestamp": 1722985163.4161413, "_runtime": 767.6785032749176, "_step": 158, "train loss": 0.13558706641197205, "val loss": 0.27254071831703186, "val auc": 0.953905091448344, "val precision": 0.8591160220994475, "val recall": 0.8711484593837535, "val f1": 0.8650904033379694, "CYP1A2 Confusion Matrix": {"_type": "image-file", "sha256": "648c749cb5dbe4ec06d187f75994138dfc6d69a02e41a0d7e6acba870e335d62", "size": 16027, "path": "media/images/CYP1A2 Confusion Matrix_157_648c749cb5dbe4ec06d1.png", "format": "png", "width": 1000, "height": 700}, "gradients/output.bias": {"_type": "histogram", "values": [0.0, 0.0, 0.0, 0.0, 0.0, 0.0, 0.0, 0.0, 0.0, 0.0, 0.0, 0.0, 0.0, 0.0, 0.0, 0.0, 0.0, 0.0, 0.0, 0.0, 0.0, 0.0, 0.0, 0.0, 0.0, 0.0, 0.0, 0.0, 0.0, 0.0, 0.0, 0.0, 1.0, 0.0, 0.0, 0.0, 0.0, 0.0, 0.0, 0.0, 0.0, 0.0, 0.0, 0.0, 0.0, 0.0, 0.0, 0.0, 0.0, 0.0, 0.0, 0.0, 0.0, 0.0, 0.0, 0.0, 0.0, 0.0, 0.0, 0.0, 0.0, 0.0, 0.0, 0.0], "bins": [-0.032800573855638504, -0.032800573855638504, -0.032800573855638504, -0.032800573855638504, -0.032800573855638504, -0.032800573855638504, -0.032800573855638504, -0.032800573855638504, -0.032800573855638504, -0.032800573855638504, -0.032800573855638504, -0.032800573855638504, -0.032800573855638504, -0.032800573855638504, -0.032800573855638504, -0.032800573855638504, -0.032800573855638504, -0.032800573855638504, -0.032800573855638504, -0.032800573855638504, -0.032800573855638504, -0.032800573855638504, -0.032800573855638504, -0.032800573855638504, -0.032800573855638504, -0.032800573855638504, -0.032800573855638504, -0.032800573855638504, -0.032800573855638504, -0.032800573855638504, -0.032800573855638504, -0.032800573855638504, -0.032800573855638504, -0.032800573855638504, -0.032800573855638504, -0.032800573855638504, -0.032800573855638504, -0.032800573855638504, -0.032800573855638504, -0.032800573855638504, -0.032800573855638504, -0.032800573855638504, -0.032800573855638504, -0.032800573855638504, -0.032800573855638504, -0.032800573855638504, -0.032800573855638504, -0.032800573855638504, -0.032800573855638504, -0.032800573855638504, -0.032800573855638504, -0.032800573855638504, -0.032800573855638504, -0.032800573855638504, -0.032800573855638504, -0.032800573855638504, -0.032800573855638504, -0.032800573855638504, -0.032800573855638504, -0.032800573855638504, -0.032800573855638504, -0.032800573855638504, -0.032800573855638504, -0.032800573855638504, -0.032800573855638504]}, "gradients/output.weight": {"_type": "histogram", "values": [1.0, 0.0, 0.0, 0.0, 0.0, 0.0, 0.0, 0.0, 0.0, 0.0, 0.0, 0.0, 0.0, 0.0, 0.0, 0.0, 0.0, 0.0, 0.0, 0.0, 0.0, 0.0, 0.0, 0.0, 0.0, 0.0, 0.0, 0.0, 0.0, 0.0, 1.0, 0.0, 1.0, 1.0, 0.0, 0.0, 0.0, 0.0, 0.0, 1.0, 0.0, 2.0, 0.0, 1.0, 0.0, 0.0, 0.0, 2.0, 0.0, 0.0, 1.0, 0.0, 0.0, 1.0, 0.0, 0.0, 0.0, 2.0, 0.0, 0.0, 0.0, 0.0, 0.0, 2.0], "bins": [-0.19081519544124603, -0.18778817355632782, -0.1847611665725708, -0.1817341446876526, -0.17870713770389557, -0.17568011581897736, -0.17265310883522034, -0.16962608695030212, -0.1665990799665451, -0.1635720580816269, -0.16054505109786987, -0.15751802921295166, -0.15449102222919464, -0.15146400034427643, -0.1484369933605194, -0.1454099714756012, -0.14238294959068298, -0.13935594260692596, -0.13632892072200775, -0.13330191373825073, -0.13027489185333252, -0.1272478848695755, -0.12422087043523788, -0.12119385600090027, -0.11816683411598206, -0.11513981968164444, -0.11211280524730682, -0.10908579081296921, -0.10605877637863159, -0.10303176194429398, -0.10000474750995636, -0.09697773307561874, -0.09395071864128113, -0.09092370420694351, -0.0878966897726059, -0.08486967533826828, -0.08184266090393066, -0.07881564646959305, -0.07578863203525543, -0.07276161760091782, -0.0697346031665802, -0.06670758873224258, -0.06368057429790497, -0.060653556138277054, -0.05762654170393944, -0.05459952726960182, -0.051572512835264206, -0.04854549840092659, -0.045518483966588974, -0.04249146953225136, -0.039464451372623444, -0.03643743693828583, -0.03341042250394821, -0.030383408069610596, -0.02735639363527298, -0.024329379200935364, -0.021302364766597748, -0.018275348469614983, -0.015248334035277367, -0.01222131960093975, -0.00919430423527956, -0.006167289335280657, -0.0031402744352817535, -0.00011325953528285027, 0.002913755364716053]}, "gradients/linearlayers.2.0.bias": {"_type": "histogram", "values": [1.0, 0.0, 0.0, 0.0, 0.0, 1.0, 0.0, 1.0, 0.0, 1.0, 0.0, 0.0, 1.0, 0.0, 0.0, 0.0, 0.0, 0.0, 1.0, 0.0, 0.0, 0.0, 0.0, 0.0, 0.0, 0.0, 0.0, 0.0, 0.0, 1.0, 0.0, 1.0, 0.0, 0.0, 0.0, 1.0, 0.0, 0.0, 0.0, 0.0, 0.0, 1.0, 0.0, 1.0, 0.0, 0.0, 1.0, 0.0, 0.0, 0.0, 0.0, 0.0, 1.0, 0.0, 1.0, 1.0, 0.0, 0.0, 0.0, 0.0, 0.0, 0.0, 0.0, 1.0], "bins": [-0.00828196108341217, -0.008012022823095322, -0.007742084097117186, -0.0074721453711390495, -0.0072022066451609135, -0.006932268384844065, -0.006662329658865929, -0.006392390932887793, -0.0061224522069096565, -0.005852513946592808, -0.005582575220614672, -0.005312636494636536, -0.005042698234319687, -0.004772759508341551, -0.004502820782363415, -0.004232882522046566, -0.00396294379606843, -0.0036930053029209375, -0.0034230665769428015, -0.003153128083795309, -0.002883189357817173, -0.0026132508646696806, -0.002343312371522188, -0.002073373645544052, -0.0018034351523965597, -0.0015334965428337455, -0.0012635579332709312, -0.0009936194401234388, -0.0007236808305606246, -0.0004537422501016408, -0.00018380366964265704, 8.613491081632674e-05, 0.0003560734912753105, 0.0006260121008381248, 0.0008959506521932781, 0.0011658892035484314, 0.0014358278131112456, 0.0017057664226740599, 0.0019757049158215523, 0.0022456436417996883, 0.0025155821349471807, 0.002785520628094673, 0.0030554593540728092, 0.0033253978472203016, 0.003595336340367794, 0.00386527506634593, 0.004135213792324066, 0.004405152052640915, 0.004675090778619051, 0.004945029504597187, 0.005214967764914036, 0.005484906490892172, 0.005754845216870308, 0.006024783477187157, 0.006294722203165293, 0.006564660929143429, 0.0068345991894602776, 0.007104537915438414, 0.00737447664141655, 0.007644415367394686, 0.007914354093372822, 0.00818429235368967, 0.00845423061400652, 0.008724169805645943, 0.008994108065962791]}, "gradients/linearlayers.2.0.weight": {"_type": "histogram", "values": [1.0, 0.0, 0.0, 0.0, 0.0, 1.0, 1.0, 0.0, 0.0, 1.0, 1.0, 1.0, 0.0, 1.0, 2.0, 3.0, 1.0, 1.0, 5.0, 4.0, 7.0, 8.0, 5.0, 10.0, 12.0, 10.0, 10.0, 17.0, 7.0, 13.0, 12.0, 57.0, 136.0, 20.0, 23.0, 14.0, 25.0, 20.0, 13.0, 10.0, 12.0, 10.0, 7.0, 5.0, 7.0, 7.0, 2.0, 1.0, 2.0, 0.0, 2.0, 0.0, 1.0, 1.0, 1.0, 0.0, 1.0, 0.0, 0.0, 0.0, 0.0, 0.0, 0.0, 1.0], "bins": [-0.04941403865814209, -0.0478794127702713, -0.04634478688240051, -0.044810160994529724, -0.043275535106658936, -0.04174090921878815, -0.04020628333091736, -0.03867165744304657, -0.03713703155517578, -0.03560240566730499, -0.034067779779434204, -0.032533153891563416, -0.030998526141047478, -0.02946390025317669, -0.0279292743653059, -0.026394648477435112, -0.024860022589564323, -0.023325396701693535, -0.021790770813822746, -0.020256144925951958, -0.01872151903808117, -0.01718689315021038, -0.015652267262339592, -0.014117640443146229, -0.01258301455527544, -0.011048388667404652, -0.009513762779533863, -0.007979136891663074, -0.006444510538130999, -0.00490988465026021, -0.003375258529558778, -0.0018406325252726674, -0.000306006520986557, 0.0012286194832995534, 0.002763245487585664, 0.004297871608287096, 0.005832497496157885, 0.007367123384028673, 0.008901749737560749, 0.010436375625431538, 0.011971001513302326, 0.013505627401173115, 0.015040253289043903, 0.016574880108237267, 0.018109505996108055, 0.019644131883978844, 0.021178757771849632, 0.02271338365972042, 0.02424800954759121, 0.025782635435461998, 0.027317261323332787, 0.028851887211203575, 0.030386513099074364, 0.0319211408495903, 0.03345576673746109, 0.03499039262533188, 0.03652501851320267, 0.038059644401073456, 0.039594270288944244, 0.04112889617681503, 0.04266352206468582, 0.04419814795255661, 0.0457327738404274, 0.04726739972829819, 0.048802025616168976]}, "gradients/linearlayers.1.0.bias": {"_type": "histogram", "values": [1.0, 0.0, 0.0, 0.0, 0.0, 0.0, 0.0, 0.0, 0.0, 1.0, 0.0, 0.0, 0.0, 0.0, 1.0, 0.0, 0.0, 0.0, 1.0, 0.0, 1.0, 1.0, 0.0, 0.0, 1.0, 0.0, 2.0, 0.0, 0.0, 2.0, 1.0, 4.0, 3.0, 0.0, 0.0, 0.0, 1.0, 1.0, 0.0, 2.0, 0.0, 2.0, 1.0, 0.0, 0.0, 0.0, 2.0, 0.0, 0.0, 1.0, 0.0, 0.0, 0.0, 1.0, 0.0, 1.0, 0.0, 0.0, 0.0, 0.0, 0.0, 0.0, 0.0, 1.0], "bins": [-0.011836569756269455, -0.011460158042609692, -0.011083745397627354, -0.01070733368396759, -0.010330921970307827, -0.009954509325325489, -0.009578097611665726, -0.009201685898005962, -0.008825274184346199, -0.008448861539363861, -0.008072449825704098, -0.007696037646383047, -0.0073196254670619965, -0.006943213753402233, -0.0065668015740811825, -0.006190389860421419, -0.0058139776811003685, -0.005437565501779318, -0.0050611537881195545, -0.004684741608798504, -0.0043083298951387405, -0.00393191771581769, -0.0035555055364966393, -0.0031790935900062323, -0.0028026816435158253, -0.0024262696970254183, -0.0020498577505350113, -0.0016734455712139606, -0.0012970336247235537, -0.0009206216200254858, -0.0005442096153274179, -0.00016779761062934995, 0.00020861439406871796, 0.0005850263987667859, 0.0009614384034648538, 0.0013378504663705826, 0.0017142624128609896, 0.0020906743593513966, 0.002467086538672447, 0.002843498485162854, 0.003219910431653261, 0.003596322378143668, 0.003972734324634075, 0.004349146503955126, 0.0047255586832761765, 0.00510197039693594, 0.00547838257625699, 0.005854794289916754, 0.006231206469237804, 0.006607618648558855, 0.006984030362218618, 0.007360442541539669, 0.007736854255199432, 0.00811326690018177, 0.008489678613841534, 0.008866090327501297, 0.009242502972483635, 0.009618914686143398, 0.009995326399803162, 0.010371738113462925, 0.010748150758445263, 0.011124562472105026, 0.01150097418576479, 0.011877386830747128, 0.012253798544406891]}, "gradients/linearlayers.1.0.weight": {"_type": "histogram", "values": [1.0, 0.0, 0.0, 0.0, 0.0, 1.0, 1.0, 1.0, 0.0, 1.0, 1.0, 0.0, 1.0, 3.0, 2.0, 2.0, 2.0, 3.0, 4.0, 3.0, 6.0, 9.0, 9.0, 9.0, 18.0, 17.0, 32.0, 39.0, 48.0, 101.0, 250.0, 891.0, 186.0, 115.0, 67.0, 61.0, 28.0, 34.0, 17.0, 19.0, 10.0, 12.0, 10.0, 1.0, 5.0, 8.0, 4.0, 1.0, 2.0, 5.0, 1.0, 1.0, 1.0, 0.0, 0.0, 1.0, 2.0, 1.0, 0.0, 0.0, 0.0, 0.0, 0.0, 1.0], "bins": [-0.06952822208404541, -0.06730779260396957, -0.06508736312389374, -0.0628669336438179, -0.06064650043845177, -0.05842607095837593, -0.056205637753009796, -0.05398520827293396, -0.051764778792858124, -0.04954434931278229, -0.04732391983270645, -0.04510348662734032, -0.04288305714726448, -0.040662627667188644, -0.03844219446182251, -0.036221764981746674, -0.03400133550167084, -0.031780906021595, -0.029560474678874016, -0.02734004333615303, -0.025119613856077194, -0.022899184376001358, -0.020678753033280373, -0.018458321690559387, -0.01623789221048355, -0.01401746179908514, -0.01179703138768673, -0.009576600976288319, -0.007356170564889908, -0.005135740153491497, -0.0029153097420930862, -0.0006948793306946754, 0.0015255436301231384, 0.0037459740415215492, 0.00596640445291996, 0.00818683486431837, 0.010407265275716782, 0.012627695687115192, 0.014848126098513603, 0.01706855744123459, 0.019288986921310425, 0.02150941640138626, 0.023729847744107246, 0.025950279086828232, 0.028170708566904068, 0.030391138046979904, 0.03261157125234604, 0.034832000732421875, 0.03705243021249771, 0.03927285969257355, 0.041493289172649384, 0.04371372237801552, 0.045934151858091354, 0.04815458133816719, 0.050375014543533325, 0.05259544402360916, 0.054815873503685, 0.057036302983760834, 0.05925673246383667, 0.061477165669202805, 0.06369759142398834, 0.06591802835464478, 0.06813845783472061, 0.07035888731479645, 0.07257931679487228]}, "gradients/linearlayers.0.0.bias": {"_type": "histogram", "values": [2.0, 1.0, 0.0, 1.0, 1.0, 0.0, 2.0, 1.0, 0.0, 1.0, 1.0, 0.0, 0.0, 1.0, 3.0, 1.0, 1.0, 0.0, 1.0, 1.0, 1.0, 1.0, 1.0, 1.0, 0.0, 0.0, 3.0, 7.0, 3.0, 2.0, 1.0, 3.0, 1.0, 2.0, 2.0, 1.0, 0.0, 0.0, 2.0, 1.0, 0.0, 0.0, 1.0, 0.0, 0.0, 0.0, 1.0, 3.0, 0.0, 1.0, 0.0, 2.0, 2.0, 0.0, 0.0, 0.0, 0.0, 0.0, 0.0, 1.0, 0.0, 0.0, 0.0, 3.0], "bins": [-0.009304766543209553, -0.008970062248408794, -0.008635357022285461, -0.008300652727484703, -0.007965948432683945, -0.007631244137883186, -0.007296539377421141, -0.006961834616959095, -0.006627130322158337, -0.006292426027357578, -0.005957721266895533, -0.005623016506433487, -0.005288312211632729, -0.00495360791683197, -0.0046189031563699245, -0.004284198395907879, -0.0039494941011071205, -0.0036147895734757185, -0.0032800850458443165, -0.0029453805182129145, -0.0026106759905815125, -0.0022759714629501104, -0.0019412669353187084, -0.0016065624076873064, -0.0012718578800559044, -0.0009371533524245024, -0.0006024488247931004, -0.00026774429716169834, 6.696023046970367e-05, 0.0004016647581011057, 0.0007363692857325077, 0.0010710738133639097, 0.0014057792723178864, 0.0017404837999492884, 0.0020751883275806904, 0.0024098928552120924, 0.0027445973828434944, 0.0030793019104748964, 0.0034140064381062984, 0.0037487109657377005, 0.0040834154933691025, 0.004418119788169861, 0.0047528245486319065, 0.005087529309093952, 0.0054222336038947105, 0.005756937898695469, 0.006091642659157515, 0.00642634741961956, 0.006761051714420319, 0.007095756009221077, 0.007430460769683123, 0.007765165530145168, 0.008099869824945927, 0.008434574119746685, 0.008769279345870018, 0.009103983640670776, 0.009438687935471535, 0.009773392230272293, 0.010108096525073051, 0.010442801751196384, 0.010777506045997143, 0.011112210340797901, 0.011446915566921234, 0.011781619861721992, 0.01211632415652275]}, "gradients/linearlayers.0.0.weight": {"_type": "histogram", "values": [2.0, 0.0, 4.0, 0.0, 0.0, 2.0, 3.0, 7.0, 3.0, 3.0, 9.0, 13.0, 8.0, 15.0, 20.0, 19.0, 26.0, 25.0, 40.0, 52.0, 70.0, 84.0, 96.0, 137.0, 161.0, 251.0, 342.0, 807.0, 3472.0, 923.0, 407.0, 273.0, 174.0, 143.0, 89.0, 103.0, 61.0, 52.0, 39.0, 41.0, 46.0, 27.0, 23.0, 19.0, 7.0, 21.0, 7.0, 12.0, 10.0, 4.0, 7.0, 7.0, 5.0, 7.0, 0.0, 3.0, 2.0, 1.0, 0.0, 2.0, 0.0, 0.0, 0.0, 6.0], "bins": [-0.043269917368888855, -0.04175233840942383, -0.0402347631752491, -0.03871718421578407, -0.037199605256319046, -0.03568202629685402, -0.03416445106267929, -0.032646872103214264, -0.031129293143749237, -0.02961171604692936, -0.028094138950109482, -0.026576559990644455, -0.025058982893824577, -0.02354140393435955, -0.022023826837539673, -0.020506247878074646, -0.01898867078125477, -0.01747109368443489, -0.015953514724969864, -0.014435936696827412, -0.01291835866868496, -0.011400781571865082, -0.00988320354372263, -0.008365625515580177, -0.006848047487437725, -0.005330469459295273, -0.0038128916639834642, -0.0022953138686716557, -0.0007777358405292034, 0.000739842071197927, 0.0022574199829250574, 0.003774997778236866, 0.005292575806379318, 0.0068101538345217705, 0.008327731862664223, 0.009845309890806675, 0.011362887918949127, 0.012880465015769005, 0.014398043043911457, 0.01591562107205391, 0.017433200031518936, 0.018950777128338814, 0.02046835422515869, 0.021985933184623718, 0.023503510281443596, 0.025021089240908623, 0.0265386663377285, 0.028056245297193527, 0.029573822394013405, 0.031091399490833282, 0.03260897845029831, 0.034126557409763336, 0.035644132643938065, 0.03716171160340309, 0.03867929056286812, 0.040196869522333145, 0.041714444756507874, 0.0432320237159729, 0.04474960267543793, 0.046267177909612656, 0.04778475686907768, 0.04930233582854271, 0.050819914788007736, 0.052337490022182465, 0.05385506898164749]}, "gradients/embeds.2.bias": {"_type": "histogram", "values": [3.0, 0.0, 0.0, 1.0, 1.0, 2.0, 3.0, 0.0, 2.0, 1.0, 5.0, 2.0, 2.0, 3.0, 1.0, 1.0, 2.0, 2.0, 2.0, 3.0, 2.0, 1.0, 3.0, 1.0, 17.0, 5.0, 2.0, 2.0, 3.0, 4.0, 3.0, 2.0, 3.0, 3.0, 4.0, 6.0, 2.0, 6.0, 3.0, 5.0, 1.0, 2.0, 1.0, 3.0, 1.0, 2.0, 0.0, 1.0, 0.0, 2.0, 0.0, 0.0, 1.0, 0.0, 0.0, 0.0, 0.0, 0.0, 0.0, 0.0, 0.0, 0.0, 0.0, 1.0], "bins": [-0.012612207792699337, -0.012100319378077984, -0.011588431894779205, -0.011076543480157852, -0.010564655065536499, -0.01005276758223772, -0.009540879167616367, -0.009028990752995014, -0.008517103269696236, -0.008005214855074883, -0.007493326440453529, -0.0069814384914934635, -0.006469550542533398, -0.0059576621279120445, -0.005445774178951979, -0.0049338857643306255, -0.00442199781537056, -0.003910109866410494, -0.0033982214517891407, -0.002886333502829075, -0.0023744453210383654, -0.0018625571392476559, -0.0013506690738722682, -0.0008387809502892196, -0.00032689282670617104, 0.00018499529687687755, 0.0006968834204599261, 0.0012087714858353138, 0.0017206596676260233, 0.002232547849416733, 0.0027444357983767986, 0.003256323980167508, 0.003768211230635643, 0.004280099179595709, 0.004791987594217062, 0.005303875543177128, 0.005815763957798481, 0.006327651906758547, 0.006839539855718613, 0.007351428270339966, 0.007863316684961319, 0.008375204168260098, 0.00888709258288145, 0.009398980997502804, 0.009910868480801582, 0.010422756895422935, 0.010934645310044289, 0.011446532793343067, 0.01195842120796442, 0.012470309622585773, 0.012982197105884552, 0.013494085520505905, 0.014005973935127258, 0.014517861418426037, 0.01502974983304739, 0.015541638247668743, 0.01605352573096752, 0.016565414145588875, 0.017077302560210228, 0.01758919097483158, 0.018101079389452934, 0.018612965941429138, 0.01912485435605049, 0.019636742770671844, 0.020148631185293198]}, "gradients/embeds.2.weight": {"_type": "histogram", "values": [4.0, 0.0, 2.0, 2.0, 2.0, 14.0, 9.0, 12.0, 17.0, 19.0, 36.0, 32.0, 56.0, 72.0, 85.0, 142.0, 165.0, 257.0, 336.0, 509.0, 635.0, 934.0, 1590.0, 3915.0, 13837.0, 3631.0, 1974.0, 1268.0, 900.0, 634.0, 461.0, 307.0, 227.0, 164.0, 133.0, 93.0, 67.0, 54.0, 39.0, 31.0, 27.0, 13.0, 17.0, 8.0, 10.0, 6.0, 4.0, 2.0, 4.0, 0.0, 3.0, 4.0, 0.0, 1.0, 1.0, 1.0, 1.0, 0.0, 0.0, 0.0, 0.0, 0.0, 0.0, 1.0], "bins": [-0.03757008537650108, -0.0360262505710125, -0.03448241949081421, -0.03293858468532562, -0.031394749879837036, -0.0298509169369936, -0.028307083994150162, -0.026763249188661575, -0.025219416245818138, -0.0236755833029747, -0.022131748497486115, -0.020587915554642677, -0.01904408261179924, -0.017500247806310654, -0.015956414863467216, -0.014412580989301205, -0.012868747115135193, -0.011324913240969181, -0.00978107936680317, -0.008237246423959732, -0.00669341254979372, -0.0051495786756277084, -0.003605745267122984, -0.0020619116257876158, -0.0005180779844522476, 0.0010257556568831205, 0.0025695892982184887, 0.004113422706723213, 0.005657256580889225, 0.007201090455055237, 0.008744923397898674, 0.010288757272064686, 0.0118325874209404, 0.013376421295106411, 0.014920255169272423, 0.01646408811211586, 0.018007922917604446, 0.019551755860447884, 0.02109558880329132, 0.022639423608779907, 0.024183256551623344, 0.02572708949446678, 0.027270924299955368, 0.028814757242798805, 0.030358590185642242, 0.03190242499113083, 0.033446259796619415, 0.0349900908768177, 0.03653392568230629, 0.038077760487794876, 0.039621591567993164, 0.04116542637348175, 0.04270926117897034, 0.044253092259168625, 0.04579692706465721, 0.0473407618701458, 0.048884592950344086, 0.05042842775583267, 0.05197226256132126, 0.053516097366809845, 0.05505992844700813, 0.05660376325249672, 0.058147598057985306, 0.059691429138183594, 0.06123526394367218]}, "gradients/embeds.0.bias": {"_type": "histogram", "values": [1.0, 0.0, 0.0, 0.0, 0.0, 0.0, 1.0, 0.0, 1.0, 2.0, 0.0, 0.0, 3.0, 1.0, 2.0, 2.0, 3.0, 4.0, 0.0, 7.0, 4.0, 2.0, 6.0, 7.0, 6.0, 8.0, 9.0, 10.0, 11.0, 8.0, 7.0, 6.0, 4.0, 5.0, 11.0, 4.0, 13.0, 8.0, 12.0, 8.0, 11.0, 9.0, 14.0, 4.0, 4.0, 5.0, 9.0, 2.0, 5.0, 3.0, 1.0, 4.0, 0.0, 1.0, 3.0, 1.0, 1.0, 1.0, 0.0, 0.0, 1.0, 0.0, 0.0, 1.0], "bins": [-0.02191682532429695, -0.021263692528009415, -0.020610561594367027, -0.01995743066072464, -0.019304297864437103, -0.018651165068149567, -0.01799803413450718, -0.017344903200864792, -0.016691770404577255, -0.01603863760828972, -0.015385506674647331, -0.01473237480968237, -0.014079242944717407, -0.013426111079752445, -0.012772979214787483, -0.012119847349822521, -0.01146671548485756, -0.010813583619892597, -0.010160451754927635, -0.009507319889962673, -0.008854188024997711, -0.00820105616003275, -0.007547924295067787, -0.006894792430102825, -0.006241660565137863, -0.005588528700172901, -0.004935396835207939, -0.004282264970242977, -0.003629133105278015, -0.002976001240313053, -0.002322869375348091, -0.0016697375103831291, -0.0010166075080633163, -0.00036347564309835434, 0.00028965622186660767, 0.0009427880868315697, 0.0015959199517965317, 0.0022490518167614937, 0.0029021836817264557, 0.0035553155466914177, 0.00420844741165638, 0.004861579276621342, 0.005514711141586304, 0.006167843006551266, 0.006820974871516228, 0.00747410673648119, 0.008127238601446152, 0.008780370466411114, 0.009433502331376076, 0.010086634196341038, 0.010739766061306, 0.011392897926270962, 0.012046029791235924, 0.012699161656200886, 0.013352293521165848, 0.01400542538613081, 0.014658557251095772, 0.015311689116060734, 0.015964820981025696, 0.016617953777313232, 0.01727108471095562, 0.017924215644598007, 0.018577348440885544, 0.01923048123717308, 0.019883612170815468]}, "gradients/embeds.0.weight": {"_type": "histogram", "values": [1.0, 0.0, 0.0, 0.0, 0.0, 1.0, 1.0, 0.0, 1.0, 2.0, 0.0, 1.0, 3.0, 2.0, 5.0, 4.0, 6.0, 4.0, 7.0, 11.0, 3.0, 16.0, 12.0, 25.0, 25.0, 35.0, 58.0, 83.0, 125.0, 235.0, 977.0, 12593.0, 157199.0, 22883.0, 1502.0, 306.0, 134.0, 96.0, 65.0, 47.0, 26.0, 27.0, 17.0, 12.0, 13.0, 7.0, 10.0, 4.0, 4.0, 5.0, 2.0, 3.0, 3.0, 3.0, 1.0, 1.0, 0.0, 0.0, 0.0, 1.0, 0.0, 0.0, 0.0, 1.0], "bins": [-0.2422398030757904, -0.23480872809886932, -0.22737763822078705, -0.21994656324386597, -0.21251548826694489, -0.2050843983888626, -0.19765332341194153, -0.19022224843502045, -0.18279117345809937, -0.1753600835800171, -0.167929008603096, -0.16049793362617493, -0.15306684374809265, -0.14563576877117157, -0.1382046937942505, -0.1307736039161682, -0.12334252893924713, -0.11591144651174545, -0.10848037153482437, -0.10104928910732269, -0.09361821413040161, -0.08618713170289993, -0.07875604927539825, -0.07132497429847717, -0.0638938918709755, -0.056462813168764114, -0.049031734466552734, -0.041600652039051056, -0.034169573336839676, -0.026738494634628296, -0.019307414069771767, -0.011876334436237812, -0.004445239901542664, 0.002985839731991291, 0.010416919365525246, 0.017847999930381775, 0.025279078632593155, 0.032710157334804535, 0.04014123976230621, 0.04757231846451759, 0.05500339716672897, 0.06243447586894035, 0.06986555457115173, 0.07729663699865341, 0.08472771942615509, 0.09215879440307617, 0.09958987683057785, 0.10702095180749893, 0.11445203423500061, 0.12188311666250229, 0.12931419909000397, 0.13674527406692505, 0.14417634904384613, 0.1516074389219284, 0.1590385138988495, 0.16646958887577057, 0.17390066385269165, 0.18133175373077393, 0.188762828707695, 0.1961939036846161, 0.20362499356269836, 0.21105606853961945, 0.21848714351654053, 0.2259182333946228, 0.23334930837154388]}, "total_best_ep": 19, "total_best_ep_tloss": 0.13558706641197205, "total_best_ep_vloss": 0.27254071831703186, "total_best_ep_AUC": 0.953905091448344, "total_best_ep_precision": 0.8591160220994475, "total_best_ep_recall": 0.8711484593837535, "total_best_ep_f1": 0.8650904033379694, "_wandb": {"runtime": 767}}